SVM-light Version V5.00
2 # kernel type
3 # kernel parameter -d 
0.005 # kernel parameter -g 
1 # kernel parameter -s 
1 # kernel parameter -r 
empty# kernel parameter -u 
574 # highest feature index 
200 # number of training documents 
137 # number of support vectors plus 1 
0.30016814 # threshold b, each following line is a SV (starting with alpha*y)
-11.887982153280685082563650212251 9:1 29:1 93:1 107:1 108:1 109:1 110:1 111:1 112:1 113:1 
-11.887982153280685082563650212251 6:1 16:1 19:1 213:1 
-11.887982153280685082563650212251 16:1 19:1 203:1 258:1 259:1 
-11.887982153280685082563650212251 16:1 19:1 29:1 285:1 317:1 318:1 319:1 
-11.887982153280685082563650212251 16:1 19:1 77:1 320:1 321:1 
3.8394434534144861181914620829048 6:1 145:1 219:1 227:1 228:1 229:1 230:1 231:1 
2.1652464060551110947017150465399 3:1 4:1 5:1 6:1 8:1 9:1 10:1 11:1 12:1 13:1 
2.6248928389322760956758884276496 19:1 56:1 96:1 260:1 429:1 430:1 431:1 432:1 433:1 434:1 
0.74145369976311581439176734420471 3:1 16:1 19:1 20:1 21:1 22:1 23:1 24:1 25:1 26:1 
2.7015433912106376901363091747044 16:1 19:1 21:1 22:1 27:1 28:1 29:1 30:1 31:1 32:1 
7.0678922384946307744257865124382 19:1 27:1 29:1 54:1 203:1 211:1 224:1 225:1 226:1 
-1.4851480178426630374133310397156 3:1 103:1 104:1 472:1 502:1 504:1 505:1 506:1 519:1 
-1.0079629239320559985770842104102 3:1 29:1 313:1 445:1 462:1 468:1 474:1 515:1 517:1 518:1 
4.9254326676387121253242185048293 16:1 19:1 203:1 210:1 
11.887982153280685082563650212251 16:1 19:1 68:1 73:1 76:1 77:1 
3.9258432379056915628723345434992 16:1 19:1 110:1 151:1 212:1 248:1 281:1 282:1 
-11.887982153280685082563650212251 15:1 16:1 19:1 23:1 83:1 152:1 440:1 462:1 495:1 501:1 
-1.2271529436455232975333728973055 16:1 19:1 32:1 472:1 475:1 503:1 532:1 533:1 546:1 547:1 
-11.887982153280685082563650212251 6:1 16:1 19:1 29:1 30:1 120:1 365:1 366:1 367:1 368:1 
9.8592197539860695343350016628392 29:1 96:1 113:1 331:1 333:1 342:1 347:1 427:1 440:1 441:1 
11.887982153280685082563650212251 7:1 16:1 29:1 102:1 103:1 104:1 105:1 
3.6980155031482433436451628949726 7:1 16:1 29:1 38:1 103:1 104:1 125:1 126:1 127:1 128:1 
-8.8768374687529707500743825221434 16:1 24:1 29:1 38:1 80:1 463:1 464:1 465:1 500:1 527:1 
-11.887982153280685082563650212251 96:1 103:1 104:1 477:1 478:1 
-11.887982153280685082563650212251 3:1 16:1 29:1 96:1 325:1 326:1 327:1 328:1 329:1 330:1 
11.887982153280685082563650212251 6:1 16:1 19:1 29:1 499:1 504:1 533:1 543:1 558:1 559:1 
3.705275861908770895780662613106 6:1 15:1 93:1 272:1 313:1 392:1 406:1 407:1 408:1 
5.3692346117646856384908460313454 6:1 16:1 36:1 93:1 313:1 337:1 338:1 339:1 340:1 
-11.887982153280685082563650212251 6:1 19:1 44:1 98:1 126:1 178:1 560:1 561:1 562:1 563:1 
-11.887982153280685082563650212251 6:1 19:1 29:1 54:1 348:1 349:1 454:1 455:1 
-11.887982153280685082563650212251 6:1 113:1 475:1 479:1 480:1 481:1 482:1 
5.0763243552137620184794286615215 19:1 23:1 29:1 83:1 85:1 96:1 203:1 309:1 310:1 311:1 
6.5388044341005464588079121313058 29:1 42:1 43:1 83:1 121:1 148:1 298:1 299:1 300:1 301:1 
11.887982153280685082563650212251 29:1 66:1 167:1 168:1 169:1 
-11.887982153280685082563650212251 9:1 16:1 83:1 487:1 488:1 489:1 490:1 491:1 492:1 493:1 
-11.887982153280685082563650212251 9:1 15:1 16:1 29:1 152:1 489:1 494:1 495:1 496:1 
-11.887982153280685082563650212251 16:1 29:1 77:1 280:1 321:1 
3.5313081069064091721543263702188 6:1 16:1 19:1 51:1 348:1 349:1 401:1 402:1 403:1 
5.7491738043453288753426022594795 6:1 19:1 96:1 178:1 387:1 388:1 389:1 390:1 391:1 
0.51342680826357001144799596659141 3:1 9:1 16:1 35:1 39:1 40:1 41:1 42:1 43:1 
-11.887982153280685082563650212251 16:1 19:1 113:1 145:1 483:1 484:1 485:1 486:1 
-11.887982153280685082563650212251 16:1 19:1 235:1 502:1 513:1 
-11.887982153280685082563650212251 19:1 66:1 98:1 120:1 506:1 570:1 571:1 572:1 573:1 574:1 
2.655285534110984890787676704349 9:1 16:1 29:1 74:1 98:1 180:1 181:1 182:1 212:1 280:1 
11.887982153280685082563650212251 16:1 29:1 162:1 163:1 280:1 
1.8951897360893061872388898336794 9:1 16:1 96:1 98:1 214:1 215:1 216:1 217:1 218:1 219:1 
-11.887982153280685082563650212251 16:1 47:1 178:1 335:1 336:1 393:1 394:1 395:1 396:1 
-11.887982153280685082563650212251 15:1 29:1 54:1 93:1 503:1 507:1 567:1 568:1 569:1 
-10.871624075095711603466952510644 9:1 29:1 71:1 504:1 506:1 509:1 510:1 511:1 512:1 
7.4268896490042664026987040415406 16:1 19:1 237:1 247:1 283:1 284:1 
2.8373643918481556980282221047673 15:1 16:1 19:1 38:1 170:1 241:1 242:1 
11.887982153280685082563650212251 15:1 16:1 19:1 29:1 110:1 187:1 412:1 439:1 444:1 445:1 
-11.887982153280685082563650212251 16:1 19:1 29:1 313:1 445:1 465:1 474:1 530:1 549:1 550:1 
-11.887982153280685082563650212251 16:1 19:1 29:1 369:1 439:1 462:1 472:1 554:1 
-8.5071774453772910362658876692876 6:1 16:1 19:1 462:1 465:1 474:1 564:1 565:1 566:1 
7.426629654377469691439728194382 6:1 29:1 56:1 98:1 101:1 335:1 336:1 380:1 381:1 382:1 
8.0741524672408893081865244312212 15:1 178:1 343:1 361:1 362:1 363:1 364:1 
10.741411526665332942798158910591 29:1 70:1 135:1 231:1 384:1 397:1 446:1 
-7.7080445566868913687130770995282 29:1 440:1 463:1 467:1 505:1 506:1 533:1 541:1 542:1 543:1 
-2.6494363776942169153016948257573 6:1 29:1 66:1 412:1 463:1 464:1 470:1 473:1 474:1 475:1 
-3.9510622695286490291266545682447 6:1 29:1 59:1 290:1 463:1 464:1 465:1 470:1 475:1 476:1 
11.887982153280685082563650212251 9:1 16:1 19:1 447:1 448:1 
3.4957288915042026289370369340759 16:1 19:1 27:1 83:1 112:1 165:1 185:1 322:1 323:1 324:1 
11.371559509193890136202753637917 9:1 16:1 19:1 29:1 59:1 194:1 195:1 196:1 
-10.52039123220905203481834178092 19:1 29:1 70:1 111:1 472:1 499:1 502:1 520:1 521:1 522:1 
-11.887982153280685082563650212251 16:1 47:1 66:1 457:1 473:1 503:1 532:1 551:1 552:1 553:1 
-11.887982153280685082563650212251 16:1 19:1 472:1 503:1 507:1 
8.7525815943882161462852309341542 168:1 288:1 306:1 369:1 372:1 373:1 
4.7342978185927089285200963786338 3:1 16:1 47:1 50:1 51:1 70:1 71:1 78:1 79:1 
10.369317334344030356874100107234 3:1 16:1 47:1 50:1 51:1 69:1 70:1 71:1 
-11.887982153280685082563650212251 3:1 16:1 103:1 104:1 504:1 507:1 510:1 523:1 528:1 529:1 
-11.887982153280685082563650212251 47:1 54:1 70:1 462:1 495:1 497:1 
-11.733133421605950630350889696274 38:1 329:1 503:1 507:1 508:1 
5.7682271177442210330355010228232 8:1 16:1 19:1 29:1 44:1 65:1 66:1 67:1 68:1 
7.1381760891682874969887961924542 9:1 19:1 66:1 348:1 356:1 357:1 358:1 359:1 360:1 
-9.6325116319298267342219332931563 12:1 16:1 19:1 341:1 474:1 475:1 499:1 505:1 523:1 563:1 
-6.2041619642160732439606363186613 16:1 19:1 29:1 71:1 96:1 472:1 477:1 505:1 507:1 508:1 
-11.887982153280685082563650212251 27:1 29:1 313:1 410:1 462:1 468:1 474:1 514:1 515:1 516:1 
11.887982153280685082563650212251 6:1 16:1 145:1 158:1 274:1 
4.941221254021785469490168907214 54:1 148:1 164:1 197:1 304:1 307:1 308:1 
-7.8871282466220833384795696474612 9:1 47:1 226:1 269:1 270:1 504:1 506:1 510:1 511:1 512:1 
-3.3049495020181702820138980314368 6:1 445:1 463:1 464:1 465:1 530:1 537:1 538:1 539:1 540:1 
-6.5712489037497787691677331167739 6:1 29:1 44:1 306:1 445:1 463:1 464:1 465:1 466:1 467:1 
6.517224566225205073521919985069 19:1 96:1 113:1 170:1 171:1 172:1 173:1 174:1 175:1 176:1 
11.887982153280685082563650212251 6:1 16:1 19:1 233:1 234:1 235:1 
11.887982153280685082563650212251 15:1 16:1 19:1 29:1 413:1 414:1 
-8.7915698772370429736611185944639 16:1 29:1 477:1 503:1 531:1 532:1 533:1 534:1 535:1 536:1 
-7.4693121743905592779810831416398 16:1 19:1 266:1 462:1 464:1 489:1 498:1 499:1 500:1 
6.1175702245046004179584997473285 96:1 197:1 264:1 265:1 266:1 267:1 268:1 269:1 270:1 271:1 
2.9790474094666103965778347628657 28:1 41:1 66:1 86:1 350:1 351:1 352:1 
11.400565077084461762524369987659 27:1 29:1 54:1 201:1 203:1 210:1 
4.5685404963051103877091918548103 9:1 16:1 19:1 23:1 230:1 243:1 244:1 245:1 246:1 
4.8439419965173708959582654642873 16:1 66:1 146:1 147:1 148:1 149:1 150:1 151:1 152:1 153:1 
4.8424388432431220152807327394839 3:1 16:1 44:1 339:1 342:1 349:1 424:1 425:1 
6.2324284632870794453651797084603 3:1 6:1 19:1 24:1 165:1 313:1 378:1 407:1 410:1 443:1 
4.7257788507228672969517901947256 11:1 19:1 23:1 45:1 54:1 55:1 56:1 57:1 
4.8526232624054461695095596951433 6:1 9:1 16:1 93:1 378:1 409:1 410:1 411:1 412:1 
-7.5622023087369507621247066708747 6:1 472:1 478:1 502:1 503:1 
0.26430813961930732514105102382018 23:1 27:1 52:1 54:1 66:1 139:1 234:1 450:1 
0.93249576610648143848436575353844 16:1 28:1 40:1 41:1 59:1 80:1 81:1 82:1 83:1 84:1 
7.2752379053624149918277908000164 6:1 16:1 98:1 164:1 285:1 286:1 287:1 
2.7549359218688458383894612779841 16:1 19:1 84:1 98:1 224:1 238:1 293:1 294:1 295:1 296:1 
3.6209750997417291529245630954392 16:1 27:1 29:1 47:1 48:1 49:1 50:1 51:1 52:1 53:1 
3.1315827305360275367718259076355 30:1 43:1 84:1 101:1 131:1 132:1 133:1 134:1 135:1 136:1 
3.9034927033962079079287832428236 6:1 9:1 28:1 29:1 331:1 332:1 333:1 334:1 335:1 336:1 
11.887982153280685082563650212251 16:1 17:1 18:1 19:1 29:1 
3.1199153904062937314733972016256 6:1 16:1 19:1 175:1 188:1 189:1 190:1 191:1 192:1 193:1 
4.7511930654353067282613665156532 9:1 15:1 16:1 19:1 74:1 120:1 121:1 122:1 123:1 124:1 
3.3223008393164379370432470750529 15:1 28:1 38:1 89:1 90:1 91:1 92:1 93:1 94:1 95:1 
4.3532934989053826413396564021241 15:1 93:1 133:1 272:1 313:1 426:1 427:1 428:1 
3.5257380322166609332157349854242 54:1 66:1 96:1 177:1 178:1 179:1 180:1 181:1 182:1 
4.5138618172982098997181310551241 14:1 16:1 25:1 26:1 44:1 96:1 103:1 104:1 106:1 
4.0888492733596910611026942206081 16:1 19:1 40:1 41:1 83:1 85:1 86:1 87:1 88:1 
-3.3821925756343338420606414729264 16:1 29:1 412:1 459:1 463:1 464:1 465:1 473:1 530:1 539:1 
3.106945432810268581391710540629 16:1 27:1 38:1 185:1 221:1 222:1 223:1 
3.5397714867576537400850611447822 16:1 23:1 59:1 288:1 289:1 290:1 291:1 292:1 
1.654144702345247353036938875448 6:1 16:1 79:1 247:1 248:1 312:1 313:1 314:1 315:1 316:1 
7.2379012330908940597851142229047 16:1 19:1 22:1 180:1 383:1 
1.5701290667136531542524835458607 19:1 22:1 96:1 180:1 313:1 418:1 419:1 420:1 421:1 
0.097355532557186139075433572998008 6:1 16:1 19:1 22:1 44:1 180:1 374:1 375:1 
7.8569460181854706704029922548216 11:1 16:1 29:1 38:1 98:1 103:1 104:1 126:1 127:1 128:1 
0.52032385772194644779631289566169 16:1 19:1 83:1 164:1 196:1 212:1 236:1 237:1 
2.2219187866377279050311699393205 6:1 15:1 16:1 29:1 50:1 335:1 336:1 422:1 423:1 
3.1986316789035709184929601178737 16:1 19:1 98:1 118:1 247:1 248:1 249:1 
2.4550252424480301094433798425598 16:1 19:1 27:1 28:1 456:1 457:1 458:1 459:1 460:1 461:1 
0.86650925746843221464388307140325 11:1 16:1 19:1 48:1 66:1 114:1 115:1 116:1 117:1 118:1 
1.3120312830279019511436899847467 54:1 70:1 331:1 339:1 342:1 424:1 435:1 436:1 
1.1676905801816912511270629693172 6:1 9:1 16:1 19:1 70:1 154:1 155:1 156:1 157:1 158:1 
1.3413715063718101294654161392828 3:1 16:1 19:1 38:1 155:1 168:1 226:1 415:1 416:1 417:1 
-1.8396990823226344602403514727484 9:1 16:1 98:1 439:1 464:1 465:1 475:1 506:1 511:1 548:1 
1.8503593700916818320933998620603 9:1 19:1 74:1 81:1 82:1 86:1 202:1 203:1 204:1 205:1 
0.79741659818146259919302565322141 6:1 15:1 29:1 148:1 162:1 313:1 333:1 369:1 370:1 371:1 
1.4852037937761817243398354548845 3:1 7:1 16:1 33:1 34:1 35:1 36:1 37:1 38:1 
2.9943067290089926402174569375347 6:1 7:1 8:1 10:1 12:1 13:1 44:1 62:1 63:1 64:1 
-0.40784757524079606749722870517871 16:1 29:1 113:1 462:1 468:1 469:1 470:1 471:1 472:1 
0.2256237560036623845949321776061 16:1 96:1 98:1 274:1 430:1 
