SVM-light Version V5.00
0 # kernel type
3 # kernel parameter -d 
1 # kernel parameter -g 
1 # kernel parameter -s 
1 # kernel parameter -r 
empty# kernel parameter -u 
574 # highest feature index 
200 # number of training documents 
135 # number of support vectors plus 1 
-0.49619397 # threshold b, each following line is a SV (starting with alpha*y)
-0.11628620473728250306333364960665 9:1 29:1 93:1 107:1 108:1 109:1 110:1 111:1 112:1 113:1 
-0.11628620473728250306333364960665 6:1 16:1 19:1 213:1 
-0.11628620473728250306333364960665 16:1 19:1 203:1 258:1 259:1 
-0.11628620473728250306333364960665 16:1 19:1 29:1 285:1 317:1 318:1 319:1 
-0.11628620473728250306333364960665 16:1 19:1 77:1 320:1 321:1 
-0.09159101546587669617771609864576 12:1 16:1 19:1 341:1 474:1 475:1 499:1 505:1 523:1 563:1 
0.018588279159564655845793268440502 3:1 4:1 5:1 6:1 8:1 9:1 10:1 11:1 12:1 13:1 
0.022251771020466274558780028769434 19:1 56:1 96:1 260:1 429:1 430:1 431:1 432:1 433:1 434:1 
0.0044512611866983145536558197363775 3:1 16:1 19:1 20:1 21:1 22:1 23:1 24:1 25:1 26:1 
0.024669606970186268302125398577118 16:1 19:1 21:1 22:1 27:1 28:1 29:1 30:1 31:1 32:1 
0.0082338648107792566932516820088495 3:1 16:1 19:1 38:1 155:1 168:1 226:1 415:1 416:1 417:1 
-0.011034021422382156787933560337933 3:1 103:1 104:1 472:1 502:1 504:1 505:1 506:1 519:1 
-0.0049816781711815028010903461108683 3:1 29:1 313:1 445:1 462:1 468:1 474:1 515:1 517:1 518:1 
-0.11628620473728250306333364960665 3:1 16:1 103:1 104:1 504:1 507:1 510:1 523:1 528:1 529:1 
-0.11628620473728250306333364960665 3:1 16:1 29:1 96:1 325:1 326:1 327:1 328:1 329:1 330:1 
0.11628620473728250306333364960665 16:1 19:1 68:1 73:1 76:1 77:1 
0.050596361621926093377066280254439 16:1 19:1 203:1 210:1 
0.038733842186994119072274145310075 16:1 19:1 110:1 151:1 212:1 248:1 281:1 282:1 
0.022184732501738649301792349888274 16:1 19:1 27:1 28:1 456:1 457:1 458:1 459:1 460:1 461:1 
0.11628620473728250306333364960665 15:1 16:1 19:1 29:1 110:1 187:1 412:1 439:1 444:1 445:1 
-0.11628620473728250306333364960665 15:1 16:1 19:1 23:1 83:1 152:1 440:1 462:1 495:1 501:1 
-0.0094658560697724394850105511522997 16:1 19:1 32:1 472:1 475:1 503:1 532:1 533:1 546:1 547:1 
-0.11628620473728250306333364960665 6:1 19:1 44:1 98:1 126:1 178:1 560:1 561:1 562:1 563:1 
-0.11628620473728250306333364960665 6:1 16:1 19:1 29:1 30:1 120:1 365:1 366:1 367:1 368:1 
-0.11628620473728250306333364960665 16:1 19:1 113:1 145:1 483:1 484:1 485:1 486:1 
0.11628620473728250306333364960665 7:1 16:1 29:1 102:1 103:1 104:1 105:1 
0.034435226272658887858302279028067 7:1 16:1 29:1 38:1 103:1 104:1 125:1 126:1 127:1 128:1 
0.07868151745753561299157041730723 11:1 16:1 29:1 38:1 98:1 103:1 104:1 126:1 127:1 128:1 
0.096950589743350579219338669645367 29:1 96:1 113:1 331:1 333:1 342:1 347:1 427:1 440:1 441:1 
0.063212190306572685338792894071958 29:1 42:1 43:1 83:1 121:1 148:1 298:1 299:1 300:1 301:1 
-0.085928486707818163559124968742253 16:1 24:1 29:1 38:1 80:1 463:1 464:1 465:1 500:1 527:1 
-0.11628620473728250306333364960665 96:1 103:1 104:1 477:1 478:1 
-0.03247914037414445509455163119128 16:1 29:1 412:1 459:1 463:1 464:1 465:1 473:1 530:1 539:1 
-0.11628620473728250306333364960665 9:1 15:1 16:1 29:1 152:1 489:1 494:1 495:1 496:1 
-0.11628620473728250306333364960665 9:1 16:1 83:1 487:1 488:1 489:1 490:1 491:1 492:1 493:1 
0.11628620473728250306333364960665 6:1 16:1 19:1 29:1 499:1 504:1 533:1 543:1 558:1 559:1 
0.061248741200037412624190835686022 3:1 6:1 19:1 24:1 165:1 313:1 378:1 407:1 410:1 443:1 
0.054023702553440806906071003368197 6:1 16:1 36:1 93:1 313:1 337:1 338:1 339:1 340:1 
0.11628620473728250306333364960665 6:1 16:1 19:1 233:1 234:1 235:1 
0.031112133298555291749387663458037 6:1 16:1 19:1 51:1 348:1 349:1 401:1 402:1 403:1 
-0.11628620473728250306333364960665 6:1 19:1 29:1 54:1 348:1 349:1 454:1 455:1 
-0.11628620473728250306333364960665 16:1 19:1 235:1 502:1 513:1 
-0.11628620473728250306333364960665 6:1 113:1 475:1 479:1 480:1 481:1 482:1 
-0.11628620473728250306333364960665 19:1 66:1 98:1 120:1 506:1 570:1 571:1 572:1 573:1 574:1 
0.015311858901946071020994111222535 9:1 16:1 96:1 98:1 214:1 215:1 216:1 217:1 218:1 219:1 
0.0080240032265231162750263038674348 16:1 28:1 40:1 41:1 59:1 80:1 81:1 82:1 83:1 84:1 
0.07924205048645883986413451793851 15:1 178:1 343:1 361:1 362:1 363:1 364:1 
0.034590879992582430901837398096177 54:1 66:1 96:1 177:1 178:1 179:1 180:1 181:1 182:1 
0.00609807676660921709616003383303 16:1 96:1 98:1 274:1 430:1 
-0.11628620473728250306333364960665 16:1 47:1 178:1 335:1 336:1 393:1 394:1 395:1 396:1 
-0.11628620473728250306333364960665 16:1 47:1 66:1 457:1 473:1 503:1 532:1 551:1 552:1 553:1 
-0.11628620473728250306333364960665 16:1 29:1 77:1 280:1 321:1 
-0.11469879735300818335286265892137 15:1 29:1 54:1 93:1 503:1 507:1 567:1 568:1 569:1 
-0.083741962125718202858415395439806 16:1 29:1 477:1 503:1 531:1 532:1 533:1 534:1 535:1 536:1 
0.070329613137628588237504345670459 9:1 19:1 66:1 348:1 356:1 357:1 358:1 359:1 360:1 
0.062093124217166048572913439329568 19:1 96:1 113:1 170:1 171:1 172:1 173:1 174:1 175:1 176:1 
0.10519924254325561940870414900928 29:1 70:1 135:1 231:1 384:1 397:1 446:1 
0.070001274102224148032647121908667 19:1 27:1 29:1 54:1 203:1 211:1 224:1 225:1 226:1 
0.11575638342948697812051506161879 9:1 16:1 19:1 29:1 59:1 194:1 195:1 196:1 
-0.10212162867060380067041336360489 19:1 29:1 70:1 111:1 472:1 499:1 502:1 520:1 521:1 522:1 
-0.11628620473728250306333364960665 16:1 19:1 29:1 369:1 439:1 462:1 472:1 554:1 
-0.11628620473728250306333364960665 27:1 29:1 313:1 410:1 462:1 468:1 474:1 514:1 515:1 516:1 
-0.1075851416465906651431794216478 9:1 29:1 71:1 504:1 506:1 509:1 510:1 511:1 512:1 
-0.073099114928232081234149575266201 9:1 47:1 226:1 269:1 270:1 504:1 506:1 510:1 511:1 512:1 
0.019576369453388902525103887342084 6:1 15:1 16:1 29:1 50:1 335:1 336:1 422:1 423:1 
0.11628620473728250306333364960665 16:1 29:1 162:1 163:1 280:1 
0.10541666197749229028080009129553 3:1 16:1 47:1 50:1 51:1 69:1 70:1 71:1 
0.046170106967351194626747457050442 3:1 16:1 47:1 50:1 51:1 70:1 71:1 78:1 79:1 
0.071803972848398497919042426929082 6:1 29:1 56:1 98:1 101:1 335:1 336:1 380:1 381:1 382:1 
-0.078696046625218132875012599924958 6:1 16:1 19:1 462:1 465:1 474:1 564:1 565:1 566:1 
-0.03985225155903134031110113255636 6:1 29:1 59:1 290:1 463:1 464:1 465:1 470:1 475:1 476:1 
0.087299349619272659239754830196034 168:1 288:1 306:1 369:1 372:1 373:1 
0.11628620473728250306333364960665 29:1 66:1 167:1 168:1 169:1 
0.11628620473728250306333364960665 15:1 16:1 19:1 29:1 413:1 414:1 
0.047963902644561150212521027924595 54:1 148:1 164:1 197:1 304:1 307:1 308:1 
0.047495133789140359104052890870662 9:1 15:1 16:1 19:1 74:1 120:1 121:1 122:1 123:1 124:1 
-0.10797498924419127175333699142357 38:1 329:1 503:1 507:1 508:1 
-0.11628620473728250306333364960665 47:1 54:1 70:1 462:1 495:1 497:1 
0.045177581084182294457463058279245 9:1 16:1 19:1 23:1 230:1 243:1 244:1 245:1 246:1 
0.11628620473728250306333364960665 9:1 16:1 19:1 447:1 448:1 
0.075020852077796046364355220248399 16:1 19:1 237:1 247:1 283:1 284:1 
0.046306665502809207790591017328552 6:1 9:1 16:1 93:1 378:1 409:1 410:1 411:1 412:1 
0.11628620473728250306333364960665 6:1 16:1 145:1 158:1 274:1 
-0.11628620473728250306333364960665 16:1 19:1 29:1 313:1 445:1 465:1 474:1 530:1 549:1 550:1 
-0.059022526876963514463891868899736 16:1 19:1 29:1 71:1 96:1 472:1 477:1 505:1 507:1 508:1 
0.05666237604955755985391974149934 96:1 197:1 264:1 265:1 266:1 267:1 268:1 269:1 270:1 271:1 
0.11409790116672940962772031525674 27:1 29:1 54:1 201:1 203:1 210:1 
0.0066007688121673523812260597765089 54:1 70:1 331:1 339:1 342:1 424:1 435:1 436:1 
0.042079538841144348282341525191441 15:1 93:1 133:1 272:1 313:1 426:1 427:1 428:1 
-0.072698720355600196518786049182381 29:1 440:1 463:1 467:1 505:1 506:1 533:1 541:1 542:1 543:1 
0.056715585000256425740605692453755 8:1 16:1 19:1 29:1 44:1 65:1 66:1 67:1 68:1 
0.11628620473728250306333364960665 16:1 17:1 18:1 19:1 29:1 
0.032868439053827705476074072521442 16:1 19:1 27:1 83:1 112:1 165:1 185:1 322:1 323:1 324:1 
0.040309097889786683899249197793324 16:1 19:1 40:1 41:1 83:1 85:1 86:1 87:1 88:1 
0.03236197118550111773149779992309 16:1 23:1 59:1 288:1 289:1 290:1 291:1 292:1 
0.041796644023999601769148171115376 14:1 16:1 25:1 26:1 44:1 96:1 103:1 104:1 106:1 
-0.068580096497159223623008017511893 16:1 19:1 266:1 462:1 464:1 489:1 498:1 499:1 500:1 
-0.11628620473728250306333364960665 16:1 19:1 472:1 503:1 507:1 
-0.064556480078759220786466244135227 6:1 29:1 44:1 306:1 445:1 463:1 464:1 465:1 466:1 467:1 
0.055402395155502201506969583988393 6:1 19:1 96:1 178:1 387:1 388:1 389:1 390:1 391:1 
0.035748702457576768398705979734586 6:1 145:1 219:1 227:1 228:1 229:1 230:1 231:1 
0.048943246385645976237466214797678 19:1 23:1 29:1 83:1 85:1 96:1 203:1 309:1 310:1 311:1 
0.045351530630304823232812339028897 16:1 66:1 146:1 147:1 148:1 149:1 150:1 151:1 152:1 153:1 
-0.068862644089076482933897693783365 6:1 472:1 478:1 502:1 503:1 
0.072154847017070672388072694047878 6:1 16:1 98:1 164:1 285:1 286:1 287:1 
0.078361727522967133952036533628416 16:1 19:1 22:1 180:1 383:1 
0.02967057320114548091272155261322 15:1 28:1 38:1 89:1 90:1 91:1 92:1 93:1 94:1 95:1 
0.03581295294846354587692260906806 6:1 15:1 93:1 272:1 313:1 392:1 406:1 407:1 408:1 
0.027933345833675963382214391117486 30:1 43:1 84:1 101:1 131:1 132:1 133:1 134:1 135:1 136:1 
0.02809000734957119160828398207741 6:1 16:1 19:1 175:1 188:1 189:1 190:1 191:1 192:1 193:1 
0.04617433343447246985036258593027 11:1 19:1 23:1 45:1 54:1 55:1 56:1 57:1 
0.032754751979758259250452567812317 16:1 27:1 29:1 47:1 48:1 49:1 50:1 51:1 52:1 53:1 
0.029401403022480974980279455621712 16:1 27:1 38:1 185:1 221:1 222:1 223:1 
0.028627992560868138066654253748311 28:1 41:1 66:1 86:1 350:1 351:1 352:1 
0.038170099837802236308892389615721 6:1 9:1 28:1 29:1 331:1 332:1 333:1 334:1 335:1 336:1 
0.049607557799074136761774411752413 3:1 16:1 44:1 339:1 342:1 349:1 424:1 425:1 
0.027451187736046066267814325101426 6:1 7:1 8:1 10:1 12:1 13:1 44:1 62:1 63:1 64:1 
0.012464352156367635576783570172665 19:1 22:1 96:1 180:1 313:1 418:1 419:1 420:1 421:1 
-0.029012462391112679715998723395387 6:1 445:1 463:1 464:1 465:1 530:1 537:1 538:1 539:1 540:1 
0.023374853919408664776335982082855 16:1 19:1 84:1 98:1 224:1 238:1 293:1 294:1 295:1 296:1 
0.022069204830973684211548047073848 9:1 16:1 29:1 74:1 98:1 180:1 181:1 182:1 212:1 280:1 
0.031074842690679966433764391808836 16:1 19:1 98:1 118:1 247:1 248:1 249:1 
0.011300223737210325636315388919684 3:1 7:1 16:1 33:1 34:1 35:1 36:1 37:1 38:1 
0.013198550587227150451830048893953 6:1 16:1 79:1 247:1 248:1 312:1 313:1 314:1 315:1 316:1 
0.028566360032039477684362438481003 15:1 16:1 19:1 38:1 170:1 241:1 242:1 
0.0146847705277475502894102277196 9:1 19:1 74:1 81:1 82:1 86:1 202:1 203:1 204:1 205:1 
-0.021958172454647102711522421714108 6:1 29:1 66:1 412:1 463:1 464:1 470:1 473:1 474:1 475:1 
-0.011579812150459134825752904873752 9:1 16:1 98:1 439:1 464:1 465:1 475:1 506:1 511:1 548:1 
0.011087525887683991401844174617963 6:1 9:1 16:1 19:1 70:1 154:1 155:1 156:1 157:1 158:1 
0.0037032336680825287539287060667448 6:1 15:1 29:1 148:1 162:1 313:1 333:1 369:1 370:1 371:1 
0.00501069189827765739536635791751 11:1 16:1 19:1 48:1 66:1 114:1 115:1 116:1 117:1 118:1 
0.0023953702853376254537642875419579 3:1 9:1 16:1 35:1 39:1 40:1 41:1 42:1 43:1 
0.0022508003057328026391692432639502 16:1 19:1 83:1 164:1 196:1 212:1 236:1 237:1 
0.0012334358358407604937256873967044 23:1 27:1 52:1 54:1 66:1 139:1 234:1 450:1 
