SVM-light Version V5.00
0 # kernel type
3 # kernel parameter -d 
1 # kernel parameter -g 
1 # kernel parameter -s 
1 # kernel parameter -r 
empty# kernel parameter -u 
742 # highest feature index 
200 # number of training documents 
136 # number of support vectors plus 1 
-0.54193452 # threshold b, each following line is a SV (starting with alpha*y)
-0.087674564192518900096473544181208 11:1 38:1 51:1 84:1 95:1 118:1 144:1 145:1 146:1 147:1 148:1 149:1 
-0.087674564192518900096473544181208 8:1 20:1 23:1 279:1 280:1 281:1 
-0.087674564192518900096473544181208 20:1 23:1 268:1 338:1 339:1 340:1 341:1 
-0.087674564192518900096473544181208 20:1 23:1 37:1 38:1 378:1 418:1 419:1 420:1 421:1 
-0.087674564192518900096473544181208 20:1 23:1 98:1 105:1 422:1 423:1 
-0.087674564192518900096473544181208 2:1 23:1 93:1 133:1 160:1 593:1 621:1 703:1 737:1 738:1 739:1 740:1 741:1 742:1 
0.013404200806559185554789337402326 3:1 4:1 5:1 6:1 7:1 8:1 10:1 11:1 12:1 13:1 14:1 15:1 16:1 17:1 
0.010056904221705466676017870497617 37:1 55:1 93:1 119:1 448:1 463:1 464:1 465:1 466:1 
0.01125492121417421935436475877168 2:1 20:1 109:1 133:1 205:1 363:1 438:1 447:1 448:1 459:1 463:1 514:1 571:1 572:1 
0.05000108189740852526750103379527 20:1 23:1 28:1 29:1 34:1 35:1 36:1 37:1 38:1 39:1 40:1 41:1 42:1 43:1 
-0.053222786488105834623585366216503 8:1 38:1 60:1 179:1 579:1 604:1 605:1 606:1 607:1 608:1 609:1 610:1 611:1 
0.034930028063105932056853220046833 20:1 23:1 30:1 35:1 36:1 37:1 168:1 596:1 597:1 598:1 599:1 600:1 601:1 602:1 
-0.087674564192518900096473544181208 2:1 5:1 20:1 38:1 78:1 430:1 431:1 432:1 433:1 434:1 435:1 
-0.029191293056793920362990135686232 5:1 23:1 38:1 109:1 579:1 580:1 603:1 613:1 618:1 669:1 671:1 672:1 
-0.054577971386438189904666273832845 5:1 20:1 23:1 534:1 603:1 604:1 605:1 606:1 
0.054250951805875295697045856968543 20:1 23:1 38:1 147:1 204:1 263:1 306:1 308:1 327:1 372:1 373:1 374:1 
0.087674564192518900096473544181208 20:1 23:1 205:1 268:1 277:1 309:1 
0.0072339547986740859730758756995783 20:1 23:1 133:1 156:1 245:1 263:1 325:1 326:1 327:1 328:1 329:1 
0.025220540794221018437992754002153 2:1 8:1 43:1 66:1 148:1 438:1 453:1 459:1 460:1 512:1 513:1 570:1 
0.031701942157979709491222308770375 8:1 20:1 23:1 148:1 224:1 229:1 244:1 245:1 246:1 247:1 248:1 249:1 250:1 251:1 
-0.087674564192518900096473544181208 8:1 20:1 23:1 36:1 38:1 39:1 99:1 160:1 484:1 485:1 486:1 487:1 488:1 489:1 
-0.087674564192518900096473544181208 8:1 20:1 23:1 38:1 74:1 327:1 461:1 462:1 594:1 595:1 
-0.087674564192518900096473544181208 8:1 20:1 23:1 56:1 148:1 194:1 630:1 631:1 632:1 633:1 
-0.087674564192518900096473544181208 19:1 20:1 23:1 30:1 83:1 205:1 569:1 603:1 643:1 650:1 651:1 652:1 
-0.087674564192518900096473544181208 8:1 13:1 20:1 23:1 447:1 452:1 618:1 619:1 622:1 648:1 661:1 678:1 728:1 729:1 
0.087674564192518900096473544181208 2:1 38:1 168:1 233:1 258:1 350:1 351:1 352:1 353:1 354:1 355:1 356:1 357:1 358:1 
0.087674564192518900096473544181208 5:1 20:1 25:1 51:1 66:1 69:1 95:1 96:1 97:1 98:1 
0.04371244996111597891363942380849 9:1 20:1 38:1 50:1 133:1 139:1 140:1 166:1 167:1 168:1 169:1 170:1 171:1 
0.037259096106508564349990564323889 15:1 20:1 38:1 50:1 133:1 139:1 140:1 166:1 167:1 168:1 169:1 170:1 171:1 172:1 
0.087674564192518900096473544181208 38:1 93:1 198:1 219:1 220:1 221:1 
-0.087674564192518900096473544181208 20:1 38:1 66:1 93:1 165:1 168:1 450:1 597:1 598:1 655:1 688:1 711:1 713:1 714:1 
-0.087674564192518900096473544181208 11:1 38:1 66:1 91:1 356:1 357:1 358:1 621:1 657:1 660:1 662:1 663:1 664:1 
-0.087674564192518900096473544181208 20:1 66:1 147:1 233:1 442:1 443:1 520:1 521:1 522:1 523:1 524:1 
-0.069993554962873599789574541318871 20:1 31:1 38:1 41:1 50:1 111:1 151:1 180:1 457:1 604:1 605:1 606:1 609:1 649:1 
-0.031668679707236288556337910904404 11:1 38:1 66:1 91:1 98:1 201:1 534:1 621:1 657:1 660:1 661:1 662:1 663:1 
0.087674564192518900096473544181208 8:1 20:1 23:1 38:1 616:1 622:1 648:1 657:1 658:1 689:1 698:1 720:1 723:1 724:1 
0.0066907423334429949601798170988332 15:1 20:1 23:1 37:1 54:1 55:1 81:1 83:1 110:1 111:1 112:1 113:1 114:1 115:1 
0.047422736229454635903390880002917 5:1 8:1 23:1 31:1 83:1 109:1 217:1 393:1 501:1 539:1 541:1 576:1 577:1 578:1 
0.036925902373309928139466506991084 11:1 19:1 20:1 23:1 37:1 102:1 118:1 145:1 149:1 160:1 161:1 162:1 163:1 164:1 
0.077738195243807955980841484233679 8:1 19:1 20:1 23:1 38:1 43:1 147:1 165:1 242:1 444:1 507:1 549:1 579:1 580:1 
-0.087674564192518900096473544181208 8:1 23:1 60:1 133:1 168:1 233:1 658:1 659:1 661:1 725:1 726:1 727:1 
-0.012247639518055330673518277251333 20:1 23:1 41:1 133:1 160:1 488:1 616:1 619:1 655:1 688:1 689:1 704:1 705:1 706:1 
-0.087674564192518900096473544181208 8:1 23:1 95:1 148:1 532:1 619:1 625:1 626:1 627:1 628:1 629:1 
-0.015101270181585383853284376698412 23:1 38:1 51:1 97:1 580:1 616:1 648:1 654:1 658:1 659:1 674:1 675:1 676:1 677:1 
-0.074462926568633555635123855154234 2:1 20:1 23:1 38:1 97:1 98:1 139:1 140:1 616:1 622:1 623:1 658:1 659:1 667:1 
0.035122833826463924211669365149646 5:1 20:1 60:1 448:1 453:1 461:1 462:1 558:1 559:1 
0.036225918720345799683979493011066 5:1 11:1 20:1 48:1 52:1 53:1 54:1 55:1 56:1 57:1 
0.0096511191132601995001927264183905 2:1 8:1 66:1 438:1 440:1 459:1 461:1 512:1 513:1 514:1 574:1 
0.03409329058672066342650097681144 2:1 38:1 43:1 91:1 148:1 438:1 440:1 453:1 459:1 549:1 569:1 570:1 573:1 
0.016412241802528898526603029495163 1:1 8:1 20:1 257:1 441:1 447:1 461:1 462:1 508:1 
-0.087674564192518900096473544181208 11:1 20:1 83:1 634:1 635:1 636:1 637:1 638:1 639:1 640:1 641:1 
-0.087674564192518900096473544181208 11:1 19:1 20:1 38:1 83:1 205:1 397:1 637:1 642:1 643:1 644:1 
-0.087674564192518900096473544181208 20:1 38:1 97:1 105:1 175:1 371:1 423:1 
0.015003340921004875221922425510002 2:1 23:1 74:1 93:1 168:1 222:1 223:1 233:1 234:1 235:1 236:1 237:1 
0.04414429568789886987323356493107 2:1 23:1 30:1 38:1 83:1 95:1 118:1 268:1 396:1 398:1 407:1 408:1 409:1 410:1 
0.041818675149813869240666974747 2:1 23:1 148:1 222:1 223:1 224:1 225:1 226:1 227:1 228:1 229:1 230:1 231:1 232:1 
0.078980623898469881627448785366141 8:1 10:1 20:1 23:1 24:1 38:1 60:1 66:1 91:1 92:1 93:1 94:1 
0.017013352540728811368442308094018 15:1 20:1 23:1 67:1 93:1 150:1 151:1 152:1 153:1 154:1 155:1 156:1 157:1 158:1 
-0.087674564192518900096473544181208 20:1 23:1 38:1 307:1 654:1 665:1 666:1 
-0.087674564192518900096473544181208 2:1 139:1 140:1 606:1 619:1 623:1 624:1 
0.087674564192518900096473544181208 9:1 11:1 20:1 27:1 38:1 138:1 139:1 140:1 141:1 
0.087674564192518900096473544181208 20:1 38:1 214:1 215:1 371:1 436:1 
0.034183477375885611138084385629554 11:1 20:1 23:1 65:1 83:1 114:1 133:1 236:1 280:1 295:1 313:1 387:1 388:1 389:1 
0.040442235910920693031656014682085 38:1 56:1 57:1 83:1 97:1 149:1 201:1 393:1 394:1 395:1 396:1 397:1 398:1 399:1 
0.030983393873739582119464230913763 11:1 20:1 23:1 38:1 81:1 234:1 252:1 253:1 254:1 255:1 256:1 257:1 
-0.087674564192518900096473544181208 20:1 23:1 38:1 109:1 168:1 579:1 580:1 606:1 611:1 618:1 708:1 709:1 710:1 
-0.063990646411739640631033410045347 8:1 20:1 23:1 38:1 133:1 603:1 606:1 618:1 668:1 698:1 730:1 731:1 732:1 
-0.087674564192518900096473544181208 2:1 20:1 38:1 623:1 655:1 657:1 687:1 688:1 689:1 690:1 691:1 692:1 
0.043035922637245226096691652628579 19:1 233:1 454:1 478:1 479:1 480:1 481:1 482:1 483:1 
0.083005798984345194324596661772375 2:1 20:1 133:1 187:1 362:1 563:1 593:1 
0.036225256280850652579328396996061 19:1 95:1 109:1 175:1 347:1 348:1 361:1 549:1 560:1 561:1 
0.028749244425878922593042830158083 8:1 11:1 20:1 194:1 197:1 362:1 411:1 
0.03477421637988552943765441227697 8:1 23:1 194:1 257:1 289:1 297:1 298:1 299:1 300:1 301:1 
-0.087674564192518900096473544181208 66:1 74:1 83:1 97:1 109:1 603:1 643:1 645:1 
-0.087674564192518900096473544181208 20:1 23:1 616:1 655:1 658:1 672:1 
-0.072954421142633993357939914403687 19:1 38:1 74:1 95:1 165:1 654:1 655:1 658:1 733:1 734:1 735:1 736:1 
-0.063884433979334409592354404594516 20:1 34:1 38:1 42:1 148:1 603:1 612:1 613:1 614:1 615:1 616:1 
0.087674564192518900096473544181208 19:1 20:1 23:1 38:1 543:1 544:1 545:1 
0.032887017421706937758685285189131 8:1 19:1 20:1 23:1 38:1 69:1 175:1 442:1 443:1 554:1 555:1 556:1 557:1 
0.087674564192518900096473544181208 20:1 21:1 22:1 23:1 38:1 149:1 165:1 
0.042525650505604965789796523267796 8:1 20:1 38:1 76:1 133:1 136:1 245:1 442:1 443:1 503:1 504:1 505:1 
0.087674564192518900096473544181208 20:1 23:1 29:1 38:1 234:1 506:1 575:1 
-0.067899282039295849600080146046821 20:1 23:1 36:1 37:1 353:1 603:1 605:1 619:1 637:1 646:1 647:1 648:1 649:1 
-0.012408564362279926943100072378456 8:1 20:1 23:1 50:1 604:1 605:1 619:1 637:1 658:1 678:1 679:1 
0.013599688138127374523178581000593 20:1 23:1 74:1 76:1 133:1 156:1 453:1 525:1 590:1 591:1 592:1 
0.054353230510923861151795222212968 109:1 179:1 198:1 201:1 382:1 490:1 491:1 496:1 
0.038853289278459497702034042276864 38:1 97:1 177:1 198:1 257:1 460:1 508:1 581:1 582:1 
-0.07630383532422160830499535677518 5:1 20:1 23:1 139:1 140:1 621:1 657:1 658:1 660:1 678:1 682:1 683:1 684:1 
-0.074264901558183674112889605112287 11:1 20:1 23:1 38:1 43:1 491:1 603:1 616:1 621:1 622:1 715:1 716:1 
-0.087674564192518900096473544181208 8:1 38:1 616:1 624:1 653:1 654:1 655:1 
0.035642911283727082838446165169444 20:1 23:1 36:1 83:1 84:1 217:1 240:1 424:1 425:1 426:1 427:1 428:1 429:1 
0.0066277029077301862283744249282336 2:1 20:1 23:1 37:1 76:1 83:1 93:1 97:1 370:1 501:1 534:1 535:1 536:1 537:1 
0.087674564192518900096473544181208 11:1 20:1 23:1 97:1 542:1 583:1 584:1 
0.0071865893901492759049398628690142 2:1 20:1 23:1 50:1 137:1 191:1 240:1 242:1 291:1 292:1 293:1 
0.0597320364768253314613488669238 8:1 11:1 20:1 23:1 38:1 97:1 197:1 207:1 208:1 209:1 210:1 
0.046286135298478185695625342077619 8:1 20:1 23:1 194:1 304:1 305:1 306:1 307:1 308:1 
0.040301675021116457886538597676918 20:1 23:1 204:1 311:1 326:1 375:1 376:1 377:1 
0.03364153027586851141261803377347 16:1 20:1 23:1 54:1 55:1 83:1 113:1 116:1 117:1 118:1 119:1 120:1 121:1 
0.015512822708138392438503849746212 2:1 23:1 74:1 81:1 216:1 234:1 325:1 329:1 335:1 336:1 337:1 
0.062961990820377664035412124121649 20:1 23:1 24:1 30:1 93:1 101:1 104:1 105:1 
0.040033913859405467761121144576464 19:1 20:1 23:1 50:1 180:1 224:1 316:1 317:1 318:1 
-0.068444971071310395371867230096541 50:1 433:1 655:1 658:1 659:1 663:1 695:1 
0.033192925325176640682922624137063 8:1 74:1 201:1 216:1 258:1 341:1 402:1 405:1 406:1 
0.028072388706687951415164050672502 8:1 20:1 107:1 109:1 326:1 327:1 412:1 413:1 414:1 415:1 416:1 417:1 
0.016809949693807647863597054538332 20:1 30:1 81:1 83:1 204:1 382:1 383:1 384:1 385:1 386:1 
0.020121213376206908279852925147679 20:1 23:1 83:1 216:1 256:1 263:1 290:1 308:1 310:1 311:1 
0.031991485841649923427265633790739 20:1 23:1 36:1 50:1 137:1 191:1 240:1 293:1 294:1 
-0.025478487323900563671363883599952 20:1 38:1 93:1 165:1 450:1 600:1 604:1 605:1 606:1 610:1 611:1 634:1 711:1 712:1 
0.04859968054615064481094321990895 2:1 8:1 18:1 20:1 32:1 33:1 60:1 139:1 140:1 142:1 143:1 
0.043309705442599155666982824186562 11:1 23:1 37:1 93:1 160:1 461:1 462:1 472:1 473:1 474:1 475:1 476:1 477:1 
0.031716432614574623094494398856114 20:1 25:1 36:1 38:1 65:1 66:1 67:1 68:1 69:1 70:1 71:1 72:1 73:1 
0.057650099705328736177101234261499 20:1 36:1 38:1 74:1 262:1 268:1 277:1 282:1 
0.026447899065325197048847982728148 8:1 15:1 23:1 30:1 61:1 74:1 75:1 76:1 77:1 78:1 
0.075083113294800163384223878892954 23:1 36:1 38:1 74:1 91:1 268:1 278:1 295:1 296:1 
0.016882214740099221045310784461435 11:1 19:1 20:1 37:1 50:1 95:1 122:1 123:1 124:1 125:1 126:1 127:1 128:1 129:1 
0.012999062782084199949017566666498 8:1 20:1 76:1 133:1 353:1 448:1 450:1 451:1 452:1 453:1 454:1 455:1 456:1 457:1 
0.020863608674563147160618825637357 5:1 9:1 20:1 25:1 66:1 69:1 97:1 98:1 106:1 107:1 108:1 109:1 
0.021073776072692972094468899513231 1:1 8:1 20:1 29:1 95:1 109:1 445:1 446:1 447:1 448:1 449:1 
0.022721066103067753816358020912958 8:1 20:1 133:1 204:1 216:1 378:1 379:1 380:1 381:1 
0.012949907267923409237564413842847 1:1 8:1 10:1 12:1 13:1 14:1 15:1 60:1 86:1 87:1 88:1 89:1 90:1 
0.0081454327361450851868740485883791 11:1 20:1 23:1 30:1 52:1 216:1 300:1 319:1 320:1 321:1 322:1 323:1 324:1 
-0.039565133250295037026234012955683 36:1 38:1 66:1 109:1 356:1 357:1 491:1 541:1 603:1 613:1 618:1 668:1 669:1 670:1 
0.027051628052809979785298111210068 2:1 8:1 38:1 76:1 288:1 438:1 461:1 462:1 506:1 
0.0021973686445386354619546676048003 2:1 11:1 20:1 36:1 133:1 283:1 284:1 285:1 286:1 287:1 288:1 289:1 290:1 
0.0055835762573961294011337663789618 2:1 20:1 23:1 36:1 195:1 238:1 239:1 240:1 241:1 242:1 243:1 
0.013278642342228034328721619772296 8:1 19:1 38:1 109:1 179:1 201:1 214:1 440:1 490:1 491:1 492:1 493:1 494:1 495:1 
0.019475999156960185215714531636877 2:1 8:1 23:1 233:1 393:1 512:1 513:1 514:1 515:1 516:1 517:1 
0.012777374206024592548369689382071 8:1 11:1 37:1 38:1 208:1 437:1 438:1 439:1 440:1 441:1 442:1 443:1 444:1 
0.012579761875443452173728431375821 8:1 19:1 20:1 95:1 109:1 361:1 443:1 519:1 538:1 539:1 540:1 
0.005877488015184847459926320567547 25:1 30:1 39:1 57:1 114:1 136:1 173:1 174:1 175:1 176:1 177:1 178:1 179:1 180:1 
0.00086374803272806549483270321942996 5:1 19:1 20:1 23:1 30:1 32:1 33:1 74:1 161:1 181:1 183:1 184:1 185:1 
-0.0050157284920896100591236610455326 8:1 95:1 604:1 605:1 606:1 619:1 637:1 679:1 680:1 681:1 
0.0014059516063610712818116033062665 1:1 5:1 9:1 20:1 36:1 44:1 45:1 46:1 47:1 48:1 49:1 50:1 51:1 
0.001762279684514900766900691309047 8:1 15:1 20:1 25:1 38:1 93:1 191:1 192:1 193:1 194:1 195:1 196:1 
0.0041707040222669859025339533786791 8:1 19:1 20:1 95:1 97:1 361:1 443:1 518:1 519:1 
