SVM-light Version V5.00
2 # kernel type
3 # kernel parameter -d 
0.005 # kernel parameter -g 
1 # kernel parameter -s 
1 # kernel parameter -r 
empty# kernel parameter -u 
370 # highest feature index 
100 # number of training documents 
89 # number of support vectors plus 1 
0.40453302 # threshold b, each following line is a SV (starting with alpha*y)
-12.096945968306959784399623458739 13:1 16:1 121:1 158:1 159:1 
-12.096945968306959784399623458739 13:1 16:1 49:1 202:1 203:1 
-12.096945968306959784399623458739 3:1 13:1 74:1 76:1 204:1 205:1 206:1 207:1 208:1 209:1 
-12.096945968306959784399623458739 6:1 13:1 16:1 76:1 232:1 233:1 234:1 235:1 236:1 237:1 
-12.096945968306959784399623458739 6:1 28:1 76:1 187:1 294:1 295:1 296:1 297:1 298:1 299:1 
2.4983136475459932768217186094262 1:1 2:1 3:1 4:1 5:1 6:1 7:1 8:1 9:1 10:1 
0.98372538823347910330596732819686 11:1 12:1 13:1 14:1 15:1 16:1 
1.2805732849539472884003998842672 3:1 7:1 13:1 17:1 18:1 19:1 20:1 21:1 22:1 
3.2036036818622832811342959757894 3:1 9:1 13:1 19:1 23:1 24:1 25:1 26:1 27:1 
0.76537986799217982980536589820986 6:1 13:1 16:1 141:1 176:1 185:1 186:1 187:1 188:1 
-12.096945968306959784399623458739 9:1 13:1 60:1 306:1 307:1 308:1 309:1 310:1 311:1 312:1 
-12.096945968306959784399623458739 9:1 52:1 157:1 165:1 166:1 324:1 325:1 326:1 327:1 328:1 
-12.096945968306959784399623458739 12:1 13:1 16:1 30:1 60:1 92:1 314:1 316:1 321:1 322:1 
10.564890635493016546320177440066 16:1 30:1 60:1 74:1 76:1 121:1 191:1 192:1 193:1 194:1 
6.0441525047342334886479875422083 6:1 16:1 76:1 105:1 121:1 129:1 131:1 146:1 156:1 157:1 
12.096945968306959784399623458739 76:1 105:1 118:1 121:1 128:1 131:1 
-12.096945968306959784399623458739 12:1 67:1 76:1 131:1 334:1 350:1 363:1 364:1 365:1 
-4.0604445032284255390209182223771 76:1 105:1 198:1 301:1 316:1 334:1 337:1 340:1 358:1 
-12.096945968306959784399623458739 70:1 71:1 74:1 304:1 305:1 
10.862072627811773628536684555002 13:1 16:1 43:1 47:1 48:1 49:1 
6.2105401873622572139765907195397 13:1 41:1 86:1 87:1 88:1 89:1 90:1 91:1 92:1 93:1 
3.0378955418654198794570220343303 13:1 16:1 60:1 110:1 130:1 142:1 143:1 144:1 
-12.096945968306959784399623458739 13:1 16:1 329:1 330:1 331:1 
-12.096945968306959784399623458739 13:1 16:1 210:1 300:1 319:1 333:1 340:1 345:1 361:1 362:1 
-8.5525057938611546148877096129581 13:1 16:1 300:1 332:1 349:1 350:1 351:1 352:1 353:1 354:1 
6.5343002531953553457810812687967 74:1 114:1 160:1 161:1 162:1 163:1 164:1 165:1 166:1 167:1 
11.580585111389543939708346442785 54:1 76:1 141:1 255:1 285:1 286:1 287:1 
7.28816299237071962835443628137 11:1 13:1 28:1 46:1 70:1 71:1 72:1 73:1 74:1 
-12.096945968306959784399623458739 16:1 41:1 172:1 236:1 324:1 366:1 367:1 368:1 369:1 370:1 
-12.096945968306959784399623458739 52:1 54:1 131:1 314:1 316:1 317:1 
-9.0791964964575164742655033478513 16:1 54:1 76:1 319:1 329:1 332:1 341:1 342:1 343:1 344:1 
12.096945968306959784399623458739 12:1 13:1 16:1 76:1 263:1 264:1 
12.096945968306959784399623458739 9:1 13:1 16:1 288:1 289:1 
9.2738415368932436422255705110729 13:1 16:1 78:1 111:1 280:1 
-12.096945968306959784399623458739 9:1 12:1 13:1 76:1 92:1 308:1 313:1 314:1 315:1 
-8.962674991970825288944979547523 13:1 16:1 55:1 74:1 76:1 304:1 332:1 333:1 334:1 335:1 
-12.096945968306959784399623458739 13:1 16:1 76:1 241:1 316:1 332:1 355:1 357:1 
5.9821084511739464062429760815576 6:1 32:1 76:1 172:1 184:1 242:1 243:1 244:1 245:1 246:1 
10.325175991445535217394535720814 147:1 187:1 238:1 239:1 240:1 241:1 
3.1180015986362277224941408348968 54:1 131:1 211:1 215:1 216:1 269:1 278:1 279:1 
-8.7199464246991862381719329277985 6:1 34:1 76:1 295:1 296:1 297:1 300:1 301:1 302:1 303:1 
-0.97341640847523780433192541750032 6:1 22:1 295:1 296:1 300:1 308:1 334:1 345:1 346:1 
-4.5393677309023150456823714193888 6:1 67:1 295:1 296:1 297:1 300:1 308:1 347:1 348:1 
12.096945968306959784399623458739 9:1 13:1 16:1 34:1 76:1 108:1 109:1 110:1 
9.0078317473843831919566582655534 3:1 13:1 50:1 51:1 52:1 53:1 54:1 55:1 56:1 
5.5992503241733961871773317398038 9:1 13:1 16:1 30:1 140:1 152:1 153:1 154:1 155:1 
-9.0588640535355811067574904882349 9:1 55:1 76:1 323:1 324:1 325:1 326:1 327:1 328:1 
-12.096945968306959784399623458739 13:1 16:1 332:1 334:1 350:1 
-8.8234446975684335257028578780591 3:1 76:1 198:1 298:1 316:1 336:1 337:1 338:1 339:1 340:1 
4.2698772835827023541810376627836 12:1 22:1 61:1 63:1 64:1 65:1 66:1 67:1 68:1 69:1 
6.8998521923878994854817392479163 12:1 212:1 227:1 228:1 229:1 230:1 231:1 
6.2256800801766081221444437687751 6:1 13:1 37:1 41:1 53:1 76:1 84:1 85:1 
-7.7337532168363543050304542703088 13:1 16:1 162:1 296:1 308:1 316:1 318:1 319:1 320:1 
4.7189548281457778244885048479773 3:1 6:1 16:1 198:1 257:1 260:1 281:1 282:1 283:1 284:1 
3.9109481701297990063892484613461 16:1 74:1 94:1 95:1 96:1 97:1 98:1 99:1 100:1 101:1 
12.096945968306959784399623458739 13:1 14:1 15:1 16:1 76:1 
-4.7226644799199197777284098265227 16:1 41:1 188:1 230:1 329:1 332:1 334:1 350:1 359:1 360:1 
6.4074133732073503821879967290442 13:1 16:1 74:1 104:1 107:1 132:1 133:1 
1.6437206113856988043409046440502 6:1 13:1 56:1 176:1 186:1 197:1 198:1 199:1 200:1 201:1 
3.8443591444643927523827642289689 13:1 16:1 62:1 145:1 146:1 172:1 177:1 178:1 179:1 180:1 
-3.2226377320813557325607234815834 9:1 13:1 172:1 296:1 297:1 300:1 324:1 326:1 355:1 356:1 
1.9933628311916737896325457768398 9:1 16:1 44:1 58:1 59:1 119:1 120:1 121:1 122:1 123:1 
3.5508611473432192262578155350639 16:1 32:1 74:1 271:1 272:1 273:1 274:1 275:1 276:1 277:1 
6.5840948395103708890019333921373 9:1 13:1 44:1 76:1 111:1 112:1 113:1 130:1 172:1 173:1 
7.3805995958890662222984246909618 13:1 16:1 143:1 174:1 175:1 176:1 
6.0266349403405010676237907318864 12:1 13:1 16:1 22:1 94:1 150:1 151:1 
4.0820727996511818602698440372478 6:1 12:1 13:1 54:1 67:1 245:1 252:1 253:1 
4.3923506577343482959463472070638 25:1 41:1 61:1 119:1 221:1 222:1 223:1 
3.3704833838212167052006407175213 6:1 9:1 13:1 67:1 257:1 259:1 260:1 261:1 262:1 
4.3585283724329100252248281321954 88:1 114:1 131:1 144:1 188:1 189:1 190:1 
2.4511414369989488193368742940947 3:1 13:1 16:1 22:1 147:1 157:1 265:1 266:1 267:1 268:1 
1.2182055533056466156693886659923 3:1 12:1 13:1 16:1 30:1 46:1 72:1 81:1 82:1 83:1 
4.1851596774194241845634678611532 6:1 13:1 85:1 195:1 196:1 
2.2134052264265502429907428449951 6:1 74:1 181:1 182:1 216:1 217:1 218:1 219:1 220:1 
2.3668455534079959612370203103637 6:1 8:1 10:1 20:1 28:1 37:1 38:1 39:1 40:1 
2.9075022665232239660326740704477 6:1 16:1 74:1 227:1 247:1 248:1 249:1 250:1 251:1 
2.1465506111406122968787713034544 13:1 32:1 162:1 172:1 210:1 211:1 212:1 213:1 214:1 215:1 
2.4450843935808985740720800095005 3:1 13:1 28:1 211:1 215:1 219:1 269:1 270:1 
2.5103997566442330935387872159481 30:1 41:1 81:1 105:1 131:1 291:1 292:1 293:1 
1.6807958027670004685916183007066 13:1 24:1 25:1 34:1 57:1 58:1 59:1 60:1 61:1 62:1 
2.3687170181796424195397321454948 6:1 8:1 13:1 16:1 48:1 75:1 
1.0581265854512444946067262208089 12:1 13:1 16:1 41:1 42:1 43:1 44:1 45:1 46:1 
0.46585625599499852489415729905886 6:1 7:1 9:1 13:1 16:1 29:1 32:1 33:1 34:1 35:1 
0.58017820527559427201680364305503 6:1 9:1 13:1 16:1 29:1 32:1 33:1 36:1 37:1 
0.49383316006897082228732642761315 6:1 85:1 136:1 137:1 138:1 139:1 140:1 141:1 
0.48494175829376423569883058917185 13:1 54:1 88:1 131:1 181:1 182:1 183:1 184:1 
0.14974697881482396111252342052467 16:1 41:1 74:1 113:1 114:1 146:1 164:1 168:1 169:1 170:1 
0.06557828301456750108577864466497 13:1 16:1 41:1 144:1 145:1 146:1 147:1 148:1 149:1 
