SVM-light Version V5.00
0 # kernel type
3 # kernel parameter -d 
1 # kernel parameter -g 
1 # kernel parameter -s 
1 # kernel parameter -r 
empty# kernel parameter -u 
489 # highest feature index 
100 # number of training documents 
87 # number of support vectors plus 1 
-0.5601248 # threshold b, each following line is a SV (starting with alpha*y)
-0.089447908222709815451167969513335 17:1 20:1 167:1 214:1 215:1 216:1 217:1 
-0.089447908222709815451167969513335 17:1 20:1 69:1 74:1 273:1 274:1 
-0.089447908222709815451167969513335 2:1 5:1 17:1 102:1 275:1 276:1 277:1 278:1 279:1 280:1 281:1 
-0.089447908222709815451167969513335 8:1 17:1 20:1 29:1 61:1 102:1 313:1 314:1 315:1 316:1 317:1 318:1 319:1 320:1 
-0.089447908222709815451167969513335 8:1 39:1 102:1 254:1 392:1 393:1 394:1 395:1 396:1 397:1 398:1 399:1 400:1 
0.015661724798449253026610961114784 1:1 2:1 3:1 4:1 5:1 6:1 7:1 8:1 9:1 10:1 11:1 12:1 13:1 14:1 
0.0068337327136505955638146048158887 15:1 16:1 17:1 18:1 19:1 20:1 21:1 
0.049014784134595139331036506291639 16:1 17:1 20:1 28:1 131:1 202:1 203:1 204:1 205:1 
0.032505857809893963505931679947025 5:1 11:1 17:1 26:1 31:1 32:1 33:1 34:1 35:1 36:1 
0.046409940465935335673908213038885 8:1 11:1 17:1 115:1 118:1 265:1 266:1 
-0.089447908222709815451167969513335 11:1 17:1 50:1 410:1 411:1 412:1 413:1 414:1 415:1 416:1 417:1 
-0.089447908222709815451167969513335 16:1 17:1 20:1 41:1 50:1 126:1 420:1 422:1 428:1 429:1 430:1 431:1 
-0.089447908222709815451167969513335 8:1 13:1 17:1 20:1 284:1 386:1 401:1 402:1 407:1 426:1 432:1 455:1 476:1 477:1 
-0.089447908222709815451167969513335 11:1 16:1 17:1 50:1 102:1 126:1 413:1 418:1 419:1 420:1 421:1 
-0.089447908222709815451167969513335 50:1 52:1 60:1 73:1 77:1 420:1 422:1 423:1 
0.068586271820741701032986270547553 8:1 20:1 29:1 52:1 77:1 102:1 167:1 176:1 178:1 199:1 212:1 213:1 
0.087027774691553136388044720206381 17:1 29:1 52:1 102:1 161:1 167:1 177:1 180:1 
0.073687451799143099950839541634195 2:1 20:1 41:1 50:1 89:1 102:1 167:1 258:1 259:1 260:1 261:1 262:1 263:1 264:1 
0.089447908222709815451167969513335 17:1 20:1 102:1 105:1 153:1 372:1 373:1 
0.07088446764031235136638287031019 2:1 102:1 157:1 218:1 219:1 220:1 221:1 222:1 223:1 224:1 225:1 226:1 227:1 228:1 
-0.089447908222709815451167969513335 11:1 73:1 102:1 213:1 224:1 225:1 226:1 406:1 433:1 434:1 435:1 436:1 437:1 
-0.089447908222709815451167969513335 16:1 52:1 89:1 101:1 102:1 439:1 444:1 461:1 478:1 479:1 480:1 481:1 
-0.089447908222709815451167969513335 2:1 20:1 62:1 179:1 318:1 406:1 482:1 483:1 484:1 485:1 486:1 487:1 488:1 489:1 
-0.0081078777201438554517176626745822 8:1 20:1 62:1 102:1 255:1 309:1 402:1 439:1 443:1 444:1 461:1 473:1 474:1 475:1 
-0.027271885509468987013326213286746 20:1 30:1 60:1 102:1 426:1 439:1 443:1 444:1 445:1 450:1 451:1 452:1 453:1 454:1 
0.043882299452039690013105399657434 17:1 20:1 50:1 151:1 162:1 192:1 193:1 194:1 195:1 196:1 
0.023052469206517968436376264662613 16:1 17:1 20:1 60:1 61:1 62:1 63:1 64:1 65:1 66:1 67:1 
0.014240513150203014738903739555553 2:1 17:1 20:1 46:1 50:1 60:1 62:1 82:1 234:1 345:1 346:1 347:1 348:1 349:1 
0.011102462159477296393950140895868 17:1 62:1 108:1 118:1 119:1 120:1 121:1 122:1 123:1 124:1 125:1 126:1 127:1 128:1 
0.043125985357975502032523706930078 11:1 17:1 20:1 50:1 83:1 156:1 179:1 198:1 199:1 240:1 241:1 242:1 243:1 244:1 
-0.089447908222709815451167969513335 17:1 20:1 102:1 438:1 439:1 440:1 441:1 
-0.059850923323527413510980466071487 17:1 20:1 29:1 82:1 221:1 395:1 402:1 413:1 422:1 424:1 425:1 426:1 427:1 
-0.089447908222709815451167969513335 17:1 20:1 443:1 444:1 449:1 461:1 
-0.089447908222709815451167969513335 2:1 94:1 95:1 396:1 402:1 408:1 409:1 
-0.052330303365236349733002896300604 8:1 17:1 20:1 28:1 394:1 395:1 402:1 413:1 444:1 455:1 456:1 
0.057374864877144819697019073601041 60:1 102:1 119:1 152:1 344:1 380:1 381:1 382:1 383:1 
0.044479324219143308305479678210759 16:1 227:1 286:1 307:1 308:1 309:1 310:1 311:1 312:1 
0.028104929023881126959327758640939 8:1 52:1 122:1 157:1 195:1 217:1 255:1 256:1 257:1 
0.065841805435715342054159293638804 77:1 119:1 122:1 254:1 321:1 322:1 323:1 324:1 
0.046880025518111462234926989367523 8:1 17:1 46:1 102:1 179:1 248:1 325:1 326:1 327:1 328:1 329:1 330:1 
-0.086648472029814377348699849790137 5:1 20:1 77:1 102:1 397:1 401:1 422:1 446:1 447:1 448:1 449:1 450:1 
-0.03150460245364651579169645856382 29:1 61:1 77:1 102:1 401:1 403:1 422:1 438:1 444:1 446:1 470:1 471:1 472:1 
-0.050937827877514059438102123067438 11:1 73:1 74:1 102:1 122:1 213:1 345:1 406:1 432:1 433:1 434:1 435:1 436:1 
0.089447908222709815451167969513335 16:1 17:1 20:1 102:1 353:1 354:1 355:1 
0.031518533317008892713495527004852 2:1 20:1 129:1 130:1 131:1 132:1 133:1 134:1 135:1 136:1 137:1 138:1 139:1 140:1 
0.089447908222709815451167969513335 17:1 18:1 19:1 20:1 100:1 101:1 102:1 
0.086495078566635186234634602442384 11:1 17:1 20:1 60:1 352:1 384:1 385:1 
0.011987827264124759768515460223171 2:1 17:1 20:1 28:1 112:1 143:1 145:1 181:1 182:1 183:1 184:1 
-0.051394691099928266342367066954466 17:1 20:1 179:1 318:1 319:1 402:1 443:1 459:1 460:1 461:1 462:1 463:1 464:1 465:1 
0.040884142429377587357741674622957 5:1 8:1 20:1 50:1 77:1 331:1 347:1 351:1 374:1 375:1 376:1 377:1 378:1 379:1 
0.022498721266496626153275073534132 8:1 20:1 115:1 152:1 186:1 187:1 188:1 189:1 190:1 191:1 
0.068538382049214835456396599511208 5:1 9:1 17:1 60:1 70:1 71:1 72:1 73:1 74:1 75:1 76:1 77:1 
0.013261890917326999220215988373184 8:1 17:1 54:1 62:1 70:1 102:1 112:1 113:1 114:1 115:1 116:1 117:1 
0.0052767452855879267911709540328502 8:1 17:1 75:1 77:1 239:1 253:1 267:1 268:1 269:1 270:1 271:1 272:1 
-0.056199814755459633064393898393973 8:1 89:1 394:1 395:1 396:1 402:1 413:1 456:1 457:1 458:1 
-0.071599743582901206884194778012898 2:1 17:1 20:1 60:1 74:1 94:1 95:1 102:1 407:1 408:1 442:1 443:1 444:1 445:1 
-0.061743069605754180573242706486781 11:1 17:1 20:1 102:1 324:1 406:1 407:1 422:1 443:1 466:1 468:1 469:1 
0.022732879947739943055085021228479 17:1 20:1 28:1 29:1 112:1 143:1 183:1 184:1 185:1 
0.024970446945646148501074534920008 2:1 17:1 20:1 29:1 116:1 141:1 142:1 143:1 144:1 145:1 146:1 
0.037565488856960885244440362384921 11:1 17:1 20:1 48:1 102:1 147:1 148:1 149:1 150:1 151:1 152:1 153:1 
0.026463202319139979973305898397484 5:1 17:1 39:1 285:1 289:1 294:1 295:1 362:1 363:1 
0.028196997996578522516220033367063 11:1 16:1 17:1 28:1 82:1 85:1 86:1 87:1 88:1 89:1 90:1 91:1 92:1 93:1 
0.063677972401650503875281117416307 2:1 8:1 15:1 17:1 39:1 67:1 94:1 95:1 96:1 97:1 98:1 
0.013382082668493640656426357793407 11:1 20:1 65:1 80:1 81:1 125:1 163:1 164:1 165:1 166:1 167:1 168:1 169:1 170:1 
0.025923563803153401585710469134938 29:1 41:1 52:1 62:1 103:1 387:1 388:1 389:1 390:1 391:1 
0.043764109991211726236048917826338 17:1 20:1 125:1 194:1 236:1 237:1 238:1 239:1 
0.055723727606062714579060468622629 17:1 20:1 21:1 41:1 62:1 64:1 68:1 69:1 
0.019150630085714038380872992206605 2:1 20:1 46:1 82:1 105:1 337:1 341:1 364:1 365:1 366:1 367:1 368:1 369:1 
0.028020700627231595603028324603656 34:1 62:1 82:1 165:1 289:1 297:1 298:1 299:1 300:1 
0.022890643412167125531064826304828 1:1 8:1 10:1 12:1 13:1 14:1 39:1 54:1 55:1 56:1 57:1 58:1 59:1 
0.018246520350062599147289432721664 2:1 8:1 33:1 245:1 246:1 291:1 292:1 293:1 294:1 295:1 296:1 
0.01841719309573916843469909565556 2:1 8:1 20:1 227:1 331:1 332:1 333:1 334:1 335:1 336:1 337:1 
0.016476022654644293524706100129151 11:1 17:1 20:1 31:1 41:1 190:1 195:1 206:1 207:1 208:1 209:1 210:1 211:1 
0.018475100713295191517948623527445 8:1 9:1 11:1 17:1 20:1 40:1 45:1 46:1 47:1 48:1 49:1 50:1 51:1 
0.018705980516775817107388846238791 8:1 16:1 17:1 60:1 89:1 329:1 338:1 339:1 340:1 
0.024249655143175789101528394553497 11:1 17:1 29:1 65:1 102:1 153:1 155:1 156:1 162:1 165:1 179:1 234:1 235:1 
0.022857042233641277489963883340351 8:1 10:1 17:1 20:1 21:1 54:1 89:1 99:1 
0.011083352030064667209652284896038 5:1 17:1 20:1 28:1 119:1 213:1 354:1 356:1 357:1 358:1 359:1 360:1 361:1 
0.013754192560888259602713823426257 2:1 52:1 60:1 285:1 289:1 291:1 292:1 362:1 370:1 371:1 
0.011886882579953881450274266740053 17:1 20:1 33:1 34:1 48:1 50:1 54:1 78:1 79:1 80:1 81:1 82:1 83:1 84:1 
0.0033974983836731168125588897765965 8:1 11:1 16:1 17:1 89:1 101:1 291:1 347:1 350:1 351:1 352:1 
0.0059547974193215041233129269926394 8:1 17:1 46:1 179:1 221:1 282:1 283:1 284:1 285:1 286:1 287:1 288:1 289:1 290:1 
0.0084880929928170083254013178475361 8:1 17:1 20:1 122:1 152:1 217:1 239:1 251:1 252:1 253:1 254:1 255:1 
0.0038407456277851888606922337032756 17:1 52:1 60:1 122:1 245:1 246:1 247:1 248:1 249:1 250:1 
0.0021070536080700099333673502854936 5:1 16:1 17:1 20:1 41:1 52:1 67:1 96:1 103:1 106:1 109:1 110:1 111:1 
0.00085143627670745643861577311994893 1:1 5:1 9:1 17:1 22:1 23:1 24:1 25:1 26:1 27:1 28:1 29:1 30:1 
