SVM-light Version V5.00
2 # kernel type
3 # kernel parameter -d 
0.005 # kernel parameter -g 
1 # kernel parameter -s 
1 # kernel parameter -r 
empty# kernel parameter -u 
438 # highest feature index 
131 # number of training documents 
108 # number of support vectors plus 1 
0.22459686 # threshold b, each following line is a SV (starting with alpha*y)
-12.006176696401096748445525008719 9:1 42:1 78:1 88:1 89:1 90:1 91:1 92:1 93:1 94:1 
-12.006176696401096748445525008719 16:1 19:1 165:1 203:1 204:1 
-12.006176696401096748445525008719 16:1 19:1 42:1 249:1 250:1 251:1 252:1 
-12.006176696401096748445525008719 16:1 19:1 63:1 253:1 254:1 
-12.006176696401096748445525008719 3:1 16:1 42:1 87:1 255:1 256:1 257:1 258:1 259:1 260:1 
0.75823212309376153417161958714132 1:1 2:1 3:1 4:1 5:1 6:1 7:1 8:1 9:1 10:1 
2.4385458948357268127438146620989 3:1 4:1 5:1 6:1 8:1 9:1 10:1 11:1 12:1 13:1 
0.43868945123624586424071480905695 14:1 15:1 16:1 17:1 18:1 19:1 
0.19224690965280327725750453282672 3:1 7:1 16:1 20:1 21:1 22:1 23:1 24:1 25:1 
3.9324358640501384520860028715106 3:1 9:1 16:1 22:1 26:1 27:1 28:1 29:1 30:1 
2.1146253234301082279955608100863 16:1 27:1 28:1 49:1 68:1 69:1 70:1 71:1 72:1 73:1 
-12.006176696401096748445525008719 3:1 16:1 82:1 83:1 390:1 392:1 397:1 407:1 412:1 413:1 
-12.006176696401096748445525008719 9:1 35:1 202:1 210:1 211:1 389:1 390:1 391:1 392:1 393:1 
8.825112277874733734961409936659 19:1 33:1 42:1 71:1 87:1 165:1 239:1 240:1 241:1 242:1 
8.3006859426291583758938941173255 6:1 19:1 40:1 42:1 44:1 165:1 173:1 189:1 201:1 202:1 
12.006176696401096748445525008719 40:1 42:1 44:1 162:1 165:1 172:1 
-12.006176696401096748445525008719 6:1 19:1 42:1 44:1 273:1 274:1 355:1 356:1 
-9.8063614946343289346941674011759 3:1 42:1 245:1 361:1 378:1 399:1 400:1 401:1 402:1 403:1 
-12.006176696401096748445525008719 15:1 16:1 19:1 33:1 71:1 130:1 376:1 378:1 383:1 384:1 
11.218426739199875541430628800299 16:1 19:1 57:1 61:1 62:1 63:1 
6.396870475647149945075398136396 87:1 158:1 205:1 206:1 207:1 208:1 209:1 210:1 211:1 212:1 
7.0243995047677687537657220673282 16:1 19:1 114:1 155:1 309:1 
-11.082329702997350651116903463844 6:1 367:1 385:1 386:1 387:1 
-12.006176696401096748445525008719 6:1 19:1 31:1 101:1 104:1 282:1 427:1 428:1 429:1 430:1 
-12.006176696401096748445525008719 82:1 83:1 87:1 366:1 367:1 
6.4766435925989780386657912458759 6:1 15:1 42:1 126:1 230:1 245:1 292:1 293:1 294:1 295:1 
10.604995858203047021106613101438 11:1 16:1 25:1 42:1 82:1 83:1 101:1 102:1 103:1 104:1 
12.006176696401096748445525008719 15:1 16:1 19:1 42:1 326:1 327:1 
-12.006176696401096748445525008719 9:1 15:1 16:1 42:1 130:1 370:1 375:1 376:1 377:1 
-12.006176696401096748445525008719 6:1 16:1 19:1 42:1 110:1 287:1 288:1 289:1 290:1 291:1 
-12.006176696401096748445525008719 16:1 25:1 42:1 68:1 345:1 358:1 359:1 360:1 382:1 411:1 
1.5036923487337348070980169723043 6:1 46:1 87:1 271:1 273:1 274:1 309:1 310:1 
3.6318920674537134019033146614674 6:1 87:1 230:1 231:1 271:1 272:1 273:1 274:1 275:1 
5.5227551332435851350055600050837 6:1 19:1 87:1 282:1 311:1 312:1 313:1 314:1 315:1 
-12.006176696401096748445525008719 19:1 55:1 104:1 290:1 389:1 434:1 435:1 436:1 437:1 438:1 
-12.006176696401096748445525008719 16:1 19:1 386:1 394:1 395:1 
-11.331517574707179463189277157653 15:1 42:1 44:1 78:1 387:1 397:1 431:1 432:1 433:1 
12.006176696401096748445525008719 9:1 16:1 19:1 42:1 49:1 152:1 153:1 154:1 
12.006176696401096748445525008719 7:1 16:1 42:1 81:1 82:1 83:1 84:1 
4.6351971901974193812634439382236 16:1 55:1 124:1 125:1 126:1 127:1 128:1 129:1 130:1 131:1 
-12.006176696401096748445525008719 9:1 16:1 71:1 368:1 369:1 370:1 371:1 372:1 373:1 374:1 
-12.006176696401096748445525008719 16:1 19:1 42:1 292:1 378:1 385:1 421:1 423:1 
-7.7920842901651967693510414392222 16:1 19:1 42:1 66:1 87:1 366:1 385:1 396:1 397:1 398:1 
4.495114406554270303217890614178 15:1 25:1 72:1 74:1 75:1 76:1 77:1 78:1 79:1 80:1 
3.053947029335121410298370392411 16:1 19:1 99:1 104:1 266:1 300:1 301:1 302:1 303:1 
6.7516971083188792590590310283005 3:1 6:1 19:1 245:1 302:1 323:1 345:1 346:1 347:1 348:1 
-7.6584719000127057242366390710231 6:1 42:1 49:1 223:1 358:1 359:1 360:1 363:1 364:1 365:1 
-12.006176696401096748445525008719 35:1 44:1 65:1 376:1 378:1 379:1 
-12.006176696401096748445525008719 12:1 16:1 19:1 265:1 363:1 381:1 396:1 403:1 407:1 430:1 
6.301081020387313103015003434848 9:1 16:1 42:1 58:1 104:1 155:1 156:1 157:1 174:1 217:1 
10.129407475307406372166951769032 42:1 65:1 111:1 184:1 319:1 349:1 350:1 
12.006176696401096748445525008719 9:1 16:1 19:1 351:1 352:1 
-7.2176772486758355995561942108907 16:1 19:1 363:1 385:1 387:1 416:1 417:1 418:1 419:1 420:1 
-5.2352943595344925142853753641248 19:1 42:1 65:1 92:1 381:1 385:1 386:1 404:1 405:1 406:1 
7.4938958716011274674428932485171 3:1 16:1 35:1 38:1 39:1 64:1 65:1 66:1 67:1 
12.006176696401096748445525008719 42:1 55:1 137:1 138:1 139:1 
4.4900748391842864037926119635813 16:1 35:1 36:1 37:1 38:1 39:1 40:1 41:1 42:1 43:1 
-4.7157975709862505198088911129162 40:1 42:1 245:1 364:1 378:1 397:1 400:1 403:1 424:1 
-5.4227118535317675451778995920904 9:1 42:1 66:1 388:1 389:1 390:1 391:1 392:1 393:1 
-9.9981308593581115218285049195401 6:1 31:1 42:1 235:1 357:1 358:1 359:1 360:1 361:1 362:1 
7.8352534402496694099227170227095 16:1 19:1 186:1 218:1 219:1 220:1 
5.2978841980719417747991428768728 9:1 16:1 19:1 33:1 183:1 194:1 195:1 196:1 197:1 
3.4570797471778793585883704508888 16:1 19:1 71:1 154:1 174:1 185:1 186:1 187:1 
-12.006176696401096748445525008719 16:1 19:1 385:1 387:1 397:1 
5.4878160717468560392262588720769 6:1 42:1 46:1 104:1 109:1 304:1 305:1 306:1 307:1 308:1 
7.1512264215136696066110744141042 15:1 267:1 282:1 283:1 284:1 285:1 286:1 
6.999136440993475538618895370746 138:1 221:1 235:1 292:1 296:1 297:1 
3.4490483381836214427096365398029 6:1 9:1 16:1 19:1 65:1 132:1 133:1 134:1 135:1 136:1 
12.006176696401096748445525008719 16:1 17:1 18:1 19:1 42:1 
6.5568262085494248836425867921207 3:1 16:1 31:1 263:1 266:1 274:1 333:1 334:1 
-3.7224495528689041101699785940582 9:1 16:1 104:1 359:1 360:1 363:1 389:1 391:1 421:1 422:1 
-5.9476179242717490680547598458361 16:1 19:1 207:1 359:1 370:1 378:1 380:1 381:1 382:1 
5.5675957202269827917007205542177 19:1 87:1 94:1 140:1 141:1 142:1 143:1 144:1 145:1 146:1 
3.3269576104820433037900784256635 30:1 73:1 105:1 106:1 107:1 108:1 109:1 110:1 111:1 112:1 
3.4896504481124344110298807208892 6:1 7:1 8:1 10:1 12:1 13:1 31:1 52:1 53:1 54:1 
-7.6773054511551546141845392412506 6:1 367:1 386:1 387:1 397:1 
4.3446651709255279527610582590569 6:1 16:1 23:1 78:1 245:1 261:1 262:1 263:1 264:1 
2.6870012077472287259638505929615 16:1 33:1 49:1 221:1 222:1 223:1 224:1 225:1 
3.4219545611527553141684165893821 19:1 46:1 87:1 335:1 336:1 337:1 338:1 339:1 340:1 341:1 
4.5858112891063509408695608726703 44:1 126:1 158:1 187:1 236:1 237:1 238:1 
2.2912553087512059768471317511285 6:1 123:1 179:1 180:1 181:1 182:1 183:1 184:1 
2.3398453457504384545018183416687 3:1 15:1 16:1 19:1 33:1 60:1 85:1 116:1 117:1 118:1 
5.9696450175208717325858742697164 16:1 19:1 87:1 149:1 151:1 175:1 176:1 
3.6839607388880275529174923576647 14:1 16:1 31:1 60:1 82:1 83:1 85:1 86:1 87:1 
3.0106135374188318643007278296864 6:1 15:1 16:1 65:1 78:1 307:1 316:1 317:1 
3.9812407509065033117678922280902 6:1 9:1 16:1 78:1 302:1 322:1 323:1 324:1 325:1 
3.7870906198839060508021248097066 11:1 19:1 32:1 33:1 44:1 45:1 46:1 47:1 
3.5271570821753690516686674527591 16:1 19:1 73:1 104:1 188:1 189:1 226:1 227:1 228:1 229:1 
4.7360307297231329926034959498793 15:1 16:1 19:1 25:1 140:1 192:1 193:1 
3.3342286663678155633760979981162 28:1 55:1 72:1 163:1 276:1 277:1 278:1 
2.9685039618673441097485010686796 9:1 19:1 58:1 69:1 70:1 163:1 164:1 165:1 166:1 167:1 
6.0882938219351334652174045913853 6:1 16:1 123:1 136:1 243:1 
3.8913237966295812775285867246566 6:1 8:1 16:1 19:1 62:1 100:1 
-0.6802936139119318825763116365124 6:1 78:1 358:1 359:1 360:1 363:1 370:1 409:1 410:1 
2.739820951935870940729955691495 6:1 15:1 16:1 38:1 42:1 306:1 307:1 331:1 332:1 
1.9168358889113970011663923287415 3:1 16:1 19:1 25:1 133:1 138:1 202:1 328:1 329:1 330:1 
3.4769388294880378964535339036956 6:1 16:1 19:1 31:1 114:1 155:1 298:1 299:1 
1.1297757047266097085724823045894 5:1 9:1 19:1 30:1 40:1 55:1 157:1 198:1 199:1 200:1 
1.4727202105872148063525628458592 44:1 65:1 263:1 266:1 271:1 333:1 342:1 343:1 
0.79499434536743940338254788002814 6:1 16:1 67:1 220:1 234:1 244:1 245:1 246:1 247:1 248:1 
1.3686000212020810185009622728103 6:1 16:1 19:1 184:1 220:1 233:1 234:1 235:1 236:1 
0.8584927880184729520607334052329 11:1 16:1 19:1 36:1 55:1 95:1 96:1 97:1 98:1 99:1 
1.0373378017699370623461163631873 27:1 44:1 87:1 230:1 231:1 270:1 271:1 272:1 
0.15304339099177780014748861958651 33:1 40:1 41:1 44:1 55:1 116:1 353:1 354:1 
0.9157792372563590133083266664471 3:1 6:1 16:1 19:1 33:1 60:1 113:1 114:1 
0.37542006112454318067506164879887 6:1 35:1 87:1 271:1 272:1 293:1 311:1 312:1 313:1 344:1 
0.13699721545218709883862118203979 16:1 46:1 104:1 207:1 263:1 265:1 266:1 267:1 268:1 269:1 
