SVM-light Version V5.00
0 # kernel type
3 # kernel parameter -d 
1 # kernel parameter -g 
1 # kernel parameter -s 
1 # kernel parameter -r 
empty# kernel parameter -u 
574 # highest feature index 
131 # number of training documents 
107 # number of support vectors plus 1 
-0.55357078 # threshold b, each following line is a SV (starting with alpha*y)
-0.089113009144841964781491583380557 11:1 33:1 55:1 69:1 102:1 115:1 116:1 117:1 118:1 119:1 120:1 121:1 
-0.089113009144841964781491583380557 20:1 23:1 222:1 271:1 272:1 273:1 274:1 
-0.089113009144841964781491583380557 20:1 23:1 55:1 95:1 330:1 331:1 332:1 333:1 334:1 
-0.089113009144841964781491583380557 20:1 23:1 85:1 87:1 335:1 336:1 
-0.089113009144841964781491583380557 2:1 5:1 20:1 55:1 63:1 337:1 338:1 339:1 340:1 341:1 342:1 
-0.029781041341622589008197863336136 11:1 49:1 55:1 87:1 173:1 270:1 421:1 481:1 511:1 512:1 513:1 514:1 515:1 
0.01701677570099655381619108140967 3:1 4:1 5:1 6:1 7:1 8:1 10:1 11:1 12:1 13:1 14:1 15:1 16:1 17:1 
0.0055592120478057411442351920527472 18:1 19:1 20:1 21:1 22:1 23:1 24:1 
0.0050487988907653947798226390375476 1:1 5:1 9:1 20:1 25:1 26:1 27:1 28:1 29:1 30:1 31:1 32:1 33:1 
0.027510299808080302536028582949257 5:1 11:1 20:1 29:1 34:1 35:1 36:1 37:1 38:1 39:1 
-0.089113009144841964781491583380557 11:1 20:1 68:1 485:1 486:1 487:1 488:1 489:1 490:1 491:1 492:1 
-0.0038555936989559686650652636785708 8:1 11:1 20:1 23:1 470:1 471:1 472:1 473:1 474:1 476:1 497:1 527:1 540:1 541:1 
-0.04851142411414957611448528496112 8:1 102:1 470:1 471:1 472:1 478:1 488:1 533:1 534:1 535:1 
-0.067503942716874404394999942269351 5:1 20:1 23:1 109:1 110:1 481:1 512:1 514:1 521:1 532:1 537:1 538:1 539:1 
-0.089113009144841964781491583380557 8:1 13:1 20:1 23:1 345:1 350:1 477:1 478:1 482:1 501:1 511:1 532:1 561:1 562:1 
0.081351066202820995765243594632921 2:1 23:1 44:1 55:1 68:1 102:1 115:1 222:1 316:1 317:1 318:1 319:1 320:1 321:1 
0.089113009144841964781491583380557 20:1 23:1 55:1 153:1 209:1 406:1 450:1 
0.031984506468207274387793859204976 11:1 19:1 20:1 31:1 95:1 98:1 99:1 100:1 101:1 102:1 103:1 104:1 105:1 106:1 
0.089113009144841964781491583380557 19:1 20:1 23:1 55:1 427:1 428:1 429:1 
0.0032665343626584113050081992213336 2:1 20:1 23:1 61:1 68:1 76:1 78:1 95:1 290:1 398:1 421:1 422:1 423:1 424:1 
-0.089113009144841964781491583380557 2:1 23:1 78:1 138:1 384:1 481:1 567:1 568:1 569:1 570:1 571:1 572:1 573:1 574:1 
-0.089113009144841964781491583380557 19:1 20:1 23:1 44:1 68:1 177:1 495:1 497:1 503:1 504:1 505:1 506:1 
-0.087741463840700625875790308327851 19:1 55:1 59:1 102:1 132:1 509:1 510:1 521:1 563:1 564:1 565:1 566:1 
-0.089113009144841964781491583380557 11:1 19:1 20:1 55:1 68:1 177:1 488:1 493:1 494:1 495:1 496:1 
-0.089113009144841964781491583380557 49:1 59:1 68:1 76:1 90:1 495:1 497:1 498:1 
0.014525920020417672218204785394846 8:1 20:1 23:1 149:1 173:1 208:1 274:1 295:1 310:1 311:1 312:1 313:1 
0.027340173341900409625937484747737 8:1 11:1 20:1 166:1 169:1 322:1 323:1 
0.0063544775506411592738698068671965 8:1 20:1 61:1 138:1 278:1 346:1 348:1 349:1 350:1 351:1 352:1 353:1 354:1 355:1 
0.017252632750837323255543864775063 8:1 20:1 88:1 90:1 295:1 312:1 324:1 325:1 326:1 327:1 328:1 329:1 
0.032683111222105841464635744841871 8:1 59:1 173:1 212:1 249:1 274:1 313:1 314:1 315:1 
-0.089113009144841964781491583380557 8:1 20:1 23:1 55:1 59:1 312:1 361:1 362:1 466:1 467:1 
-0.089113009144841964781491583380557 8:1 20:1 23:1 32:1 55:1 77:1 146:1 380:1 381:1 382:1 383:1 384:1 385:1 386:1 
-0.089113009144841964781491583380557 8:1 55:1 484:1 507:1 508:1 509:1 510:1 
-0.089113009144841964781491583380557 8:1 23:1 42:1 135:1 138:1 284:1 511:1 521:1 522:1 558:1 559:1 560:1 
-0.089113009144841964781491583380557 20:1 23:1 55:1 509:1 517:1 518:1 519:1 
0.039916569859701281353103752280731 2:1 23:1 120:1 186:1 187:1 188:1 189:1 190:1 191:1 192:1 193:1 194:1 195:1 196:1 
0.039334185026278861707638156985922 55:1 76:1 147:1 170:1 208:1 359:1 457:1 458:1 459:1 
0.047141313992221149653527589862279 20:1 23:1 68:1 207:1 217:1 246:1 247:1 248:1 249:1 250:1 
0.089113009144841964781491583380557 9:1 11:1 20:1 55:1 107:1 108:1 109:1 110:1 111:1 
0.019329123249948919338603303685886 20:1 44:1 66:1 68:1 176:1 296:1 297:1 298:1 299:1 300:1 
-0.089113009144841964781491583380557 2:1 109:1 110:1 472:1 478:1 483:1 484:1 
-0.089113009144841964781491583380557 20:1 31:1 55:1 92:1 123:1 150:1 355:1 453:1 470:1 471:1 472:1 474:1 502:1 536:1 
-0.089113009144841964781491583380557 20:1 23:1 508:1 510:1 521:1 526:1 
0.072796023609598858872260507268948 8:1 23:1 32:1 55:1 59:1 90:1 222:1 231:1 233:1 253:1 269:1 270:1 
0.02986262385693596449476316934124 8:1 19:1 20:1 23:1 52:1 55:1 143:1 403:1 404:1 435:1 436:1 437:1 438:1 
0.089113009144841964781491583380557 20:1 21:1 22:1 23:1 55:1 121:1 132:1 
0.016234089777689093836432476791742 8:1 15:1 23:1 43:1 44:1 59:1 60:1 61:1 62:1 63:1 
0.017468738928616563133022765441638 2:1 8:1 23:1 284:1 408:1 409:1 410:1 411:1 412:1 413:1 414:1 
-0.089113009144841964781491583380557 11:1 49:1 55:1 270:1 281:1 282:1 283:1 481:1 512:1 513:1 514:1 515:1 516:1 
-0.086554079294895350238370212991867 5:1 23:1 55:1 90:1 473:1 477:1 497:1 523:1 524:1 525:1 526:1 527:1 
0.055405263045319619319428738890565 15:1 20:1 31:1 55:1 109:1 110:1 133:1 134:1 135:1 136:1 137:1 138:1 139:1 140:1 
0.037514378919806051770891031083011 20:1 32:1 48:1 49:1 50:1 51:1 52:1 53:1 54:1 55:1 56:1 57:1 58:1 
0.089113009144841964781491583380557 55:1 78:1 170:1 183:1 184:1 185:1 
0.057659345329825750781083115725778 5:1 20:1 42:1 346:1 351:1 361:1 362:1 439:1 440:1 
0.07586073603058098024920496982304 2:1 55:1 135:1 212:1 275:1 276:1 277:1 278:1 279:1 280:1 281:1 282:1 283:1 284:1 
0.013419314332111183935003495548699 11:1 23:1 81:1 93:1 94:1 176:1 218:1 219:1 220:1 221:1 222:1 223:1 224:1 225:1 
0.056182506556843384015742515202874 5:1 8:1 23:1 68:1 90:1 398:1 408:1 425:1 451:1 452:1 453:1 454:1 455:1 456:1 
0.08699293842354316463882923926576 11:1 20:1 23:1 76:1 426:1 460:1 461:1 
0.061438097122567418562066876575045 8:1 11:1 20:1 23:1 55:1 76:1 169:1 179:1 180:1 181:1 182:1 
-0.067970956031084550641452324271086 2:1 20:1 23:1 55:1 76:1 87:1 109:1 110:1 482:1 483:1 508:1 520:1 521:1 522:1 
-0.055472665470339986570902368612224 11:1 20:1 23:1 55:1 388:1 481:1 482:1 497:1 508:1 548:1 550:1 551:1 
-0.05455657537567213527518461546606 20:1 23:1 32:1 95:1 278:1 471:1 478:1 488:1 497:1 499:1 500:1 501:1 502:1 
0.085691774095571660030401517360588 20:1 32:1 55:1 59:1 216:1 222:1 232:1 234:1 
0.053393436122654042153001796577882 19:1 20:1 23:1 31:1 150:1 188:1 256:1 257:1 258:1 
0.022897213799954501539657414355133 20:1 23:1 31:1 32:1 163:1 199:1 237:1 238:1 239:1 
0.017283249762618215633613871773377 5:1 19:1 20:1 23:1 44:1 59:1 83:1 112:1 151:1 154:1 155:1 156:1 157:1 
0.013633153713525629491254420599944 2:1 20:1 23:1 31:1 163:1 199:1 201:1 235:1 236:1 237:1 238:1 
0.037140889050409207905456554499324 11:1 20:1 23:1 48:1 68:1 96:1 138:1 211:1 252:1 253:1 301:1 302:1 303:1 304:1 
0.028933708477991270519025235330446 2:1 8:1 49:1 357:1 358:1 360:1 361:1 409:1 410:1 411:1 449:1 
0.045157225560097033478790251592727 2:1 8:1 55:1 61:1 357:1 361:1 362:1 406:1 407:1 
0.031888242839099592562668306072737 8:1 19:1 55:1 90:1 149:1 173:1 305:1 360:1 387:1 388:1 389:1 390:1 391:1 392:1 
0.017952562293227780632065559984767 8:1 20:1 23:1 42:1 146:1 153:1 209:1 334:1 359:1 390:1 394:1 395:1 
-0.075007343623771025042934468274325 8:1 42:1 55:1 149:1 468:1 469:1 470:1 471:1 472:1 473:1 474:1 475:1 476:1 
-0.032374704575262432115767552431862 20:1 23:1 138:1 384:1 385:1 478:1 508:1 510:1 536:1 543:1 544:1 545:1 546:1 547:1 
0.035262416073891002243900771873086 5:1 9:1 20:1 49:1 52:1 53:1 76:1 86:1 87:1 88:1 89:1 90:1 
0.046218958660319518771952829183647 19:1 284:1 352:1 374:1 375:1 376:1 377:1 378:1 379:1 
0.013339659874510228360078301079739 15:1 20:1 23:1 50:1 78:1 122:1 123:1 124:1 125:1 126:1 127:1 128:1 129:1 130:1 
0.045760041644109038239118802948724 20:1 23:1 24:1 44:1 78:1 80:1 84:1 85:1 
0.0092925103113981680214017444541241 1:1 8:1 20:1 90:1 102:1 153:1 343:1 344:1 345:1 346:1 347:1 
-0.029764263259189818050520770498224 32:1 55:1 77:1 90:1 477:1 479:1 497:1 517:1 521:1 523:1 552:1 553:1 554:1 
0.042037735471263437680988772626733 2:1 8:1 18:1 20:1 42:1 83:1 109:1 110:1 112:1 113:1 114:1 
0.023418717463004470186183070268271 2:1 23:1 61:1 95:1 153:1 414:1 418:1 441:1 442:1 443:1 444:1 445:1 446:1 
0.033940442431204101425556984850118 8:1 23:1 166:1 208:1 240:1 241:1 242:1 243:1 244:1 245:1 
0.024016121910763021940482531135785 2:1 20:1 23:1 32:1 167:1 197:1 198:1 199:1 200:1 201:1 202:1 
0.028459999233336235463509567011897 37:1 78:1 95:1 220:1 346:1 364:1 365:1 366:1 367:1 
0.020947479609523585869501616230082 20:1 23:1 36:1 37:1 128:1 138:1 351:1 396:1 397:1 398:1 399:1 
0.029309376320998441201037820746933 11:1 20:1 23:1 55:1 66:1 203:1 204:1 205:1 206:1 207:1 208:1 209:1 
0.011329597161036299157732543108068 20:1 59:1 76:1 145:1 173:1 305:1 306:1 307:1 308:1 309:1 
0.030568086089932569593408118180378 8:1 20:1 55:1 61:1 138:1 145:1 400:1 401:1 402:1 403:1 404:1 405:1 
0.017401585700521186861333688966624 1:1 8:1 10:1 12:1 13:1 14:1 15:1 42:1 71:1 72:1 73:1 74:1 75:1 
0.029075859868996363488680145792387 8:1 10:1 15:1 20:1 23:1 24:1 102:1 131:1 
0.045315788637473833344593288074975 20:1 23:1 176:1 248:1 292:1 293:1 294:1 295:1 
0.027756255406886476411187913981848 90:1 149:1 170:1 173:1 296:1 387:1 388:1 393:1 
0.017466497517836375441557805743287 11:1 20:1 32:1 55:1 81:1 138:1 209:1 210:1 211:1 217:1 220:1 290:1 291:1 
0.012100892851901644958756421033286 8:1 9:1 11:1 20:1 23:1 43:1 61:1 64:1 65:1 66:1 67:1 68:1 69:1 
0.012412037608347470385439237361425 39:1 44:1 53:1 96:1 141:1 142:1 143:1 144:1 145:1 146:1 147:1 148:1 149:1 150:1 
0.01798446038732537388682430901099 15:1 20:1 23:1 36:1 37:1 66:1 68:1 91:1 92:1 93:1 94:1 95:1 96:1 97:1 
0.011086681178305588316157503925297 11:1 20:1 23:1 34:1 44:1 244:1 249:1 259:1 260:1 261:1 262:1 263:1 264:1 
0.013218081423849574809747942083504 19:1 20:1 23:1 76:1 77:1 78:1 79:1 80:1 81:1 82:1 83:1 
0.012355665321890474395161163556622 8:1 19:1 20:1 76:1 102:1 404:1 415:1 416:1 417:1 
0.0062885138432421817250572715352064 5:1 20:1 23:1 31:1 170:1 180:1 270:1 428:1 430:1 431:1 432:1 433:1 434:1 
-0.01259278511674916112283995062171 8:1 20:1 23:1 31:1 470:1 471:1 478:1 488:1 521:1 532:1 533:1 
0.010640642823271243347371672882673 32:1 44:1 54:1 59:1 78:1 151:1 462:1 463:1 464:1 465:1 
0.0078908924817851916477806639704795 1:1 8:1 20:1 208:1 345:1 361:1 362:1 363:1 458:1 
0.00095700935507026722685874897678104 17:1 19:1 20:1 23:1 24:1 32:1 44:1 59:1 158:1 159:1 160:1 161:1 162:1 
0.0021097568259292763179213459068251 2:1 8:1 36:1 59:1 305:1 306:1 356:1 357:1 358:1 359:1 
