SVM-light Version V5.00
0 # kernel type
3 # kernel parameter -d 
1 # kernel parameter -g 
1 # kernel parameter -s 
1 # kernel parameter -r 
empty# kernel parameter -u 
438 # highest feature index 
131 # number of training documents 
104 # number of support vectors plus 1 
-0.56642339 # threshold b, each following line is a SV (starting with alpha*y)
-0.1174673813343836831224464845036 9:1 42:1 78:1 88:1 89:1 90:1 91:1 92:1 93:1 94:1 
-0.1174673813343836831224464845036 16:1 19:1 165:1 203:1 204:1 
-0.1174673813343836831224464845036 16:1 19:1 42:1 249:1 250:1 251:1 252:1 
-0.1174673813343836831224464845036 16:1 19:1 63:1 253:1 254:1 
-0.1174673813343836831224464845036 3:1 16:1 42:1 87:1 255:1 256:1 257:1 258:1 259:1 260:1 
0.010233249034705106661480300545009 27:1 44:1 87:1 230:1 231:1 270:1 271:1 272:1 
0.023872948205475974514655490565929 3:1 4:1 5:1 6:1 8:1 9:1 10:1 11:1 12:1 13:1 
0.0070508180512927178321125332161046 14:1 15:1 16:1 17:1 18:1 19:1 
0.0053191685673515502752461969748765 1:1 2:1 3:1 4:1 5:1 6:1 7:1 8:1 9:1 10:1 
0.038257000753876911625095402769148 3:1 9:1 16:1 22:1 26:1 27:1 28:1 29:1 30:1 
-0.1174673813343836831224464845036 16:1 19:1 385:1 387:1 397:1 
-0.1174673813343836831224464845036 3:1 16:1 82:1 83:1 390:1 392:1 397:1 407:1 412:1 413:1 
-0.1174673813343836831224464845036 9:1 35:1 202:1 210:1 211:1 389:1 390:1 391:1 392:1 393:1 
-0.10500678020100299991934633681012 6:1 367:1 385:1 386:1 387:1 
-0.072932670286510681290081947736326 6:1 367:1 386:1 387:1 397:1 
0.086607344656390097825671148257243 19:1 33:1 42:1 71:1 87:1 165:1 239:1 240:1 241:1 242:1 
0.081228199788857369245675954516628 6:1 19:1 40:1 42:1 44:1 165:1 173:1 189:1 201:1 202:1 
0.052964482038161404819920363706842 19:1 87:1 94:1 140:1 141:1 142:1 143:1 144:1 145:1 146:1 
0.1174673813343836831224464845036 40:1 42:1 44:1 162:1 165:1 172:1 
0.1174673813343836831224464845036 15:1 16:1 19:1 42:1 326:1 327:1 
-0.1174673813343836831224464845036 15:1 16:1 19:1 33:1 71:1 130:1 376:1 378:1 383:1 384:1 
-0.1174673813343836831224464845036 6:1 19:1 42:1 44:1 273:1 274:1 355:1 356:1 
-0.1174673813343836831224464845036 9:1 15:1 16:1 42:1 130:1 370:1 375:1 376:1 377:1 
-0.093361806322144996750367340609955 3:1 42:1 245:1 361:1 378:1 399:1 400:1 401:1 402:1 403:1 
-0.1174673813343836831224464845036 6:1 16:1 19:1 42:1 110:1 287:1 288:1 289:1 290:1 291:1 
0.060831386389256933422409190370672 87:1 158:1 205:1 206:1 207:1 208:1 209:1 210:1 211:1 212:1 
0.037856970832699808615640080233788 6:1 9:1 16:1 78:1 302:1 322:1 323:1 324:1 325:1 
0.0019605841363627956458470791289983 6:1 35:1 87:1 271:1 272:1 293:1 311:1 312:1 313:1 344:1 
0.064732848512716156808011191969854 6:1 16:1 123:1 136:1 243:1 
0.0043506742940820084322717242741874 6:1 16:1 67:1 220:1 234:1 244:1 245:1 246:1 247:1 248:1 
-0.1174673813343836831224464845036 6:1 19:1 31:1 101:1 104:1 282:1 427:1 428:1 429:1 430:1 
-0.1174673813343836831224464845036 82:1 83:1 87:1 366:1 367:1 
-0.1174673813343836831224464845036 9:1 16:1 71:1 368:1 369:1 370:1 371:1 372:1 373:1 374:1 
-0.029781128844377845882318567305447 9:1 16:1 104:1 359:1 360:1 363:1 389:1 391:1 421:1 422:1 
0.0087134853896607637052662553855953 5:1 9:1 19:1 30:1 40:1 55:1 157:1 198:1 199:1 200:1 
0.1174673813343836831224464845036 9:1 16:1 19:1 42:1 49:1 152:1 153:1 154:1 
0.10581675098784562583098534105375 11:1 16:1 25:1 42:1 82:1 83:1 101:1 102:1 103:1 104:1 
0.1174673813343836831224464845036 42:1 55:1 137:1 138:1 139:1 
0.099259357512061344164244758303539 42:1 65:1 111:1 184:1 319:1 349:1 350:1 
0.1174673813343836831224464845036 7:1 16:1 42:1 81:1 82:1 83:1 84:1 
-0.1174673813343836831224464845036 16:1 25:1 42:1 68:1 345:1 358:1 359:1 360:1 382:1 411:1 
-0.10706721423675730209268408543721 15:1 42:1 44:1 78:1 387:1 397:1 431:1 432:1 433:1 
-0.073486267542969635480076817657391 16:1 19:1 42:1 66:1 87:1 366:1 385:1 396:1 397:1 398:1 
0.032344654694437285913366508793843 6:1 16:1 19:1 31:1 114:1 155:1 298:1 299:1 
0.11065016645936572026176492045124 16:1 19:1 57:1 61:1 62:1 63:1 
0.052073072015788104960343218863272 9:1 16:1 19:1 33:1 183:1 194:1 195:1 196:1 197:1 
0.070035094265547478964428762537864 15:1 267:1 282:1 283:1 284:1 285:1 286:1 
0.1174673813343836831224464845036 9:1 16:1 19:1 351:1 352:1 
-0.1174673813343836831224464845036 16:1 19:1 386:1 394:1 395:1 
-0.1174673813343836831224464845036 19:1 55:1 104:1 290:1 389:1 434:1 435:1 436:1 437:1 438:1 
-0.1174673813343836831224464845036 35:1 44:1 65:1 376:1 378:1 379:1 
-0.1174673813343836831224464845036 12:1 16:1 19:1 265:1 363:1 381:1 396:1 403:1 407:1 430:1 
-0.1174673813343836831224464845036 16:1 19:1 42:1 292:1 378:1 385:1 421:1 423:1 
0.052047626618484138516507186977833 6:1 42:1 46:1 104:1 109:1 304:1 305:1 306:1 307:1 308:1 
0.04109151461194938265153453471612 15:1 25:1 72:1 74:1 75:1 76:1 77:1 78:1 79:1 80:1 
0.013739102779774329740614113859465 6:1 46:1 87:1 271:1 273:1 274:1 309:1 310:1 
0.060782033301867655072925344938994 6:1 15:1 42:1 126:1 230:1 245:1 292:1 293:1 294:1 295:1 
0.032247189268684868512782060179234 16:1 19:1 71:1 154:1 174:1 185:1 186:1 187:1 
0.031744072723932120760892416910792 16:1 19:1 73:1 104:1 188:1 189:1 226:1 227:1 228:1 229:1 
0.027536247560881365464835468515048 16:1 19:1 99:1 104:1 266:1 300:1 301:1 302:1 303:1 
0.079189631981864641585566744197422 16:1 19:1 186:1 218:1 219:1 220:1 
0.1174673813343836831224464845036 16:1 17:1 18:1 19:1 42:1 
-0.068530083453102089152686460238328 16:1 19:1 363:1 385:1 387:1 416:1 417:1 418:1 419:1 420:1 
-0.046756685425302299541350237177539 19:1 42:1 65:1 92:1 381:1 385:1 386:1 404:1 405:1 406:1 
0.073557533559341650719609617681272 3:1 16:1 35:1 38:1 39:1 64:1 65:1 66:1 67:1 
0.044357745039605378511993194479146 16:1 55:1 124:1 125:1 126:1 127:1 128:1 129:1 130:1 131:1 
0.04428360320933119598230121027882 44:1 126:1 158:1 187:1 236:1 237:1 238:1 
0.010508882225971854715296238680367 44:1 65:1 263:1 266:1 271:1 333:1 342:1 343:1 
0.011903601457569475130515712635315 6:1 16:1 19:1 184:1 220:1 233:1 234:1 235:1 236:1 
0.026351063685566625260925377460808 9:1 19:1 58:1 69:1 70:1 163:1 164:1 165:1 166:1 167:1 
0.060397604655897704772904432957148 9:1 16:1 42:1 58:1 104:1 155:1 156:1 157:1 174:1 217:1 
0.058942007088552850202489707953646 16:1 19:1 87:1 149:1 151:1 175:1 176:1 
0.065825324695757927995209968230483 3:1 6:1 19:1 245:1 302:1 323:1 345:1 346:1 347:1 348:1 
-0.097053820191093015390393361485621 6:1 31:1 42:1 235:1 357:1 358:1 359:1 360:1 361:1 362:1 
-0.075870010228645215488718633878307 6:1 42:1 49:1 223:1 358:1 359:1 360:1 363:1 364:1 365:1 
-0.040344468434072092155595612439356 40:1 42:1 245:1 364:1 378:1 397:1 400:1 403:1 424:1 
0.016029910981725684765430983702572 3:1 16:1 19:1 25:1 133:1 138:1 202:1 328:1 329:1 330:1 
0.06954232707075855279832410360541 138:1 221:1 235:1 292:1 296:1 297:1 
0.021090257384568402571067835538088 3:1 15:1 16:1 19:1 33:1 60:1 85:1 116:1 117:1 118:1 
0.0099897183031804250713525661353742 3:1 6:1 16:1 19:1 33:1 60:1 113:1 114:1 
0.030166190713876064877219107529527 30:1 73:1 105:1 106:1 107:1 108:1 109:1 110:1 111:1 112:1 
0.054017118566715191518845529117243 6:1 19:1 87:1 282:1 311:1 312:1 313:1 314:1 315:1 
0.032394446905715933160418984471107 6:1 7:1 8:1 10:1 12:1 13:1 31:1 52:1 53:1 54:1 
-0.053176793068047158163924592599869 16:1 19:1 207:1 359:1 370:1 378:1 380:1 381:1 382:1 
0.041794767846207718509088380187677 16:1 35:1 36:1 37:1 38:1 39:1 40:1 41:1 42:1 43:1 
0.067963309398693591556472881620721 3:1 16:1 31:1 263:1 266:1 274:1 333:1 334:1 
0.040934319445572416029666129588804 6:1 16:1 23:1 78:1 245:1 261:1 262:1 263:1 264:1 
-0.047901044976288324750424152398409 9:1 42:1 66:1 388:1 389:1 390:1 391:1 392:1 393:1 
0.031398663752750952116166160976718 19:1 46:1 87:1 335:1 336:1 337:1 338:1 339:1 340:1 341:1 
0.036033693416155192223992997924142 11:1 19:1 32:1 33:1 44:1 45:1 46:1 47:1 
0.019433625509876394088504270030171 16:1 27:1 28:1 49:1 68:1 69:1 70:1 71:1 72:1 73:1 
0.032973191430486090136575683118281 28:1 55:1 72:1 163:1 276:1 277:1 278:1 
0.033038721304959821345459403119094 14:1 16:1 31:1 60:1 82:1 83:1 85:1 86:1 87:1 
0.024853016361672863876464134591515 6:1 15:1 16:1 38:1 42:1 306:1 307:1 331:1 332:1 
0.047496228813568179549786663073974 15:1 16:1 19:1 25:1 140:1 192:1 193:1 
0.032200803913725775662335593096941 6:1 9:1 16:1 19:1 65:1 132:1 133:1 134:1 135:1 136:1 
0.040754238050712550400778155790249 6:1 8:1 16:1 19:1 62:1 100:1 
0.034651829779243907558861081952273 6:1 87:1 230:1 231:1 271:1 272:1 273:1 274:1 275:1 
0.028941900408479968170860630038987 6:1 15:1 16:1 65:1 78:1 307:1 316:1 317:1 
0.024650882478800876379532169835329 16:1 33:1 49:1 221:1 222:1 223:1 224:1 225:1 
0.072043105557908840297365316018841 16:1 19:1 114:1 155:1 309:1 
0.019223699328320405926850966693564 6:1 123:1 179:1 180:1 181:1 182:1 183:1 184:1 
0.0055331041170407829418720346836835 11:1 16:1 19:1 36:1 55:1 95:1 96:1 97:1 98:1 99:1 
