SVM-light Version V5.00
0 # kernel type
3 # kernel parameter -d 
1 # kernel parameter -g 
1 # kernel parameter -s 
1 # kernel parameter -r 
empty# kernel parameter -u 
7789 # highest feature index 
18429 # number of training documents 
7754 # number of support vectors plus 1 
0.35633519 # threshold b, each following line is a SV (starting with alpha*y)
-0.18256690705680705955060716405569 1:1 2:1 3:1 4:1 5:1 6:1 
-0.18256690705680705955060716405569 7:1 8:1 9:1 
-0.18256690705680705955060716405569 7:1 595:1 3484:1 
-0.18256690705680705955060716405569 4:1 6:1 86:1 454:1 493:1 3696:1 
-0.18256690705680705955060716405569 21:1 22:1 23:1 24:1 25:1 26:1 
0.18256690705680705955060716405569 4:1 33:1 117:1 1357:1 1358:1 1359:1 
0.15422736234963707602219074033201 4:1 20:1 1082:1 2239:1 2485:1 3847:1 
0.1027257693593376930429883486795 4:1 152:1 153:1 154:1 155:1 156:1 
0.10791390603478495657796543127915 7:1 1060:1 2253:1 2254:1 7677:1 
0.14132431166527240073982341073133 6:1 110:1 1333:1 1436:1 1437:1 1438:1 
-0.10627814986962598464703688705413 11:1 68:1 133:1 446:1 907:1 1155:1 
-0.15687603422637688699303737394075 7:1 61:1 102:1 558:1 621:1 622:1 
-0.18256690705680705955060716405569 7:1 27:1 102:1 109:1 110:1 558:1 
-0.18256690705680705955060716405569 4:1 11:1 33:1 580:1 993:1 5708:1 
-0.18256690705680705955060716405569 33:1 745:1 919:1 
0.062983362251256461150639154311648 31:1 69:1 413:1 890:1 1248:1 3606:1 
0.18256690705680705955060716405569 6:1 1127:1 1494:1 1765:1 2589:1 
0.18256690705680705955060716405569 6:1 11:1 20:1 27:1 123:1 165:1 
0.18256690705680705955060716405569 6:1 11:1 13:1 69:1 5116:1 5117:1 
0.18256690705680705955060716405569 6:1 25:1 26:1 548:1 1667:1 1866:1 
-0.044265286188809468970184468616935 4:1 1169:1 1575:1 1577:1 
-0.17800686746802557580693360250734 6:1 11:1 157:1 1023:1 6618:1 7761:1 
-0.18256690705680705955060716405569 6:1 11:1 342:1 353:1 548:1 724:1 
-0.15622691655739789906576220346324 242:1 353:1 2049:1 2611:1 
0.18256690705680705955060716405569 5:1 7:1 31:1 61:1 102:1 7399:1 
0.18256690705680705955060716405569 2:1 7:1 27:1 61:1 933:1 1240:1 
0.18256690705680705955060716405569 2:1 7:1 27:1 61:1 300:1 347:1 
0.18256690705680705955060716405569 7:1 61:1 105:1 110:1 1537:1 1538:1 
-0.16348968775059205538191520190594 6:1 7:1 11:1 2749:1 3080:1 3084:1 
-0.18256690705680705955060716405569 7:1 27:1 122:1 123:1 188:1 5537:1 
-0.18256690705680705955060716405569 7:1 27:1 122:1 159:1 300:1 346:1 
-0.18256690705680705955060716405569 7:1 27:1 63:1 123:1 188:1 2991:1 
-0.18256690705680705955060716405569 7:1 27:1 63:1 123:1 188:1 546:1 
-0.18256690705680705955060716405569 7:1 20:1 27:1 61:1 669:1 670:1 
0.18256690705680705955060716405569 1:1 11:1 69:1 230:1 367:1 1360:1 
0.098389885594596299123182348012051 11:1 600:1 618:1 697:1 2138:1 2139:1 
0.042262449181488977167919784960759 11:1 22:1 621:1 879:1 3987:1 4044:1 
0.18256690705680705955060716405569 6:1 11:1 30:1 3716:1 4994:1 6922:1 
0.18256690705680705955060716405569 1:1 11:1 272:1 447:1 545:1 1440:1 
-0.18256690705680705955060716405569 4:1 11:1 61:1 676:1 677:1 680:1 
-0.18256690705680705955060716405569 4:1 11:1 165:1 301:1 936:1 4549:1 
-0.18256690705680705955060716405569 11:1 61:1 230:1 2709:1 3082:1 6991:1 
-0.18256690705680705955060716405569 4:1 234:1 353:1 714:1 1027:1 1188:1 
-0.18256690705680705955060716405569 4:1 11:1 65:1 601:1 3768:1 5759:1 
0.18256690705680705955060716405569 7:1 27:1 62:1 353:1 713:1 7516:1 
0.18256690705680705955060716405569 7:1 27:1 68:1 123:1 188:1 1448:1 
0.18256690705680705955060716405569 7:1 27:1 123:1 188:1 2284:1 
0.18256690705680705955060716405569 7:1 27:1 123:1 188:1 990:1 1755:1 
0.18256690705680705955060716405569 7:1 27:1 122:1 188:1 293:1 2664:1 
-0.18256690705680705955060716405569 7:1 27:1 68:1 123:1 188:1 1795:1 
-0.18256690705680705955060716405569 7:1 27:1 68:1 123:1 188:1 1873:1 
-0.18256690705680705955060716405569 7:1 27:1 68:1 123:1 188:1 234:1 
-0.18256690705680705955060716405569 7:1 27:1 68:1 123:1 188:1 1096:1 
-0.18256690705680705955060716405569 7:1 27:1 123:1 188:1 5521:1 5522:1 
-0.059744547507104575623237963100109 27:1 68:1 457:1 1732:1 2184:1 5499:1 
0.18256690705680705955060716405569 4:1 11:1 61:1 1061:1 1105:1 1106:1 
0.18256690705680705955060716405569 4:1 11:1 61:1 1475:1 2744:1 2902:1 
0.18256690705680705955060716405569 4:1 11:1 61:1 510:1 2645:1 3546:1 
0.18256690705680705955060716405569 4:1 11:1 61:1 585:1 7550:1 7561:1 
0.075137008411664846230237913005112 3539:1 4475:1 4476:1 
-0.18256690705680705955060716405569 11:1 30:1 59:1 62:1 149:1 945:1 
0.18256690705680705955060716405569 31:1 61:1 5024:1 5193:1 
-0.18256690705680705955060716405569 31:1 61:1 347:1 402:1 2371:1 2372:1 
-0.087402734608985982456275110052957 7:1 27:1 34:1 142:1 908:1 2916:1 
0.18256690705680705955060716405569 7:1 27:1 165:1 796:1 2709:1 4595:1 
0.072066523464897905282278145477903 7:1 27:1 123:1 165:1 2184:1 4429:1 
0.18256690705680705955060716405569 7:1 27:1 37:1 123:1 276:1 2184:1 
0.18256690705680705955060716405569 7:1 19:1 37:1 68:1 123:1 2184:1 
-0.18256690705680705955060716405569 7:1 27:1 33:1 123:1 160:1 5518:1 
-0.18256690705680705955060716405569 7:1 27:1 35:1 272:1 457:1 2184:1 
-0.18256690705680705955060716405569 7:1 27:1 105:1 110:1 1061:1 6036:1 
-0.18256690705680705955060716405569 7:1 27:1 1413:1 
-0.048640390718831534588861842394181 74:1 165:1 242:1 2077:1 2121:1 2130:1 
-0.077793329773799629878183736764186 4:1 48:1 240:1 1703:1 1867:1 2611:1 
0.18256690705680705955060716405569 11:1 142:1 188:1 268:1 402:1 2822:1 
0.18256690705680705955060716405569 11:1 73:1 142:1 346:1 689:1 995:1 
-0.18256690705680705955060716405569 4:1 526:1 3335:1 
-0.1674185041391850758962789313955 27:1 764:1 1184:1 2164:1 3560:1 6315:1 
-0.18256690705680705955060716405569 6:1 37:1 142:1 188:1 1589:1 
-0.18256690705680705955060716405569 11:1 142:1 188:1 699:1 1755:1 6131:1 
0.029461068618044362193986174247584 19:1 61:1 1079:1 2620:1 3413:1 4824:1 
-0.014392991328308627624332771688387 13:1 69:1 586:1 2549:1 4625:1 4632:1 
-0.13166767600603382359913950949704 6:1 11:1 73:1 1050:1 4534:1 4548:1 
0.18256690705680705955060716405569 7:1 27:1 272:1 300:1 475:1 565:1 
0.17294278927646941634854726999038 6:1 7:1 292:1 1210:1 1411:1 
-0.066307765761995832165531794544222 6:1 516:1 526:1 638:1 2097:1 2098:1 
0.18256690705680705955060716405569 7:1 27:1 32:1 33:1 1646:1 2944:1 
0.18256690705680705955060716405569 7:1 27:1 85:1 110:1 345:1 855:1 
-0.18256690705680705955060716405569 7:1 27:1 31:1 165:1 269:1 885:1 
-0.18256690705680705955060716405569 7:1 27:1 475:1 601:1 881:1 4535:1 
0.07016006007207330197328332133111 6:1 7:1 135:1 173:1 1901:1 5236:1 
-0.18256690705680705955060716405569 7:1 27:1 32:1 33:1 461:1 
-0.1642121783093338227565993747703 7:1 27:1 33:1 933:1 2293:1 3338:1 
0.026295675446426875626615426995158 7:1 11:1 27:1 46:1 1691:1 6920:1 
0.18256690705680705955060716405569 6:1 73:1 142:1 453:1 618:1 1589:1 
0.011254307839956624939792284578743 4:1 6:1 142:1 1589:1 2764:1 3753:1 
0.18256690705680705955060716405569 6:1 69:1 142:1 705:1 1363:1 1589:1 
0.18256690705680705955060716405569 6:1 132:1 457:1 1589:1 2251:1 2779:1 
-0.18256690705680705955060716405569 6:1 142:1 188:1 513:1 695:1 696:1 
-0.18256690705680705955060716405569 4:1 6:1 86:1 142:1 695:1 2274:1 
-0.16189519748926531339527912223275 6:1 69:1 77:1 473:1 565:1 3533:1 
-0.18256690705680705955060716405569 6:1 73:1 132:1 142:1 173:1 3009:1 
-0.18256690705680705955060716405569 6:1 20:1 142:1 513:1 556:1 695:1 
0.18256690705680705955060716405569 7:1 27:1 68:1 885:1 1096:1 2833:1 
0.18256690705680705955060716405569 7:1 27:1 35:1 885:1 6558:1 7381:1 
0.18256690705680705955060716405569 7:1 27:1 68:1 885:1 3160:1 4318:1 
0.18256690705680705955060716405569 7:1 27:1 33:1 269:1 3525:1 5161:1 
0.18256690705680705955060716405569 7:1 27:1 62:1 63:1 278:1 3018:1 
-0.18256690705680705955060716405569 7:1 27:1 68:1 1512:1 1589:1 2339:1 
-0.14535837280164715101804517871642 7:1 11:1 48:1 102:1 5912:1 5918:1 
-0.18256690705680705955060716405569 7:1 27:1 1589:1 2983:1 
-0.18256690705680705955060716405569 7:1 27:1 976:1 1589:1 2332:1 6159:1 
0.18256690705680705955060716405569 4:1 6:1 69:1 142:1 471:1 695:1 
0.18256690705680705955060716405569 4:1 6:1 86:1 142:1 261:1 1827:1 
0.18256690705680705955060716405569 4:1 6:1 142:1 644:1 695:1 2841:1 
0.18256690705680705955060716405569 6:1 68:1 407:1 611:1 1872:1 1873:1 
0.18256690705680705955060716405569 6:1 100:1 142:1 513:1 618:1 2841:1 
-0.18256690705680705955060716405569 4:1 6:1 11:1 86:1 585:1 618:1 
-0.18256690705680705955060716405569 6:1 27:1 513:1 
0.18256690705680705955060716405569 7:1 11:1 27:1 1068:1 2057:1 3948:1 
-0.087739910276178667558610868582036 135:1 142:1 204:1 461:1 1773:1 6127:1 
-0.18256690705680705955060716405569 4:1 6:1 618:1 2459:1 5075:1 5593:1 
0.16459638636606599426670527464012 7:1 27:1 885:1 1589:1 1739:1 1755:1 
0.13800727541840859813326858329674 27:1 50:1 73:1 96:1 990:1 1589:1 
0.18256690705680705955060716405569 7:1 27:1 188:1 461:1 990:1 
-0.18256690705680705955060716405569 7:1 27:1 188:1 908:1 990:1 
-0.18256690705680705955060716405569 7:1 69:1 123:1 188:1 990:1 2441:1 
-0.18256690705680705955060716405569 7:1 188:1 242:1 908:1 990:1 
-0.18256690705680705955060716405569 7:1 27:1 297:1 383:1 990:1 1702:1 
-0.18256690705680705955060716405569 7:1 27:1 96:1 123:1 188:1 2874:1 
0.18256690705680705955060716405569 4:1 6:1 86:1 673:1 2069:1 4165:1 
0.18256690705680705955060716405569 6:1 11:1 68:1 184:1 3684:1 5075:1 
0.18256690705680705955060716405569 6:1 28:1 524:1 618:1 1342:1 
0.18256690705680705955060716405569 402:1 413:1 745:1 919:1 1514:1 5723:1 
0.18256690705680705955060716405569 4:1 11:1 523:1 724:1 1154:1 6400:1 
-0.18256690705680705955060716405569 4:1 11:1 609:1 1499:1 1589:1 2710:1 
-0.080553313597793982370198762055225 6:1 401:1 4283:1 6670:1 6682:1 6685:1 
-0.18256690705680705955060716405569 4:1 6:1 11:1 2613:1 4944:1 5494:1 
0.18256690705680705955060716405569 7:1 27:1 37:1 123:1 276:1 2184:1 
-0.18256690705680705955060716405569 4:1 6:1 11:1 1282:1 3958:1 6990:1 
0.18256690705680705955060716405569 7:1 27:1 63:1 188:1 908:1 1726:1 
0.18256690705680705955060716405569 4:1 86:1 648:1 746:1 1076:1 1910:1 
0.18256690705680705955060716405569 7:1 69:1 123:1 188:1 2195:1 2196:1 
-0.18256690705680705955060716405569 7:1 27:1 63:1 544:1 1739:1 
-0.18256690705680705955060716405569 7:1 63:1 188:1 286:1 662:1 5515:1 
-0.094183410763141420241062462537229 27:1 254:1 346:1 627:1 1015:1 2625:1 
0.18256690705680705955060716405569 4:1 11:1 20:1 112:1 624:1 4183:1 
0.18256690705680705955060716405569 4:1 11:1 20:1 31:1 827:1 
0.18256690705680705955060716405569 4:1 11:1 102:1 4583:1 4588:1 4589:1 
0.18256690705680705955060716405569 4:1 37:1 142:1 402:1 455:1 945:1 
-0.18256690705680705955060716405569 4:1 20:1 37:1 69:1 196:1 
-0.18256690705680705955060716405569 4:1 20:1 101:1 102:1 1055:1 5529:1 
-0.16174167476297376944138761700742 4:1 11:1 69:1 196:1 643:1 644:1 
-0.18256690705680705955060716405569 4:1 37:1 102:1 142:1 293:1 5912:1 
0.047830869488673669054357162622182 7:1 27:1 33:1 197:1 2596:1 3482:1 
0.079532409713769389170145984735427 11:1 27:1 321:1 672:1 2190:1 6544:1 
-0.18256690705680705955060716405569 11:1 278:1 513:1 4690:1 
0.18256690705680705955060716405569 7:1 21:1 27:1 208:1 209:1 1268:1 
0.18256690705680705955060716405569 6:1 7:1 27:1 242:1 2181:1 6531:1 
-0.18256690705680705955060716405569 68:1 401:1 746:1 1355:1 1674:1 3489:1 
-0.18256690705680705955060716405569 7:1 27:1 31:1 967:1 4069:1 4070:1 
-0.18256690705680705955060716405569 7:1 27:1 455:1 624:1 1016:1 
-0.15307968395795173988105375428859 730:1 3062:1 3356:1 
0.18256690705680705955060716405569 4:1 37:1 60:1 102:1 4612:1 
0.18256690705680705955060716405569 4:1 69:1 102:1 612:1 3234:1 3847:1 
0.18256690705680705955060716405569 4:1 102:1 2048:1 4585:1 4586:1 
0.18256690705680705955060716405569 4:1 102:1 234:1 441:1 1430:1 6294:1 
0.18256690705680705955060716405569 4:1 69:1 565:1 966:1 1282:1 4948:1 
-0.18256690705680705955060716405569 4:1 6:1 490:1 618:1 1401:1 1855:1 
0.18256690705680705955060716405569 11:1 523:1 601:1 702:1 1154:1 4951:1 
-0.053937606807064338021451277427332 27:1 86:1 254:1 4500:1 6931:1 6966:1 
-0.18256690705680705955060716405569 4:1 102:1 165:1 188:1 908:1 
-0.16119733402127833787886856953264 4:1 69:1 102:1 750:1 1609:1 6366:1 
0.18256690705680705955060716405569 7:1 11:1 20:1 27:1 101:1 624:1 
0.18256690705680705955060716405569 6:1 7:1 20:1 27:1 624:1 1384:1 
0.18256690705680705955060716405569 6:1 69:1 142:1 165:1 444:1 4620:1 
0.18256690705680705955060716405569 7:1 27:1 188:1 454:1 455:1 457:1 
0.18256690705680705955060716405569 6:1 7:1 27:1 6613:1 6618:1 
-0.18256690705680705955060716405569 7:1 11:1 27:1 457:1 955:1 1762:1 
0.035104635689033013290494267266695 123:1 165:1 2184:1 4436:1 4599:1 
-0.18256690705680705955060716405569 7:1 11:1 27:1 122:1 421:1 879:1 
-0.18256690705680705955060716405569 7:1 11:1 27:1 184:1 4875:1 4888:1 
-0.18256690705680705955060716405569 7:1 11:1 27:1 122:1 1054:1 7004:1 
-0.064652610394112602909544307294709 2376:1 2651:1 3760:1 3787:1 
0.041227733326171522865166707561002 4:1 142:1 4420:1 4506:1 4507:1 
0.18256690705680705955060716405569 4:1 102:1 165:1 4623:1 
0.10737146902535801840095075476711 4:1 154:1 475:1 1010:1 5670:1 5674:1 
-0.18256690705680705955060716405569 20:1 63:1 597:1 598:1 5521:1 
0.18256690705680705955060716405569 11:1 48:1 58:1 438:1 618:1 4844:1 
-0.15376851539104771648958092100656 73:1 102:1 165:1 2519:1 6490:1 6491:1 
-0.18256690705680705955060716405569 4:1 6:1 165:1 1260:1 3489:1 6430:1 
-0.18256690705680705955060716405569 4:1 20:1 101:1 102:1 3625:1 5524:1 
-0.18256690705680705955060716405569 6:1 62:1 102:1 523:1 1449:1 6670:1 
0.0070951620763099005825824683313385 7:1 86:1 123:1 359:1 621:1 3789:1 
0.18256690705680705955060716405569 7:1 11:1 27:1 83:1 272:1 7350:1 
0.18256690705680705955060716405569 7:1 11:1 238:1 272:1 714:1 1016:1 
0.18256690705680705955060716405569 7:1 11:1 114:1 421:1 746:1 908:1 
-0.1177752379771950658193802041751 7:1 27:1 4026:1 5605:1 5607:1 5621:1 
-0.18256690705680705955060716405569 7:1 11:1 27:1 746:1 862:1 
-0.18256690705680705955060716405569 7:1 11:1 27:1 51:1 114:1 
-0.18256690705680705955060716405569 7:1 11:1 413:1 426:1 945:1 2944:1 
-0.18256690705680705955060716405569 7:1 11:1 27:1 1219:1 2251:1 7412:1 
-0.083982780668619902431082380189764 4:1 48:1 165:1 555:1 2941:1 3713:1 
0.18256690705680705955060716405569 4:1 6:1 48:1 3489:1 3854:1 3874:1 
0.11189170615484435311604016760612 6:1 20:1 40:1 69:1 1260:1 1451:1 
0.18256690705680705955060716405569 6:1 101:1 160:1 453:1 
0.18256690705680705955060716405569 4:1 6:1 122:1 946:1 1206:1 3041:1 
0.18256690705680705955060716405569 4:1 6:1 122:1 508:1 1358:1 2012:1 
-0.18256690705680705955060716405569 4:1 6:1 278:1 714:1 2295:1 3295:1 
-0.066229739643970317319876528472378 6:1 11:1 27:1 444:1 456:1 544:1 
-0.0077693711424045965377449540767429 13:1 27:1 1217:1 3470:1 6889:1 
-0.18256690705680705955060716405569 6:1 48:1 193:1 268:1 618:1 6590:1 
-0.18256690705680705955060716405569 4:1 6:1 58:1 238:1 1181:1 4224:1 
0.10167263637613320470531874661901 7:1 11:1 27:1 102:1 1295:1 1614:1 
0.18256690705680705955060716405569 7:1 11:1 27:1 63:1 2636:1 5206:1 
0.18256690705680705955060716405569 7:1 27:1 261:1 457:1 644:1 1304:1 
0.18256690705680705955060716405569 11:1 27:1 55:1 413:1 426:1 1762:1 
0.18256690705680705955060716405569 7:1 11:1 27:1 37:1 469:1 2554:1 
-0.18256690705680705955060716405569 7:1 11:1 27:1 37:1 457:1 
-0.18256690705680705955060716405569 6:1 475:1 760:1 1094:1 4125:1 
0.18256690705680705955060716405569 4:1 6:1 96:1 202:1 335:1 618:1 
-0.070001195583745012829268716814113 27:1 1650:1 1884:1 2815:1 
0.18256690705680705955060716405569 3:1 4:1 6:1 1235:1 5679:1 5817:1 
0.18256690705680705955060716405569 4:1 6:1 165:1 565:1 967:1 4608:1 
0.18256690705680705955060716405569 4:1 6:1 31:1 314:1 663:1 926:1 
0.019740857117297117007126416865503 122:1 1411:1 1458:1 2015:1 3872:1 
-0.18256690705680705955060716405569 6:1 112:1 160:1 453:1 
-0.16794831999718790038755855675845 7:1 27:1 285:1 1188:1 2424:1 
-0.18256690705680705955060716405569 6:1 61:1 96:1 333:1 413:1 7643:1 
-0.18256690705680705955060716405569 6:1 96:1 101:1 428:1 624:1 1415:1 
0.18256690705680705955060716405569 7:1 27:1 48:1 457:1 943:1 1723:1 
0.18256690705680705955060716405569 7:1 11:1 27:1 175:1 708:1 3977:1 
0.18256690705680705955060716405569 7:1 27:1 37:1 48:1 1725:1 3788:1 
0.18256690705680705955060716405569 7:1 27:1 37:1 123:1 276:1 1260:1 
0.18256690705680705955060716405569 11:1 188:1 196:1 323:1 457:1 1580:1 
-0.18256690705680705955060716405569 7:1 11:1 27:1 123:1 188:1 856:1 
-0.18256690705680705955060716405569 7:1 27:1 123:1 188:1 391:1 1225:1 
-0.18256690705680705955060716405569 7:1 27:1 123:1 188:1 406:1 5649:1 
-0.18256690705680705955060716405569 7:1 27:1 123:1 188:1 846:1 5650:1 
0.18256690705680705955060716405569 6:1 96:1 154:1 333:1 1259:1 
0.18256690705680705955060716405569 6:1 112:1 453:1 1895:1 
0.18256690705680705955060716405569 6:1 74:1 96:1 142:1 501:1 1061:1 
0.18256690705680705955060716405569 6:1 142:1 193:1 3624:1 
-0.18256690705680705955060716405569 48:1 142:1 471:1 660:1 5495:1 
-0.18256690705680705955060716405569 48:1 78:1 142:1 618:1 700:1 5854:1 
-0.021104923599673992146152912141588 6:1 28:1 96:1 142:1 857:1 6680:1 
-0.18256690705680705955060716405569 65:1 86:1 142:1 165:1 618:1 7251:1 
0.18256690705680705955060716405569 7:1 27:1 123:1 235:1 1057:1 1924:1 
0.18256690705680705955060716405569 7:1 27:1 123:1 2461:1 4421:1 4501:1 
0.048239896842322091408128414968814 6:1 11:1 1039:1 1866:1 1869:1 1932:1 
0.022035557085704829405337079606397 7:1 27:1 601:1 
-0.18256690705680705955060716405569 27:1 33:1 68:1 209:1 1755:1 2063:1 
-0.087239004765367611504700562363723 206:1 235:1 949:1 2108:1 2296:1 5021:1 
-0.18256690705680705955060716405569 7:1 27:1 33:1 297:1 457:1 5507:1 
-0.18256690705680705955060716405569 7:1 27:1 673:1 1253:1 2099:1 
-0.18256690705680705955060716405569 7:1 27:1 314:1 323:1 475:1 
-0.17304295369993807907071925455966 27:1 457:1 648:1 846:1 848:1 4700:1 
0.18256690705680705955060716405569 61:1 142:1 188:1 857:1 
0.18256690705680705955060716405569 32:1 142:1 626:1 1676:1 
0.18256690705680705955060716405569 73:1 142:1 234:1 817:1 1219:1 3021:1 
0.18256690705680705955060716405569 142:1 660:1 1545:1 1609:1 
-0.18256690705680705955060716405569 74:1 121:1 142:1 188:1 413:1 708:1 
-0.18256690705680705955060716405569 11:1 142:1 234:1 919:1 1676:1 4203:1 
-0.16038454319221728816557970276335 4:1 85:1 358:1 624:1 5466:1 5467:1 
-0.18256690705680705955060716405569 122:1 142:1 353:1 433:1 1605:1 1924:1 
0.18256690705680705955060716405569 6:1 7:1 27:1 216:1 618:1 1449:1 
0.18256690705680705955060716405569 6:1 7:1 27:1 62:1 994:1 1739:1 
0.18256690705680705955060716405569 6:1 7:1 27:1 548:1 618:1 2161:1 
0.18256690705680705955060716405569 6:1 7:1 27:1 524:1 618:1 2294:1 
0.18256690705680705955060716405569 6:1 7:1 15:1 27:1 618:1 
-0.18256690705680705955060716405569 6:1 7:1 27:1 69:1 618:1 2161:1 
-0.18256690705680705955060716405569 6:1 7:1 27:1 618:1 6723:1 
-0.18256690705680705955060716405569 6:1 7:1 27:1 618:1 2508:1 3414:1 
-0.18256690705680705955060716405569 6:1 7:1 165:1 618:1 789:1 1931:1 
-0.18256690705680705955060716405569 6:1 7:1 27:1 68:1 618:1 842:1 
0.18256690705680705955060716405569 24:1 33:1 68:1 142:1 475:1 1140:1 
0.18256690705680705955060716405569 63:1 68:1 142:1 337:1 708:1 1426:1 
0.18256690705680705955060716405569 69:1 142:1 413:1 601:1 702:1 881:1 
0.083249145475870311994270878130919 7:1 102:1 978:1 1642:1 2820:1 
0.18256690705680705955060716405569 122:1 142:1 234:1 956:1 957:1 
-0.18256690705680705955060716405569 60:1 61:1 142:1 160:1 276:1 702:1 
-0.18256690705680705955060716405569 33:1 61:1 142:1 230:1 7626:1 7650:1 
-0.18256690705680705955060716405569 142:1 526:1 1205:1 1206:1 
-0.18256690705680705955060716405569 4:1 61:1 142:1 202:1 1027:1 2196:1 
-0.18256690705680705955060716405569 4:1 7:1 1789:1 4794:1 6359:1 6360:1 
-0.057360328892702788783353184953739 7:1 27:1 68:1 1873:1 3735:1 3740:1 
0.029506713030689579735366123713902 4:1 102:1 1620:1 4267:1 4268:1 4269:1 
0.18256690705680705955060716405569 7:1 27:1 69:1 102:1 122:1 383:1 
0.051703140114754027323318297248989 69:1 142:1 282:1 601:1 1619:1 
-0.18256690705680705955060716405569 7:1 27:1 69:1 123:1 1219:1 4878:1 
-0.18256690705680705955060716405569 27:1 63:1 69:1 158:1 175:1 1016:1 
-0.18256690705680705955060716405569 7:1 27:1 69:1 96:1 1723:1 4262:1 
-0.18256690705680705955060716405569 7:1 27:1 216:1 548:1 978:1 3237:1 
0.16291705443320328439149591304158 4:1 102:1 353:1 4267:1 4268:1 4270:1 
0.18256690705680705955060716405569 4:1 142:1 165:1 353:1 4373:1 4411:1 
0.18256690705680705955060716405569 33:1 142:1 160:1 294:1 353:1 354:1 
0.18256690705680705955060716405569 4:1 142:1 353:1 501:1 921:1 
0.18256690705680705955060716405569 4:1 85:1 142:1 242:1 1332:1 1827:1 
-0.18256690705680705955060716405569 15:1 68:1 142:1 353:1 1040:1 4366:1 
-0.18256690705680705955060716405569 4:1 142:1 618:1 1701:1 2300:1 5977:1 
-0.18256690705680705955060716405569 4:1 37:1 142:1 601:1 626:1 2038:1 
-0.088085744862801407251140517473686 6:1 7:1 27:1 456:1 484:1 540:1 
-0.018709064232383332271325571127818 11:1 142:1 154:1 1561:1 1827:1 2186:1 
0.18256690705680705955060716405569 27:1 69:1 121:1 556:1 916:1 3568:1 
0.18256690705680705955060716405569 7:1 27:1 69:1 1201:1 1401:1 1884:1 
0.18256690705680705955060716405569 7:1 27:1 69:1 101:1 1450:1 1670:1 
-0.013357578229006922959642977843941 11:1 842:1 3102:1 3129:1 3130:1 3131:1 
0.16692965512887081303006198140793 7:1 27:1 63:1 69:1 706:1 1450:1 
-0.027144656756915019890641360689187 7:1 27:1 69:1 1884:1 2103:1 4655:1 
-0.18256690705680705955060716405569 7:1 27:1 33:1 69:1 2773:1 3661:1 
-0.025695784593066352263779350550976 7:1 27:1 69:1 264:1 272:1 7745:1 
0.18256690705680705955060716405569 7:1 27:1 33:1 159:1 243:1 254:1 
-0.18256690705680705955060716405569 7:1 27:1 53:1 69:1 105:1 110:1 
0.18256690705680705955060716405569 4:1 142:1 626:1 1636:1 1637:1 1638:1 
0.18256690705680705955060716405569 6:1 31:1 48:1 1444:1 1499:1 1503:1 
0.18256690705680705955060716405569 61:1 142:1 1411:1 1464:1 1491:1 6408:1 
0.18256690705680705955060716405569 4:1 58:1 142:1 191:1 482:1 554:1 
-0.10332354113672265194523447462416 4:1 27:1 745:1 919:1 2050:1 
-0.18256690705680705955060716405569 4:1 142:1 545:1 753:1 758:1 1253:1 
-0.18256690705680705955060716405569 4:1 142:1 208:1 1253:1 2077:1 2078:1 
-0.18256690705680705955060716405569 4:1 77:1 142:1 188:1 261:1 667:1 
-0.18256690705680705955060716405569 4:1 142:1 261:1 4707:1 4708:1 4709:1 
0.062520994828148032662618049926095 520:1 854:1 1916:1 2238:1 2839:1 2999:1 
0.18256690705680705955060716405569 7:1 11:1 27:1 69:1 303:1 3951:1 
0.18256690705680705955060716405569 7:1 27:1 660:1 846:1 3237:1 3489:1 
0.18256690705680705955060716405569 7:1 27:1 96:1 209:1 428:1 454:1 
0.18256690705680705955060716405569 7:1 27:1 68:1 199:1 643:1 1398:1 
-0.18256690705680705955060716405569 7:1 27:1 73:1 159:1 556:1 5945:1 
-0.058318762269127806530111257643512 353:1 1098:1 1165:1 6129:1 
-0.18256690705680705955060716405569 6:1 7:1 27:1 51:1 173:1 705:1 
0.1448341300367621264921780266377 7:1 47:1 73:1 359:1 699:1 
-0.0011989294323908328276928614286589 41:1 359:1 454:1 455:1 457:1 945:1 
0.18256690705680705955060716405569 4:1 142:1 261:1 272:1 2257:1 2258:1 
0.18256690705680705955060716405569 4:1 142:1 261:1 1543:1 3611:1 6936:1 
0.18256690705680705955060716405569 4:1 142:1 208:1 1425:1 2621:1 
-0.18256690705680705955060716405569 2:1 4:1 11:1 142:1 4129:1 5282:1 
0.10026266043141117412229590399875 7:1 13:1 4057:1 7575:1 7578:1 7579:1 
-0.095040663134725061889085395705479 7:1 1090:1 3269:1 3270:1 
-0.18256690705680705955060716405569 11:1 142:1 208:1 261:1 5616:1 
-0.01971440357494517320313676123078 11:1 52:1 69:1 713:1 719:1 1203:1 
-0.18256690705680705955060716405569 6:1 4125:1 4136:1 
0.18256690705680705955060716405569 7:1 27:1 48:1 188:1 455:1 2103:1 
0.18256690705680705955060716405569 7:1 27:1 61:1 638:1 1646:1 6614:1 
0.18256690705680705955060716405569 7:1 27:1 63:1 159:1 708:1 2186:1 
0.18256690705680705955060716405569 7:1 27:1 105:1 110:1 188:1 242:1 
-0.18256690705680705955060716405569 7:1 27:1 48:1 69:1 1124:1 1425:1 
-0.18256690705680705955060716405569 7:1 27:1 48:1 407:1 561:1 1543:1 
0.0073158662173389262320388759519574 4:1 681:1 925:1 1349:1 2038:1 3286:1 
-0.16440489656979889732113520040002 11:1 142:1 390:1 1713:1 5386:1 
-0.11137525774059831018547583880718 48:1 468:1 1951:1 2222:1 5467:1 5481:1 
0.18256690705680705955060716405569 4:1 122:1 467:1 548:1 730:1 919:1 
0.18256690705680705955060716405569 6:1 11:1 74:1 102:1 585:1 
0.18256690705680705955060716405569 11:1 73:1 1016:1 2391:1 3881:1 
0.18256690705680705955060716405569 4:1 6:1 548:1 2909:1 7702:1 7703:1 
-0.18256690705680705955060716405569 4:1 61:1 96:1 354:1 565:1 1464:1 
-0.18256690705680705955060716405569 4:1 11:1 122:1 441:1 757:1 1754:1 
-0.18256690705680705955060716405569 4:1 6:1 61:1 212:1 565:1 618:1 
-0.18256690705680705955060716405569 11:1 102:1 254:1 417:1 565:1 580:1 
0.18055333736477102712925102423469 13:1 68:1 522:1 955:1 1584:1 3956:1 
0.18256690705680705955060716405569 7:1 13:1 27:1 48:1 1253:1 1254:1 
0.18256690705680705955060716405569 7:1 27:1 261:1 559:1 1823:1 4302:1 
0.18256690705680705955060716405569 7:1 27:1 48:1 508:1 1745:1 3552:1 
0.18256690705680705955060716405569 7:1 27:1 48:1 109:1 353:1 1522:1 
-0.18256690705680705955060716405569 7:1 27:1 300:1 730:1 1032:1 3402:1 
-0.16101141047837733144554306363716 7:1 27:1 48:1 467:1 1873:1 5293:1 
0.027294645163472013027483598079925 173:1 216:1 615:1 969:1 4579:1 4916:1 
-0.18256690705680705955060716405569 7:1 27:1 48:1 885:1 996:1 7485:1 
-0.18256690705680705955060716405569 7:1 27:1 48:1 455:1 1016:1 2649:1 
0.18256690705680705955060716405569 4:1 68:1 565:1 1027:1 1032:1 1124:1 
0.18256690705680705955060716405569 11:1 417:1 513:1 565:1 1132:1 3815:1 
0.18256690705680705955060716405569 4:1 69:1 96:1 618:1 836:1 3002:1 
0.18256690705680705955060716405569 4:1 35:1 69:1 166:1 235:1 264:1 
-0.033664846405957092601024527311893 4:1 39:1 68:1 618:1 689:1 5964:1 
-0.18256690705680705955060716405569 4:1 188:1 261:1 299:1 943:1 2054:1 
-0.18256690705680705955060716405569 27:1 122:1 454:1 1016:1 2742:1 3679:1 
-0.18256690705680705955060716405569 4:1 6:1 68:1 1091:1 1440:1 3048:1 
0.0074871097219964544144943374703871 52:1 68:1 685:1 1426:1 2458:1 2471:1 
0.18256690705680705955060716405569 7:1 27:1 48:1 61:1 252:1 1642:1 
0.18256690705680705955060716405569 7:1 27:1 60:1 122:1 391:1 4783:1 
0.18256690705680705955060716405569 7:1 27:1 300:1 516:1 2376:1 3335:1 
0.17655976264384476426272385651828 27:1 33:1 278:1 1246:1 4898:1 4899:1 
0.18256690705680705955060716405569 7:1 27:1 33:1 122:1 300:1 433:1 
-0.18256690705680705955060716405569 35:1 74:1 142:1 161:1 730:1 6350:1 
-0.057721592305790853094649150989426 7:1 27:1 33:1 122:1 651:1 6270:1 
-0.18256690705680705955060716405569 7:1 11:1 27:1 166:1 957:1 1517:1 
-0.18256690705680705955060716405569 7:1 27:1 300:1 2056:1 
-0.18256690705680705955060716405569 7:1 27:1 300:1 1385:1 4124:1 4125:1 
0.18256690705680705955060716405569 4:1 68:1 101:1 2339:1 7547:1 7553:1 
0.18256690705680705955060716405569 7:1 105:1 110:1 165:1 1322:1 3489:1 
0.18256690705680705955060716405569 4:1 68:1 154:1 526:1 1032:1 3493:1 
-0.18256690705680705955060716405569 16:1 48:1 106:1 139:1 140:1 141:1 
0.18256690705680705955060716405569 4:1 48:1 165:1 583:1 6379:1 6399:1 
-0.18256690705680705955060716405569 4:1 68:1 1091:1 1191:1 1494:1 1711:1 
-0.040524649791277338184425360623209 74:1 102:1 249:1 272:1 664:1 877:1 
-0.18256690705680705955060716405569 4:1 68:1 112:1 388:1 413:1 1730:1 
0.11257421331833845912218095008939 7:1 102:1 157:1 254:1 421:1 7372:1 
-0.18256690705680705955060716405569 48:1 68:1 331:1 565:1 2140:1 2181:1 
0.18256690705680705955060716405569 6:1 7:1 27:1 461:1 885:1 2773:1 
0.18256690705680705955060716405569 6:1 7:1 27:1 730:1 933:1 3240:1 
0.18256690705680705955060716405569 7:1 11:1 20:1 27:1 2441:1 3575:1 
0.086108097833147947963716717367788 6:1 7:1 27:1 789:1 1886:1 1945:1 
0.18256690705680705955060716405569 7:1 11:1 27:1 407:1 565:1 1148:1 
-0.18256690705680705955060716405569 6:1 7:1 27:1 601:1 626:1 1398:1 
-0.18256690705680705955060716405569 27:1 37:1 48:1 651:1 1773:1 6276:1 
-0.18256690705680705955060716405569 102:1 216:1 417:1 565:1 578:1 590:1 
-0.16463297559227538235937515764817 11:1 105:1 110:1 1590:1 3386:1 5900:1 
0.049278685989480479345825614245769 61:1 68:1 500:1 561:1 1238:1 1511:1 
0.18256690705680705955060716405569 63:1 68:1 216:1 413:1 1029:1 1130:1 
0.18256690705680705955060716405569 33:1 63:1 68:1 446:1 457:1 7048:1 
0.18256690705680705955060716405569 63:1 68:1 453:1 500:1 1091:1 4365:1 
0.18256690705680705955060716405569 63:1 68:1 105:1 413:1 1091:1 1185:1 
-0.18256690705680705955060716405569 63:1 68:1 188:1 2554:1 6178:1 6290:1 
0.035456955859453895274491230793501 38:1 160:1 351:1 719:1 878:1 3990:1 
-0.18256690705680705955060716405569 63:1 68:1 413:1 1032:1 1515:1 6569:1 
0.024788208995915557431022335777016 69:1 73:1 158:1 309:1 508:1 1771:1 
0.18256690705680705955060716405569 4:1 6:1 7:1 27:1 331:1 3542:1 
-0.18256690705680705955060716405569 61:1 74:1 556:1 671:1 674:1 675:1 
0.18256690705680705955060716405569 4:1 6:1 7:1 27:1 695:1 2651:1 
0.18256690705680705955060716405569 6:1 27:1 48:1 1775:1 2649:1 2651:1 
0.18256690705680705955060716405569 4:1 6:1 7:1 27:1 1236:1 1466:1 
-0.18256690705680705955060716405569 4:1 6:1 7:1 27:1 453:1 7282:1 
-0.18256690705680705955060716405569 6:1 27:1 62:1 359:1 1246:1 7633:1 
-0.18256690705680705955060716405569 6:1 11:1 27:1 33:1 598:1 730:1 
-0.18256690705680705955060716405569 13:1 15:1 27:1 600:1 885:1 
-0.18256690705680705955060716405569 6:1 7:1 27:1 62:1 933:1 
0.18256690705680705955060716405569 11:1 63:1 68:1 138:1 337:1 1654:1 
0.18256690705680705955060716405569 63:1 68:1 337:1 1873:1 5185:1 5186:1 
0.18256690705680705955060716405569 4:1 130:1 248:1 
0.18256690705680705955060716405569 10:1 11:1 63:1 68:1 149:1 3974:1 
0.18256690705680705955060716405569 63:1 68:1 69:1 547:1 1285:1 
-0.18256690705680705955060716405569 11:1 63:1 68:1 69:1 1750:1 6220:1 
-0.18256690705680705955060716405569 11:1 63:1 68:1 772:1 1127:1 4784:1 
-0.027115699866088898567495490965484 4:1 457:1 2001:1 2184:1 
-0.18256690705680705955060716405569 7:1 63:1 68:1 69:1 209:1 293:1 
-0.08556325391092609033982796518103 7:1 27:1 526:1 1587:1 1889:1 6166:1 
0.18256690705680705955060716405569 6:1 27:1 353:1 354:1 461:1 1202:1 
0.18256690705680705955060716405569 6:1 27:1 39:1 254:1 389:1 2282:1 
0.18256690705680705955060716405569 6:1 27:1 142:1 188:1 461:1 2052:1 
0.18256690705680705955060716405569 6:1 27:1 33:1 52:1 297:1 3533:1 
0.18256690705680705955060716405569 6:1 27:1 33:1 85:1 524:1 618:1 
-0.18256690705680705955060716405569 6:1 27:1 33:1 159:1 327:1 
-0.18256690705680705955060716405569 6:1 27:1 61:1 354:1 359:1 2613:1 
-0.18256690705680705955060716405569 6:1 27:1 159:1 2012:1 2013:1 
-0.18256690705680705955060716405569 6:1 27:1 48:1 305:1 1589:1 3002:1 
-0.035315511481184433395519306486676 4:1 27:1 421:1 6692:1 6693:1 6694:1 
0.18256690705680705955060716405569 7:1 11:1 68:1 1154:1 1354:1 1515:1 
0.18256690705680705955060716405569 7:1 68:1 69:1 126:1 730:1 1023:1 
0.18256690705680705955060716405569 7:1 11:1 69:1 335:1 4247:1 4392:1 
0.18256690705680705955060716405569 7:1 11:1 68:1 355:1 1869:1 1927:1 
0.18256690705680705955060716405569 7:1 11:1 63:1 73:1 282:1 555:1 
-0.18256690705680705955060716405569 7:1 11:1 69:1 446:1 1192:1 4300:1 
-0.18256690705680705955060716405569 7:1 68:1 149:1 337:1 745:1 919:1 
-0.10870551414616171082005990911057 11:1 1195:1 2100:1 5420:1 
0.15831941817580255649211551371991 4:1 7:1 331:1 
-0.18256690705680705955060716405569 7:1 11:1 35:1 69:1 431:1 492:1 
0.18256690705680705955060716405569 6:1 27:1 48:1 63:1 1951:1 2295:1 
0.18256690705680705955060716405569 6:1 27:1 62:1 63:1 268:1 825:1 
0.18256690705680705955060716405569 6:1 27:1 28:1 63:1 370:1 842:1 
0.18256690705680705955060716405569 4:1 6:1 27:1 395:1 626:1 1125:1 
0.18256690705680705955060716405569 6:1 27:1 208:1 209:1 222:1 223:1 
-0.18256690705680705955060716405569 6:1 27:1 63:1 122:1 4982:1 6957:1 
-0.050300769628374056297026584161358 4:1 27:1 106:1 1191:1 3282:1 7627:1 
-0.045327327520363967783278980050454 27:1 142:1 2336:1 2774:1 3357:1 3358:1 
-0.18256690705680705955060716405569 4:1 6:1 27:1 173:1 413:1 825:1 
-0.058728204264129238443281622039649 1098:1 5326:1 6453:1 6661:1 
0.18256690705680705955060716405569 7:1 11:1 261:1 702:1 745:1 919:1 
-0.050051795550657807165606527632917 4:1 173:1 897:1 6453:1 
0.18256690705680705955060716405569 7:1 68:1 745:1 919:1 6622:1 
0.18256690705680705955060716405569 7:1 11:1 408:1 1225:1 1750:1 2001:1 
-0.18256690705680705955060716405569 7:1 303:1 402:1 745:1 919:1 2973:1 
-0.013850305043239245772479506513264 7:1 69:1 1064:1 3411:1 
-0.18256690705680705955060716405569 7:1 74:1 395:1 745:1 919:1 5044:1 
-0.18256690705680705955060716405569 7:1 254:1 395:1 666:1 745:1 919:1 
-0.18256690705680705955060716405569 7:1 353:1 714:1 745:1 919:1 6714:1 
0.18256690705680705955060716405569 4:1 6:1 27:1 73:1 159:1 1394:1 
0.16247421097778003140632563372492 4:1 6:1 27:1 3958:1 4412:1 7231:1 
0.18256690705680705955060716405569 4:1 6:1 27:1 103:1 154:1 4412:1 
0.18256690705680705955060716405569 4:1 6:1 27:1 154:1 2290:1 7689:1 
0.16615480351292491456582922637608 6:1 337:1 413:1 601:1 753:1 1034:1 
-0.18256690705680705955060716405569 6:1 11:1 261:1 301:1 640:1 708:1 
-0.18256690705680705955060716405569 4:1 6:1 27:1 1394:1 2958:1 2985:1 
-0.18256690705680705955060716405569 6:1 11:1 444:1 2841:1 5607:1 
-0.18256690705680705955060716405569 6:1 11:1 27:1 1225:1 2035:1 6564:1 
-0.06905733279147852066159884998342 110:1 663:1 931:1 1999:1 2083:1 2095:1 
0.18256690705680705955060716405569 7:1 351:1 719:1 720:1 745:1 919:1 
0.18256690705680705955060716405569 7:1 39:1 97:1 745:1 919:1 3991:1 
0.069739224000568256212062578924815 7:1 65:1 745:1 919:1 921:1 2999:1 
-0.18256690705680705955060716405569 61:1 65:1 74:1 110:1 354:1 5922:1 
0.18256690705680705955060716405569 122:1 353:1 745:1 919:1 993:1 994:1 
-0.15092072756877625283600252714677 4:1 353:1 496:1 745:1 919:1 994:1 
-0.15059261441951743432099419806036 6:1 7:1 27:1 202:1 242:1 519:1 
-0.18256690705680705955060716405569 7:1 745:1 919:1 2957:1 
-0.18256690705680705955060716405569 7:1 745:1 919:1 
-0.18256690705680705955060716405569 7:1 33:1 606:1 745:1 919:1 7110:1 
0.18256690705680705955060716405569 6:1 11:1 27:1 856:1 1765:1 2589:1 
0.18256690705680705955060716405569 6:1 11:1 27:1 69:1 230:1 303:1 
0.18256690705680705955060716405569 6:1 11:1 27:1 246:1 421:1 2035:1 
0.18256690705680705955060716405569 11:1 27:1 50:1 52:1 7680:1 7681:1 
0.022129847475544348056608612296259 7:1 382:1 612:1 1385:1 1589:1 2729:1 
-0.18256690705680705955060716405569 6:1 11:1 27:1 52:1 278:1 1401:1 
-0.18256690705680705955060716405569 11:1 27:1 188:1 282:1 461:1 746:1 
-0.18256690705680705955060716405569 96:1 304:1 333:1 561:1 979:1 6344:1 
-0.18256690705680705955060716405569 6:1 11:1 27:1 159:1 699:1 1750:1 
0.18256690705680705955060716405569 4:1 7:1 166:1 178:1 745:1 919:1 
0.18256690705680705955060716405569 4:1 7:1 154:1 745:1 919:1 
0.18256690705680705955060716405569 4:1 7:1 331:1 745:1 919:1 
-0.18256690705680705955060716405569 4:1 11:1 37:1 293:1 626:1 945:1 
-0.18256690705680705955060716405569 4:1 7:1 745:1 919:1 1134:1 3362:1 
-0.18256690705680705955060716405569 4:1 7:1 68:1 154:1 403:1 3010:1 
-0.18256690705680705955060716405569 4:1 7:1 341:1 745:1 919:1 3059:1 
-0.18256690705680705955060716405569 4:1 138:1 413:1 500:1 745:1 919:1 
0.18256690705680705955060716405569 11:1 928:1 4805:1 
0.18256690705680705955060716405569 11:1 27:1 353:1 701:1 2099:1 2358:1 
0.18256690705680705955060716405569 11:1 27:1 293:1 604:1 1499:1 7610:1 
0.18256690705680705955060716405569 6:1 11:1 86:1 188:1 446:1 1177:1 
-0.16310934602223106648644090910238 77:1 112:1 184:1 1082:1 6568:1 6569:1 
-0.022557468350028052339606432497021 6:1 7:1 27:1 1701:1 3770:1 3771:1 
-0.0070685363100112643189310013269733 6:1 69:1 453:1 3080:1 4749:1 4759:1 
-0.18256690705680705955060716405569 6:1 39:1 202:1 242:1 
-0.050014011056222530682280336122858 11:1 19:1 27:1 353:1 6560:1 7137:1 
-0.046719699097188746583775298404362 63:1 401:1 820:1 3141:1 4436:1 6308:1 
0.18256690705680705955060716405569 4:1 7:1 154:1 745:1 919:1 5723:1 
-0.13243027149560399058358939328173 4:1 73:1 1215:1 1358:1 1869:1 2443:1 
0.18256690705680705955060716405569 4:1 7:1 247:1 976:1 4303:1 4304:1 
0.10151700049265992287228499435514 4:1 96:1 428:1 2249:1 3502:1 6545:1 
-0.18256690705680705955060716405569 4:1 7:1 122:1 469:1 470:1 471:1 
0.18256690705680705955060716405569 11:1 69:1 282:1 666:1 1589:1 2729:1 
-0.18256690705680705955060716405569 4:1 7:1 165:1 1491:1 3489:1 6432:1 
-0.18256690705680705955060716405569 4:1 6:1 7:1 947:1 1254:1 2697:1 
-0.18256690705680705955060716405569 4:1 7:1 976:1 1549:1 1551:1 1589:1 
0.18256690705680705955060716405569 27:1 33:1 142:1 327:1 455:1 1015:1 
0.18256690705680705955060716405569 27:1 68:1 77:1 138:1 149:1 6044:1 
0.18256690705680705955060716405569 11:1 27:1 133:1 492:1 1153:1 1348:1 
0.18256690705680705955060716405569 11:1 27:1 142:1 211:1 2057:1 4375:1 
0.18256690705680705955060716405569 11:1 27:1 77:1 330:1 438:1 856:1 
-0.12670068979134274655962144606747 27:1 48:1 68:1 100:1 524:1 2101:1 
-0.18256690705680705955060716405569 892:1 1774:1 1775:1 
-0.18256690705680705955060716405569 27:1 142:1 455:1 1015:1 
-0.18256690705680705955060716405569 11:1 27:1 154:1 450:1 817:1 2709:1 
-0.18256690705680705955060716405569 11:1 27:1 68:1 142:1 3639:1 7027:1 
0.025593726983707917876920134858665 4:1 7:1 123:1 165:1 912:1 2184:1 
0.18256690705680705955060716405569 4:1 6:1 7:1 28:1 556:1 654:1 
0.18256690705680705955060716405569 4:1 6:1 7:1 444:1 2196:1 7424:1 
-0.0062978603838708506479360238472509 52:1 165:1 820:1 996:1 5697:1 7501:1 
0.18256690705680705955060716405569 4:1 63:1 117:1 165:1 173:1 413:1 
-0.18256690705680705955060716405569 4:1 6:1 7:1 796:1 2433:1 3701:1 
-0.18256690705680705955060716405569 4:1 7:1 457:1 2001:1 2184:1 5506:1 
-0.041480381732812085515682554159866 4:1 7:1 33:1 353:1 501:1 1646:1 
-0.023018153224803716838664513488766 7:1 33:1 69:1 461:1 3018:1 4558:1 
0.14271507654696460876131425266067 7:1 48:1 61:1 1560:1 1589:1 2441:1 
0.18256690705680705955060716405569 27:1 104:1 142:1 455:1 580:1 1015:1 
0.18256690705680705955060716405569 27:1 38:1 68:1 470:1 1754:1 3606:1 
0.18256690705680705955060716405569 27:1 142:1 202:1 229:1 
0.18256690705680705955060716405569 11:1 27:1 455:1 931:1 1015:1 1233:1 
0.18256690705680705955060716405569 2:1 27:1 198:1 454:1 455:1 5110:1 
0.060562871026508716121306008517422 68:1 101:1 186:1 192:1 7239:1 
-0.18256690705680705955060716405569 27:1 38:1 61:1 68:1 209:1 229:1 
-0.035520996547888268601855799033729 27:1 68:1 142:1 540:1 638:1 2616:1 
-0.18256690705680705955060716405569 6:1 27:1 188:1 202:1 706:1 778:1 
-0.18256690705680705955060716405569 27:1 38:1 77:1 1799:1 2871:1 3733:1 
0.18256690705680705955060716405569 4:1 7:1 69:1 1002:1 1162:1 1191:1 
0.18256690705680705955060716405569 7:1 142:1 454:1 518:1 1739:1 3848:1 
0.16390718947958154982913470121275 4:1 7:1 468:1 518:1 947:1 1875:1 
0.18256690705680705955060716405569 4:1 7:1 48:1 122:1 869:1 2159:1 
0.18256690705680705955060716405569 4:1 7:1 48:1 61:1 686:1 941:1 
-0.18256690705680705955060716405569 2:1 4:1 7:1 944:1 1225:1 1261:1 
-0.18256690705680705955060716405569 4:1 7:1 1951:1 2745:1 5750:1 
-0.18256690705680705955060716405569 4:1 7:1 73:1 159:1 
-0.18256690705680705955060716405569 4:1 7:1 48:1 303:1 2067:1 2188:1 
-0.084091960197104909102705505574704 27:1 37:1 136:1 626:1 1357:1 
0.056993871560465148018437275823089 6:1 27:1 68:1 2841:1 3615:1 6619:1 
0.18256690705680705955060716405569 6:1 27:1 68:1 233:1 266:1 267:1 
-0.073106278633119248233640519174514 31:1 353:1 375:1 6353:1 
0.18256690705680705955060716405569 27:1 63:1 68:1 457:1 772:1 943:1 
0.18256690705680705955060716405569 6:1 27:1 68:1 714:1 2320:1 7438:1 
-0.18256690705680705955060716405569 6:1 27:1 63:1 68:1 772:1 1402:1 
-0.18256690705680705955060716405569 6:1 27:1 63:1 68:1 487:1 1402:1 
-0.18256690705680705955060716405569 6:1 1888:1 2018:1 2574:1 
-0.18256690705680705955060716405569 27:1 63:1 68:1 69:1 825:1 1323:1 
-0.17998227421390697311487372189731 52:1 61:1 165:1 680:1 5588:1 
0.18256690705680705955060716405569 4:1 7:1 45:1 314:1 796:1 1225:1 
0.18256690705680705955060716405569 4:1 7:1 159:1 441:1 
0.18256690705680705955060716405569 7:1 391:1 1253:1 1320:1 
0.11453070354225795834945955675721 4:1 7:1 475:1 565:1 1124:1 2931:1 
0.18256690705680705955060716405569 4:1 7:1 14:1 602:1 1812:1 3741:1 
-0.12329870163665615501180639057566 4:1 7:1 266:1 745:1 1111:1 4644:1 
-0.18256690705680705955060716405569 4:1 7:1 796:1 933:1 2435:1 3422:1 
-0.18256690705680705955060716405569 4:1 7:1 796:1 933:1 1284:1 1801:1 
-0.18256690705680705955060716405569 4:1 7:1 454:1 796:1 2974:1 3682:1 
-0.17909974557575614184656842553522 4:1 7:1 908:1 2186:1 4158:1 6331:1 
0.18256690705680705955060716405569 27:1 37:1 68:1 73:1 142:1 772:1 
0.18256690705680705955060716405569 27:1 61:1 68:1 825:1 1605:1 2709:1 
0.18256690705680705955060716405569 6:1 63:1 68:1 772:1 825:1 1072:1 
0.18256690705680705955060716405569 6:1 68:1 229:1 838:1 1589:1 2484:1 
-0.18256690705680705955060716405569 27:1 68:1 73:1 86:1 772:1 1229:1 
-0.18256690705680705955060716405569 6:1 27:1 68:1 490:1 772:1 2111:1 
-0.18256690705680705955060716405569 34:1 276:1 713:1 746:1 2944:1 3568:1 
-0.18256690705680705955060716405569 4:1 86:1 758:1 927:1 
-0.18256690705680705955060716405569 68:1 93:1 122:1 173:1 446:1 6116:1 
-0.11217535081649085415556044154073 33:1 106:1 699:1 1804:1 2422:1 2973:1 
0.17776504499245288082320826106297 4:1 7:1 1237:1 1453:1 1517:1 1518:1 
0.029193402942487324536191550805597 4:1 7:1 933:1 1342:1 4919:1 4927:1 
0.080532695686929237077755772133969 4:1 7:1 311:1 430:1 933:1 952:1 
-0.18256690705680705955060716405569 7:1 454:1 6838:1 
-0.18256690705680705955060716405569 4:1 7:1 216:1 480:1 6480:1 6481:1 
-0.10284513015446564154764530485409 4:1 7:1 556:1 1079:1 2292:1 
-0.034098764522981772628895669186022 13:1 235:1 1888:1 3053:1 3054:1 3055:1 
-0.1743132268204178880743882018578 4:1 7:1 545:1 701:1 1587:1 2310:1 
0.18256690705680705955060716405569 27:1 68:1 93:1 196:1 402:1 2126:1 
0.18256690705680705955060716405569 27:1 61:1 68:1 471:1 1030:1 1951:1 
0.18256690705680705955060716405569 27:1 110:1 112:1 388:1 446:1 1323:1 
0.18256690705680705955060716405569 27:1 68:1 400:1 413:1 426:1 2177:1 
0.18256690705680705955060716405569 27:1 68:1 214:1 976:1 1091:1 1494:1 
-0.18256690705680705955060716405569 27:1 68:1 110:1 2083:1 2282:1 5538:1 
-0.040260012350852893148189792782432 27:1 351:1 475:1 719:1 720:1 3713:1 
-0.18256690705680705955060716405569 27:1 229:1 272:1 1589:1 3018:1 3019:1 
-0.061550085152130604160269911062642 6:1 1162:1 7296:1 7305:1 
-0.18256690705680705955060716405569 27:1 33:1 68:1 112:1 268:1 522:1 
0.18256690705680705955060716405569 4:1 7:1 282:1 395:1 1079:1 1282:1 
0.163942429413204970867212750818 4:1 7:1 48:1 2186:1 2212:1 2233:1 
0.18256690705680705955060716405569 7:1 27:1 276:1 337:1 688:1 1889:1 
0.18256690705680705955060716405569 4:1 7:1 102:1 186:1 1202:1 2818:1 
0.11109353124110968313864589163131 4:1 7:1 46:1 74:1 3313:1 3314:1 
-0.18256690705680705955060716405569 4:1 7:1 74:1 186:1 1664:1 3000:1 
-0.15891264855790521171030604818952 4:1 7:1 48:1 469:1 1413:1 5071:1 
-0.18256690705680705955060716405569 4:1 7:1 102:1 663:1 3224:1 7475:1 
0.18256690705680705955060716405569 27:1 33:1 110:1 188:1 746:1 908:1 
0.18256690705680705955060716405569 27:1 33:1 375:1 610:1 1711:1 2974:1 
0.18256690705680705955060716405569 6:1 27:1 796:1 808:1 1589:1 2435:1 
0.18256690705680705955060716405569 27:1 33:1 261:1 272:1 877:1 1464:1 
0.18256690705680705955060716405569 27:1 33:1 63:1 272:1 565:1 1051:1 
-0.18256690705680705955060716405569 27:1 33:1 63:1 885:1 2484:1 7490:1 
-0.18256690705680705955060716405569 27:1 33:1 48:1 869:1 1124:1 1138:1 
-0.18256690705680705955060716405569 27:1 33:1 547:1 885:1 1623:1 2484:1 
-0.18256690705680705955060716405569 6:1 27:1 33:1 2250:1 3869:1 4641:1 
-0.18256690705680705955060716405569 27:1 33:1 61:1 227:1 565:1 1124:1 
-0.15960024884389673038853629805089 27:1 272:1 2549:1 5516:1 6805:1 
0.18256690705680705955060716405569 7:1 68:1 338:1 353:1 796:1 3948:1 
0.18256690705680705955060716405569 4:1 68:1 473:1 1385:1 3854:1 
0.18256690705680705955060716405569 63:1 65:1 74:1 254:1 1473:1 3935:1 
0.18256690705680705955060716405569 7:1 38:1 2294:1 2613:1 4944:1 4968:1 
-0.052093587796209331330921088465402 7:1 68:1 595:1 1385:1 2435:1 3484:1 
-0.18256690705680705955060716405569 7:1 68:1 188:1 683:1 684:1 689:1 
-0.18256690705680705955060716405569 7:1 37:1 68:1 3568:1 7139:1 7150:1 
-0.18256690705680705955060716405569 7:1 38:1 142:1 444:1 943:1 3650:1 
-0.18256690705680705955060716405569 7:1 15:1 68:1 1091:1 5743:1 5746:1 
0.18256690705680705955060716405569 27:1 33:1 1363:1 3244:1 
-0.18256690705680705955060716405569 6:1 7:1 27:1 222:1 6039:1 
0.18256690705680705955060716405569 11:1 33:1 142:1 469:1 475:1 1118:1 
0.18256690705680705955060716405569 27:1 33:1 599:1 1219:1 1531:1 2140:1 
0.18256690705680705955060716405569 27:1 48:1 74:1 85:1 561:1 4012:1 
-0.18256690705680705955060716405569 27:1 33:1 825:1 929:1 1363:1 1411:1 
-0.18256690705680705955060716405569 4:1 27:1 282:1 1589:1 1777:1 2441:1 
-0.18256690705680705955060716405569 11:1 27:1 33:1 628:1 2664:1 2677:1 
-0.18256690705680705955060716405569 11:1 27:1 85:1 1154:1 1210:1 
-0.18256690705680705955060716405569 27:1 122:1 282:1 1589:1 1777:1 2441:1 
0.18256690705680705955060716405569 7:1 62:1 68:1 683:1 6747:1 
-0.18256690705680705955060716405569 11:1 524:1 565:1 
0.18256690705680705955060716405569 7:1 11:1 27:1 188:1 713:1 3039:1 
0.18256690705680705955060716405569 7:1 37:1 63:1 68:1 198:1 1261:1 
0.18256690705680705955060716405569 7:1 68:1 427:1 772:1 1096:1 1097:1 
-0.092004371966114342762388389473927 7:1 63:1 68:1 4710:1 6215:1 6235:1 
-0.18256690705680705955060716405569 7:1 63:1 68:1 69:1 713:1 5072:1 
-0.18256690705680705955060716405569 7:1 63:1 96:1 242:1 455:1 1132:1 
-0.18256690705680705955060716405569 46:1 48:1 53:1 62:1 63:1 68:1 
0.18256690705680705955060716405569 4:1 27:1 173:1 522:1 3867:1 3869:1 
0.18256690705680705955060716405569 4:1 11:1 27:1 73:1 1042:1 1230:1 
0.18256690705680705955060716405569 4:1 11:1 27:1 142:1 2268:1 3961:1 
0.18256690705680705955060716405569 11:1 27:1 885:1 976:1 1589:1 5662:1 
0.18256690705680705955060716405569 11:1 27:1 33:1 565:1 1040:1 1142:1 
-0.08732435029703773665676891369003 4:1 11:1 27:1 650:1 748:1 749:1 
-0.12551129013415726620728207763023 7:1 27:1 69:1 81:1 134:1 135:1 
-0.18256690705680705955060716405569 4:1 11:1 27:1 303:1 765:1 
-0.079243532259372334580760366407048 4:1 11:1 13:1 27:1 2744:1 5635:1 
-0.12492831825877090401455404844455 4:1 11:1 27:1 470:1 2969:1 
0.18256690705680705955060716405569 7:1 63:1 96:1 138:1 2990:1 3949:1 
0.052686893590376926432838899927447 7:1 48:1 63:1 556:1 878:1 1253:1 
0.18256690705680705955060716405569 7:1 33:1 63:1 254:1 638:1 5132:1 
0.18256690705680705955060716405569 7:1 63:1 69:1 413:1 618:1 831:1 
-0.0013680064906913778910446666259304 11:1 142:1 1188:1 6212:1 6219:1 6228:1 
-0.18256690705680705955060716405569 7:1 63:1 73:1 446:1 1141:1 1282:1 
-0.18256690705680705955060716405569 7:1 395:1 976:1 1589:1 2981:1 2996:1 
-0.18256690705680705955060716405569 7:1 413:1 808:1 890:1 1479:1 1531:1 
-0.18256690705680705955060716405569 7:1 235:1 395:1 618:1 947:1 3415:1 
-0.18256690705680705955060716405569 7:1 330:1 430:1 856:1 1776:1 3267:1 
0.18256690705680705955060716405569 4:1 11:1 20:1 27:1 346:1 942:1 
0.18256690705680705955060716405569 4:1 11:1 27:1 102:1 1411:1 3951:1 
0.18256690705680705955060716405569 4:1 11:1 20:1 27:1 195:1 1454:1 
0.18256690705680705955060716405569 11:1 27:1 302:1 303:1 304:1 305:1 
0.18256690705680705955060716405569 4:1 6:1 27:1 154:1 303:1 1315:1 
-0.18256690705680705955060716405569 4:1 11:1 20:1 37:1 69:1 196:1 
-0.18256690705680705955060716405569 6:1 20:1 27:1 37:1 154:1 779:1 
-0.18256690705680705955060716405569 6:1 11:1 27:1 159:1 565:1 2168:1 
0.17554301245339293258140855868987 446:1 752:1 1864:1 1947:1 1948:1 1949:1 
0.18256690705680705955060716405569 7:1 242:1 301:1 818:1 1188:1 1777:1 
0.18256690705680705955060716405569 7:1 413:1 890:1 1642:1 1804:1 2991:1 
0.18256690705680705955060716405569 7:1 242:1 413:1 492:1 624:1 890:1 
0.18256690705680705955060716405569 27:1 68:1 994:1 1032:1 3829:1 7428:1 
0.18256690705680705955060716405569 7:1 188:1 242:1 454:1 455:1 457:1 
-0.12935049715419064120247583105083 27:1 748:1 1517:1 2742:1 5508:1 7299:1 
-0.10900362305678458485491688634283 7:1 74:1 200:1 595:1 651:1 2217:1 
-0.18256690705680705955060716405569 242:1 413:1 426:1 457:1 
-0.18256690705680705955060716405569 7:1 165:1 242:1 949:1 2613:1 6689:1 
-0.18256690705680705955060716405569 7:1 242:1 427:1 568:1 2316:1 2317:1 
0.18256690705680705955060716405569 6:1 11:1 27:1 400:1 565:1 779:1 
0.18256690705680705955060716405569 6:1 11:1 37:1 122:1 1845:1 5728:1 
0.18256690705680705955060716405569 6:1 11:1 27:1 183:1 184:1 713:1 
0.18256690705680705955060716405569 6:1 69:1 73:1 688:1 1032:1 1926:1 
-0.18256690705680705955060716405569 6:1 173:1 400:1 967:1 1282:1 1533:1 
-0.18256690705680705955060716405569 6:1 11:1 27:1 204:1 1153:1 3648:1 
-0.10938360026758593701590172031501 6:1 11:1 40:1 69:1 565:1 768:1 
-0.18256690705680705955060716405569 6:1 11:1 27:1 323:1 3376:1 5186:1 
-0.096568826814518934908981862008659 6:1 11:1 27:1 51:1 173:1 1466:1 
0.18256690705680705955060716405569 7:1 242:1 1229:1 2430:1 
0.18256690705680705955060716405569 7:1 242:1 1229:1 2840:1 
0.18256690705680705955060716405569 7:1 27:1 242:1 390:1 892:1 2181:1 
0.18256690705680705955060716405569 7:1 62:1 242:1 4462:1 7574:1 
-0.18256690705680705955060716405569 7:1 122:1 242:1 7296:1 
-0.18256690705680705955060716405569 7:1 242:1 730:1 833:1 
-0.18256690705680705955060716405569 7:1 27:1 242:1 714:1 2392:1 5418:1 
-0.18256690705680705955060716405569 7:1 33:1 353:1 390:1 796:1 4767:1 
-0.18256690705680705955060716405569 7:1 61:1 242:1 313:1 2976:1 2977:1 
0.18256690705680705955060716405569 6:1 173:1 395:1 967:1 1088:1 1124:1 
-0.18256690705680705955060716405569 7:1 11:1 195:1 374:1 1202:1 
-0.060036494275777403661908948606651 27:1 48:1 90:1 454:1 933:1 1235:1 
0.18256690705680705955060716405569 11:1 229:1 235:1 1589:1 2744:1 2745:1 
-0.18256690705680705955060716405569 11:1 122:1 793:1 1782:1 6044:1 
0.1106258876363530041508909107506 7:1 61:1 73:1 1385:1 1589:1 2574:1 
-0.18256690705680705955060716405569 6:1 105:1 110:1 173:1 304:1 6676:1 
-0.18256690705680705955060716405569 6:1 11:1 933:1 2200:1 2876:1 6460:1 
0.18256690705680705955060716405569 7:1 27:1 48:1 242:1 595:1 1231:1 
0.18256690705680705955060716405569 7:1 37:1 353:1 354:1 944:1 3095:1 
0.18256690705680705955060716405569 4:1 7:1 27:1 35:1 159:1 3295:1 
0.18256690705680705955060716405569 7:1 48:1 122:1 159:1 353:1 354:1 
0.18256690705680705955060716405569 7:1 27:1 272:1 446:1 2554:1 2906:1 
-0.18256690705680705955060716405569 7:1 27:1 48:1 557:1 1605:1 
-0.18256690705680705955060716405569 7:1 27:1 159:1 729:1 1238:1 
-0.18256690705680705955060716405569 7:1 27:1 475:1 610:1 1237:1 
-0.18256690705680705955060716405569 7:1 27:1 188:1 402:1 413:1 941:1 
0.18256690705680705955060716405569 6:1 11:1 234:1 571:1 938:1 6615:1 
0.18256690705680705955060716405569 6:1 69:1 115:1 706:1 979:1 1415:1 
0.18256690705680705955060716405569 6:1 142:1 242:1 454:1 2111:1 3848:1 
0.18256690705680705955060716405569 6:1 19:1 212:1 213:1 581:1 1402:1 
0.18256690705680705955060716405569 11:1 20:1 110:1 457:1 2656:1 7678:1 
-0.13816964872840273303999936160835 11:1 27:1 91:1 7268:1 
-0.18256690705680705955060716405569 6:1 69:1 454:1 581:1 1015:1 4078:1 
-0.01379767672516379016511844923798 13:1 27:1 77:1 86:1 2551:1 6589:1 
-0.18256690705680705955060716405569 6:1 162:1 994:1 2736:1 3244:1 
-0.18256690705680705955060716405569 6:1 61:1 581:1 1015:1 1876:1 6590:1 
0.18256690705680705955060716405569 7:1 27:1 402:1 413:1 3150:1 3153:1 
0.18256690705680705955060716405569 7:1 27:1 61:1 159:1 402:1 413:1 
0.18256690705680705955060716405569 7:1 27:1 105:1 413:1 426:1 6210:1 
0.18256690705680705955060716405569 7:1 27:1 63:1 105:1 413:1 2482:1 
0.18256690705680705955060716405569 7:1 27:1 63:1 413:1 3002:1 3963:1 
-0.18256690705680705955060716405569 7:1 27:1 105:1 413:1 4545:1 
-0.18256690705680705955060716405569 7:1 27:1 138:1 413:1 2116:1 
-0.18256690705680705955060716405569 7:1 27:1 413:1 592:1 890:1 6325:1 
-0.18256690705680705955060716405569 4:1 7:1 413:1 1642:1 4889:1 4890:1 
0.18256690705680705955060716405569 745:1 919:1 921:1 
0.18256690705680705955060716405569 6:1 142:1 444:1 1543:1 2140:1 3650:1 
0.18256690705680705955060716405569 6:1 201:1 293:1 581:1 695:1 945:1 
0.18256690705680705955060716405569 6:1 69:1 577:1 730:1 885:1 1623:1 
0.18256690705680705955060716405569 6:1 33:1 927:1 928:1 929:1 930:1 
0.18256690705680705955060716405569 6:1 69:1 157:1 188:1 1002:1 2613:1 
-0.18256690705680705955060716405569 6:1 19:1 63:1 599:1 686:1 5822:1 
-0.18256690705680705955060716405569 6:1 63:1 2140:1 2406:1 2407:1 
-0.18256690705680705955060716405569 6:1 69:1 123:1 188:1 198:1 731:1 
-0.18256690705680705955060716405569 6:1 37:1 62:1 69:1 6663:1 6686:1 
-0.18256690705680705955060716405569 6:1 142:1 242:1 444:1 556:1 769:1 
0.18256690705680705955060716405569 4:1 7:1 27:1 475:1 825:1 2905:1 
0.18256690705680705955060716405569 4:1 7:1 27:1 923:1 1124:1 
0.18256690705680705955060716405569 7:1 138:1 413:1 500:1 3865:1 3866:1 
0.18256690705680705955060716405569 7:1 27:1 430:1 1931:1 3944:1 4307:1 
0.022391865643655112227961012649757 6:1 7:1 86:1 293:1 444:1 4905:1 
-0.18256690705680705955060716405569 4:1 7:1 27:1 1002:1 2186:1 
-0.18256690705680705955060716405569 4:1 7:1 20:1 27:1 1041:1 1274:1 
-0.18256690705680705955060716405569 7:1 27:1 303:1 1379:1 7020:1 
-0.18256690705680705955060716405569 7:1 27:1 33:1 1124:1 1138:1 6786:1 
-0.18256690705680705955060716405569 4:1 7:1 27:1 33:1 2911:1 3346:1 
0.18256690705680705955060716405569 6:1 69:1 123:1 188:1 625:1 1515:1 
0.18256690705680705955060716405569 6:1 63:1 68:1 453:1 769:1 3559:1 
0.18256690705680705955060716405569 6:1 58:1 63:1 242:1 618:1 2318:1 
0.18256690705680705955060716405569 6:1 38:1 524:1 556:1 654:1 2920:1 
0.18256690705680705955060716405569 6:1 388:1 413:1 592:1 1602:1 2584:1 
-0.18256690705680705955060716405569 6:1 63:1 453:1 842:1 1543:1 
-0.18256690705680705955060716405569 6:1 600:1 654:1 1876:1 2905:1 2920:1 
-0.18256690705680705955060716405569 6:1 209:1 524:1 2072:1 3816:1 4115:1 
-0.18256690705680705955060716405569 6:1 112:1 453:1 1545:1 2363:1 
-0.18256690705680705955060716405569 6:1 61:1 132:1 229:1 253:1 695:1 
0.18256690705680705955060716405569 4:1 7:1 27:1 533:1 2186:1 3851:1 
0.18256690705680705955060716405569 4:1 7:1 27:1 4158:1 7243:1 
0.18256690705680705955060716405569 4:1 7:1 27:1 455:1 3601:1 3602:1 
0.15411227875350416716138113315537 4:1 7:1 27:1 3990:1 4030:1 4031:1 
0.13494690150663396499552959539869 4:1 154:1 261:1 746:1 920:1 921:1 
-0.18256690705680705955060716405569 4:1 7:1 27:1 68:1 482:1 4648:1 
-0.18256690705680705955060716405569 4:1 7:1 27:1 618:1 686:1 
0.099171734192023228149359681538044 33:1 507:1 1804:1 
-0.18256690705680705955060716405569 27:1 242:1 1379:1 1385:1 
-0.18256690705680705955060716405569 4:1 27:1 68:1 457:1 1091:1 1253:1 
0.18256690705680705955060716405569 6:1 33:1 52:1 154:1 1138:1 3880:1 
0.13722934061379493675403296037985 6:1 148:1 234:1 833:1 
0.18256690705680705955060716405569 6:1 15:1 33:1 606:1 1635:1 1639:1 
0.18256690705680705955060716405569 6:1 61:1 842:1 
0.0083849295245396852915842345055353 7:1 122:1 131:1 2249:1 2278:1 3502:1 
0.18256690705680705955060716405569 7:1 27:1 37:1 123:1 276:1 2184:1 
-0.039352504670187353486010550795982 6:1 61:1 938:1 1478:1 3851:1 4122:1 
-0.050550962645183897259393290823937 7:1 11:1 142:1 1202:1 6226:1 6227:1 
-0.18256690705680705955060716405569 6:1 33:1 61:1 727:1 1854:1 3353:1 
0.13339941751187042728865606022737 209:1 346:1 418:1 4835:1 
0.18256690705680705955060716405569 4:1 7:1 27:1 68:1 745:1 919:1 
-0.08990422968935773972987135493895 7:1 11:1 27:1 105:1 110:1 7004:1 
0.18256690705680705955060716405569 7:1 13:1 27:1 142:1 556:1 1224:1 
0.18256690705680705955060716405569 4:1 27:1 68:1 142:1 455:1 612:1 
0.18256690705680705955060716405569 7:1 13:1 27:1 1253:1 1274:1 
-0.18256690705680705955060716405569 7:1 27:1 68:1 297:1 919:1 2123:1 
-0.18256690705680705955060716405569 7:1 11:1 27:1 68:1 1580:1 2339:1 
-0.18256690705680705955060716405569 7:1 27:1 69:1 142:1 209:1 293:1 
-0.18256690705680705955060716405569 7:1 27:1 68:1 885:1 
0.055308120899664775516058057291957 6:1 457:1 508:1 1799:1 3971:1 7316:1 
0.15819520019034916114009092780179 6:1 61:1 457:1 508:1 2846:1 7316:1 
0.18256690705680705955060716405569 6:1 202:1 253:1 335:1 618:1 5157:1 
0.18256690705680705955060716405569 6:1 173:1 548:1 
0.18256690705680705955060716405569 6:1 39:1 46:1 687:1 5125:1 
-0.18256690705680705955060716405569 6:1 13:1 166:1 252:1 300:1 346:1 
-0.18256690705680705955060716405569 2:1 6:1 45:1 46:1 137:1 138:1 
-0.18256690705680705955060716405569 6:1 202:1 335:1 353:1 1040:1 3202:1 
-0.18256690705680705955060716405569 6:1 138:1 413:1 500:1 745:1 919:1 
-0.18256690705680705955060716405569 4:1 6:1 173:1 1529:1 1545:1 2359:1 
0.18256690705680705955060716405569 7:1 27:1 68:1 931:1 2250:1 
0.18256690705680705955060716405569 7:1 27:1 37:1 68:1 106:1 1674:1 
0.18256690705680705955060716405569 7:1 20:1 27:1 63:1 68:1 492:1 
0.18256690705680705955060716405569 7:1 27:1 994:1 1839:1 3353:1 
0.18256690705680705955060716405569 7:1 27:1 63:1 68:1 355:1 4033:1 
-0.18256690705680705955060716405569 7:1 27:1 39:1 68:1 931:1 6312:1 
-0.18256690705680705955060716405569 7:1 27:1 63:1 68:1 1028:1 5260:1 
-0.18256690705680705955060716405569 7:1 27:1 68:1 216:1 1253:1 2074:1 
-0.18256690705680705955060716405569 7:1 27:1 68:1 772:1 1188:1 
-0.18256690705680705955060716405569 7:1 20:1 27:1 492:1 556:1 
0.072843832141263178958645596594579 4:1 1210:1 3202:1 5813:1 5828:1 5829:1 
0.18256690705680705955060716405569 2:1 6:1 142:1 444:1 1243:1 1325:1 
-0.1435314735744456782207123524131 11:1 27:1 68:1 142:1 7027:1 
0.18256690705680705955060716405569 6:1 142:1 293:1 699:1 706:1 807:1 
0.18256690705680705955060716405569 6:1 69:1 699:1 885:1 1494:1 7677:1 
-0.18256690705680705955060716405569 6:1 33:1 69:1 713:1 1325:1 1654:1 
-0.18256690705680705955060716405569 278:1 5432:1 
-0.18256690705680705955060716405569 7:1 27:1 967:1 1160:1 4147:1 4363:1 
-0.05695259170636283313493564151031 7:1 27:1 885:1 7484:1 
0.18256690705680705955060716405569 7:1 27:1 216:1 252:1 421:1 919:1 
0.18256690705680705955060716405569 7:1 27:1 61:1 297:1 496:1 1188:1 
0.18256690705680705955060716405569 7:1 27:1 63:1 300:1 333:1 3602:1 
-0.18256690705680705955060716405569 7:1 27:1 142:1 1260:1 2250:1 4217:1 
-0.18256690705680705955060716405569 7:1 27:1 142:1 188:1 706:1 
-0.18256690705680705955060716405569 7:1 27:1 165:1 290:1 1494:1 
-0.050796685490589028877383981352978 2487:1 2701:1 2995:1 
-0.18256690705680705955060716405569 7:1 74:1 94:1 654:1 1144:1 1253:1 
0.18256690705680705955060716405569 6:1 68:1 699:1 933:1 1622:1 4901:1 
0.18256690705680705955060716405569 69:1 565:1 699:1 759:1 3186:1 3187:1 
0.18256690705680705955060716405569 6:1 68:1 69:1 507:1 704:1 1755:1 
0.18256690705680705955060716405569 351:1 556:1 654:1 719:1 720:1 1605:1 
0.18256690705680705955060716405569 6:1 351:1 357:1 427:1 719:1 1775:1 
-0.18256690705680705955060716405569 351:1 355:1 606:1 719:1 720:1 7110:1 
-0.18256690705680705955060716405569 4:1 61:1 577:1 578:1 730:1 919:1 
-0.18256690705680705955060716405569 61:1 268:1 919:1 1082:1 3492:1 3493:1 
-0.18256690705680705955060716405569 7:1 154:1 500:1 5474:1 
0.069558304938789769500395721024688 34:1 37:1 104:1 165:1 2392:1 4593:1 
0.11564033592704069108858533354578 7:1 27:1 142:1 425:1 2184:1 2266:1 
0.18256690705680705955060716405569 7:1 27:1 142:1 1253:1 1739:1 7353:1 
0.18256690705680705955060716405569 7:1 27:1 142:1 209:1 355:1 
0.18256690705680705955060716405569 7:1 27:1 86:1 142:1 278:1 3586:1 
0.18256690705680705955060716405569 7:1 15:1 27:1 142:1 3639:1 6422:1 
-0.18256690705680705955060716405569 7:1 27:1 68:1 142:1 618:1 5838:1 
-0.18256690705680705955060716405569 7:1 27:1 142:1 425:1 3675:1 7017:1 
-0.18256690705680705955060716405569 7:1 27:1 142:1 425:1 4305:1 
-0.18256690705680705955060716405569 7:1 27:1 142:1 427:1 769:1 2347:1 
-0.18256690705680705955060716405569 7:1 27:1 34:1 142:1 1070:1 2916:1 
0.18256690705680705955060716405569 4:1 61:1 304:1 1061:1 1107:1 1108:1 
0.18256690705680705955060716405569 4:1 122:1 730:1 919:1 2047:1 5729:1 
0.18256690705680705955060716405569 61:1 242:1 969:1 1363:1 2525:1 7421:1 
0.18256690705680705955060716405569 4:1 48:1 61:1 413:1 542:1 1479:1 
0.18256690705680705955060716405569 69:1 188:1 547:1 763:1 5649:1 
-0.18256690705680705955060716405569 4:1 38:1 61:1 188:1 763:1 892:1 
-0.18256690705680705955060716405569 4:1 48:1 61:1 314:1 561:1 616:1 
-0.18256690705680705955060716405569 4:1 61:1 272:1 496:1 745:1 919:1 
-0.18256690705680705955060716405569 4:1 508:1 933:1 1089:1 2196:1 2203:1 
0.18256690705680705955060716405569 7:1 27:1 43:1 73:1 455:1 568:1 
0.18256690705680705955060716405569 7:1 27:1 73:1 1799:1 
0.18256690705680705955060716405569 7:1 27:1 713:1 2264:1 6324:1 7391:1 
0.18256690705680705955060716405569 7:1 27:1 38:1 142:1 623:1 836:1 
-0.071986959297633310028707853689411 6:1 69:1 77:1 112:1 646:1 1186:1 
-0.18256690705680705955060716405569 6:1 7:1 27:1 598:1 1229:1 1432:1 
-0.18256690705680705955060716405569 7:1 27:1 35:1 278:1 2118:1 
-0.097699022461643331149971913873742 11:1 27:1 48:1 2666:1 2674:1 2675:1 
-0.18256690705680705955060716405569 7:1 27:1 855:1 2166:1 5690:1 7048:1 
-0.10367024821391709887841159343225 11:1 48:1 451:1 634:1 635:1 636:1 
0.18256690705680705955060716405569 4:1 142:1 618:1 686:1 
0.12737079412277990675406158516125 4:1 33:1 61:1 132:1 7582:1 7615:1 
0.034301627049218748333192507971035 33:1 216:1 707:1 1220:1 1623:1 1624:1 
0.18256690705680705955060716405569 4:1 48:1 745:1 919:1 1260:1 2712:1 
0.18256690705680705955060716405569 4:1 61:1 1055:1 1098:1 
-0.18256690705680705955060716405569 4:1 347:1 967:1 1260:1 4124:1 4152:1 
-0.18256690705680705955060716405569 4:1 33:1 301:1 1191:1 1799:1 4262:1 
-0.18256690705680705955060716405569 4:1 33:1 612:1 944:1 1646:1 1916:1 
-0.034641613957797467993060536173289 65:1 229:1 820:1 1726:1 
-0.18256690705680705955060716405569 4:1 48:1 730:1 919:1 1475:1 
0.18256690705680705955060716405569 6:1 7:1 27:1 557:1 5202:1 
0.18256690705680705955060716405569 6:1 7:1 27:1 169:1 2083:1 4062:1 
0.18256690705680705955060716405569 6:1 7:1 27:1 292:1 346:1 1904:1 
-0.071031002154212041777014974286431 7:1 908:1 1029:1 1079:1 1272:1 2072:1 
0.18256690705680705955060716405569 6:1 7:1 27:1 387:1 1654:1 
-0.15355510622294077371918774588266 6:1 7:1 27:1 39:1 126:1 6322:1 
-0.072469825831679088312675673932972 7:1 27:1 544:1 5917:1 
-0.18256690705680705955060716405569 6:1 7:1 27:1 272:1 303:1 2057:1 
-0.049229369022812392853172269724382 69:1 91:1 229:1 235:1 565:1 5605:1 
-0.18256690705680705955060716405569 6:1 27:1 268:1 447:1 1872:1 2688:1 
0.18256690705680705955060716405569 4:1 242:1 701:1 978:1 2118:1 
0.18256690705680705955060716405569 4:1 353:1 817:1 919:1 6048:1 6086:1 
-0.13924599947522256493392944776133 11:1 48:1 417:1 699:1 4727:1 
0.16323634629119265770924585012835 4:1 910:1 1227:1 2054:1 
0.024229292347784932293297543992594 7:1 27:1 63:1 330:1 601:1 4971:1 
-0.18256690705680705955060716405569 2:1 4:1 242:1 468:1 2391:1 3338:1 
-0.15909214617377112621632306854735 4:1 165:1 242:1 969:1 1550:1 5697:1 
-0.18256690705680705955060716405569 4:1 242:1 3946:1 4158:1 6342:1 6343:1 
-0.18256690705680705955060716405569 4:1 37:1 468:1 618:1 7197:1 7209:1 
-0.18256690705680705955060716405569 4:1 542:1 604:1 928:1 2059:1 6713:1 
0.18256690705680705955060716405569 7:1 27:1 1720:1 2056:1 2057:1 3184:1 
0.18256690705680705955060716405569 6:1 7:1 27:1 303:1 2277:1 
-0.022175079352966434176330778882402 35:1 6305:1 6306:1 
-0.18256690705680705955060716405569 6:1 7:1 211:1 397:1 1740:1 2294:1 
-0.18256690705680705955060716405569 6:1 7:1 27:1 63:1 444:1 2533:1 
-0.18256690705680705955060716405569 6:1 7:1 27:1 59:1 955:1 6242:1 
-0.18256690705680705955060716405569 6:1 7:1 27:1 300:1 2102:1 2113:1 
0.18256690705680705955060716405569 4:1 165:1 468:1 928:1 2196:1 4285:1 
0.18256690705680705955060716405569 4:1 27:1 39:1 468:1 1960:1 3338:1 
0.18256690705680705955060716405569 4:1 165:1 482:1 604:1 2175:1 
0.10015227380090310771443284920679 4:1 268:1 2249:1 3237:1 3502:1 6545:1 
0.18256690705680705955060716405569 102:1 1069:1 1366:1 3297:1 5666:1 
-0.18256690705680705955060716405569 4:1 110:1 565:1 601:1 2095:1 3520:1 
-0.18256690705680705955060716405569 4:1 261:1 338:1 468:1 7172:1 7173:1 
-0.18256690705680705955060716405569 4:1 27:1 402:1 730:1 919:1 2052:1 
-0.18256690705680705955060716405569 4:1 15:1 402:1 2250:1 2308:1 2309:1 
-0.18256690705680705955060716405569 4:1 31:1 73:1 165:1 6890:1 6893:1 
0.18256690705680705955060716405569 6:1 7:1 27:1 242:1 1077:1 7227:1 
0.18256690705680705955060716405569 6:1 7:1 24:1 242:1 444:1 1156:1 
0.16402088657506222468818180004746 6:1 7:1 606:1 727:1 1041:1 2139:1 
0.18256690705680705955060716405569 6:1 7:1 242:1 383:1 668:1 1191:1 
0.18256690705680705955060716405569 6:1 27:1 165:1 353:1 2387:1 4592:1 
-0.18256690705680705955060716405569 33:1 69:1 7746:1 
-0.18256690705680705955060716405569 568:1 1015:1 1064:1 2186:1 2190:1 7751:1 
-0.020540486723152100861922164654061 7:1 11:1 142:1 1202:1 6226:1 6227:1 
-0.17738627029970382986689969584404 6:1 27:1 69:1 110:1 1606:1 5514:1 
0.18256690705680705955060716405569 7:1 27:1 38:1 648:1 2904:1 7725:1 
0.091332066828346741838018374437524 7:1 1864:1 1990:1 1991:1 1992:1 1993:1 
0.16284673398113685971466679802688 13:1 1864:1 1986:1 1987:1 1988:1 1989:1 
-0.18256690705680705955060716405569 7:1 13:1 106:1 195:1 1707:1 6210:1 
-0.18256690705680705955060716405569 6:1 7:1 61:1 387:1 612:1 1170:1 
0.15333167526844745931491331703 7:1 37:1 123:1 2184:1 3969:1 
-0.18256690705680705955060716405569 7:1 242:1 699:1 1411:1 1486:1 1602:1 
-0.014100179295191332326520061712927 353:1 1005:1 1888:1 6448:1 
0.18256690705680705955060716405569 4:1 27:1 69:1 272:1 1015:1 1195:1 
0.18256690705680705955060716405569 4:1 27:1 46:1 63:1 272:1 565:1 
-0.11518716872123425931651041764781 27:1 330:1 427:1 1478:1 2508:1 2972:1 
0.18256690705680705955060716405569 4:1 27:1 110:1 779:1 5932:1 6092:1 
0.157596852556611433104905017899 4:1 35:1 1181:1 1876:1 2250:1 5191:1 
-0.12045652973273920927077540454775 4:1 27:1 142:1 441:1 1032:1 1191:1 
-0.18256690705680705955060716405569 4:1 27:1 278:1 358:1 624:1 
-0.18256690705680705955060716405569 4:1 27:1 86:1 297:1 1188:1 6783:1 
-0.18256690705680705955060716405569 4:1 27:1 272:1 457:1 2184:1 2889:1 
-0.18256690705680705955060716405569 4:1 27:1 63:1 559:1 1812:1 
0.18256690705680705955060716405569 7:1 11:1 188:1 833:1 2199:1 2203:1 
0.11126998394836568051502467824321 7:1 33:1 180:1 243:1 3948:1 4262:1 
0.18256690705680705955060716405569 7:1 19:1 61:1 105:1 262:1 1762:1 
0.18256690705680705955060716405569 7:1 52:1 106:1 628:1 1141:1 4006:1 
-0.18256690705680705955060716405569 7:1 11:1 520:1 1195:1 2250:1 3865:1 
-0.18256690705680705955060716405569 7:1 11:1 38:1 943:1 2313:1 4031:1 
-0.18256690705680705955060716405569 7:1 11:1 388:1 1149:1 3575:1 6245:1 
-0.18256690705680705955060716405569 7:1 58:1 276:1 688:1 1872:1 6267:1 
-0.18256690705680705955060716405569 7:1 11:1 388:1 995:1 2365:1 3073:1 
0.18256690705680705955060716405569 4:1 27:1 470:1 685:1 1531:1 1533:1 
0.0030418358976142911669071633440353 4:1 6:1 27:1 165:1 2387:1 4592:1 
0.18256690705680705955060716405569 6:1 27:1 48:1 73:1 457:1 544:1 
0.18256690705680705955060716405569 4:1 27:1 406:1 1237:1 1357:1 6413:1 
-0.18256690705680705955060716405569 4:1 6:1 27:1 885:1 1097:1 7478:1 
-0.18256690705680705955060716405569 4:1 6:1 27:1 538:1 885:1 1097:1 
0.18256690705680705955060716405569 278:1 2725:1 3555:1 
0.18256690705680705955060716405569 7:1 11:1 248:1 1170:1 1171:1 2105:1 
0.18256690705680705955060716405569 7:1 11:1 39:1 730:1 3988:1 
-0.0034938756072267229159378221226007 278:1 5433:1 5434:1 5435:1 
0.18256690705680705955060716405569 3:1 11:1 63:1 330:1 2871:1 2879:1 
0.18256690705680705955060716405569 7:1 11:1 261:1 617:1 618:1 4937:1 
-0.18256690705680705955060716405569 7:1 11:1 48:1 96:1 544:1 1810:1 
-0.18256690705680705955060716405569 11:1 48:1 779:1 812:1 995:1 1674:1 
-0.18256690705680705955060716405569 11:1 48:1 1243:1 1528:1 2057:1 
-0.18256690705680705955060716405569 7:1 11:1 183:1 365:1 6792:1 6793:1 
0.14269089207514237815921376295591 5:1 6:1 7:1 644:1 1352:1 1398:1 
0.18256690705680705955060716405569 4:1 6:1 27:1 453:1 1054:1 3493:1 
0.18256690705680705955060716405569 4:1 6:1 27:1 278:1 2253:1 3758:1 
0.18256690705680705955060716405569 6:1 20:1 27:1 142:1 513:1 3947:1 
0.18256690705680705955060716405569 6:1 27:1 202:1 885:1 4770:1 5190:1 
-0.18256690705680705955060716405569 6:1 27:1 62:1 159:1 400:1 5254:1 
-0.18256690705680705955060716405569 6:1 27:1 159:1 648:1 2130:1 
-0.18256690705680705955060716405569 6:1 27:1 69:1 102:1 337:1 467:1 
-0.18256690705680705955060716405569 6:1 27:1 6951:1 
0.13895422173566199242067398245126 11:1 269:1 413:1 2190:1 2200:1 2231:1 
0.051691311344505976033136818159619 11:1 413:1 1256:1 2190:1 2200:1 3196:1 
-0.16068329395737979137237516624737 6:1 39:1 261:1 2696:1 5248:1 
0.18256690705680705955060716405569 11:1 48:1 257:1 446:1 561:1 697:1 
0.18256690705680705955060716405569 7:1 11:1 48:1 96:1 252:1 3546:1 
-0.18256690705680705955060716405569 11:1 313:1 355:1 524:1 979:1 3824:1 
-0.18256690705680705955060716405569 7:1 11:1 142:1 779:1 1202:1 6026:1 
-0.18256690705680705955060716405569 11:1 68:1 446:1 3519:1 6304:1 6329:1 
-0.0019341464962140272020041376066501 11:1 28:1 273:1 446:1 755:1 6304:1 
-0.18256690705680705955060716405569 11:1 52:1 355:1 1588:1 2376:1 3542:1 
0.18256690705680705955060716405569 6:1 27:1 48:1 699:1 885:1 4299:1 
0.18256690705680705955060716405569 6:1 27:1 351:1 427:1 719:1 1775:1 
0.18256690705680705955060716405569 6:1 27:1 69:1 2937:1 4408:1 4409:1 
0.18256690705680705955060716405569 6:1 27:1 501:1 1038:1 1065:1 
-0.18256690705680705955060716405569 6:1 27:1 63:1 413:1 602:1 6708:1 
-0.18256690705680705955060716405569 6:1 27:1 885:1 1323:1 1745:1 
-0.18256690705680705955060716405569 6:1 27:1 142:1 208:1 383:1 413:1 
-0.18256690705680705955060716405569 6:1 27:1 32:1 33:1 39:1 4988:1 
-0.18256690705680705955060716405569 6:1 27:1 48:1 453:1 508:1 4135:1 
0.1361631772463904044290217143498 11:1 34:1 68:1 3023:1 6115:1 6116:1 
0.18256690705680705955060716405569 4:1 11:1 337:1 388:1 1146:1 1872:1 
0.18256690705680705955060716405569 11:1 138:1 1079:1 1149:1 1418:1 5335:1 
0.18256690705680705955060716405569 11:1 34:1 68:1 779:1 908:1 6053:1 
0.18256690705680705955060716405569 11:1 42:1 165:1 276:1 1363:1 3082:1 
-0.18256690705680705955060716405569 117:1 165:1 2798:1 2799:1 2800:1 4165:1 
-0.18256690705680705955060716405569 11:1 34:1 48:1 54:1 1105:1 6294:1 
-0.18256690705680705955060716405569 11:1 34:1 184:1 330:1 480:1 1158:1 
0.18256690705680705955060716405569 34:1 779:1 1416:1 4365:1 
-0.18256690705680705955060716405569 4:1 11:1 48:1 68:1 1099:1 3639:1 
0.047620099398035790894123664429571 6:1 7:1 27:1 159:1 2645:1 3573:1 
0.18256690705680705955060716405569 6:1 27:1 33:1 730:1 1358:1 1812:1 
0.18256690705680705955060716405569 6:1 27:1 142:1 148:1 266:1 355:1 
0.18256690705680705955060716405569 6:1 27:1 52:1 62:1 63:1 7428:1 
-0.18256690705680705955060716405569 6:1 7:1 27:1 188:1 908:1 1845:1 
-0.18256690705680705955060716405569 6:1 7:1 27:1 123:1 188:1 793:1 
-0.18256690705680705955060716405569 6:1 7:1 27:1 33:1 2773:1 
0.18256690705680705955060716405569 11:1 74:1 102:1 520:1 873:1 1916:1 
0.18256690705680705955060716405569 11:1 123:1 165:1 559:1 2184:1 3639:1 
0.18256690705680705955060716405569 11:1 480:1 1054:1 1409:1 1528:1 2103:1 
0.18256690705680705955060716405569 11:1 402:1 413:1 593:1 619:1 4265:1 
0.18256690705680705955060716405569 11:1 48:1 1299:1 2622:1 6883:1 
-0.18256690705680705955060716405569 11:1 37:1 846:1 1045:1 1054:1 5094:1 
-9.5928327238961385919555069357045e-05 27:1 68:1 101:1 261:1 931:1 4881:1 
-0.18256690705680705955060716405569 4:1 11:1 63:1 1968:1 2818:1 6314:1 
-0.11640842277173783780863658421367 11:1 96:1 229:1 565:1 838:1 2744:1 
-0.18256690705680705955060716405569 11:1 63:1 165:1 597:1 1751:1 1752:1 
0.18256690705680705955060716405569 6:1 7:1 27:1 188:1 602:1 908:1 
0.18256690705680705955060716405569 6:1 7:1 27:1 452:1 1674:1 1675:1 
0.15556945118419737705828254092921 6:1 7:1 188:1 908:1 1920:1 3878:1 
-0.18256690705680705955060716405569 7:1 27:1 188:1 427:1 881:1 908:1 
-0.18256690705680705955060716405569 7:1 27:1 188:1 701:1 908:1 
-0.18256690705680705955060716405569 6:1 7:1 27:1 252:1 695:1 4192:1 
-0.18256690705680705955060716405569 6:1 7:1 27:1 154:1 617:1 
0.18256690705680705955060716405569 11:1 32:1 33:1 812:1 1043:1 1884:1 
0.18256690705680705955060716405569 11:1 61:1 132:1 523:1 1587:1 1588:1 
0.18256690705680705955060716405569 11:1 63:1 78:1 123:1 184:1 2677:1 
0.18256690705680705955060716405569 11:1 48:1 63:1 1060:1 1401:1 1402:1 
0.18256690705680705955060716405569 11:1 63:1 480:1 
-0.18256690705680705955060716405569 11:1 63:1 96:1 110:1 602:1 2048:1 
0.18165057590644931306833598227968 7:1 27:1 233:1 255:1 260:1 316:1 
-0.18256690705680705955060716405569 63:1 638:1 1511:1 2764:1 2880:1 5651:1 
-0.12780275621156170218206682420714 48:1 580:1 626:1 925:1 3160:1 5926:1 
-0.18256690705680705955060716405569 11:1 63:1 413:1 1499:1 2701:1 2721:1 
0.18256690705680705955060716405569 7:1 27:1 37:1 600:1 2058:1 2250:1 
0.18256690705680705955060716405569 4:1 7:1 27:1 154:1 356:1 1580:1 
0.18256690705680705955060716405569 7:1 27:1 121:1 195:1 2014:1 3489:1 
-0.18256690705680705955060716405569 27:1 33:1 38:1 73:1 1219:1 1916:1 
-0.18256690705680705955060716405569 4:1 27:1 180:1 395:1 820:1 1065:1 
-0.18256690705680705955060716405569 7:1 27:1 52:1 73:1 395:1 5509:1 
-0.18256690705680705955060716405569 27:1 33:1 52:1 663:1 1565:1 3095:1 
0.18256690705680705955060716405569 6:1 63:1 68:1 453:1 522:1 3653:1 
0.093206960067523589308358111793495 63:1 68:1 96:1 508:1 4480:1 4481:1 
0.18256690705680705955060716405569 63:1 597:1 598:1 1082:1 2458:1 
0.18256690705680705955060716405569 6:1 63:1 68:1 487:1 629:1 695:1 
0.18256690705680705955060716405569 63:1 69:1 402:1 457:1 1815:1 
-0.18256690705680705955060716405569 3:1 63:1 68:1 618:1 842:1 7252:1 
-0.18256690705680705955060716405569 63:1 68:1 69:1 457:1 1754:1 7003:1 
-0.18256690705680705955060716405569 6:1 63:1 68:1 390:1 1517:1 7313:1 
0.18256690705680705955060716405569 227:1 242:1 353:1 3948:1 4031:1 6412:1 
-0.056187108682634850920223357206851 19:1 63:1 268:1 421:1 457:1 554:1 
0.18256690705680705955060716405569 11:1 27:1 33:1 64:1 610:1 1762:1 
0.18256690705680705955060716405569 4:1 27:1 395:1 644:1 806:1 3791:1 
0.18256690705680705955060716405569 4:1 27:1 33:1 61:1 1265:1 2612:1 
-0.18256690705680705955060716405569 4:1 27:1 33:1 61:1 704:1 846:1 
-0.18256690705680705955060716405569 4:1 27:1 33:1 61:1 2021:1 2022:1 
-0.18256690705680705955060716405569 4:1 27:1 33:1 61:1 2022:1 2031:1 
-0.18256690705680705955060716405569 4:1 27:1 33:1 61:1 1252:1 6423:1 
-0.10174973293268613216966400614183 4:1 11:1 27:1 1744:1 1761:1 1762:1 
0.18256690705680705955060716405569 6:1 63:1 68:1 93:1 343:1 1091:1 
0.18256690705680705955060716405569 6:1 63:1 68:1 77:1 706:1 4983:1 
0.18256690705680705955060716405569 63:1 188:1 242:1 457:1 990:1 1754:1 
-0.15204145768338844790790176375594 27:1 713:1 2063:1 2103:1 3032:1 5940:1 
-0.18256690705680705955060716405569 63:1 242:1 1185:1 1580:1 
-0.18256690705680705955060716405569 123:1 188:1 242:1 990:1 2430:1 
-0.18256690705680705955060716405569 6:1 188:1 242:1 444:1 769:1 774:1 
-0.070100460723153276698660363308591 11:1 101:1 5969:1 5970:1 
0.18256690705680705955060716405569 27:1 33:1 61:1 173:1 1762:1 3166:1 
0.18256690705680705955060716405569 4:1 27:1 33:1 59:1 2875:1 4952:1 
0.18256690705680705955060716405569 4:1 27:1 61:1 885:1 2773:1 3987:1 
0.18256690705680705955060716405569 4:1 27:1 48:1 61:1 2608:1 4027:1 
-0.18256690705680705955060716405569 4:1 27:1 61:1 68:1 1082:1 
-0.18256690705680705955060716405569 4:1 27:1 61:1 68:1 7476:1 7477:1 
-0.18256690705680705955060716405569 4:1 27:1 61:1 62:1 475:1 1072:1 
-0.076352620333724252610352323245024 4:1 63:1 69:1 690:1 823:1 
-0.13388920244698226946766794753785 4:1 13:1 27:1 61:1 3114:1 3115:1 
0.18256690705680705955060716405569 227:1 242:1 261:1 538:1 3477:1 5905:1 
0.18256690705680705955060716405569 63:1 242:1 390:1 985:1 
0.18256690705680705955060716405569 63:1 242:1 400:1 417:1 1413:1 4445:1 
0.18256690705680705955060716405569 63:1 69:1 73:1 242:1 1394:1 2393:1 
-0.18256690705680705955060716405569 69:1 142:1 885:1 1348:1 1670:1 4674:1 
0.18256690705680705955060716405569 7:1 73:1 885:1 4420:1 
-0.16720588759463975159214044197142 63:1 69:1 1088:1 2392:1 2393:1 2394:1 
-0.18256690705680705955060716405569 32:1 33:1 625:1 897:1 1054:1 2283:1 
-0.18256690705680705955060716405569 7:1 63:1 293:1 1079:1 2315:1 3611:1 
0.11853411519239473448372734765144 4:1 27:1 68:1 175:1 272:1 3993:1 
0.18256690705680705955060716405569 4:1 7:1 27:1 123:1 165:1 559:1 
0.18256690705680705955060716405569 4:1 27:1 68:1 2586:1 2587:1 
-0.18256690705680705955060716405569 7:1 11:1 242:1 5587:1 
-0.18256690705680705955060716405569 4:1 27:1 68:1 461:1 1253:1 4291:1 
-0.18256690705680705955060716405569 4:1 27:1 105:1 110:1 455:1 
-0.18256690705680705955060716405569 4:1 6:1 7:1 27:1 714:1 1394:1 
0.18256690705680705955060716405569 7:1 209:1 1762:1 
0.18256690705680705955060716405569 33:1 61:1 229:1 496:1 748:1 1261:1 
0.18256690705680705955060716405569 33:1 59:1 69:1 401:1 663:1 1048:1 
0.18256690705680705955060716405569 69:1 188:1 557:1 618:1 773:1 1279:1 
0.18256690705680705955060716405569 33:1 58:1 446:1 539:1 936:1 937:1 
0.18256690705680705955060716405569 7:1 69:1 188:1 198:1 401:1 1079:1 
-0.18256690705680705955060716405569 33:1 61:1 74:1 165:1 278:1 496:1 
-0.18256690705680705955060716405569 2:1 33:1 69:1 331:1 894:1 6518:1 
-0.18256690705680705955060716405569 33:1 69:1 356:1 746:1 2306:1 
-0.18256690705680705955060716405569 122:1 132:1 188:1 257:1 892:1 1774:1 
-0.18256690705680705955060716405569 33:1 69:1 276:1 873:1 1008:1 3490:1 
0.18256690705680705955060716405569 4:1 11:1 27:1 105:1 142:1 6292:1 
0.18256690705680705955060716405569 4:1 27:1 85:1 467:1 1332:1 1433:1 
0.18256690705680705955060716405569 4:1 27:1 105:1 142:1 
0.18256690705680705955060716405569 4:1 7:1 27:1 216:1 680:1 1253:1 
-0.18256690705680705955060716405569 4:1 27:1 142:1 559:1 1260:1 
-0.12577786871367807597366095251346 4:1 7:1 27:1 142:1 6218:1 6252:1 
0.14986817400866453420249513328599 4:1 33:1 1244:1 1245:1 1246:1 1247:1 
-0.18256690705680705955060716405569 4:1 7:1 27:1 154:1 1661:1 5206:1 
-0.18256690705680705955060716405569 4:1 7:1 27:1 457:1 668:1 1138:1 
0.18256690705680705955060716405569 7:1 33:1 301:1 714:1 892:1 3648:1 
0.12753413874884719780844477554638 33:1 61:1 69:1 165:1 995:1 1426:1 
0.18256690705680705955060716405569 6:1 135:1 746:1 892:1 1901:1 1902:1 
0.18256690705680705955060716405569 33:1 63:1 68:1 638:1 2074:1 3330:1 
0.18256690705680705955060716405569 33:1 61:1 493:1 638:1 1052:1 1053:1 
-0.18256690705680705955060716405569 33:1 446:1 1401:1 1416:1 2365:1 3606:1 
-0.18256690705680705955060716405569 105:1 203:1 304:1 446:1 3112:1 4589:1 
-0.18256690705680705955060716405569 11:1 33:1 68:1 209:1 257:1 487:1 
-0.18256690705680705955060716405569 33:1 351:1 638:1 719:1 720:1 2696:1 
-0.18256690705680705955060716405569 7:1 663:1 699:1 742:1 7361:1 
0.18256690705680705955060716405569 4:1 7:1 27:1 526:1 1602:1 4424:1 
-0.18256690705680705955060716405569 4:1 7:1 272:1 353:1 3252:1 3802:1 
0.18256690705680705955060716405569 4:1 7:1 27:1 1916:1 7665:1 7666:1 
0.18256690705680705955060716405569 4:1 7:1 27:1 595:1 1225:1 1234:1 
0.18256690705680705955060716405569 27:1 457:1 468:1 724:1 943:1 1845:1 
-0.18256690705680705955060716405569 7:1 27:1 48:1 216:1 878:1 3503:1 
-0.12135604425038903908529164255015 6:1 154:1 880:1 3073:1 3074:1 3075:1 
-0.18256690705680705955060716405569 7:1 27:1 216:1 548:1 680:1 1812:1 
-0.18256690705680705955060716405569 7:1 11:1 27:1 216:1 452:1 4694:1 
0.18256690705680705955060716405569 33:1 68:1 102:1 154:1 1138:1 1873:1 
0.18256690705680705955060716405569 33:1 351:1 719:1 720:1 789:1 2722:1 
0.18256690705680705955060716405569 33:1 227:1 304:1 340:1 1448:1 3571:1 
0.18256690705680705955060716405569 33:1 122:1 304:1 638:1 850:1 4158:1 
0.18256690705680705955060716405569 33:1 96:1 142:1 838:1 1769:1 
-0.18256690705680705955060716405569 33:1 96:1 173:1 428:1 1016:1 2083:1 
-0.18256690705680705955060716405569 33:1 69:1 96:1 1199:1 1225:1 2664:1 
-0.18256690705680705955060716405569 33:1 96:1 297:1 457:1 1060:1 3974:1 
-0.18256690705680705955060716405569 33:1 63:1 165:1 254:1 457:1 602:1 
-0.18256690705680705955060716405569 4:1 33:1 149:1 353:1 606:1 2049:1 
0.18256690705680705955060716405569 7:1 27:1 74:1 209:1 293:1 395:1 
0.18256690705680705955060716405569 7:1 27:1 216:1 293:1 549:1 994:1 
0.18256690705680705955060716405569 7:1 27:1 105:1 216:1 330:1 680:1 
0.18256690705680705955060716405569 7:1 27:1 216:1 293:1 501:1 866:1 
-0.18256690705680705955060716405569 7:1 15:1 27:1 272:1 1261:1 4639:1 
-0.18256690705680705955060716405569 7:1 27:1 64:1 252:1 1762:1 2279:1 
-0.18256690705680705955060716405569 7:1 27:1 492:1 2249:1 3502:1 
-0.18256690705680705955060716405569 7:1 27:1 468:1 618:1 745:1 2111:1 
-0.18256690705680705955060716405569 7:1 27:1 105:1 110:1 745:1 
0.18256690705680705955060716405569 33:1 255:1 297:1 446:1 455:1 1016:1 
0.18256690705680705955060716405569 11:1 63:1 132:1 183:1 446:1 455:1 
0.18256690705680705955060716405569 13:1 228:1 353:1 701:1 949:1 1202:1 
0.18256690705680705955060716405569 6:1 142:1 353:1 354:1 403:1 1677:1 
-0.18256690705680705955060716405569 33:1 142:1 446:1 454:1 455:1 1409:1 
-0.18256690705680705955060716405569 242:1 269:1 353:1 493:1 2387:1 7131:1 
-0.18256690705680705955060716405569 102:1 262:1 353:1 746:1 994:1 3369:1 
-0.020686142931743773526465091094906 6:1 353:1 493:1 994:1 2708:1 3427:1 
-0.18256690705680705955060716405569 228:1 353:1 2904:1 2915:1 
0.18256690705680705955060716405569 7:1 27:1 110:1 188:1 457:1 1938:1 
0.18256690705680705955060716405569 7:1 27:1 105:1 110:1 358:1 
0.18256690705680705955060716405569 4:1 7:1 27:1 109:1 110:1 1483:1 
0.18256690705680705955060716405569 4:1 7:1 27:1 492:1 624:1 
0.18256690705680705955060716405569 7:1 27:1 110:1 188:1 457:1 1754:1 
-0.18256690705680705955060716405569 7:1 27:1 105:1 110:1 690:1 1060:1 
-0.18256690705680705955060716405569 7:1 27:1 105:1 110:1 5889:1 
-0.18256690705680705955060716405569 7:1 27:1 46:1 110:1 610:1 611:1 
-0.18256690705680705955060716405569 31:1 33:1 2685:1 
0.18256690705680705955060716405569 33:1 96:1 327:1 745:1 919:1 1109:1 
0.18256690705680705955060716405569 254:1 268:1 353:1 680:1 796:1 7667:1 
0.18256690705680705955060716405569 262:1 353:1 1550:1 4597:1 4908:1 4909:1 
0.18256690705680705955060716405569 15:1 52:1 69:1 235:1 820:1 1221:1 
-0.18256690705680705955060716405569 69:1 142:1 188:1 293:1 2677:1 
-0.18256690705680705955060716405569 4:1 68:1 198:1 446:1 457:1 3489:1 
-0.18256690705680705955060716405569 4:1 6:1 96:1 142:1 188:1 501:1 
-0.18256690705680705955060716405569 188:1 266:1 430:1 2295:1 4683:1 
0.18256690705680705955060716405569 7:1 27:1 105:1 110:1 1516:1 
0.18256690705680705955060716405569 7:1 27:1 105:1 110:1 4005:1 6866:1 
0.18256690705680705955060716405569 7:1 27:1 105:1 110:1 390:1 
0.18256690705680705955060716405569 7:1 27:1 105:1 110:1 3995:1 4158:1 
-0.18256690705680705955060716405569 7:1 78:1 105:1 110:1 1109:1 2364:1 
-0.018190761012926617845586463317886 7:1 80:1 112:1 128:1 4404:1 6121:1 
-0.18256690705680705955060716405569 27:1 74:1 105:1 110:1 455:1 1144:1 
-0.18256690705680705955060716405569 7:1 27:1 80:1 81:1 105:1 
0.18256690705680705955060716405569 11:1 142:1 188:1 266:1 316:1 897:1 
0.18256690705680705955060716405569 142:1 149:1 165:1 188:1 203:1 461:1 
0.18256690705680705955060716405569 69:1 142:1 454:1 750:1 3542:1 3848:1 
0.18256690705680705955060716405569 6:1 188:1 261:1 461:1 548:1 1158:1 
0.18256690705680705955060716405569 4:1 48:1 142:1 3422:1 5094:1 7679:1 
-0.18256690705680705955060716405569 52:1 63:1 390:1 836:1 2862:1 
-0.18256690705680705955060716405569 63:1 142:1 188:1 708:1 
-0.18256690705680705955060716405569 142:1 188:1 484:1 759:1 760:1 761:1 
0.18256690705680705955060716405569 27:1 73:1 74:1 96:1 475:1 1144:1 
0.18256690705680705955060716405569 7:1 27:1 455:1 6187:1 6188:1 6189:1 
0.18256690705680705955060716405569 7:1 27:1 105:1 114:1 1786:1 7681:1 
0.18256690705680705955060716405569 7:1 105:1 110:1 765:1 1976:1 2047:1 
-0.18256690705680705955060716405569 7:1 27:1 337:1 508:1 548:1 680:1 
-0.18256690705680705955060716405569 7:1 20:1 27:1 73:1 355:1 5530:1 
-0.18256690705680705955060716405569 13:1 27:1 73:1 235:1 1872:1 2564:1 
-0.18256690705680705955060716405569 7:1 27:1 73:1 1430:1 3477:1 
0.18256690705680705955060716405569 52:1 110:1 142:1 188:1 457:1 1108:1 
0.18256690705680705955060716405569 63:1 142:1 412:1 708:1 1507:1 2196:1 
0.18256690705680705955060716405569 63:1 142:1 618:1 708:1 836:1 868:1 
0.18256690705680705955060716405569 63:1 142:1 212:1 708:1 4007:1 
0.18256690705680705955060716405569 27:1 63:1 68:1 188:1 457:1 2229:1 
-0.18256690705680705955060716405569 63:1 132:1 142:1 413:1 708:1 
-0.18256690705680705955060716405569 63:1 142:1 708:1 818:1 
-0.18256690705680705955060716405569 63:1 142:1 351:1 708:1 719:1 720:1 
-0.18256690705680705955060716405569 11:1 142:1 520:1 708:1 6418:1 6422:1 
0.18256690705680705955060716405569 7:1 27:1 493:1 508:1 863:1 1225:1 
-0.044996553143575382383012595255423 7:1 11:1 493:1 610:1 699:1 2313:1 
0.18256690705680705955060716405569 7:1 27:1 300:1 1060:1 1430:1 1607:1 
0.18256690705680705955060716405569 7:1 27:1 355:1 446:1 648:1 6091:1 
-0.18256690705680705955060716405569 27:1 272:1 457:1 2184:1 
0.18256690705680705955060716405569 142:1 450:1 1101:1 
-0.18256690705680705955060716405569 7:1 27:1 457:1 526:1 5484:1 6208:1 
0.18256690705680705955060716405569 63:1 242:1 508:1 1229:1 
0.18256690705680705955060716405569 6:1 390:1 467:1 688:1 1649:1 1903:1 
0.18256690705680705955060716405569 11:1 142:1 180:1 308:1 846:1 2168:1 
0.089381131082152995293022001987993 69:1 1649:1 2199:1 2267:1 2269:1 2270:1 
0.18256690705680705955060716405569 11:1 142:1 413:1 426:1 681:1 1080:1 
-0.18256690705680705955060716405569 11:1 52:1 142:1 401:1 1043:1 2128:1 
-0.18256690705680705955060716405569 96:1 142:1 308:1 748:1 838:1 1112:1 
-0.18256690705680705955060716405569 48:1 149:1 337:1 561:1 624:1 1877:1 
-0.18256690705680705955060716405569 68:1 122:1 142:1 316:1 367:1 1109:1 
0.18256690705680705955060716405569 13:1 27:1 69:1 110:1 457:1 2083:1 
0.18256690705680705955060716405569 7:1 27:1 188:1 457:1 5052:1 
0.18256690705680705955060716405569 7:1 27:1 457:1 943:1 1379:1 1755:1 
0.18256690705680705955060716405569 7:1 13:1 27:1 1812:1 3837:1 4013:1 
0.18256690705680705955060716405569 7:1 27:1 188:1 444:1 457:1 
-0.18256690705680705955060716405569 6:1 7:1 27:1 123:1 188:1 793:1 
-0.18256690705680705955060716405569 7:1 13:1 27:1 85:1 1224:1 6321:1 
-0.18256690705680705955060716405569 13:1 27:1 69:1 457:1 779:1 1883:1 
-0.18256690705680705955060716405569 7:1 188:1 304:1 522:1 1221:1 1755:1 
0.18256690705680705955060716405569 4:1 62:1 304:1 337:1 421:1 1282:1 
0.18256690705680705955060716405569 4:1 142:1 441:1 2295:1 2661:1 7686:1 
0.18256690705680705955060716405569 48:1 96:1 142:1 425:1 1757:1 2266:1 
0.18256690705680705955060716405569 4:1 149:1 154:1 337:1 842:1 4987:1 
-0.18256690705680705955060716405569 4:1 37:1 105:1 110:1 601:1 2357:1 
-0.18256690705680705955060716405569 4:1 48:1 353:1 496:1 730:1 919:1 
-0.0957452380519309420581208769363 337:1 538:1 817:1 5303:1 6890:1 6908:1 
0.18256690705680705955060716405569 6:1 7:1 80:1 188:1 695:1 881:1 
0.18256690705680705955060716405569 7:1 27:1 561:1 841:1 878:1 5219:1 
0.18256690705680705955060716405569 6:1 7:1 27:1 391:1 548:1 1614:1 
0.076324331545110507546425537839241 7:1 61:1 94:1 188:1 390:1 5114:1 
-0.18256690705680705955060716405569 6:1 27:1 142:1 300:1 1609:1 6345:1 
-0.18256690705680705955060716405569 7:1 27:1 63:1 154:1 412:1 457:1 
0.082865593161483286355206701045972 223:1 353:1 978:1 3223:1 5632:1 7659:1 
-0.18256690705680705955060716405569 6:1 7:1 27:1 111:1 327:1 6224:1 
0.18256690705680705955060716405569 204:1 565:1 779:1 1352:1 6113:1 6114:1 
0.18256690705680705955060716405569 44:1 69:1 112:1 540:1 1323:1 5192:1 
0.18256690705680705955060716405569 73:1 74:1 85:1 1260:1 1589:1 3208:1 
0.18256690705680705955060716405569 4:1 11:1 122:1 471:1 578:1 5165:1 
0.18256690705680705955060716405569 73:1 471:1 1188:1 3039:1 3290:1 3291:1 
0.18256690705680705955060716405569 69:1 106:1 402:1 508:1 648:1 2175:1 
-0.18256690705680705955060716405569 106:1 255:1 976:1 1589:1 2169:1 3014:1 
0.00033968526150122860078617303969395 6:1 7:1 159:1 242:1 1019:1 1020:1 
-0.18256690705680705955060716405569 214:1 255:1 765:1 976:1 1589:1 2703:1 
-0.18256690705680705955060716405569 201:1 337:1 386:1 461:1 628:1 979:1 
0.18256690705680705955060716405569 7:1 27:1 123:1 885:1 1385:1 6409:1 
0.18256690705680705955060716405569 6:1 7:1 27:1 1739:1 2647:1 3346:1 
0.11720502795003268081686087498383 6:1 7:1 27:1 1251:1 2891:1 2892:1 
0.18256690705680705955060716405569 6:1 7:1 27:1 726:1 2278:1 5120:1 
-0.18256690705680705955060716405569 6:1 7:1 74:1 121:1 3493:1 3496:1 
-0.18256690705680705955060716405569 6:1 7:1 27:1 74:1 138:1 500:1 
-0.091217582823695450566781062207156 6:1 7:1 27:1 885:1 1850:1 5564:1 
-0.18256690705680705955060716405569 6:1 7:1 27:1 885:1 7486:1 7487:1 
-0.18256690705680705955060716405569 4:1 6:1 7:1 213:1 235:1 695:1 
0.18256690705680705955060716405569 11:1 48:1 61:1 101:1 252:1 429:1 
0.18256690705680705955060716405569 11:1 48:1 63:1 68:1 3639:1 4291:1 
-0.022321523889739611212768011228036 11:1 27:1 68:1 2024:1 2710:1 5714:1 
0.18256690705680705955060716405569 11:1 20:1 61:1 663:1 666:1 979:1 
-0.18256690705680705955060716405569 11:1 35:1 395:1 442:1 661:1 1225:1 
-0.18256690705680705955060716405569 11:1 48:1 101:1 112:1 1029:1 1641:1 
-0.16976687061289497115978974761674 11:1 27:1 61:1 330:1 680:1 5978:1 
-0.18256690705680705955060716405569 11:1 68:1 209:1 254:1 413:1 752:1 
0.18256690705680705955060716405569 6:1 7:1 37:1 496:1 604:1 2057:1 
0.18256690705680705955060716405569 6:1 7:1 74:1 186:1 602:1 5131:1 
0.18256690705680705955060716405569 4:1 6:1 7:1 28:1 346:1 1394:1 
0.18256690705680705955060716405569 6:1 7:1 611:1 1911:1 1921:1 1922:1 
-0.18256690705680705955060716405569 6:1 7:1 618:1 1775:1 2722:1 7201:1 
-0.18256690705680705955060716405569 6:1 7:1 188:1 5665:1 6509:1 6646:1 
-0.12613703364338219037321664472984 848:1 923:1 3666:1 
-0.18256690705680705955060716405569 6:1 7:1 69:1 159:1 1845:1 2083:1 
0.18256690705680705955060716405569 11:1 13:1 27:1 200:1 894:1 1707:1 
0.18256690705680705955060716405569 11:1 27:1 234:1 323:1 976:1 1221:1 
0.18256690705680705955060716405569 11:1 27:1 197:1 257:1 493:1 2274:1 
0.18256690705680705955060716405569 11:1 27:1 487:1 500:1 1296:1 1297:1 
0.18256690705680705955060716405569 11:1 27:1 102:1 112:1 188:1 457:1 
-0.18256690705680705955060716405569 11:1 27:1 302:1 2271:1 
-0.18256690705680705955060716405569 11:1 27:1 37:1 3166:1 5073:1 5095:1 
-0.18256690705680705955060716405569 112:1 142:1 753:1 1206:1 1409:1 
-0.18256690705680705955060716405569 11:1 27:1 229:1 615:1 1315:1 2603:1 
0.18256690705680705955060716405569 6:1 7:1 69:1 105:1 3850:1 3868:1 
0.18256690705680705955060716405569 6:1 52:1 386:1 779:1 1097:1 4859:1 
0.18256690705680705955060716405569 6:1 69:1 484:1 2111:1 7575:1 
0.18256690705680705955060716405569 6:1 7:1 69:1 618:1 730:1 4918:1 
0.18256690705680705955060716405569 4:1 6:1 7:1 513:1 1872:1 6874:1 
-0.18256690705680705955060716405569 6:1 61:1 69:1 1602:1 2019:1 3688:1 
0.014188135163876300706697897169306 142:1 148:1 204:1 282:1 283:1 284:1 
0.097843949955142936469876246974309 7:1 618:1 777:1 1433:1 4947:1 
0.18256690705680705955060716405569 7:1 11:1 165:1 4584:1 
0.18256690705680705955060716405569 11:1 27:1 1315:1 2049:1 7239:1 
0.18256690705680705955060716405569 11:1 27:1 625:1 1008:1 1009:1 
0.18256690705680705955060716405569 11:1 27:1 654:1 748:1 7704:1 7723:1 
0.13676930874723908226897606255079 11:1 27:1 885:1 1363:1 7003:1 7516:1 
-0.18256690705680705955060716405569 11:1 27:1 102:1 165:1 654:1 
-0.18256690705680705955060716405569 7:1 11:1 27:1 175:1 2105:1 2390:1 
-0.18256690705680705955060716405569 7:1 11:1 27:1 109:1 2172:1 2405:1 
-0.18256690705680705955060716405569 7:1 27:1 102:1 438:1 4844:1 5131:1 
-0.18256690705680705955060716405569 27:1 33:1 63:1 402:1 638:1 2712:1 
0.18256690705680705955060716405569 6:1 69:1 142:1 261:1 618:1 708:1 
0.18256690705680705955060716405569 6:1 61:1 74:1 85:1 561:1 4917:1 
0.18256690705680705955060716405569 6:1 37:1 68:1 69:1 91:1 3923:1 
0.18256690705680705955060716405569 6:1 69:1 181:1 705:1 1733:1 6881:1 
0.061078010502932975067658105672308 48:1 188:1 229:1 299:1 1502:1 5301:1 
-0.11648274878742881366378014718066 162:1 304:1 704:1 1032:1 1531:1 
-0.06537840485026814862923316695742 6:1 15:1 74:1 1068:1 3411:1 6499:1 
-0.18256690705680705955060716405569 6:1 58:1 1202:1 2253:1 6129:1 6856:1 
0.18256690705680705955060716405569 7:1 27:1 33:1 102:1 159:1 
0.18256690705680705955060716405569 7:1 27:1 33:1 176:1 2862:1 3958:1 
0.18256690705680705955060716405569 7:1 27:1 80:1 159:1 173:1 353:1 
0.18256690705680705955060716405569 7:1 27:1 209:1 2222:1 2862:1 3107:1 
-0.18256690705680705955060716405569 7:1 27:1 492:1 493:1 599:1 604:1 
-0.18256690705680705955060716405569 7:1 27:1 142:1 561:1 708:1 7765:1 
-0.18256690705680705955060716405569 7:1 101:1 5537:1 
-0.18256690705680705955060716405569 7:1 27:1 33:1 1298:1 1677:1 
-0.18256690705680705955060716405569 7:1 27:1 48:1 391:1 812:1 3184:1 
0.18256690705680705955060716405569 6:1 11:1 73:1 796:1 933:1 1845:1 
0.18256690705680705955060716405569 6:1 11:1 111:1 112:1 489:1 940:1 
0.18256690705680705955060716405569 2:1 11:1 73:1 759:1 1067:1 1068:1 
0.18256690705680705955060716405569 6:1 188:1 242:1 457:1 990:1 
-0.019561850953160073857128864460719 7:1 27:1 33:1 4876:1 4894:1 
-0.18256690705680705955060716405569 1:1 6:1 11:1 533:1 1835:1 5890:1 
-0.18256690705680705955060716405569 11:1 188:1 702:1 727:1 736:1 
-0.040639967595724711679761043114922 4:1 353:1 615:1 1154:1 4071:1 4072:1 
-0.18256690705680705955060716405569 6:1 11:1 30:1 175:1 1009:1 5935:1 
0.18256690705680705955060716405569 4:1 7:1 27:1 165:1 559:1 
0.18256690705680705955060716405569 7:1 27:1 58:1 229:1 581:1 2162:1 
0.039062662137682925556081414697474 7:1 27:1 1337:1 2889:1 2890:1 2895:1 
0.18256690705680705955060716405569 7:1 27:1 316:1 699:1 2613:1 4944:1 
0.18256690705680705955060716405569 7:1 27:1 69:1 418:1 668:1 2285:1 
-0.18256690705680705955060716405569 4:1 7:1 27:1 559:1 701:1 7508:1 
-0.095885451685134917565456191823614 7:1 27:1 73:1 159:1 2611:1 5945:1 
-0.18256690705680705955060716405569 7:1 27:1 242:1 370:1 1394:1 2088:1 
0.032440522532751280004870153561569 6:1 11:1 61:1 390:1 601:1 612:1 
0.18256690705680705955060716405569 11:1 63:1 68:1 1027:1 1028:1 1029:1 
0.18256690705680705955060716405569 6:1 11:1 854:1 1060:1 1191:1 7624:1 
-0.18256690705680705955060716405569 96:1 261:1 796:1 1477:1 2222:1 7028:1 
0.07509943559378287614158864471392 61:1 242:1 1248:1 3623:1 
-0.095390930349139230193244998190494 11:1 63:1 699:1 2278:1 3648:1 7272:1 
-0.18256690705680705955060716405569 11:1 108:1 109:1 110:1 111:1 112:1 
-0.18256690705680705955060716405569 11:1 278:1 513:1 4690:1 
0.18256690705680705955060716405569 7:1 27:1 62:1 207:1 924:1 925:1 
0.18256690705680705955060716405569 27:1 30:1 615:1 2113:1 2282:1 2596:1 
-0.18256690705680705955060716405569 7:1 11:1 27:1 102:1 2605:1 7004:1 
0.18256690705680705955060716405569 27:1 48:1 442:1 638:1 7392:1 7393:1 
-0.18256690705680705955060716405569 7:1 27:1 61:1 1363:1 1756:1 2525:1 
-0.18256690705680705955060716405569 7:1 27:1 61:1 549:1 885:1 7484:1 
-0.18256690705680705955060716405569 7:1 27:1 61:1 202:1 1938:1 2625:1 
0.18256690705680705955060716405569 33:1 101:1 254:1 604:1 2059:1 5530:1 
0.18256690705680705955060716405569 4:1 96:1 101:1 365:1 428:1 3652:1 
-0.084646292800621081298118042468559 62:1 2172:1 4851:1 6485:1 6486:1 6487:1 
0.18256690705680705955060716405569 11:1 175:1 702:1 1004:1 3668:1 7679:1 
0.18256690705680705955060716405569 11:1 69:1 388:1 752:1 4928:1 6056:1 
-0.18256690705680705955060716405569 4:1 20:1 353:1 663:1 779:1 854:1 
-0.18256690705680705955060716405569 20:1 37:1 68:1 69:1 641:1 685:1 
-0.18256690705680705955060716405569 4:1 68:1 618:1 1873:1 2989:1 2990:1 
-0.18256690705680705955060716405569 20:1 48:1 69:1 496:1 2616:1 
-0.18256690705680705955060716405569 20:1 68:1 779:1 3873:1 
0.18256690705680705955060716405569 7:1 61:1 121:1 142:1 708:1 3489:1 
0.18256690705680705955060716405569 7:1 27:1 61:1 1225:1 1278:1 1279:1 
0.18256690705680705955060716405569 7:1 61:1 121:1 204:1 276:1 6626:1 
-0.078254232674101406597166885603656 228:1 353:1 2904:1 2915:1 
-0.18256690705680705955060716405569 27:1 61:1 209:1 272:1 2046:1 2047:1 
-0.18256690705680705955060716405569 7:1 27:1 61:1 455:1 581:1 582:1 
-0.18256690705680705955060716405569 7:1 27:1 61:1 94:1 2014:1 
-0.12558321819093334892336599750706 7:1 33:1 61:1 222:1 2400:1 4726:1 
-0.18256690705680705955060716405569 7:1 27:1 184:1 586:1 2079:1 4647:1 
0.18256690705680705955060716405569 4:1 68:1 214:1 216:1 4291:1 6418:1 
0.18256690705680705955060716405569 4:1 68:1 96:1 545:1 935:1 1354:1 
0.18256690705680705955060716405569 4:1 508:1 885:1 1203:1 2183:1 4488:1 
-0.15144274651088840411006231079227 102:1 1778:1 4082:1 
0.18256690705680705955060716405569 20:1 69:1 158:1 401:1 421:1 461:1 
-0.18256690705680705955060716405569 4:1 6:1 142:1 188:1 702:1 1060:1 
-0.18256690705680705955060716405569 4:1 35:1 96:1 121:1 186:1 1548:1 
-0.18256690705680705955060716405569 4:1 69:1 96:1 134:1 293:1 5654:1 
0.18256690705680705955060716405569 7:1 27:1 326:1 353:1 2610:1 2611:1 
0.18256690705680705955060716405569 7:1 27:1 38:1 63:1 110:1 278:1 
0.18256690705680705955060716405569 7:1 27:1 39:1 272:1 2150:1 5605:1 
0.18256690705680705955060716405569 7:1 27:1 61:1 262:1 272:1 927:1 
-0.18256690705680705955060716405569 7:1 27:1 272:1 1225:1 1717:1 7367:1 
-0.0059606481708313081152583734478867 73:1 1702:1 1704:1 1705:1 1706:1 
-0.18256690705680705955060716405569 7:1 27:1 216:1 446:1 686:1 955:1 
0.18256690705680705955060716405569 6:1 11:1 446:1 524:1 601:1 612:1 
0.18256690705680705955060716405569 4:1 142:1 188:1 238:1 461:1 714:1 
0.18256690705680705955060716405569 4:1 85:1 142:1 173:1 1109:1 4934:1 
0.18256690705680705955060716405569 4:1 188:1 746:1 908:1 4008:1 4009:1 
0.18256690705680705955060716405569 6:1 96:1 257:1 687:1 1042:1 1774:1 
0.016157502320431955944446400508241 4:1 7:1 173:1 1114:1 1693:1 5728:1 
-0.18256690705680705955060716405569 110:1 142:1 173:1 461:1 1210:1 1221:1 
-0.18256690705680705955060716405569 4:1 272:1 461:1 943:1 3080:1 3083:1 
-0.11263137907407430593487163150712 4:1 13:1 91:1 278:1 654:1 2611:1 
0.18256690705680705955060716405569 7:1 11:1 15:1 27:1 1195:1 7672:1 
-0.10074941967204591175555350446302 11:1 27:1 198:1 457:1 1773:1 1777:1 
-0.081187859385114441446162913962326 7:1 11:1 27:1 687:1 1636:1 5939:1 
