SVM-light Version V5.00
2 # kernel type
3 # kernel parameter -d 
0.005 # kernel parameter -g 
1 # kernel parameter -s 
1 # kernel parameter -r 
empty# kernel parameter -u 
9531 # highest feature index 
11600 # number of training documents 
7236 # number of support vectors plus 1 
-10.536059 # threshold b, each following line is a SV (starting with alpha*y)
-19.056828785224912081730508361943 5:1 7:1 51:1 96:1 779:1 2125:1 
-19.056828785224912081730508361943 5:1 13:1 128:1 362:1 1552:1 2831:1 
-19.056828785224912081730508361943 5:1 11:1 141:1 774:1 1552:1 8269:1 
-10.450733923365199018462590174749 5:1 812:1 909:1 976:1 4215:1 6955:1 
19.056828785224912081730508361943 5:1 8:1 28:1 190:1 431:1 8376:1 
19.056828785224912081730508361943 13:1 62:1 78:1 332:1 3162:1 3384:1 
3.6265949438361815282405586913228 64:1 259:1 534:1 1499:1 2593:1 
19.056828785224912081730508361943 50:1 64:1 439:1 534:1 3041:1 5567:1 
6.8992721592484249626409109623637 123:1 180:1 271:1 3819:1 5602:1 
19.056828785224912081730508361943 5:1 141:1 215:1 218:1 466:1 1613:1 
-19.056828785224912081730508361943 42:1 64:1 218:1 1613:1 2673:1 
-19.056828785224912081730508361943 180:1 185:1 271:1 534:1 1029:1 7411:1 
-19.056828785224912081730508361943 17:1 64:1 185:1 534:1 917:1 6303:1 
19.056828785224912081730508361943 5:1 51:1 733:1 976:1 1552:1 2236:1 
19.056828785224912081730508361943 1:1 5:1 51:1 62:1 116:1 976:1 
19.056828785224912081730508361943 5:1 11:1 888:1 934:1 1552:1 
-19.056828785224912081730508361943 1:1 5:1 127:1 215:1 466:1 3533:1 
-19.056828785224912081730508361943 1:1 11:1 51:1 141:1 888:1 1638:1 
-19.056828785224912081730508361943 1:1 5:1 51:1 259:1 1722:1 1723:1 
1.9058366921245388780903340375517 17:1 64:1 185:1 252:1 774:1 1644:1 
19.056828785224912081730508361943 28:1 96:1 185:1 7219:1 8022:1 
19.056828785224912081730508361943 64:1 185:1 534:1 1819:1 7426:1 7436:1 
-19.056828785224912081730508361943 62:1 64:1 185:1 193:1 1283:1 1644:1 
-19.056828785224912081730508361943 17:1 64:1 185:1 733:1 8629:1 8630:1 
2.0713843020969764374683563801227 13:1 1500:1 5219:1 5221:1 
19.056828785224912081730508361943 1:1 5:1 11:1 141:1 2030:1 2053:1 
19.056828785224912081730508361943 1:1 5:1 9:1 141:1 2125:1 3273:1 
19.056828785224912081730508361943 1:1 5:1 51:1 128:1 361:1 420:1 
-19.056828785224912081730508361943 5:1 9:1 359:1 976:1 2236:1 
-19.056828785224912081730508361943 5:1 9:1 639:1 3819:1 4393:1 5602:1 
-19.056828785224912081730508361943 1:1 5:1 9:1 318:1 361:1 3020:1 
19.056828785224912081730508361943 62:1 64:1 185:1 1085:1 2248:1 4741:1 
19.056828785224912081730508361943 62:1 64:1 185:1 492:1 1930:1 4805:1 
19.056828785224912081730508361943 11:1 13:1 64:1 185:1 248:1 2978:1 
16.383492913535285140369524015114 9:1 180:1 362:1 488:1 1626:1 1629:1 
-19.056828785224912081730508361943 11:1 13:1 50:1 66:1 1993:1 9191:1 
-19.056828785224912081730508361943 13:1 27:1 141:1 893:1 2248:1 2521:1 
19.056828785224912081730508361943 5:1 9:1 18:1 359:1 1363:1 6255:1 
13.808651299398036371712805703282 18:1 2936:1 3649:1 4308:1 4319:1 
8.3637526850883006090953131206334 5:1 9:1 359:1 861:1 6670:1 6686:1 
-19.056828785224912081730508361943 5:1 9:1 17:1 18:1 359:1 390:1 
-19.056828785224912081730508361943 9:1 18:1 359:1 
19.056828785224912081730508361943 13:1 147:1 534:1 639:1 2318:1 2407:1 
14.52842212219634099312770558754 13:1 27:1 251:1 362:1 1869:1 7088:1 
19.056828785224912081730508361943 11:1 13:1 127:1 128:1 1781:1 4102:1 
-15.943567113379179644994110276457 9:1 284:1 312:1 435:1 2025:1 
-19.056828785224912081730508361943 13:1 147:1 270:1 814:1 1819:1 6271:1 
19.056828785224912081730508361943 7:1 9:1 17:1 77:1 779:1 6492:1 
19.056828785224912081730508361943 1:1 5:1 9:1 18:1 318:1 4706:1 
19.056828785224912081730508361943 9:1 17:1 359:1 1552:1 1590:1 6955:1 
-19.056828785224912081730508361943 9:1 18:1 359:1 
-19.056828785224912081730508361943 9:1 259:1 349:1 1929:1 1930:1 1931:1 
-19.056828785224912081730508361943 1:1 51:1 116:1 180:1 2318:1 2407:1 
-18.99954544228845065845234785229 1:1 9:1 62:1 278:1 861:1 4499:1 
19.056828785224912081730508361943 13:1 147:1 285:1 533:1 788:1 3712:1 
19.056828785224912081730508361943 5:1 13:1 27:1 147:1 533:1 788:1 
19.056828785224912081730508361943 5:1 13:1 147:1 788:1 3085:1 
-7.8809506969656100139332011167426 13:1 64:1 147:1 185:1 551:1 788:1 
-19.056828785224912081730508361943 5:1 13:1 27:1 147:1 265:1 788:1 
10.905312497511609137745836051181 17:1 48:1 1624:1 2531:1 5197:1 5198:1 
-19.056828785224912081730508361943 5:1 31:1 147:1 362:1 533:1 788:1 
19.056828785224912081730508361943 22:1 66:1 67:1 141:1 180:1 270:1 
19.056828785224912081730508361943 9:1 18:1 62:1 359:1 3874:1 4298:1 
19.056828785224912081730508361943 9:1 18:1 62:1 142:1 359:1 6626:1 
-19.056828785224912081730508361943 9:1 17:1 128:1 211:1 359:1 889:1 
-19.056828785224912081730508361943 9:1 17:1 61:1 62:1 128:1 297:1 
19.056828785224912081730508361943 8437:1 8438:1 8455:1 
19.056828785224912081730508361943 5:1 13:1 147:1 749:1 788:1 5488:1 
19.056828785224912081730508361943 5:1 147:1 788:1 2302:1 6276:1 
19.056828785224912081730508361943 5:1 147:1 778:1 788:1 1078:1 6273:1 
19.056828785224912081730508361943 18:1 91:1 3981:1 
-19.056828785224912081730508361943 5:1 13:1 147:1 194:1 788:1 
19.056828785224912081730508361943 205:1 285:1 300:1 343:1 
19.056828785224912081730508361943 1:1 9:1 62:1 194:1 452:1 746:1 
19.056828785224912081730508361943 9:1 11:1 17:1 917:1 1180:1 1356:1 
19.056828785224912081730508361943 9:1 17:1 40:1 910:1 917:1 1465:1 
16.143629734683266008232749300078 5:1 15:1 142:1 519:1 863:1 2964:1 
-19.056828785224912081730508361943 9:1 11:1 62:1 1180:1 7633:1 
-19.056828785224912081730508361943 11:1 17:1 18:1 510:1 1569:1 4298:1 
19.056828785224912081730508361943 5:1 13:1 788:1 814:1 2931:1 8942:1 
19.056828785224912081730508361943 5:1 13:1 108:1 147:1 976:1 5646:1 
19.056828785224912081730508361943 5:1 13:1 64:1 185:1 376:1 551:1 
-19.056828785224912081730508361943 5:1 13:1 40:1 285:1 917:1 7272:1 
-19.056828785224912081730508361943 1:1 5:1 13:1 248:1 452:1 
-19.056828785224912081730508361943 5:1 13:1 40:1 452:1 466:1 621:1 
19.056828785224912081730508361943 9:1 11:1 141:1 889:1 1074:1 1180:1 
19.056828785224912081730508361943 11:1 128:1 259:1 3483:1 7225:1 
19.056828785224912081730508361943 9:1 11:1 259:1 315:1 2907:1 2962:1 
-19.056828785224912081730508361943 11:1 64:1 185:1 332:1 534:1 1248:1 
1.5463233600983072868473300331971 7:1 17:1 305:1 2420:1 5608:1 5609:1 
-19.056828785224912081730508361943 9:1 11:1 259:1 1180:1 1901:1 
19.056828785224912081730508361943 5:1 13:1 51:1 466:1 812:1 925:1 
10.21141593898409816176808817545 5:1 11:1 13:1 686:1 687:1 737:1 
4.4345176851567682518862056895159 1:1 13:1 717:1 891:1 1230:1 2812:1 
-0.64370091177093613499238244912704 17:1 96:1 195:1 378:1 1499:1 3623:1 
-19.056828785224912081730508361943 5:1 13:1 51:1 142:1 167:1 
-19.056828785224912081730508361943 1:1 5:1 13:1 51:1 3415:1 7233:1 
19.056828785224912081730508361943 11:1 64:1 450:1 452:1 942:1 1029:1 
19.056828785224912081730508361943 11:1 116:1 362:1 428:1 8541:1 8542:1 
15.372067107792021900536383327562 11:1 40:1 91:1 452:1 1064:1 3465:1 
-19.056828785224912081730508361943 11:1 66:1 67:1 447:1 535:1 553:1 
-19.056828785224912081730508361943 11:1 64:1 202:1 452:1 1664:1 
-19.056828785224912081730508361943 36:1 64:1 450:1 653:1 942:1 1133:1 
19.056828785224912081730508361943 5:1 9:1 13:1 51:1 128:1 320:1 
19.056828785224912081730508361943 5:1 13:1 17:1 51:1 375:1 2789:1 
19.056828785224912081730508361943 5:1 13:1 17:1 51:1 73:1 8548:1 
-19.056828785224912081730508361943 1:1 5:1 13:1 17:1 1552:1 2050:1 
-19.056828785224912081730508361943 5:1 13:1 17:1 125:1 925:1 5677:1 
0.82873378105929873527202289551497 17:1 36:1 2878:1 2881:1 2882:1 
19.056828785224912081730508361943 11:1 64:1 1162:1 1664:1 8419:1 
2.9373752449171819378648251586128 5:1 13:1 40:1 187:1 574:1 4688:1 
19.056828785224912081730508361943 11:1 36:1 356:1 966:1 970:1 1049:1 
-19.056828785224912081730508361943 11:1 36:1 662:1 749:1 1179:1 2809:1 
-13.757898140491358063286497781519 11:1 28:1 51:1 439:1 1085:1 2072:1 
-19.056828785224912081730508361943 11:1 49:1 51:1 64:1 3021:1 
19.056828785224912081730508361943 5:1 13:1 17:1 167:1 5623:1 
19.056828785224912081730508361943 5:1 13:1 17:1 411:1 2125:1 7547:1 
19.056828785224912081730508361943 13:1 17:1 62:1 498:1 499:1 559:1 
-19.056828785224912081730508361943 5:1 13:1 17:1 62:1 559:1 5413:1 
-19.056828785224912081730508361943 5:1 13:1 17:1 142:1 251:1 
-19.056828785224912081730508361943 5:1 13:1 17:1 375:1 534:1 3408:1 
19.056828785224912081730508361943 1:1 11:1 51:1 1179:1 1231:1 1578:1 
19.056828785224912081730508361943 11:1 51:1 99:1 447:1 662:1 2234:1 
19.056828785224912081730508361943 11:1 18:1 51:1 194:1 317:1 4197:1 
-19.056828785224912081730508361943 1:1 11:1 51:1 77:1 91:1 1799:1 
-19.056828785224912081730508361943 1:1 11:1 18:1 51:1 190:1 1972:1 
-4.1230995146939655171536287525669 51:1 99:1 231:1 447:1 641:1 3001:1 
2.792423542767904720562910370063 5:1 13:1 17:1 142:1 361:1 
4.3057327639275015940256707835943 5:1 13:1 28:1 1569:1 3238:1 3239:1 
19.056828785224912081730508361943 5:1 9:1 13:1 28:1 439:1 1644:1 
11.063338138325676140993891749531 5:1 141:1 259:1 1202:1 3054:1 3530:1 
-19.056828785224912081730508361943 5:1 9:1 13:1 411:1 1813:1 6532:1 
-19.056828785224912081730508361943 5:1 9:1 13:1 411:1 3153:1 8898:1 
19.056828785224912081730508361943 1:1 11:1 51:1 1031:1 4413:1 7951:1 
19.056828785224912081730508361943 1:1 11:1 51:1 1225:1 5159:1 5194:1 
19.056828785224912081730508361943 1:1 11:1 51:1 669:1 1580:1 2870:1 
-19.056828785224912081730508361943 11:1 28:1 51:1 141:1 2234:1 3696:1 
-19.056828785224912081730508361943 11:1 51:1 316:1 461:1 669:1 1178:1 
-14.796353428601770829686756769661 11:1 28:1 51:1 646:1 1524:1 7461:1 
9.2022315186302563461140380240977 5:1 9:1 31:1 265:1 908:1 1906:1 
19.056828785224912081730508361943 5:1 9:1 13:1 1495:1 1931:1 5122:1 
19.056828785224912081730508361943 5:1 9:1 13:1 31:1 414:1 1164:1 
-19.056828785224912081730508361943 5:1 9:1 13:1 1465:1 2633:1 7371:1 
-19.056828785224912081730508361943 5:1 9:1 13:1 270:1 1465:1 4587:1 
-19.056828785224912081730508361943 5:1 9:1 13:1 127:1 318:1 976:1 
19.056828785224912081730508361943 11:1 28:1 51:1 181:1 906:1 
19.056828785224912081730508361943 11:1 51:1 204:1 316:1 1207:1 8076:1 
-16.000669721522712052319548092782 5:1 9:1 96:1 682:1 2225:1 
4.427621845101789688214921625331 13:1 236:1 720:1 721:1 722:1 723:1 
19.056828785224912081730508361943 5:1 27:1 1552:1 3476:1 
-19.056828785224912081730508361943 11:1 442:1 701:1 7225:1 7982:1 9167:1 
19.056828785224912081730508361943 5:1 9:1 13:1 461:1 9128:1 9130:1 
19.056828785224912081730508361943 9:1 13:1 141:1 278:1 556:1 679:1 
19.056828785224912081730508361943 5:1 13:1 147:1 231:1 470:1 7461:1 
-19.056828785224912081730508361943 5:1 9:1 13:1 470:1 1428:1 7568:1 
-19.056828785224912081730508361943 5:1 11:1 13:1 361:1 5122:1 5127:1 
-19.056828785224912081730508361943 5:1 11:1 13:1 376:1 874:1 4233:1 
19.056828785224912081730508361943 96:1 270:1 305:1 907:1 1972:1 6340:1 
19.056828785224912081730508361943 51:1 190:1 232:1 646:1 667:1 
18.966152125471943179491063347086 28:1 51:1 646:1 1524:1 3040:1 
-19.056828785224912081730508361943 18:1 28:1 51:1 420:1 492:1 646:1 
-15.980433458602245622159898630343 28:1 51:1 420:1 495:1 906:1 2120:1 
-19.056828785224912081730508361943 28:1 40:1 147:1 194:1 779:1 8591:1 
19.056828785224912081730508361943 5:1 11:1 13:1 125:1 126:1 127:1 
19.056828785224912081730508361943 5:1 11:1 13:1 125:1 202:1 5669:1 
2.8874217933203021324573001038516 13:1 36:1 2587:1 7663:1 7667:1 
-19.056828785224912081730508361943 11:1 13:1 667:1 907:1 1706:1 8620:1 
-19.056828785224912081730508361943 5:1 11:1 13:1 625:1 2434:1 2528:1 
-19.056828785224912081730508361943 5:1 11:1 13:1 78:1 784:1 1361:1 
19.056828785224912081730508361943 28:1 51:1 62:1 317:1 420:1 3007:1 
19.056828785224912081730508361943 28:1 51:1 62:1 850:1 909:1 3147:1 
19.056828785224912081730508361943 18:1 62:1 107:1 
-19.056828785224912081730508361943 28:1 62:1 644:1 1103:1 
-19.056828785224912081730508361943 17:1 62:1 361:1 1356:1 1362:1 1910:1 
0.97877011906839128663193605461856 5:1 71:1 757:1 1564:1 3837:1 5502:1 
19.056828785224912081730508361943 5:1 11:1 13:1 653:1 1879:1 1880:1 
19.056828785224912081730508361943 5:1 11:1 13:1 784:1 924:1 3258:1 
-0.23890177474318191608304573492205 62:1 1810:1 3258:1 
-19.056828785224912081730508361943 5:1 11:1 13:1 125:1 1494:1 
-19.056828785224912081730508361943 5:1 13:1 64:1 757:1 1618:1 5385:1 
19.056828785224912081730508361943 17:1 143:1 436:1 442:1 774:1 
19.056828785224912081730508361943 11:1 145:1 562:1 
12.747505292392810716251005942468 17:1 40:1 62:1 296:1 993:1 1335:1 
19.056828785224912081730508361943 1:1 17:1 62:1 266:1 2606:1 3460:1 
-19.056828785224912081730508361943 17:1 18:1 190:1 315:1 1869:1 4756:1 
-19.056828785224912081730508361943 17:1 28:1 40:1 107:1 141:1 439:1 
-19.056828785224912081730508361943 17:1 18:1 28:1 107:1 141:1 439:1 
19.056828785224912081730508361943 5:1 11:1 13:1 73:1 125:1 3079:1 
19.056828785224912081730508361943 5:1 11:1 13:1 190:1 194:1 1125:1 
5.4091631944141242982482253864873 5:1 17:1 27:1 435:1 656:1 
-19.056828785224912081730508361943 5:1 11:1 13:1 194:1 1125:1 8746:1 
19.056828785224912081730508361943 13:1 62:1 131:1 141:1 757:1 1679:1 
19.056828785224912081730508361943 17:1 28:1 141:1 439:1 4905:1 8182:1 
19.056828785224912081730508361943 11:1 17:1 28:1 141:1 439:1 853:1 
19.056828785224912081730508361943 17:1 28:1 231:1 535:1 7030:1 
-19.056828785224912081730508361943 17:1 28:1 141:1 439:1 991:1 2305:1 
-11.668369331935307897651910025161 9:1 17:1 62:1 163:1 212:1 305:1 
-19.056828785224912081730508361943 17:1 62:1 231:1 361:1 438:1 603:1 
19.056828785224912081730508361943 5:1 77:1 597:1 861:1 1552:1 3812:1 
1.6164436207099974751599802402779 18:1 39:1 48:1 141:1 378:1 1339:1 
19.056828785224912081730508361943 5:1 13:1 185:1 656:1 1361:1 4382:1 
-19.056828785224912081730508361943 5:1 13:1 74:1 185:1 599:1 656:1 
-19.056828785224912081730508361943 5:1 13:1 185:1 597:1 656:1 1057:1 
-19.056828785224912081730508361943 5:1 13:1 51:1 317:1 638:1 807:1 
9.4425471015549078401818405836821 17:1 107:1 141:1 224:1 708:1 2300:1 
19.056828785224912081730508361943 17:1 141:1 194:1 
19.056828785224912081730508361943 17:1 141:1 917:1 971:1 1083:1 
-19.056828785224912081730508361943 17:1 141:1 167:1 194:1 3709:1 3813:1 
-11.536895052136022954414329433348 13:1 17:1 1023:1 3302:1 9501:1 9502:1 
-19.056828785224912081730508361943 17:1 141:1 664:1 1512:1 3040:1 4244:1 
19.056828785224912081730508361943 5:1 13:1 64:1 185:1 411:1 774:1 
19.056828785224912081730508361943 5:1 13:1 185:1 436:1 656:1 9272:1 
19.056828785224912081730508361943 5:1 13:1 88:1 330:1 597:1 807:1 
-19.056828785224912081730508361943 5:1 13:1 64:1 185:1 1459:1 2252:1 
-11.938333335983235983235317689832 5:1 11:1 13:1 88:1 408:1 5717:1 
-19.056828785224912081730508361943 5:1 11:1 13:1 1552:1 8264:1 8265:1 
19.056828785224912081730508361943 17:1 51:1 141:1 1569:1 2867:1 2898:1 
19.056828785224912081730508361943 17:1 18:1 94:1 141:1 2459:1 7804:1 
19.056828785224912081730508361943 17:1 51:1 58:1 167:1 616:1 4924:1 
-19.056828785224912081730508361943 17:1 194:1 436:1 534:1 774:1 2983:1 
-19.056828785224912081730508361943 17:1 51:1 234:1 283:1 559:1 3162:1 
-19.056828785224912081730508361943 17:1 51:1 356:1 461:1 2079:1 2080:1 
19.056828785224912081730508361943 13:1 36:1 110:1 637:1 1230:1 8403:1 
6.2822381140205783012220308592077 13:1 22:1 40:1 64:1 1108:1 6222:1 
19.056828785224912081730508361943 5:1 9:1 11:1 13:1 540:1 5357:1 
-19.056828785224912081730508361943 5:1 13:1 18:1 69:1 428:1 1786:1 
-19.056828785224912081730508361943 5:1 9:1 13:1 143:1 917:1 6076:1 
-19.056828785224912081730508361943 5:1 9:1 13:1 27:1 190:1 
0.71483222426602321952771035284968 7:1 17:1 39:1 49:1 50:1 147:1 
19.056828785224912081730508361943 17:1 147:1 522:1 788:1 976:1 2034:1 
19.056828785224912081730508361943 17:1 449:1 1799:1 1876:1 4714:1 
7.8077611444982863986297161318362 27:1 36:1 498:1 757:1 758:1 3837:1 
2.8592716475018877808622619340895 11:1 264:1 861:1 1032:1 6686:1 6690:1 
-3.943804163249558403236960657523 17:1 147:1 1164:1 2125:1 4569:1 9162:1 
19.056828785224912081730508361943 5:1 9:1 13:1 36:1 51:1 2983:1 
19.056828785224912081730508361943 5:1 9:1 13:1 27:1 926:1 
19.056828785224912081730508361943 5:1 9:1 13:1 195:1 259:1 
-19.056828785224912081730508361943 5:1 9:1 13:1 359:1 2034:1 2063:1 
-19.056828785224912081730508361943 5:1 9:1 13:1 27:1 265:1 926:1 
13.285491989646114774359375587665 17:1 60:1 185:1 280:1 1057:1 8646:1 
19.056828785224912081730508361943 17:1 27:1 185:1 1054:1 1057:1 2134:1 
19.056828785224912081730508361943 30:1 147:1 194:1 746:1 1562:1 
-19.056828785224912081730508361943 36:1 51:1 224:1 669:1 3007:1 7858:1 
-2.605438524307271297431043421966 51:1 204:1 224:1 924:1 3191:1 3210:1 
-19.056828785224912081730508361943 17:1 50:1 77:1 141:1 259:1 1027:1 
19.056828785224912081730508361943 13:1 62:1 120:1 283:1 559:1 3813:1 
19.056828785224912081730508361943 9:1 13:1 74:1 603:1 1945:1 8995:1 
19.056828785224912081730508361943 5:1 13:1 190:1 359:1 603:1 
-19.056828785224912081730508361943 5:1 9:1 13:1 359:1 2034:1 2063:1 
-19.056828785224912081730508361943 5:1 11:1 13:1 190:1 1767:1 1876:1 
-16.348210680313641773864219430834 5:1 13:1 62:1 149:1 414:1 8740:1 
-19.056828785224912081730508361943 5:1 13:1 96:1 190:1 717:1 1876:1 
19.056828785224912081730508361943 18:1 51:1 59:1 224:1 316:1 669:1 
19.056828785224912081730508361943 18:1 51:1 204:1 224:1 623:1 3661:1 
19.056828785224912081730508361943 51:1 204:1 224:1 655:1 6198:1 
-19.056828785224912081730508361943 18:1 51:1 204:1 224:1 1327:1 1598:1 
-19.056828785224912081730508361943 51:1 59:1 204:1 224:1 6248:1 8302:1 
-19.056828785224912081730508361943 51:1 59:1 143:1 204:1 224:1 316:1 
3.8999930184830411405982886208221 11:1 13:1 96:1 713:1 733:1 3313:1 
5.6716127399510298801033059135079 34:1 141:1 180:1 1638:1 1639:1 1640:1 
19.056828785224912081730508361943 5:1 13:1 87:1 190:1 318:1 1517:1 
-19.056828785224912081730508361943 5:1 13:1 27:1 1133:1 1644:1 3258:1 
-19.056828785224912081730508361943 5:1 13:1 27:1 286:1 3258:1 
-19.056828785224912081730508361943 5:1 13:1 27:1 190:1 3684:1 3685:1 
19.056828785224912081730508361943 51:1 59:1 204:1 224:1 639:1 640:1 
19.056828785224912081730508361943 51:1 59:1 181:1 193:1 204:1 224:1 
19.056828785224912081730508361943 11:1 51:1 204:1 224:1 865:1 3581:1 
-18.412926598848404324826333322562 51:1 59:1 204:1 224:1 707:1 2099:1 
-19.056828785224912081730508361943 11:1 190:1 224:1 699:1 1517:1 3465:1 
11.421916180165991860917529265862 9:1 13:1 66:1 67:1 112:1 532:1 
19.056828785224912081730508361943 5:1 13:1 27:1 28:1 40:1 779:1 
19.056828785224912081730508361943 5:1 13:1 27:1 28:1 143:1 275:1 
19.056828785224912081730508361943 5:1 13:1 27:1 312:1 599:1 1252:1 
-13.689944966179165675157491932623 5:1 13:1 28:1 181:1 746:1 1574:1 
-19.056828785224912081730508361943 5:1 13:1 27:1 28:1 1094:1 1135:1 
-19.056828785224912081730508361943 5:1 13:1 15:1 27:1 87:1 
19.056828785224912081730508361943 96:1 101:1 191:1 234:1 707:1 1327:1 
19.056828785224912081730508361943 11:1 17:1 128:1 435:1 656:1 1767:1 
19.056828785224912081730508361943 17:1 59:1 224:1 539:1 593:1 
-19.056828785224912081730508361943 7:1 9:1 17:1 214:1 330:1 639:1 
-19.056828785224912081730508361943 7:1 17:1 247:1 330:1 639:1 2621:1 
-19.056828785224912081730508361943 51:1 141:1 341:1 435:1 623:1 863:1 
19.056828785224912081730508361943 5:1 13:1 439:1 699:1 746:1 8738:1 
19.056828785224912081730508361943 5:1 13:1 27:1 147:1 534:1 1190:1 
6.3494147577153725592324917670339 5:1 13:1 27:1 64:1 4091:1 
-19.056828785224912081730508361943 5:1 13:1 40:1 60:1 1361:1 2606:1 
-19.056828785224912081730508361943 5:1 13:1 27:1 453:1 462:1 976:1 
-19.056828785224912081730508361943 5:1 13:1 27:1 147:1 1644:1 3260:1 
19.056828785224912081730508361943 5:1 7:1 9:1 17:1 77:1 297:1 
19.056828785224912081730508361943 15:1 17:1 36:1 341:1 1283:1 2455:1 
19.056828785224912081730508361943 28:1 51:1 141:1 265:1 401:1 1135:1 
-14.359981841732622598328816820867 17:1 18:1 593:1 1083:1 2054:1 7260:1 
-16.445014194328006595924307475798 17:1 1083:1 4706:1 6948:1 7260:1 7262:1 
-19.056828785224912081730508361943 28:1 36:1 141:1 191:1 452:1 781:1 
19.056828785224912081730508361943 5:1 13:1 190:1 495:1 2176:1 4003:1 
19.056828785224912081730508361943 5:1 9:1 13:1 214:1 462:1 1569:1 
15.609762970307205165454433881678 5:1 1848:1 3055:1 
-19.056828785224912081730508361943 1:1 5:1 13:1 599:1 656:1 3816:1 
-19.056828785224912081730508361943 5:1 9:1 13:1 640:1 6984:1 
-19.056828785224912081730508361943 5:1 9:1 13:1 88:1 275:1 3388:1 
19.056828785224912081730508361943 17:1 48:1 361:1 366:1 793:1 7260:1 
19.056828785224912081730508361943 18:1 28:1 141:1 149:1 3435:1 6179:1 
9.8459076233462923255501664243639 9:1 17:1 96:1 3349:1 6064:1 6065:1 
-19.056828785224912081730508361943 17:1 48:1 64:1 185:1 1054:1 9403:1 
-19.056828785224912081730508361943 17:1 51:1 204:1 232:1 361:1 415:1 
-19.056828785224912081730508361943 17:1 361:1 812:1 853:1 3016:1 
19.056828785224912081730508361943 5:1 13:1 59:1 453:1 1754:1 6248:1 
19.056828785224912081730508361943 9:1 64:1 84:1 185:1 247:1 280:1 
7.608393650079565695421024429379 5:1 9:1 13:1 27:1 359:1 8879:1 
-19.056828785224912081730508361943 5:1 13:1 27:1 59:1 423:1 1365:1 
-7.9934332901509224100777828425635 5:1 13:1 27:1 180:1 1604:1 7369:1 
-19.056828785224912081730508361943 5:1 13:1 27:1 180:1 2222:1 7089:1 
19.056828785224912081730508361943 17:1 64:1 2097:1 2098:1 2099:1 
19.056828785224912081730508361943 17:1 64:1 1257:1 1618:1 6553:1 6554:1 
19.056828785224912081730508361943 363:1 774:1 861:1 
-19.056828785224912081730508361943 11:1 17:1 64:1 96:1 266:1 8749:1 
-19.056828785224912081730508361943 11:1 91:1 369:1 384:1 394:1 1908:1 
-19.056828785224912081730508361943 17:1 60:1 366:1 889:1 890:1 1987:1 
19.056828785224912081730508361943 5:1 13:1 27:1 51:1 88:1 907:1 
19.056828785224912081730508361943 5:1 9:1 13:1 27:1 387:1 1365:1 
19.056828785224912081730508361943 5:1 13:1 27:1 180:1 271:1 514:1 
-19.056828785224912081730508361943 5:1 13:1 27:1 51:1 861:1 2175:1 
-19.056828785224912081730508361943 5:1 9:1 13:1 27:1 466:1 
19.056828785224912081730508361943 194:1 319:1 500:1 861:1 
19.056828785224912081730508361943 11:1 17:1 354:1 356:1 461:1 1598:1 
19.056828785224912081730508361943 11:1 553:1 889:1 
19.056828785224912081730508361943 11:1 361:1 890:1 1331:1 
-13.354065232491013404114710283466 17:1 28:1 195:1 357:1 616:1 5298:1 
-19.056828785224912081730508361943 11:1 18:1 22:1 28:1 212:1 1826:1 
-19.056828785224912081730508361943 11:1 158:1 495:1 793:1 850:1 6461:1 
19.056828785224912081730508361943 5:1 9:1 13:1 73:1 96:1 415:1 
19.056828785224912081730508361943 9:1 13:1 27:1 278:1 688:1 5017:1 
19.056828785224912081730508361943 13:1 27:1 147:1 1164:1 
-19.056828785224912081730508361943 6:1 9:1 13:1 27:1 96:1 373:1 
-19.056828785224912081730508361943 9:1 13:1 17:1 27:1 660:1 1569:1 
-19.056828785224912081730508361943 5:1 9:1 13:1 17:1 708:1 8739:1 
19.056828785224912081730508361943 11:1 300:1 393:1 2125:1 3153:1 6088:1 
19.056828785224912081730508361943 5:1 11:1 69:1 369:1 888:1 5767:1 
19.056828785224912081730508361943 11:1 28:1 602:1 3709:1 5243:1 
4.6438219034892904701905536057893 9:1 60:1 151:1 789:1 1499:1 6540:1 
-19.056828785224912081730508361943 5:1 11:1 247:1 361:1 888:1 5701:1 
-19.056828785224912081730508361943 5:1 11:1 361:1 522:1 1085:1 5122:1 
-16.815147496150530059821903705597 11:1 28:1 1781:1 2122:1 2614:1 9087:1 
19.056828785224912081730508361943 9:1 13:1 17:1 27:1 128:1 3697:1 
19.056828785224912081730508361943 13:1 17:1 61:1 461:1 1150:1 1151:1 
19.056828785224912081730508361943 9:1 13:1 17:1 51:1 200:1 
19.056828785224912081730508361943 5:1 27:1 8546:1 
-19.056828785224912081730508361943 9:1 13:1 17:1 128:1 498:1 
-19.056828785224912081730508361943 9:1 13:1 17:1 27:1 602:1 4296:1 
0.41404631549655623867778331259615 7:1 13:1 434:1 3972:1 3973:1 
19.056828785224912081730508361943 5:1 11:1 64:1 701:1 775:1 1552:1 
-19.056828785224912081730508361943 51:1 715:1 797:1 1949:1 3560:1 8300:1 
-19.056828785224912081730508361943 5:1 11:1 141:1 280:1 1552:1 8275:1 
-19.056828785224912081730508361943 5:1 28:1 300:1 976:1 3542:1 6074:1 
-3.6616796563540234821232388640055 5:1 141:1 865:1 1010:1 1552:1 8230:1 
19.056828785224912081730508361943 9:1 17:1 27:1 1370:1 4959:1 4963:1 
10.936333477441507966432254761457 17:1 447:1 558:1 563:1 564:1 565:1 
-1.4384215144409149278459381093853 5:1 13:1 1265:1 1561:1 1564:1 1572:1 
-19.056828785224912081730508361943 9:1 13:1 17:1 411:1 516:1 2051:1 
-19.056828785224912081730508361943 9:1 17:1 970:1 1180:1 1644:1 
-19.056828785224912081730508361943 9:1 17:1 288:1 574:1 1590:1 1925:1 
19.056828785224912081730508361943 5:1 62:1 141:1 466:1 638:1 4262:1 
19.056828785224912081730508361943 5:1 28:1 141:1 466:1 800:1 850:1 
19.056828785224912081730508361943 5:1 13:1 28:1 141:1 1552:1 3907:1 
-19.056828785224912081730508361943 5:1 28:1 39:1 141:1 2399:1 7342:1 
3.543754931138267227908045242657 13:1 573:1 1786:1 4410:1 4557:1 9170:1 
-19.056828785224912081730508361943 5:1 27:1 141:1 191:1 466:1 5673:1 
19.056828785224912081730508361943 9:1 17:1 991:1 3873:1 6621:1 
19.056828785224912081730508361943 9:1 17:1 730:1 1428:1 3530:1 8787:1 
19.056828785224912081730508361943 9:1 17:1 361:1 1029:1 1180:1 6976:1 
-19.056828785224912081730508361943 1:1 9:1 17:1 361:1 913:1 6976:1 
-19.056828785224912081730508361943 1:1 9:1 30:1 62:1 147:1 8706:1 
-19.056828785224912081730508361943 9:1 51:1 64:1 220:1 757:1 
19.056828785224912081730508361943 5:1 13:1 141:1 599:1 693:1 1644:1 
19.056828785224912081730508361943 5:1 28:1 141:1 215:1 466:1 1338:1 
0.027240589689521536170824234091015 651:1 1125:1 1577:1 
-15.830494877448662904839693510439 5:1 13:1 141:1 556:1 1365:1 5237:1 
-19.056828785224912081730508361943 5:1 13:1 141:1 462:1 6446:1 6450:1 
19.056828785224912081730508361943 1:1 9:1 51:1 204:1 316:1 361:1 
19.056828785224912081730508361943 1:1 9:1 51:1 204:1 318:1 332:1 
19.056828785224912081730508361943 1:1 9:1 746:1 764:1 1819:1 7433:1 
-19.056828785224912081730508361943 1:1 51:1 180:1 291:1 317:1 1207:1 
-19.056828785224912081730508361943 1:1 51:1 204:1 316:1 1099:1 2503:1 
-19.056828785224912081730508361943 1:1 51:1 180:1 204:1 316:1 2247:1 
-0.48577310407884921605869976701797 73:1 283:1 493:1 746:1 
6.5337923940112387910517099953722 5:1 182:1 1512:1 4065:1 5206:1 8330:1 
19.056828785224912081730508361943 5:1 13:1 141:1 4298:1 5368:1 5369:1 
-19.056828785224912081730508361943 5:1 13:1 141:1 556:1 1365:1 5237:1 
-19.056828785224912081730508361943 5:1 13:1 200:1 559:1 850:1 2025:1 
-19.056828785224912081730508361943 5:1 13:1 28:1 373:1 907:1 3203:1 
-19.056828785224912081730508361943 5:1 13:1 688:1 908:1 5632:1 5637:1 
19.056828785224912081730508361943 1:1 51:1 180:1 204:1 316:1 889:1 
19.056828785224912081730508361943 1:1 27:1 51:1 180:1 316:1 1179:1 
19.056828785224912081730508361943 1:1 51:1 61:1 62:1 204:1 316:1 
-19.056828785224912081730508361943 1:1 51:1 61:1 180:1 204:1 316:1 
-19.056828785224912081730508361943 1:1 51:1 141:1 204:1 215:1 316:1 
-19.056828785224912081730508361943 1:1 9:1 36:1 51:1 316:1 653:1 
19.056828785224912081730508361943 5:1 13:1 28:1 147:1 1635:1 4244:1 
4.2754923094396337646116990072187 5:1 13:1 60:1 7123:1 7124:1 7125:1 
19.056828785224912081730508361943 5:1 13:1 30:1 147:1 470:1 1512:1 
-19.056828785224912081730508361943 5:1 13:1 27:1 147:1 1644:1 3265:1 
-19.056828785224912081730508361943 5:1 13:1 27:1 62:1 603:1 8980:1 
19.056828785224912081730508361943 408:1 409:1 410:1 
19.056828785224912081730508361943 1:1 27:1 34:1 51:1 204:1 316:1 
19.056828785224912081730508361943 1:1 18:1 51:1 204:1 316:1 1580:1 
-19.056828785224912081730508361943 1:1 9:1 13:1 51:1 204:1 316:1 
-19.056828785224912081730508361943 1:1 17:1 18:1 51:1 180:1 204:1 
0.8822028280478556583332760965277 5:1 6:1 278:1 635:1 762:1 5256:1 
19.056828785224912081730508361943 5:1 13:1 36:1 296:1 559:1 4199:1 
-19.056828785224912081730508361943 11:1 18:1 190:1 1972:1 
13.578390720137019087587759713642 5:1 9:1 13:1 481:1 548:1 578:1 
-19.056828785224912081730508361943 5:1 28:1 36:1 361:1 507:1 907:1 
-19.056828785224912081730508361943 5:1 36:1 96:1 532:1 1552:1 6465:1 
-19.056828785224912081730508361943 5:1 36:1 539:1 555:1 637:1 2023:1 
19.056828785224912081730508361943 1:1 17:1 51:1 62:1 6443:1 6446:1 
19.056828785224912081730508361943 1:1 51:1 180:1 456:1 1196:1 
19.056828785224912081730508361943 1:1 51:1 88:1 180:1 341:1 342:1 
-19.056828785224912081730508361943 1:1 17:1 51:1 62:1 9302:1 9304:1 
-19.056828785224912081730508361943 1:1 13:1 17:1 51:1 62:1 707:1 
5.4357466880294502686865598661825 5:1 17:1 376:1 624:1 861:1 976:1 
19.056828785224912081730508361943 5:1 9:1 247:1 361:1 2051:1 5037:1 
19.056828785224912081730508361943 5:1 147:1 220:1 320:1 1094:1 7767:1 
19.056828785224912081730508361943 5:1 9:1 67:1 247:1 378:1 1248:1 
-19.056828785224912081730508361943 5:1 9:1 688:1 889:1 3898:1 3907:1 
19.056828785224912081730508361943 11:1 36:1 191:1 305:1 596:1 2102:1 
19.056828785224912081730508361943 11:1 167:1 1136:1 2979:1 5554:1 7500:1 
19.056828785224912081730508361943 1:1 13:1 48:1 51:1 204:1 2451:1 
19.056828785224912081730508361943 13:1 51:1 62:1 204:1 305:1 2610:1 
19.056828785224912081730508361943 17:1 60:1 62:1 116:1 349:1 1212:1 
-19.056828785224912081730508361943 13:1 48:1 51:1 88:1 425:1 4246:1 
-19.056828785224912081730508361943 13:1 62:1 116:1 156:1 157:1 5003:1 
-19.056828785224912081730508361943 13:1 15:1 62:1 141:1 401:1 2610:1 
19.056828785224912081730508361943 5:1 9:1 316:1 373:1 495:1 863:1 
19.056828785224912081730508361943 1:1 5:1 96:1 390:1 488:1 688:1 
19.056828785224912081730508361943 5:1 9:1 147:1 976:1 3819:1 5602:1 
-19.056828785224912081730508361943 5:1 147:1 194:1 320:1 1275:1 5365:1 
-14.466944476285618748079286888242 5:1 9:1 147:1 863:1 2995:1 3396:1 
-19.056828785224912081730508361943 5:1 78:1 131:1 470:1 1265:1 6443:1 
19.056828785224912081730508361943 13:1 17:1 141:1 1638:1 8492:1 8493:1 
14.68086424074535578654376877239 9:1 13:1 67:1 436:1 913:1 5346:1 
19.056828785224912081730508361943 13:1 28:1 62:1 141:1 231:1 2323:1 
-19.056828785224912081730508361943 13:1 316:1 384:1 667:1 3471:1 
-19.056828785224912081730508361943 13:1 17:1 345:1 361:1 391:1 5316:1 
-19.056828785224912081730508361943 13:1 17:1 141:1 1915:1 3617:1 5602:1 
19.056828785224912081730508361943 5:1 11:1 51:1 147:1 437:1 3103:1 
12.970786633294309808661637362093 5:1 9:1 13:1 359:1 456:1 6626:1 
19.056828785224912081730508361943 5:1 9:1 147:1 807:1 1930:1 3596:1 
-19.056828785224912081730508361943 5:1 28:1 48:1 147:1 2451:1 9500:1 
-1.4855618170729731897239389581955 11:1 108:1 115:1 1431:1 2636:1 3915:1 
-16.956838154400390550335941952653 5:1 51:1 204:1 819:1 2870:1 7370:1 
19.056828785224912081730508361943 13:1 17:1 62:1 345:1 707:1 
19.056828785224912081730508361943 9:1 13:1 59:1 278:1 423:1 599:1 
19.056828785224912081730508361943 13:1 17:1 861:1 2578:1 5637:1 
-19.056828785224912081730508361943 9:1 13:1 17:1 27:1 1317:1 2323:1 
-19.056828785224912081730508361943 9:1 13:1 62:1 302:1 411:1 855:1 
-19.056828785224912081730508361943 9:1 13:1 40:1 190:1 562:1 3117:1 
19.056828785224912081730508361943 5:1 147:1 1091:1 
-5.1275313198718590612656953453552 9:1 1368:1 1908:1 
18.560142175884333681779025937431 5:1 36:1 51:1 316:1 2329:1 7735:1 
-19.056828785224912081730508361943 1:1 5:1 51:1 669:1 1352:1 2329:1 
-19.056828785224912081730508361943 5:1 51:1 339:1 376:1 1717:1 1718:1 
-2.2689625817881160507738513842924 5:1 55:1 71:1 147:1 1308:1 2017:1 
19.056828785224912081730508361943 9:1 13:1 141:1 180:1 318:1 361:1 
19.056828785224912081730508361943 9:1 13:1 17:1 483:1 907:1 6848:1 
19.056828785224912081730508361943 9:1 13:1 141:1 375:1 2218:1 2872:1 
-19.056828785224912081730508361943 9:1 13:1 60:1 375:1 452:1 774:1 
5.3510951631197913869186777446885 5:1 59:1 219:1 423:1 607:1 2375:1 
-19.056828785224912081730508361943 969:1 1994:1 6528:1 
19.056828785224912081730508361943 1:1 5:1 51:1 420:1 863:1 3614:1 
19.056828785224912081730508361943 40:1 51:1 88:1 641:1 665:1 4057:1 
19.056828785224912081730508361943 1:1 51:1 116:1 316:1 361:1 669:1 
-19.056828785224912081730508361943 18:1 51:1 469:1 516:1 835:1 1580:1 
-19.056828785224912081730508361943 1:1 18:1 40:1 51:1 90:1 665:1 
-10.062369090147042172134206339251 17:1 36:1 51:1 231:1 2993:1 4617:1 
19.056828785224912081730508361943 13:1 774:1 1558:1 2278:1 3258:1 3408:1 
10.312015700215241054138459730893 13:1 60:1 78:1 141:1 435:1 3396:1 
19.056828785224912081730508361943 5:1 9:1 13:1 375:1 1915:1 5593:1 
-19.056828785224912081730508361943 11:1 13:1 271:1 514:1 1560:1 2528:1 
-19.056828785224912081730508361943 5:1 13:1 247:1 273:1 784:1 807:1 
-19.056828785224912081730508361943 11:1 13:1 435:1 874:1 993:1 3668:1 
19.056828785224912081730508361943 17:1 18:1 51:1 516:1 888:1 5283:1 
19.056828785224912081730508361943 17:1 18:1 51:1 259:1 642:1 2311:1 
19.056828785224912081730508361943 18:1 51:1 223:1 667:1 1265:1 8623:1 
-19.056828785224912081730508361943 5:1 17:1 259:1 349:1 361:1 8118:1 
-19.056828785224912081730508361943 17:1 259:1 349:1 1212:1 1915:1 7863:1 
-19.056828785224912081730508361943 17:1 307:1 361:1 414:1 667:1 2517:1 
19.056828785224912081730508361943 5:1 11:1 13:1 125:1 190:1 1207:1 
19.056828785224912081730508361943 5:1 11:1 13:1 22:1 28:1 212:1 
-19.056828785224912081730508361943 5:1 9:1 28:1 223:1 332:1 9447:1 
-19.056828785224912081730508361943 5:1 13:1 51:1 141:1 2116:1 2159:1 
-19.056828785224912081730508361943 5:1 13:1 28:1 55:1 141:1 779:1 
19.056828785224912081730508361943 7:1 14:1 17:1 40:1 414:1 7643:1 
19.056828785224912081730508361943 7:1 17:1 62:1 140:1 259:1 6918:1 
0.78557392769049438907558169375989 17:1 701:1 992:1 1102:1 2015:1 3106:1 
19.056828785224912081730508361943 570:1 1359:1 2218:1 
-19.056828785224912081730508361943 7:1 13:1 17:1 62:1 2278:1 
19.056828785224912081730508361943 13:1 1581:1 3626:1 5608:1 5609:1 
19.056828785224912081730508361943 5:1 9:1 13:1 784:1 874:1 4413:1 
19.056828785224912081730508361943 5:1 9:1 190:1 224:1 425:1 1809:1 
2.3349320113085854089263193600345 5:1 13:1 147:1 194:1 1469:1 7337:1 
-19.056828785224912081730508361943 5:1 9:1 18:1 199:1 991:1 3689:1 
-19.056828785224912081730508361943 5:1 9:1 11:1 13:1 1300:1 1754:1 
12.428707198504488573576054477599 13:1 185:1 492:1 713:1 733:1 8021:1 
19.056828785224912081730508361943 17:1 62:1 231:1 1075:1 1908:1 3040:1 
8.052498882559108395184921391774 13:1 17:1 46:1 62:1 349:1 5133:1 
19.056828785224912081730508361943 17:1 28:1 62:1 1125:1 2751:1 6040:1 
-6.022568142755783782149592298083 17:1 62:1 88:1 190:1 1266:1 9297:1 
-19.056828785224912081730508361943 17:1 59:1 60:1 62:1 453:1 1810:1 
-19.056828785224912081730508361943 17:1 62:1 312:1 461:1 1507:1 3040:1 
19.056828785224912081730508361943 5:1 9:1 11:1 141:1 1180:1 4089:1 
19.056828785224912081730508361943 5:1 7:1 422:1 807:1 3617:1 
19.056828785224912081730508361943 1:1 5:1 90:1 141:1 223:1 735:1 
-19.056828785224912081730508361943 5:1 141:1 231:1 1552:1 1945:1 8270:1 
19.056828785224912081730508361943 13:1 17:1 6016:1 
19.056828785224912081730508361943 13:1 62:1 64:1 773:1 775:1 8150:1 
10.746467591930107587927523127291 17:1 18:1 48:1 999:1 1516:1 4821:1 
19.056828785224912081730508361943 17:1 31:1 62:1 185:1 306:1 865:1 
19.056828785224912081730508361943 18:1 62:1 746:1 
19.056828785224912081730508361943 5:1 11:1 13:1 125:1 190:1 1207:1 
-19.056828785224912081730508361943 1:1 9:1 18:1 2907:1 3863:1 3875:1 
-19.056828785224912081730508361943 1:1 18:1 1180:1 
-19.056828785224912081730508361943 7:1 9:1 18:1 359:1 814:1 2400:1 
0.84160941016284329663221797090955 13:1 17:1 47:1 651:1 3390:1 4369:1 
19.056828785224912081730508361943 5:1 28:1 141:1 1552:1 2036:1 5104:1 
19.056828785224912081730508361943 1:1 5:1 141:1 532:1 1507:1 5039:1 
-19.056828785224912081730508361943 5:1 13:1 28:1 40:1 255:1 1809:1 
-19.056828785224912081730508361943 5:1 13:1 125:1 700:1 869:1 2455:1 
-19.056828785224912081730508361943 5:1 27:1 185:1 1420:1 2931:1 5961:1 
19.056828785224912081730508361943 9:1 18:1 307:1 414:1 678:1 1915:1 
19.056828785224912081730508361943 9:1 18:1 191:1 1915:1 6519:1 6526:1 
19.056828785224912081730508361943 9:1 18:1 38:1 991:1 5024:1 8283:1 
-19.056828785224912081730508361943 9:1 18:1 27:1 38:1 62:1 5675:1 
2.6583274330330173285119599313475 51:1 123:1 423:1 1273:1 1461:1 1478:1 
-19.056828785224912081730508361943 9:1 17:1 305:1 414:1 3904:1 3911:1 
19.056828785224912081730508361943 5:1 13:1 27:1 40:1 55:1 4471:1 
9.4263418990108700512564610107802 5:1 9:1 13:1 151:1 359:1 8685:1 
19.056828785224912081730508361943 5:1 13:1 273:1 1561:1 1870:1 8529:1 
-19.056828785224912081730508361943 5:1 13:1 31:1 147:1 976:1 2437:1 
-19.056828785224912081730508361943 5:1 13:1 55:1 64:1 764:1 1257:1 
-19.056828785224912081730508361943 5:1 13:1 141:1 466:1 1915:1 2029:1 
19.056828785224912081730508361943 9:1 18:1 27:1 143:1 1365:1 1780:1 
19.056828785224912081730508361943 9:1 62:1 359:1 363:1 913:1 3934:1 
19.056828785224912081730508361943 1:1 9:1 11:1 1365:1 1767:1 9016:1 
-19.056828785224912081730508361943 9:1 11:1 22:1 463:1 861:1 3651:1 
-19.056828785224912081730508361943 9:1 62:1 359:1 363:1 1730:1 3148:1 
-19.056828785224912081730508361943 9:1 27:1 40:1 191:1 278:1 528:1 
19.056828785224912081730508361943 5:1 13:1 141:1 361:1 453:1 3904:1 
19.056828785224912081730508361943 5:1 13:1 17:1 361:1 2437:1 
19.056828785224912081730508361943 5:1 13:1 17:1 1945:1 7342:1 
-19.056828785224912081730508361943 5:1 13:1 17:1 62:1 361:1 1347:1 
-19.056828785224912081730508361943 5:1 13:1 17:1 784:1 912:1 6621:1 
-19.056828785224912081730508361943 5:1 13:1 17:1 143:1 4967:1 6981:1 
19.056828785224912081730508361943 9:1 11:1 181:1 891:1 1085:1 7228:1 
19.056828785224912081730508361943 9:1 359:1 688:1 1083:1 1084:1 
19.056828785224912081730508361943 9:1 27:1 28:1 278:1 779:1 1081:1 
-19.056828785224912081730508361943 9:1 28:1 393:1 533:1 2830:1 9467:1 
-19.056828785224912081730508361943 9:1 28:1 779:1 
-19.056828785224912081730508361943 9:1 359:1 910:1 
19.056828785224912081730508361943 5:1 13:1 62:1 621:1 907:1 2045:1 
10.323792519913075338422459026333 5:1 17:1 593:1 673:1 937:1 5186:1 
19.056828785224912081730508361943 5:1 13:1 17:1 461:1 2081:1 2082:1 
-19.056828785224912081730508361943 5:1 13:1 27:1 375:1 3680:1 
-19.056828785224912081730508361943 5:1 13:1 27:1 749:1 905:1 3256:1 
-19.056828785224912081730508361943 1:1 5:1 13:1 40:1 375:1 2808:1 
1.9428773449026586206400679657236 9:1 28:1 658:1 1266:1 1644:1 8756:1 
19.056828785224912081730508361943 9:1 220:1 784:1 1465:1 
10.039580944678309748496758402325 9:1 28:1 88:1 1626:1 1627:1 1641:1 
-7.3218106840758183651018953241874 9:1 11:1 28:1 98:1 907:1 978:1 
-19.056828785224912081730508361943 11:1 17:1 28:1 863:1 1767:1 3792:1 
-19.056828785224912081730508361943 9:1 17:1 863:1 913:1 1495:1 8119:1 
10.040094744671101523181278025731 5:1 13:1 27:1 485:1 2116:1 2717:1 
2.4204585934355637988346643396653 5:1 13:1 27:1 507:1 2197:1 3645:1 
19.056828785224912081730508361943 1:1 5:1 13:1 375:1 645:1 1664:1 
-19.056828785224912081730508361943 1:1 5:1 13:1 190:1 191:1 1712:1 
-19.056828785224912081730508361943 1:1 5:1 13:1 190:1 720:1 5273:1 
-19.056828785224912081730508361943 5:1 13:1 143:1 1162:1 1561:1 1571:1 
19.056828785224912081730508361943 9:1 11:1 55:1 863:1 1428:1 4184:1 
19.056828785224912081730508361943 11:1 17:1 49:1 64:1 6211:1 
19.056828785224912081730508361943 9:1 11:1 17:1 428:1 1809:1 2206:1 
-19.056828785224912081730508361943 11:1 34:1 74:1 1057:1 1862:1 6447:1 
-19.056828785224912081730508361943 9:1 11:1 17:1 194:1 297:1 8516:1 
16.344084021071697776505970978178 5:1 64:1 115:1 534:1 2388:1 
19.056828785224912081730508361943 5:1 13:1 190:1 1560:1 
19.056828785224912081730508361943 1:1 5:1 13:1 141:1 466:1 1037:1 
19.056828785224912081730508361943 1:1 5:1 13:1 98:1 7387:1 
7.3464290811333086139711667783558 1247:1 3218:1 3224:1 3251:1 
-19.056828785224912081730508361943 1:1 5:1 13:1 141:1 228:1 8511:1 
19.056828785224912081730508361943 28:1 2434:1 8636:1 
19.056828785224912081730508361943 17:1 28:1 147:1 243:1 851:1 7823:1 
19.056828785224912081730508361943 11:1 498:1 1347:1 2145:1 3300:1 3301:1 
19.056828785224912081730508361943 11:1 28:1 194:1 855:1 4230:1 
-19.056828785224912081730508361943 96:1 140:1 256:1 1207:1 7277:1 7278:1 
-19.056828785224912081730508361943 28:1 243:1 1644:1 2248:1 3899:1 3900:1 
-19.056828785224912081730508361943 27:1 127:1 715:1 1207:1 
-0.77689348569819394185742567060515 179:1 180:1 188:1 639:1 3471:1 4440:1 
19.056828785224912081730508361943 1:1 5:1 13:1 141:1 3326:1 3333:1 
-1.7056516700533839170361716242041 5:1 62:1 656:1 793:1 1185:1 4897:1 
3.8827906711572683917665926855989 13:1 17:1 247:1 8910:1 8915:1 8916:1 
19.056828785224912081730508361943 40:1 48:1 162:1 233:1 256:1 
-19.056828785224912081730508361943 5:1 231:1 1978:1 
19.056828785224912081730508361943 9:1 220:1 1230:1 1465:1 
15.732520548816630423516471637413 5:1 17:1 87:1 807:1 902:1 4362:1 
-19.056828785224912081730508361943 5:1 11:1 13:1 115:1 3697:1 
19.056828785224912081730508361943 51:1 204:1 521:1 905:1 2125:1 2870:1 
19.056828785224912081730508361943 96:1 533:1 978:1 3997:1 7992:1 8005:1 
-19.056828785224912081730508361943 9:1 13:1 141:1 190:1 735:1 4304:1 
-19.056828785224912081730508361943 5:1 17:1 51:1 223:1 889:1 2499:1 
-19.056828785224912081730508361943 9:1 13:1 141:1 361:1 2619:1 7634:1 
19.056828785224912081730508361943 13:1 127:1 191:1 717:1 1275:1 6375:1 
19.056828785224912081730508361943 27:1 74:1 143:1 612:1 1813:1 2179:1 
19.056828785224912081730508361943 36:1 312:1 393:1 528:1 893:1 8053:1 
-19.056828785224912081730508361943 36:1 653:1 812:1 
-19.056828785224912081730508361943 36:1 60:1 167:1 181:1 597:1 655:1 
-19.056828785224912081730508361943 270:1 312:1 485:1 4821:1 5194:1 5892:1 
-19.056828785224912081730508361943 28:1 36:1 101:1 579:1 3754:1 3757:1 
19.056828785224912081730508361943 5:1 9:1 13:1 359:1 913:1 6768:1 
19.056828785224912081730508361943 5:1 9:1 13:1 359:1 913:1 925:1 
19.056828785224912081730508361943 5:1 9:1 13:1 708:1 746:1 1351:1 
-19.056828785224912081730508361943 5:1 9:1 13:1 359:1 699:1 5002:1 
-19.056828785224912081730508361943 5:1 9:1 13:1 359:1 7161:1 
-19.056828785224912081730508361943 5:1 9:1 13:1 359:1 1504:1 4522:1 
-4.5806643859091611403755450737663 1:1 141:1 185:1 215:1 656:1 1439:1 
19.056828785224912081730508361943 11:1 181:1 356:1 574:1 1361:1 
2.69225824974632121922013539006 36:1 317:1 812:1 863:1 884:1 885:1 
-19.056828785224912081730508361943 1:1 96:1 393:1 519:1 1749:1 1870:1 
-19.056828785224912081730508361943 64:1 147:1 788:1 802:1 1081:1 1150:1 
-19.056828785224912081730508361943 40:1 64:1 162:1 758:1 1664:1 
19.056828785224912081730508361943 5:1 9:1 13:1 359:1 5536:1 
19.056828785224912081730508361943 5:1 9:1 13:1 359:1 4631:1 
19.056828785224912081730508361943 5:1 9:1 13:1 142:1 359:1 9314:1 
-11.150790225993977955454283801373 5:1 9:1 13:1 913:1 2236:1 2246:1 
4.3943213933918343627738067880273 9:1 17:1 83:1 237:1 1516:1 6831:1 
-19.056828785224912081730508361943 5:1 9:1 13:1 359:1 5121:1 
19.056828785224912081730508361943 64:1 71:1 147:1 758:1 2236:1 
19.056828785224912081730508361943 17:1 64:1 758:1 917:1 1074:1 1356:1 
19.056828785224912081730508361943 64:1 141:1 147:1 325:1 506:1 9257:1 
-19.056828785224912081730508361943 17:1 27:1 30:1 147:1 1569:1 5714:1 
-19.056828785224912081730508361943 27:1 51:1 435:1 758:1 1482:1 1577:1 
-0.99005763402347479740228664013557 64:1 325:1 506:1 1455:1 1748:1 7005:1 
19.056828785224912081730508361943 5:1 9:1 13:1 40:1 4995:1 4999:1 
1.9886913465592532812564741107053 5:1 9:1 13:1 2159:1 2211:1 9077:1 
19.056828785224912081730508361943 5:1 9:1 17:1 793:1 1712:1 6340:1 
-19.056828785224912081730508361943 5:1 9:1 13:1 71:1 1754:1 1755:1 
-19.056828785224912081730508361943 5:1 9:1 13:1 142:1 3917:1 6473:1 
-19.056828785224912081730508361943 5:1 13:1 142:1 194:1 5005:1 
19.056828785224912081730508361943 17:1 27:1 51:1 715:1 1436:1 6064:1 
19.056828785224912081730508361943 17:1 18:1 27:1 51:1 1477:1 4354:1 
19.056828785224912081730508361943 1:1 27:1 62:1 116:1 
-19.056828785224912081730508361943 11:1 17:1 27:1 456:1 2008:1 3914:1 
-19.056828785224912081730508361943 1:1 27:1 51:1 669:1 3003:1 4033:1 
-19.056828785224912081730508361943 1:1 27:1 51:1 180:1 415:1 
1.3289664641551706125710552441888 5:1 9:1 13:1 869:1 1245:1 1326:1 
-1.3630335655382881387964744135388 28:1 104:1 532:1 856:1 1194:1 6966:1 
19.056828785224912081730508361943 5:1 733:1 3055:1 3481:1 8289:1 
-19.056828785224912081730508361943 5:1 13:1 116:1 143:1 1819:1 3403:1 
-19.056828785224912081730508361943 5:1 13:1 73:1 182:1 345:1 3315:1 
-19.056828785224912081730508361943 5:1 13:1 120:1 147:1 2990:1 
19.056828785224912081730508361943 1:1 180:1 190:1 270:1 679:1 743:1 
19.056828785224912081730508361943 27:1 28:1 51:1 180:1 280:1 2116:1 
19.056828785224912081730508361943 27:1 28:1 180:1 247:1 260:1 270:1 
-19.056828785224912081730508361943 9:1 180:1 247:1 270:1 361:1 8311:1 
-19.056828785224912081730508361943 27:1 28:1 180:1 368:1 
-19.056828785224912081730508361943 27:1 28:1 180:1 1137:1 3622:1 8668:1 
19.056828785224912081730508361943 5:1 13:1 30:1 147:1 228:1 
19.056828785224912081730508361943 5:1 13:1 147:1 288:1 320:1 1232:1 
11.467362963505804529518172785174 5:1 13:1 8548:1 8553:1 
-19.056828785224912081730508361943 5:1 13:1 147:1 320:1 521:1 673:1 
-19.056828785224912081730508361943 5:1 13:1 147:1 320:1 3916:1 5758:1 
-19.056828785224912081730508361943 5:1 13:1 147:1 320:1 976:1 2437:1 
19.056828785224912081730508361943 27:1 40:1 180:1 271:1 278:1 452:1 
19.056828785224912081730508361943 27:1 28:1 64:1 180:1 287:1 534:1 
19.056828785224912081730508361943 9:1 27:1 28:1 278:1 729:1 1599:1 
-19.056828785224912081730508361943 27:1 28:1 208:1 233:1 3527:1 8674:1 
4.2946919133795073975079503725283 5:1 13:1 411:1 3932:1 
-19.056828785224912081730508361943 9:1 27:1 185:1 191:1 278:1 306:1 
19.056828785224912081730508361943 5:1 13:1 147:1 299:1 320:1 1915:1 
19.056828785224912081730508361943 5:1 13:1 147:1 320:1 1217:1 1792:1 
19.056828785224912081730508361943 1:1 5:1 55:1 556:1 976:1 3003:1 
-19.056828785224912081730508361943 1:1 5:1 18:1 730:1 2226:1 3416:1 
-19.056828785224912081730508361943 1:1 5:1 13:1 18:1 945:1 1303:1 
-19.056828785224912081730508361943 1:1 5:1 376:1 385:1 1892:1 7174:1 
19.056828785224912081730508361943 9:1 27:1 185:1 774:1 1552:1 6520:1 
19.056828785224912081730508361943 9:1 27:1 96:1 1370:1 4522:1 8051:1 
19.056828785224912081730508361943 9:1 27:1 297:1 1032:1 4633:1 4662:1 
-19.056828785224912081730508361943 9:1 27:1 287:1 1428:1 
-19.056828785224912081730508361943 9:1 334:1 856:1 1032:1 1903:1 7899:1 
-19.056828785224912081730508361943 9:1 27:1 51:1 60:1 568:1 3683:1 
19.056828785224912081730508361943 5:1 187:1 191:1 202:1 378:1 814:1 
19.056828785224912081730508361943 1:1 5:1 107:1 191:1 302:1 3912:1 
13.230776689546775770622843992896 1:1 5:1 143:1 664:1 1638:1 2567:1 
-19.056828785224912081730508361943 5:1 62:1 141:1 850:1 5961:1 5969:1 
1.7597715583706172726152772156638 190:1 363:1 808:1 889:1 1089:1 4505:1 
-19.056828785224912081730508361943 5:1 96:1 743:1 917:1 1085:1 6880:1 
4.0818933403841652918231375224423 17:1 39:1 51:1 385:1 4917:1 6807:1 
19.056828785224912081730508361943 9:1 11:1 59:1 1749:1 1870:1 3415:1 
19.056828785224912081730508361943 9:1 60:1 195:1 237:1 789:1 1562:1 
19.056828785224912081730508361943 9:1 13:1 27:1 962:1 1180:1 2029:1 
-19.056828785224912081730508361943 9:1 11:1 13:1 1915:1 1916:1 7885:1 
-19.056828785224912081730508361943 9:1 11:1 17:1 55:1 1180:1 1245:1 
19.056828785224912081730508361943 36:1 96:1 743:1 
19.056828785224912081730508361943 5:1 80:1 231:1 312:1 2003:1 2226:1 
19.056828785224912081730508361943 5:1 18:1 115:1 120:1 369:1 519:1 
5.3933873525244413471568805107381 5:1 13:1 17:1 128:1 200:1 2153:1 
-12.00594643718660847753199050203 5:1 236:1 369:1 534:1 746:1 3160:1 
-19.056828785224912081730508361943 1:1 5:1 18:1 369:1 603:1 6075:1 
-14.220793873173223076378235418815 5:1 147:1 369:1 534:1 4169:1 4185:1 
19.056828785224912081730508361943 11:1 208:1 313:1 1901:1 2843:1 3527:1 
19.056828785224912081730508361943 9:1 11:1 185:1 435:1 562:1 3145:1 
19.056828785224912081730508361943 11:1 104:1 532:1 1180:1 2225:1 8606:1 
-19.056828785224912081730508361943 11:1 104:1 179:1 495:1 532:1 1349:1 
-19.056828785224912081730508361943 28:1 104:1 305:1 532:1 2399:1 
19.056828785224912081730508361943 5:1 13:1 62:1 1761:1 1847:1 4538:1 
19.056828785224912081730508361943 5:1 18:1 603:1 1327:1 2080:1 2563:1 
19.056828785224912081730508361943 1:1 5:1 13:1 18:1 603:1 1553:1 
19.056828785224912081730508361943 5:1 7:1 13:1 48:1 597:1 602:1 
-19.056828785224912081730508361943 5:1 13:1 18:1 40:1 220:1 1943:1 
-19.056828785224912081730508361943 5:1 13:1 149:1 1792:1 2843:1 
-19.056828785224912081730508361943 5:1 7:1 18:1 62:1 420:1 1635:1 
19.056828785224912081730508361943 11:1 28:1 147:1 534:1 1393:1 4255:1 
19.056828785224912081730508361943 73:1 104:1 339:1 415:1 1610:1 2701:1 
19.056828785224912081730508361943 11:1 28:1 29:1 73:1 147:1 541:1 
-19.056828785224912081730508361943 28:1 40:1 147:1 393:1 1393:1 
3.5844805373801760239871327939909 17:1 1369:1 6686:1 7448:1 7449:1 7450:1 
14.001626076181000968290391028859 5:1 13:1 51:1 224:1 225:1 463:1 
19.056828785224912081730508361943 5:1 13:1 62:1 559:1 4872:1 
19.056828785224912081730508361943 5:1 13:1 62:1 231:1 559:1 
19.056828785224912081730508361943 5:1 13:1 62:1 559:1 623:1 1033:1 
-19.056828785224912081730508361943 13:1 27:1 62:1 603:1 2908:1 3049:1 
-19.056828785224912081730508361943 5:1 13:1 559:1 757:1 1558:1 2416:1 
-19.056828785224912081730508361943 5:1 7:1 13:1 559:1 602:1 3948:1 
19.056828785224912081730508361943 36:1 51:1 255:1 283:1 669:1 784:1 
19.056828785224912081730508361943 17:1 22:1 28:1 131:1 141:1 495:1 
19.056828785224912081730508361943 17:1 21:1 28:1 40:1 5553:1 5555:1 
-19.056828785224912081730508361943 1:1 17:1 51:1 141:1 204:1 1638:1 
-19.056828785224912081730508361943 17:1 28:1 40:1 141:1 296:1 439:1 
19.056828785224912081730508361943 5:1 9:1 13:1 32:1 55:1 
12.037739215907540923922169895377 5:1 13:1 104:1 532:1 4647:1 7982:1 
19.056828785224912081730508361943 5:1 13:1 167:1 945:1 
-19.056828785224912081730508361943 5:1 13:1 28:1 36:1 73:1 390:1 
-19.056828785224912081730508361943 5:1 185:1 466:1 506:1 774:1 3812:1 
-19.056828785224912081730508361943 5:1 185:1 231:1 280:1 1057:1 1418:1 
13.213561425846956254304132016841 7:1 17:1 141:1 432:1 854:1 2648:1 
19.056828785224912081730508361943 7:1 141:1 439:1 974:1 
19.056828785224912081730508361943 27:1 28:1 141:1 1085:1 2248:1 7495:1 
-19.056828785224912081730508361943 17:1 28:1 40:1 141:1 296:1 439:1 
-19.056828785224912081730508361943 141:1 962:1 4057:1 4343:1 8233:1 8237:1 
-19.056828785224912081730508361943 64:1 141:1 450:1 2003:1 4419:1 
-19.056828785224912081730508361943 7:1 141:1 180:1 1092:1 1125:1 3928:1 
19.056828785224912081730508361943 5:1 50:1 185:1 534:1 2051:1 4591:1 
19.056828785224912081730508361943 1:1 5:1 466:1 788:1 1194:1 6258:1 
0.56269343395491433490462895861128 5:1 13:1 18:1 40:1 1754:1 3986:1 
-3.9981237667053957096641170210205 5:1 9:1 462:1 3191:1 3192:1 3193:1 
-19.056828785224912081730508361943 5:1 11:1 13:1 580:1 612:1 6440:1 
-19.056828785224912081730508361943 5:1 13:1 48:1 425:1 2563:1 5634:1 
-19.056828785224912081730508361943 5:1 9:1 13:1 27:1 568:1 974:1 
19.056828785224912081730508361943 36:1 51:1 141:1 1032:1 1915:1 3488:1 
5.3886781063640372124723398883361 17:1 36:1 170:1 
19.056828785224912081730508361943 28:1 96:1 141:1 825:1 2122:1 2273:1 
-19.056828785224912081730508361943 28:1 36:1 96:1 141:1 495:1 3904:1 
-19.056828785224912081730508361943 28:1 141:1 207:1 313:1 1023:1 3188:1 
-19.056828785224912081730508361943 28:1 141:1 593:1 907:1 976:1 1915:1 
19.056828785224912081730508361943 5:1 13:1 179:1 180:1 278:1 394:1 
19.056828785224912081730508361943 5:1 9:1 17:1 220:1 568:1 6860:1 
19.056828785224912081730508361943 5:1 9:1 13:1 27:1 87:1 2343:1 
-19.056828785224912081730508361943 5:1 13:1 17:1 62:1 1552:1 2211:1 
-19.056828785224912081730508361943 5:1 9:1 13:1 51:1 247:1 945:1 
-19.056828785224912081730508361943 5:1 17:1 50:1 934:1 2341:1 4810:1 
19.056828785224912081730508361943 1:1 28:1 36:1 393:1 907:1 3106:1 
19.056828785224912081730508361943 8:1 28:1 37:1 40:1 141:1 946:1 
19.056828785224912081730508361943 11:1 28:1 141:1 3054:1 3958:1 
-19.056828785224912081730508361943 11:1 28:1 104:1 452:1 644:1 5741:1 
-19.056828785224912081730508361943 11:1 28:1 152:1 1135:1 1706:1 7175:1 
-13.698079846456478136929035827052 22:1 28:1 185:1 1194:1 3731:1 5955:1 
19.056828785224912081730508361943 5:1 9:1 13:1 17:1 247:1 9338:1 
19.056828785224912081730508361943 5:1 13:1 62:1 296:1 461:1 3916:1 
19.056828785224912081730508361943 5:1 13:1 17:1 113:1 856:1 5178:1 
-19.056828785224912081730508361943 5:1 13:1 141:1 283:1 466:1 1146:1 
-19.056828785224912081730508361943 5:1 13:1 141:1 466:1 729:1 5703:1 
-19.056828785224912081730508361943 5:1 37:1 62:1 141:1 946:1 3481:1 
19.056828785224912081730508361943 11:1 64:1 185:1 774:1 1455:1 4252:1 
19.056828785224912081730508361943 11:1 28:1 1135:1 
19.056828785224912081730508361943 11:1 185:1 534:1 1057:1 1162:1 1300:1 
-19.056828785224912081730508361943 1:1 11:1 247:1 414:1 1915:1 6519:1 
-19.056828785224912081730508361943 11:1 17:1 123:1 190:1 453:1 1370:1 
-19.056828785224912081730508361943 11:1 64:1 774:1 787:1 3654:1 
8.714502173084010649972697137855 5:1 13:1 141:1 142:1 976:1 4294:1 
19.056828785224912081730508361943 5:1 141:1 214:1 359:1 466:1 2640:1 
19.056828785224912081730508361943 5:1 141:1 466:1 2667:1 3571:1 
-19.056828785224912081730508361943 5:1 141:1 361:1 534:1 715:1 4169:1 
-19.056828785224912081730508361943 5:1 22:1 87:1 185:1 534:1 1057:1 
-19.056828785224912081730508361943 5:1 9:1 13:1 141:1 278:1 6883:1 
19.056828785224912081730508361943 11:1 190:1 194:1 1418:1 4587:1 9124:1 
19.056828785224912081730508361943 1:1 11:1 62:1 300:1 385:1 2416:1 
19.056828785224912081730508361943 11:1 62:1 369:1 670:1 835:1 3042:1 
-19.056828785224912081730508361943 11:1 62:1 190:1 194:1 
-19.056828785224912081730508361943 11:1 62:1 96:1 194:1 4208:1 4214:1 
-19.056828785224912081730508361943 7:1 11:1 62:1 436:1 442:1 3098:1 
19.056828785224912081730508361943 5:1 141:1 285:1 812:1 4304:1 7837:1 
19.056828785224912081730508361943 5:1 17:1 141:1 879:1 5365:1 6212:1 
19.056828785224912081730508361943 5:1 17:1 141:1 715:1 1091:1 4002:1 
-19.056828785224912081730508361943 5:1 17:1 27:1 476:1 1084:1 
-19.056828785224912081730508361943 5:1 141:1 208:1 466:1 2302:1 8298:1 
-19.056828785224912081730508361943 5:1 141:1 1089:1 3997:1 7249:1 7251:1 
19.056828785224912081730508361943 7:1 11:1 62:1 98:1 2341:1 2372:1 
19.056828785224912081730508361943 28:1 51:1 62:1 190:1 414:1 2550:1 
19.056828785224912081730508361943 11:1 13:1 40:1 149:1 1108:1 3098:1 
-19.056828785224912081730508361943 13:1 28:1 62:1 387:1 611:1 2523:1 
-19.056828785224912081730508361943 1:1 13:1 51:1 1811:1 2053:1 2067:1 
-19.056828785224912081730508361943 13:1 51:1 345:1 2116:1 3752:1 3766:1 
19.056828785224912081730508361943 5:1 27:1 185:1 436:1 1057:1 2645:1 
19.056828785224912081730508361943 5:1 88:1 283:1 439:1 1146:1 4393:1 
19.056828785224912081730508361943 5:1 27:1 185:1 278:1 436:1 1596:1 
-19.056828785224912081730508361943 5:1 27:1 49:1 64:1 1972:1 2220:1 
-19.056828785224912081730508361943 5:1 15:1 88:1 1190:1 1191:1 1192:1 
-19.056828785224912081730508361943 5:1 27:1 461:1 462:1 
19.056828785224912081730508361943 13:1 453:1 1604:1 2528:1 3148:1 6393:1 
19.056828785224912081730508361943 1:1 13:1 51:1 194:1 339:1 906:1 
19.056828785224912081730508361943 13:1 28:1 51:1 116:1 305:1 345:1 
-19.056828785224912081730508361943 1:1 13:1 813:1 1562:1 
-19.056828785224912081730508361943 1:1 13:1 813:1 1562:1 5709:1 
-19.056828785224912081730508361943 13:1 51:1 180:1 271:1 552:1 710:1 
19.056828785224912081730508361943 5:1 466:1 3533:1 
19.056828785224912081730508361943 5:1 64:1 746:1 758:1 1245:1 1325:1 
19.056828785224912081730508361943 5:1 27:1 64:1 3003:1 5200:1 
-19.056828785224912081730508361943 5:1 40:1 64:1 244:1 1310:1 1335:1 
-7.7552908156699258412913877691608 17:1 40:1 361:1 580:1 6976:1 
-4.1544173858154085365868013468571 5:1 64:1 169:1 185:1 466:1 774:1 
19.056828785224912081730508361943 1:1 13:1 247:1 757:1 865:1 2641:1 
19.056828785224912081730508361943 1:1 9:1 13:1 730:1 813:1 
3.6481814913317580639784409868298 13:1 191:1 236:1 3323:1 3324:1 3325:1 
-19.056828785224912081730508361943 1:1 9:1 13:1 369:1 1732:1 
-3.1887394593485649529895908926846 5:1 13:1 797:1 5563:1 5717:1 6075:1 
-19.056828785224912081730508361943 1:1 9:1 17:1 140:1 1091:1 7788:1 
19.056828785224912081730508361943 5:1 64:1 141:1 976:1 1598:1 7796:1 
10.958146926745817140158578695264 5:1 11:1 13:1 496:1 1998:1 4467:1 
19.056828785224912081730508361943 5:1 64:1 243:1 435:1 673:1 5842:1 
-19.056828785224912081730508361943 5:1 64:1 280:1 730:1 919:1 
-19.056828785224912081730508361943 5:1 64:1 435:1 1908:1 4137:1 
-19.056828785224912081730508361943 5:1 64:1 435:1 656:1 1288:1 1350:1 
-9.7569369482771080015481857117265 5:1 17:1 128:1 679:1 807:1 2125:1 
19.056828785224912081730508361943 1:1 9:1 11:1 208:1 318:1 506:1 
19.056828785224912081730508361943 9:1 17:1 462:1 1379:1 3514:1 3519:1 
-9.8303905775432252056589277344756 9:1 11:1 17:1 216:1 1180:1 2701:1 
4.6978845947488707679440267384052 5:1 774:1 1303:1 1848:1 8135:1 8136:1 
-19.056828785224912081730508361943 9:1 11:1 60:1 247:1 2206:1 3018:1 
19.056828785224912081730508361943 5:1 13:1 22:1 51:1 73:1 204:1 
2.4054977896952718374734558892669 5:1 128:1 1865:1 8379:1 
16.228555001224787446290065417998 64:1 2249:1 3957:1 3969:1 3970:1 
-19.056828785224912081730508361943 5:1 13:1 27:1 51:1 906:1 4873:1 
-19.056828785224912081730508361943 5:1 13:1 27:1 623:1 
-19.056828785224912081730508361943 5:1 13:1 51:1 906:1 1419:1 4828:1 
19.056828785224912081730508361943 1:1 9:1 11:1 98:1 720:1 7752:1 
19.056828785224912081730508361943 9:1 185:1 374:1 644:1 656:1 7402:1 
19.056828785224912081730508361943 9:1 11:1 78:1 532:1 838:1 1972:1 
-19.056828785224912081730508361943 9:1 64:1 185:1 374:1 817:1 6264:1 
-0.21627715692711238504308823848987 17:1 40:1 187:1 679:1 807:1 2125:1 
19.056828785224912081730508361943 5:1 243:1 287:1 
19.056828785224912081730508361943 5:1 27:1 51:1 466:1 1499:1 1717:1 
-0.44139361425625489587787342316005 11:1 17:1 361:1 461:1 2051:1 3181:1 
19.056828785224912081730508361943 5:1 27:1 143:1 498:1 802:1 7186:1 
-19.056828785224912081730508361943 5:1 13:1 18:1 27:1 519:1 814:1 
-0.23256820214589604689514601432165 11:1 17:1 1275:1 1569:1 3188:1 4298:1 
-19.056828785224912081730508361943 27:1 36:1 51:1 285:1 1644:1 2339:1 
19.056828785224912081730508361943 1:1 9:1 369:1 1301:1 7751:1 
12.825187460232461589271224511322 9:1 369:1 1125:1 1786:1 3248:1 7532:1 
19.056828785224912081730508361943 9:1 247:1 270:1 4133:1 4388:1 4993:1 
-19.056828785224912081730508361943 9:1 359:1 9314:1 
-19.056828785224912081730508361943 9:1 17:1 260:1 265:1 4133:1 
-1.732145533925722347134978917893 5:1 9:1 247:1 3731:1 4133:1 4138:1 
5.0758175584508329336586029967293 5:1 13:1 28:1 36:1 813:1 4278:1 
0.33327294245174199360803868330549 5:1 13:1 28:1 36:1 85:1 653:1 
19.056828785224912081730508361943 5:1 13:1 18:1 51:1 2476:1 3273:1 
-19.056828785224912081730508361943 5:1 13:1 36:1 219:1 243:1 3739:1 
-19.056828785224912081730508361943 5:1 13:1 28:1 580:1 2122:1 
-19.056828785224912081730508361943 5:1 13:1 128:1 214:1 807:1 1072:1 
19.056828785224912081730508361943 7:1 9:1 17:1 655:1 3049:1 6845:1 
19.056828785224912081730508361943 9:1 17:1 259:1 519:1 1190:1 6317:1 
19.056828785224912081730508361943 9:1 17:1 27:1 143:1 147:1 1393:1 
-19.056828785224912081730508361943 9:1 17:1 27:1 185:1 280:1 802:1 
-17.55930519121187316500254382845 6:1 9:1 17:1 18:1 715:1 4166:1 
-19.056828785224912081730508361943 9:1 17:1 77:1 976:1 2236:1 4824:1 
19.056828785224912081730508361943 5:1 11:1 13:1 125:1 3654:1 
4.7138394883529715073677834880073 13:1 62:1 312:1 3496:1 6175:1 6181:1 
19.056828785224912081730508361943 13:1 94:1 493:1 2302:1 
-19.056828785224912081730508361943 5:1 13:1 237:1 593:1 1361:1 
-19.056828785224912081730508361943 5:1 13:1 442:1 593:1 2624:1 7292:1 
-19.056828785224912081730508361943 1:1 5:1 11:1 13:1 369:1 2901:1 
19.056828785224912081730508361943 9:1 17:1 22:1 128:1 1644:1 6614:1 
19.056828785224912081730508361943 9:1 190:1 568:1 1180:1 2512:1 
19.056828785224912081730508361943 9:1 185:1 243:1 802:1 1721:1 7202:1 
-0.17067721583962686127122765356035 5:1 147:1 788:1 976:1 1915:1 2437:1 
1.8725032073031988577582751531736 18:1 22:1 516:1 2474:1 2528:1 2533:1 
-19.056828785224912081730508361943 9:1 88:1 345:1 3714:1 4416:1 7004:1 
19.056828785224912081730508361943 5:1 13:1 501:1 599:1 2236:1 9010:1 
6.1113532157574237402286598808132 5:1 9:1 18:1 27:1 1552:1 2999:1 
-19.056828785224912081730508361943 5:1 28:1 62:1 813:1 825:1 7844:1 
-19.056828785224912081730508361943 5:1 305:1 709:1 746:1 775:1 
-19.056828785224912081730508361943 5:1 13:1 349:1 361:1 2236:1 2995:1 
19.056828785224912081730508361943 318:1 593:1 647:1 803:1 1862:1 3040:1 
19.056828785224912081730508361943 9:1 11:1 18:1 1012:1 3948:1 3949:1 
19.056828785224912081730508361943 36:1 88:1 231:1 265:1 570:1 2901:1 
6.1940962817717277744122839067131 1:1 5:1 13:1 787:1 813:1 839:1 
-19.056828785224912081730508361943 11:1 283:1 647:1 784:1 803:1 2103:1 
-19.056828785224912081730508361943 1:1 36:1 259:1 385:1 789:1 1067:1 
-19.056828785224912081730508361943 9:1 18:1 88:1 191:1 278:1 506:1 
19.056828785224912081730508361943 5:1 60:1 211:1 244:1 652:1 7749:1 
19.056828785224912081730508361943 5:1 60:1 62:1 420:1 3819:1 4642:1 
19.056828785224912081730508361943 5:1 13:1 62:1 611:1 847:1 4399:1 
-19.056828785224912081730508361943 5:1 13:1 62:1 125:1 200:1 654:1 
-19.056828785224912081730508361943 13:1 62:1 131:1 612:1 865:1 5240:1 
-19.056828785224912081730508361943 5:1 60:1 180:1 320:1 1012:1 2920:1 
19.056828785224912081730508361943 9:1 27:1 51:1 88:1 784:1 1135:1 
19.056828785224912081730508361943 9:1 36:1 746:1 814:1 831:1 3783:1 
19.056828785224912081730508361943 9:1 36:1 191:1 2517:1 7659:1 7669:1 
-19.056828785224912081730508361943 9:1 51:1 307:1 851:1 1627:1 
-19.056828785224912081730508361943 9:1 13:1 27:1 51:1 1108:1 1575:1 
-19.056828785224912081730508361943 9:1 27:1 185:1 436:1 856:1 2231:1 
19.056828785224912081730508361943 13:1 62:1 88:1 466:1 654:1 3757:1 
19.056828785224912081730508361943 13:1 62:1 296:1 502:1 3739:1 
1.0129791031097021836160365637625 5:1 176:1 177:1 
-19.056828785224912081730508361943 13:1 36:1 62:1 654:1 4996:1 
-19.056828785224912081730508361943 13:1 36:1 280:1 1721:1 2218:1 2378:1 
-19.056828785224912081730508361943 13:1 36:1 533:1 746:1 1125:1 1980:1 
19.056828785224912081730508361943 11:1 27:1 64:1 414:1 709:1 3694:1 
19.056828785224912081730508361943 9:1 27:1 51:1 273:1 5548:1 5549:1 
19.056828785224912081730508361943 5:1 11:1 51:1 64:1 185:1 306:1 
-19.056828785224912081730508361943 5:1 11:1 15:1 62:1 466:1 2528:1 
-19.056828785224912081730508361943 5:1 11:1 64:1 2159:1 6288:1 8241:1 
-19.056828785224912081730508361943 64:1 141:1 231:1 588:1 1033:1 1369:1 
19.056828785224912081730508361943 13:1 28:1 36:1 1081:1 1326:1 4884:1 
19.056828785224912081730508361943 5:1 13:1 36:1 278:1 807:1 2522:1 
19.056828785224912081730508361943 13:1 339:1 856:1 1099:1 2918:1 3528:1 
-19.056828785224912081730508361943 9:1 13:1 88:1 273:1 275:1 6458:1 
-19.056828785224912081730508361943 17:1 127:1 338:1 361:1 831:1 1074:1 
-19.056828785224912081730508361943 13:1 28:1 147:1 1393:1 
19.056828785224912081730508361943 62:1 141:1 757:1 851:1 853:1 4881:1 
1.534450990163583217196219266043 11:1 64:1 385:1 710:1 1091:1 2799:1 
19.056828785224912081730508361943 141:1 180:1 185:1 1023:1 1459:1 1643:1 
-19.056828785224912081730508361943 18:1 64:1 185:1 570:1 2121:1 2129:1 
-19.056828785224912081730508361943 64:1 185:1 306:1 3793:1 
-19.056828785224912081730508361943 7:1 141:1 1567:1 3819:1 4642:1 7291:1 
19.056828785224912081730508361943 5:1 9:1 13:1 580:1 4972:1 
19.056828785224912081730508361943 5:1 13:1 17:1 361:1 580:1 7476:1 
19.056828785224912081730508361943 5:1 9:1 13:1 17:1 462:1 917:1 
-19.056828785224912081730508361943 5:1 9:1 13:1 374:1 663:1 3198:1 
-11.41921047420357027135651151184 5:1 9:1 13:1 27:1 907:1 1094:1 
-19.056828785224912081730508361943 5:1 13:1 17:1 663:1 2624:1 3273:1 
4.8450735006831280315964249894023 5:1 36:1 338:1 638:1 2060:1 4259:1 
19.056828785224912081730508361943 368:1 1067:1 4407:1 4567:1 4568:1 4569:1 
19.056828785224912081730508361943 7:1 147:1 194:1 195:1 7212:1 
-19.056828785224912081730508361943 36:1 194:1 528:1 678:1 1720:1 6593:1 
-19.056828785224912081730508361943 36:1 190:1 1436:1 2468:1 
-19.056828785224912081730508361943 36:1 51:1 141:1 339:1 3488:1 5599:1 
19.056828785224912081730508361943 9:1 13:1 28:1 141:1 907:1 4869:1 
19.056828785224912081730508361943 5:1 9:1 13:1 18:1 374:1 7094:1 
19.056828785224912081730508361943 9:1 13:1 28:1 3395:1 3622:1 7942:1 
-19.056828785224912081730508361943 9:1 13:1 559:1 757:1 758:1 3387:1 
-19.056828785224912081730508361943 5:1 9:1 13:1 28:1 580:1 851:1 
-1.6789951527826945110177803144325 9:1 13:1 30:1 147:1 602:1 3916:1 
0.025853016897568182469457909178345 36:1 64:1 1369:1 2484:1 4472:1 
19.056828785224912081730508361943 36:1 51:1 637:1 644:1 880:1 2908:1 
19.056828785224912081730508361943 36:1 96:1 305:1 678:1 2587:1 
-19.056828785224912081730508361943 18:1 27:1 36:1 813:1 1070:1 4390:1 
-19.056828785224912081730508361943 36:1 198:1 234:1 305:1 658:1 746:1 
-19.056828785224912081730508361943 36:1 99:1 447:1 1008:1 4704:1 
19.056828785224912081730508361943 9:1 13:1 27:1 147:1 1915:1 3450:1 
19.056828785224912081730508361943 9:1 13:1 147:1 1188:1 2153:1 2604:1 
19.056828785224912081730508361943 1:1 9:1 13:1 62:1 654:1 758:1 
5.4787213798418212817864514363464 141:1 361:1 1368:1 7229:1 
-19.056828785224912081730508361943 1:1 13:1 62:1 156:1 420:1 430:1 
19.056828785224912081730508361943 18:1 36:1 190:1 1150:1 4996:1 6773:1 
19.056828785224912081730508361943 5:1 36:1 406:1 746:1 1125:1 
19.056828785224912081730508361943 5:1 17:1 425:1 521:1 746:1 
6.7570249175377377071072260150686 13:1 18:1 91:1 104:1 5897:1 6023:1 
-19.056828785224912081730508361943 5:1 9:1 147:1 1356:1 6566:1 
-15.881848504670248445336255826987 5:1 9:1 147:1 917:1 7265:1 
17.545408379799713571856045746244 1:1 51:1 88:1 234:1 1755:1 4109:1 
19.056828785224912081730508361943 1:1 27:1 48:1 55:1 1137:1 8594:1 
19.056828785224912081730508361943 51:1 350:1 784:1 1604:1 1903:1 2116:1 
-19.056828785224912081730508361943 1:1 51:1 435:1 1326:1 3162:1 3671:1 
-11.607406430049810097671070252545 1:1 8:1 18:1 51:1 92:1 746:1 
-19.056828785224912081730508361943 1:1 11:1 27:1 180:1 414:1 5372:1 
19.056828785224912081730508361943 5:1 17:1 156:1 157:1 182:1 201:1 
19.056828785224912081730508361943 5:1 17:1 147:1 656:1 852:1 6541:1 
19.056828785224912081730508361943 5:1 147:1 319:1 320:1 321:1 322:1 
-19.056828785224912081730508361943 5:1 13:1 17:1 243:1 656:1 1825:1 
-19.056828785224912081730508361943 5:1 17:1 60:1 302:1 350:1 626:1 
9.8799835666848139226203784346581 208:1 313:1 361:1 423:1 1788:1 3527:1 
15.577243792530627075620941468515 1:1 9:1 180:1 198:1 369:1 2500:1 
19.056828785224912081730508361943 1:1 9:1 51:1 456:1 665:1 666:1 
19.056828785224912081730508361943 1:1 9:1 180:1 767:1 1023:1 3318:1 
-19.056828785224912081730508361943 1:1 9:1 48:1 369:1 1077:1 1658:1 
-5.6854220367105696709586482029408 5:1 62:1 2522:1 7844:1 7846:1 
-0.42843685565393718750470952727483 1:1 108:1 180:1 385:1 717:1 1023:1 
19.056828785224912081730508361943 5:1 17:1 77:1 656:1 2159:1 2874:1 
19.056828785224912081730508361943 5:1 11:1 13:1 18:1 355:1 3916:1 
19.056828785224912081730508361943 5:1 11:1 13:1 56:1 125:1 141:1 
-19.056828785224912081730508361943 5:1 13:1 55:1 208:1 219:1 247:1 
-19.056828785224912081730508361943 5:1 13:1 88:1 142:1 2587:1 4172:1 
-19.056828785224912081730508361943 5:1 13:1 17:1 18:1 532:1 597:1 
19.056828785224912081730508361943 9:1 48:1 123:1 131:1 180:1 1067:1 
3.293758324084521404984116088599 1:1 231:1 495:1 976:1 6352:1 6359:1 
19.056828785224912081730508361943 18:1 48:1 180:1 2103:1 2451:1 5405:1 
0.71272475958399106321650151585345 5:1 36:1 115:1 589:1 7563:1 9387:1 
5.4136841785773626156696991529316 5:1 28:1 191:1 3038:1 4964:1 5911:1 
-19.056828785224912081730508361943 9:1 11:1 2030:1 2110:1 3560:1 3923:1 
19.056828785224912081730508361943 5:1 13:1 17:1 945:1 1226:1 4973:1 
7.7091868955647875338854646543041 9:1 27:1 36:1 849:1 2440:1 2461:1 
19.056828785224912081730508361943 5:1 13:1 17:1 60:1 1998:1 7515:1 
-19.056828785224912081730508361943 5:1 13:1 17:1 231:1 259:1 
-19.056828785224912081730508361943 5:1 13:1 180:1 784:1 2613:1 8175:1 
-19.056828785224912081730508361943 5:1 17:1 36:1 167:1 3460:1 4170:1 
19.056828785224912081730508361943 9:1 11:1 247:1 358:1 824:1 889:1 
19.056828785224912081730508361943 9:1 11:1 12:1 1749:1 1870:1 9519:1 
19.056828785224912081730508361943 9:1 11:1 59:1 200:1 247:1 3958:1 
-19.056828785224912081730508361943 9:1 11:1 159:1 247:1 314:1 414:1 
-19.056828785224912081730508361943 9:1 11:1 59:1 247:1 662:1 835:1 
-19.056828785224912081730508361943 9:1 11:1 1180:1 1640:1 3734:1 3736:1 
19.056828785224912081730508361943 5:1 13:1 55:1 99:1 447:1 
19.056828785224912081730508361943 5:1 13:1 17:1 259:1 8659:1 
19.056828785224912081730508361943 5:1 13:1 345:1 730:1 919:1 2246:1 
-19.056828785224912081730508361943 5:1 13:1 51:1 880:1 917:1 1671:1 
-19.056828785224912081730508361943 5:1 13:1 147:1 889:1 2076:1 2991:1 
-19.056828785224912081730508361943 5:1 13:1 312:1 355:1 1509:1 
19.056828785224912081730508361943 9:1 11:1 231:1 247:1 9248:1 9259:1 
19.056828785224912081730508361943 9:1 11:1 207:1 208:1 209:1 210:1 
-11.217930277257774918098220950924 573:1 1087:1 5853:1 
-19.056828785224912081730508361943 9:1 11:1 394:1 
-16.627333170423657549008567002602 9:1 11:1 101:1 231:1 4000:1 7410:1 
-19.056828785224912081730508361943 9:1 11:1 18:1 2313:1 7576:1 9308:1 
19.056828785224912081730508361943 5:1 13:1 51:1 906:1 5179:1 
19.056828785224912081730508361943 5:1 13:1 62:1 248:1 2915:1 
19.056828785224912081730508361943 1:1 5:1 13:1 62:1 420:1 3563:1 
19.056828785224912081730508361943 1:1 18:1 2075:1 
-19.056828785224912081730508361943 5:1 13:1 62:1 141:1 296:1 420:1 
19.056828785224912081730508361943 9:1 11:1 18:1 297:1 9436:1 9437:1 
19.056828785224912081730508361943 9:1 11:1 18:1 729:1 861:1 1285:1 
14.112911961860849174854593002237 9:1 64:1 414:1 701:1 4912:1 4913:1 
-19.056828785224912081730508361943 1:1 9:1 18:1 51:1 1181:1 7487:1 
-19.056828785224912081730508361943 9:1 18:1 247:1 522:1 729:1 6990:1 
-8.3984000153974420754821039736271 5:1 13:1 17:1 807:1 2125:1 9162:1 
19.056828785224912081730508361943 13:1 62:1 128:1 469:1 746:1 6175:1 
19.056828785224912081730508361943 5:1 141:1 142:1 663:1 1543:1 1544:1 
19.056828785224912081730508361943 5:1 141:1 243:1 700:1 
-19.056828785224912081730508361943 11:1 18:1 28:1 190:1 7083:1 7084:1 
-19.056828785224912081730508361943 5:1 11:1 13:1 141:1 466:1 6443:1 
-19.056828785224912081730508361943 5:1 13:1 141:1 259:1 462:1 3258:1 
-19.056828785224912081730508361943 5:1 13:1 55:1 62:1 128:1 
19.056828785224912081730508361943 9:1 18:1 256:1 2022:1 2218:1 7025:1 
19.056828785224912081730508361943 9:1 51:1 285:1 393:1 662:1 3963:1 
19.056828785224912081730508361943 9:1 17:1 18:1 98:1 190:1 2561:1 
-19.056828785224912081730508361943 17:1 18:1 98:1 361:1 906:1 3514:1 
-19.056828785224912081730508361943 17:1 231:1 733:1 824:1 976:1 1399:1 
-19.056828785224912081730508361943 18:1 70:1 190:1 270:1 838:1 1009:1 
19.056828785224912081730508361943 5:1 13:1 259:1 312:1 1644:1 
19.056828785224912081730508361943 5:1 13:1 141:1 159:1 466:1 2274:1 
11.663815024776678086482206708752 5:1 13:1 141:1 612:1 5374:1 5375:1 
-19.056828785224912081730508361943 5:1 13:1 208:1 1644:1 2074:1 6465:1 
-19.056828785224912081730508361943 9:1 13:1 60:1 345:1 598:1 913:1 
-19.056828785224912081730508361943 5:1 28:1 251:1 655:1 1915:1 3563:1 
19.056828785224912081730508361943 17:1 18:1 390:1 500:1 5529:1 5530:1 
19.056828785224912081730508361943 17:1 361:1 715:1 1569:1 2222:1 3784:1 
19.056828785224912081730508361943 17:1 50:1 1378:1 1910:1 2437:1 6555:1 
-19.056828785224912081730508361943 17:1 40:1 172:1 237:1 456:1 2588:1 
-19.056828785224912081730508361943 17:1 172:1 393:1 470:1 6728:1 7107:1 
-19.056828785224912081730508361943 11:1 17:1 256:1 1363:1 1429:1 1731:1 
19.056828785224912081730508361943 5:1 13:1 27:1 1202:1 1399:1 3481:1 
19.056828785224912081730508361943 5:1 13:1 27:1 28:1 602:1 
15.937173666092329327170773467515 5:1 91:1 141:1 1696:1 1697:1 
-19.056828785224912081730508361943 5:1 13:1 27:1 2608:1 4404:1 9335:1 
-19.056828785224912081730508361943 5:1 13:1 27:1 3178:1 8743:1 
-19.056828785224912081730508361943 5:1 13:1 27:1 711:1 
19.056828785224912081730508361943 17:1 62:1 172:1 307:1 593:1 8069:1 
19.056828785224912081730508361943 40:1 48:1 453:1 1259:1 1980:1 2460:1 
19.056828785224912081730508361943 11:1 17:1 349:1 593:1 3250:1 3651:1 
-19.056828785224912081730508361943 17:1 28:1 141:1 1091:1 1355:1 7786:1 
-19.056828785224912081730508361943 17:1 98:1 141:1 593:1 976:1 3181:1 
-19.056828785224912081730508361943 17:1 28:1 143:1 331:1 349:1 7166:1 
19.056828785224912081730508361943 91:1 208:1 307:1 349:1 2278:1 2656:1 
19.056828785224912081730508361943 5:1 13:1 27:1 495:1 1207:1 4518:1 
19.056828785224912081730508361943 5:1 13:1 27:1 251:1 339:1 3784:1 
-19.056828785224912081730508361943 5:1 13:1 27:1 61:1 62:1 
-19.056828785224912081730508361943 5:1 11:1 13:1 27:1 2498:1 
-19.056828785224912081730508361943 5:1 13:1 27:1 5424:1 
19.056828785224912081730508361943 17:1 141:1 167:1 614:1 774:1 851:1 
19.056828785224912081730508361943 64:1 141:1 185:1 332:1 435:1 2074:1 
19.056828785224912081730508361943 17:1 127:1 296:1 1926:1 3074:1 4521:1 
-19.056828785224912081730508361943 9:1 64:1 185:1 291:1 774:1 3979:1 
-18.375225202273529845342636690475 27:1 40:1 147:1 1108:1 1109:1 3857:1 
-19.056828785224912081730508361943 9:1 17:1 141:1 284:1 516:1 582:1 
19.056828785224912081730508361943 5:1 11:1 13:1 27:1 1805:1 3461:1 
19.056828785224912081730508361943 5:1 13:1 27:1 147:1 924:1 3820:1 
19.056828785224912081730508361943 5:1 13:1 27:1 62:1 408:1 3188:1 
-19.056828785224912081730508361943 5:1 104:1 131:1 3784:1 4103:1 5386:1 
-19.056828785224912081730508361943 5:1 27:1 179:1 180:1 408:1 7369:1 
-19.056828785224912081730508361943 5:1 27:1 58:1 408:1 7369:1 7375:1 
19.056828785224912081730508361943 9:1 28:1 278:1 439:1 522:1 976:1 
19.056828785224912081730508361943 9:1 70:1 470:1 
14.900775273297380607573359156959 6:1 9:1 60:1 70:1 1723:1 4794:1 
-19.056828785224912081730508361943 9:1 62:1 79:1 297:1 562:1 978:1 
-19.056828785224912081730508361943 9:1 28:1 319:1 439:1 
2.8860101477454196405858510843245 13:1 18:1 22:1 236:1 284:1 7438:1 
19.056828785224912081730508361943 5:1 143:1 270:1 316:1 976:1 2236:1 
19.056828785224912081730508361943 5:1 64:1 141:1 185:1 2101:1 2121:1 
19.056828785224912081730508361943 1:1 5:1 17:1 180:1 231:1 4395:1 
-19.056828785224912081730508361943 5:1 13:1 285:1 316:1 2104:1 2915:1 
-19.056828785224912081730508361943 5:1 17:1 51:1 361:1 2318:1 3461:1 
-19.056828785224912081730508361943 5:1 13:1 17:1 770:1 924:1 5710:1 
19.056828785224912081730508361943 9:1 28:1 247:1 361:1 1352:1 9249:1 
19.056828785224912081730508361943 9:1 62:1 346:1 359:1 699:1 7554:1 
19.056828785224912081730508361943 9:1 179:1 180:1 237:1 647:1 8212:1 
-6.282617228170865431025049474556 62:1 147:1 594:1 
-19.056828785224912081730508361943 179:1 180:1 185:1 710:1 1047:1 2978:1 
-9.4560043600826606535747487214394 9:1 3443:1 6458:1 
19.056828785224912081730508361943 5:1 17:1 55:1 242:1 259:1 269:1 
19.056828785224912081730508361943 5:1 13:1 17:1 6720:1 6723:1 6728:1 
19.056828785224912081730508361943 5:1 13:1 17:1 284:1 895:1 4381:1 
-19.056828785224912081730508361943 5:1 13:1 17:1 359:1 636:1 2034:1 
-19.056828785224912081730508361943 13:1 17:1 149:1 189:1 593:1 1477:1 
-19.056828785224912081730508361943 5:1 13:1 17:1 349:1 1007:1 1347:1 
19.056828785224912081730508361943 1:1 51:1 318:1 646:1 3542:1 
19.056828785224912081730508361943 1:1 51:1 143:1 224:1 2318:1 2378:1 
19.056828785224912081730508361943 180:1 271:1 302:1 1349:1 
-19.056828785224912081730508361943 1:1 51:1 143:1 180:1 212:1 641:1 
-19.056828785224912081730508361943 1:1 51:1 191:1 1349:1 1557:1 1839:1 
-19.056828785224912081730508361943 1:1 51:1 90:1 215:1 4973:1 
19.056828785224912081730508361943 13:1 60:1 62:1 116:1 1731:1 
19.056828785224912081730508361943 5:1 13:1 141:1 369:1 462:1 1915:1 
19.056828785224912081730508361943 5:1 11:1 13:1 17:1 101:1 678:1 
-19.056828785224912081730508361943 5:1 11:1 13:1 462:1 2149:1 
-19.056828785224912081730508361943 5:1 11:1 13:1 87:1 141:1 1013:1 
-19.056828785224912081730508361943 13:1 141:1 678:1 727:1 904:1 1569:1 
2.9173129689870589409395051916363 1:1 5:1 17:1 1767:1 9346:1 9368:1 
19.056828785224912081730508361943 1:1 51:1 318:1 371:1 1839:1 
19.056828785224912081730508361943 1:1 51:1 191:1 223:1 639:1 968:1 
-19.056828785224912081730508361943 1:1 48:1 96:1 190:1 369:1 7069:1 
-19.056828785224912081730508361943 1:1 62:1 369:1 461:1 1311:1 6629:1 
-19.056828785224912081730508361943 1:1 62:1 228:1 670:1 955:1 3881:1 
19.056828785224912081730508361943 5:1 13:1 179:1 180:1 514:1 3431:1 
19.056828785224912081730508361943 13:1 141:1 180:1 215:1 589:1 1633:1 
19.056828785224912081730508361943 5:1 13:1 83:1 141:1 2077:1 2624:1 
-19.056828785224912081730508361943 5:1 13:1 179:1 180:1 514:1 4590:1 
6.8927223608892802531045163050294 1:1 9:1 70:1 682:1 2211:1 9075:1 
1.1486207306652411741509922649129 17:1 62:1 1102:1 7037:1 7045:1 7048:1 
19.056828785224912081730508361943 1:1 62:1 185:1 212:1 280:1 1057:1 
19.056828785224912081730508361943 62:1 228:1 385:1 
19.056828785224912081730508361943 1:1 62:1 245:1 603:1 
-19.056828785224912081730508361943 60:1 83:1 237:1 1728:1 3431:1 9336:1 
10.214152153093476016465501743369 5:1 13:1 285:1 2191:1 2192:1 
19.056828785224912081730508361943 51:1 60:1 77:1 
19.056828785224912081730508361943 11:1 13:1 59:1 283:1 559:1 835:1 
10.390560464469139390075724804774 1:1 61:1 62:1 361:1 
19.056828785224912081730508361943 5:1 13:1 17:1 87:1 2149:1 
-19.056828785224912081730508361943 13:1 17:1 194:1 1125:1 1638:1 3942:1 
-19.056828785224912081730508361943 5:1 13:1 17:1 51:1 259:1 5387:1 
-19.056828785224912081730508361943 13:1 17:1 141:1 259:1 976:1 1915:1 
19.056828785224912081730508361943 1:1 234:1 439:1 480:1 953:1 2451:1 
7.7373310201346257031218556221575 77:1 185:1 193:1 562:1 962:1 2120:1 
19.056828785224912081730508361943 185:1 271:1 1057:1 1721:1 4852:1 4853:1 
-19.056828785224912081730508361943 11:1 185:1 856:1 1231:1 2101:1 2107:1 
-1.891304758027153809507581172511 17:1 471:1 1993:1 5584:1 
-19.056828785224912081730508361943 361:1 962:1 1067:1 
18.793527458772548044407812994905 13:1 17:1 141:1 194:1 259:1 8252:1 
19.056828785224912081730508361943 5:1 13:1 17:1 194:1 461:1 3825:1 
2.1198797059353449157015347736888 13:1 17:1 141:1 259:1 2319:1 7225:1 
-19.056828785224912081730508361943 5:1 13:1 17:1 141:1 142:1 9497:1 
-19.056828785224912081730508361943 13:1 141:1 233:1 435:1 639:1 715:1 
-19.056828785224912081730508361943 13:1 141:1 682:1 1824:1 
19.056828785224912081730508361943 1:1 11:1 208:1 955:1 2808:1 
19.056828785224912081730508361943 11:1 96:1 339:1 713:1 733:1 856:1 
19.056828785224912081730508361943 1:1 11:1 18:1 48:1 181:1 741:1 
-19.056828785224912081730508361943 1:1 11:1 194:1 507:1 793:1 1799:1 
-19.056828785224912081730508361943 9:1 13:1 183:1 
-3.2872276342025830153659171628533 11:1 181:1 733:1 885:1 1604:1 3888:1 
19.056828785224912081730508361943 5:1 13:1 114:1 141:1 190:1 715:1 
19.056828785224912081730508361943 13:1 17:1 141:1 190:1 874:1 
19.056828785224912081730508361943 5:1 13:1 141:1 715:1 976:1 1552:1 
-2.8022756318791688379121751495404 5:1 13:1 141:1 715:1 2754:1 4173:1 
-8.5532892986886519537392814527266 5:1 13:1 141:1 715:1 945:1 
-19.056828785224912081730508361943 13:1 64:1 190:1 758:1 874:1 1517:1 
19.056828785224912081730508361943 62:1 435:1 746:1 1013:1 1091:1 
19.056828785224912081730508361943 9:1 185:1 435:1 1054:1 3946:1 3969:1 
19.056828785224912081730508361943 11:1 349:1 361:1 1074:1 1331:1 
-17.287403742308573129093929310329 9:1 17:1 1285:1 1552:1 1726:1 2295:1 
-19.056828785224912081730508361943 62:1 185:1 435:1 656:1 1102:1 3528:1 
-19.056828785224912081730508361943 17:1 18:1 1839:1 1998:1 6297:1 6298:1 
19.056828785224912081730508361943 5:1 13:1 237:1 945:1 1953:1 
19.056828785224912081730508361943 5:1 13:1 28:1 141:1 715:1 9170:1 
19.056828785224912081730508361943 5:1 13:1 64:1 1728:1 4911:1 
-19.056828785224912081730508361943 5:1 13:1 28:1 143:1 559:1 3948:1 
-19.056828785224912081730508361943 5:1 11:1 13:1 283:1 559:1 2618:1 
-19.056828785224912081730508361943 5:1 6:1 13:1 807:1 1815:1 4565:1 
19.056828785224912081730508361943 17:1 51:1 88:1 435:1 656:1 906:1 
19.056828785224912081730508361943 17:1 369:1 1032:1 1915:1 3447:1 3448:1 
19.056828785224912081730508361943 17:1 369:1 461:1 1032:1 4694:1 7166:1 
-19.056828785224912081730508361943 51:1 107:1 730:1 919:1 1032:1 1598:1 
0.95066587204764174678928156936308 28:1 682:1 1078:1 2278:1 8211:1 8214:1 
-19.056828785224912081730508361943 17:1 28:1 51:1 223:1 8305:1 8323:1 
19.056828785224912081730508361943 5:1 11:1 13:1 116:1 1164:1 4900:1 
19.056828785224912081730508361943 13:1 27:1 62:1 79:1 978:1 1644:1 
19.056828785224912081730508361943 1:1 5:1 13:1 62:1 559:1 6029:1 
-19.056828785224912081730508361943 1:1 5:1 11:1 13:1 1457:1 1458:1 
-19.056828785224912081730508361943 5:1 13:1 62:1 190:1 755:1 2816:1 
-19.056828785224912081730508361943 5:1 13:1 62:1 639:1 1109:1 5821:1 
2.3763832021681490225262223248137 17:1 51:1 452:1 667:1 2920:1 6196:1 
19.056828785224912081730508361943 9:1 17:1 167:1 807:1 913:1 7475:1 
19.056828785224912081730508361943 48:1 51:1 2690:1 3560:1 7218:1 9472:1 
-16.123609360789131983437982853502 17:1 147:1 350:1 2691:1 2692:1 2696:1 
19.056828785224912081730508361943 5:1 1165:1 1849:1 
-19.056828785224912081730508361943 9:1 13:1 1602:1 5431:1 7897:1 
-19.056828785224912081730508361943 9:1 17:1 48:1 273:1 435:1 522:1 
19.056828785224912081730508361943 1:1 5:1 27:1 498:1 1195:1 3165:1 
-4.7818370154141689454263541847467 71:1 195:1 456:1 545:1 721:1 2116:1 
8.8573304234580518823349848389626 5:1 6:1 10:1 11:1 12:1 13:1 
19.056828785224912081730508361943 5:1 13:1 599:1 
19.056828785224912081730508361943 5:1 13:1 190:1 3178:1 
-19.056828785224912081730508361943 5:1 13:1 167:1 1499:1 1732:1 
-19.056828785224912081730508361943 5:1 13:1 93:1 167:1 385:1 1759:1 
-19.056828785224912081730508361943 5:1 13:1 167:1 807:1 2128:1 
19.056828785224912081730508361943 9:1 17:1 1949:1 3793:1 3943:1 6904:1 
19.056828785224912081730508361943 9:1 17:1 185:1 214:1 297:1 757:1 
19.056828785224912081730508361943 9:1 17:1 807:1 851:1 3097:1 9340:1 
-19.056828785224912081730508361943 9:1 17:1 185:1 435:1 1057:1 1644:1 
-19.056828785224912081730508361943 9:1 17:1 99:1 1644:1 3201:1 3202:1 
-19.056828785224912081730508361943 9:1 17:1 361:1 861:1 2963:1 2990:1 
19.056828785224912081730508361943 5:1 13:1 18:1 462:1 522:1 1233:1 
2.8589417479578549396990183595335 5:1 13:1 194:1 2128:1 2129:1 
19.056828785224912081730508361943 5:1 11:1 13:1 1180:1 1418:1 
-19.056828785224912081730508361943 5:1 11:1 13:1 200:1 461:1 466:1 
-19.056828785224912081730508361943 5:1 13:1 18:1 195:1 261:1 394:1 
-19.056828785224912081730508361943 5:1 13:1 22:1 128:1 247:1 368:1 
19.056828785224912081730508361943 9:1 17:1 167:1 3720:1 4972:1 8857:1 
19.056828785224912081730508361943 9:1 17:1 128:1 682:1 1590:1 2436:1 
19.056828785224912081730508361943 9:1 17:1 363:1 602:1 682:1 1356:1 
-19.056828785224912081730508361943 17:1 194:1 299:1 3813:1 4692:1 5212:1 
-19.056828785224912081730508361943 17:1 27:1 863:1 
-19.056828785224912081730508361943 11:1 17:1 59:1 194:1 667:1 5210:1 
19.056828785224912081730508361943 5:1 13:1 261:1 1732:1 2349:1 
19.056828785224912081730508361943 5:1 13:1 40:1 62:1 90:1 3306:1 
19.056828785224912081730508361943 5:1 13:1 64:1 793:1 1644:1 
0.29880363591757175267815682673245 6:1 13:1 17:1 1896:1 4821:1 7458:1 
-19.056828785224912081730508361943 1:1 5:1 13:1 208:1 602:1 4828:1 
-19.056828785224912081730508361943 5:1 13:1 40:1 190:1 5276:1 5278:1 
19.056828785224912081730508361943 11:1 17:1 59:1 2714:1 4946:1 4947:1 
19.056828785224912081730508361943 1:1 11:1 17:1 98:1 4936:1 6180:1 
19.056828785224912081730508361943 17:1 273:1 623:1 1246:1 1288:1 1321:1 
-19.056828785224912081730508361943 11:1 17:1 180:1 271:1 2027:1 
-19.056828785224912081730508361943 9:1 17:1 521:1 1915:1 2409:1 3802:1 
-19.056828785224912081730508361943 9:1 17:1 191:1 495:1 4294:1 4295:1 
19.056828785224912081730508361943 5:1 13:1 143:1 498:1 746:1 4939:1 
19.056828785224912081730508361943 5:1 13:1 190:1 368:1 
19.056828785224912081730508361943 5:1 13:1 87:1 194:1 1049:1 
-15.372814004423734246529420488514 5:1 13:1 51:1 498:1 1995:1 1996:1 
19.056828785224912081730508361943 9:1 11:1 59:1 191:1 229:1 406:1 
-19.056828785224912081730508361943 5:1 87:1 436:1 2116:1 5111:1 5973:1 
19.056828785224912081730508361943 17:1 73:1 1455:1 3140:1 7940:1 7941:1 
19.056828785224912081730508361943 17:1 435:1 1101:1 2104:1 4893:1 4894:1 
19.056828785224912081730508361943 9:1 17:1 27:1 34:1 298:1 336:1 
-6.6321432410337104457198620366398 180:1 270:1 339:1 1379:1 2302:1 8704:1 
0.50360962017310173521877914026845 5:1 18:1 261:1 3370:1 3949:1 4000:1 
-19.056828785224912081730508361943 17:1 27:1 73:1 813:1 1569:1 1591:1 
19.056828785224912081730508361943 5:1 51:1 202:1 655:1 2030:1 
19.056828785224912081730508361943 51:1 191:1 436:1 534:1 1009:1 3137:1 
19.056828785224912081730508361943 9:1 13:1 141:1 195:1 1499:1 9364:1 
-19.056828785224912081730508361943 1:1 13:1 51:1 141:1 3405:1 8233:1 
-19.056828785224912081730508361943 13:1 369:1 746:1 1162:1 2674:1 2898:1 
-19.056828785224912081730508361943 13:1 51:1 141:1 452:1 667:1 715:1 
-19.056828785224912081730508361943 13:1 62:1 77:1 534:1 1823:1 
19.056828785224912081730508361943 17:1 498:1 593:1 2957:1 3298:1 3315:1 
16.354362463978077357751317322254 17:1 179:1 180:1 1349:1 6617:1 6620:1 
19.056828785224912081730508361943 17:1 179:1 180:1 361:1 906:1 
-19.056828785224912081730508361943 5:1 179:1 180:1 1356:1 1455:1 6558:1 
-19.056828785224912081730508361943 34:1 74:1 179:1 180:1 506:1 1455:1 
-19.056828785224912081730508361943 17:1 242:1 243:1 2957:1 8601:1 
19.056828785224912081730508361943 13:1 62:1 115:1 1569:1 1575:1 
19.056828785224912081730508361943 13:1 185:1 495:1 656:1 1057:1 2302:1 
19.056828785224912081730508361943 13:1 141:1 185:1 247:1 280:1 419:1 
-17.473890908399738464140682481229 13:1 17:1 190:1 682:1 1265:1 7562:1 
-19.056828785224912081730508361943 13:1 17:1 48:1 50:1 656:1 2015:1 
-19.056828785224912081730508361943 13:1 141:1 143:1 185:1 339:1 1418:1 
19.056828785224912081730508361943 5:1 11:1 73:1 766:1 770:1 771:1 
19.056828785224912081730508361943 60:1 73:1 104:1 180:1 1242:1 4497:1 
19.056828785224912081730508361943 5:1 11:1 73:1 766:1 770:1 771:1 
-0.90795317025978217184700724828872 11:1 231:1 361:1 593:1 1331:1 4817:1 
-19.056828785224912081730508361943 11:1 234:1 2714:1 4725:1 5422:1 7003:1 
-19.056828785224912081730508361943 60:1 62:1 603:1 656:1 942:1 1301:1 
19.056828785224912081730508361943 13:1 17:1 141:1 339:1 350:1 1213:1 
-9.1662929655792595440289005637169 1:1 321:1 436:1 8696:1 8701:1 
19.056828785224912081730508361943 13:1 17:1 147:1 243:1 1500:1 1501:1 
19.056828785224912081730508361943 141:1 5646:1 5657:1 
-19.056828785224912081730508361943 5:1 13:1 73:1 453:1 2564:1 5730:1 
-19.056828785224912081730508361943 13:1 17:1 102:1 284:1 1023:1 4274:1 
19.056828785224912081730508361943 11:1 62:1 420:1 3824:1 9528:1 9530:1 
19.056828785224912081730508361943 11:1 231:1 797:1 889:1 2236:1 6478:1 
19.056828785224912081730508361943 62:1 521:1 603:1 1527:1 1915:1 2843:1 
-19.056828785224912081730508361943 11:1 62:1 98:1 228:1 1852:1 2173:1 
-11.404932575464659549879797850735 62:1 141:1 771:1 1190:1 2446:1 8238:1 
18.209860921624610341496008913964 36:1 40:1 162:1 174:1 4678:1 
19.056828785224912081730508361943 5:1 13:1 746:1 
19.056828785224912081730508361943 5:1 6:1 9:1 284:1 720:1 746:1 
19.056828785224912081730508361943 5:1 6:1 746:1 942:1 1538:1 1883:1 
-19.056828785224912081730508361943 5:1 9:1 27:1 245:1 280:1 2011:1 
-19.056828785224912081730508361943 5:1 6:1 13:1 746:1 5392:1 5393:1 
-19.056828785224912081730508361943 1:1 5:1 91:1 384:1 787:1 1352:1 
19.056828785224912081730508361943 18:1 62:1 147:1 639:1 2724:1 2725:1 
19.056828785224912081730508361943 58:1 62:1 583:1 1627:1 2231:1 2681:1 
19.056828785224912081730508361943 13:1 17:1 62:1 1823:1 3647:1 3648:1 
-19.056828785224912081730508361943 6:1 38:1 62:1 73:1 115:1 825:1 
-19.056828785224912081730508361943 18:1 62:1 243:1 495:1 614:1 8596:1 
-19.056828785224912081730508361943 17:1 62:1 627:1 707:1 4184:1 
19.056828785224912081730508361943 1:1 27:1 141:1 688:1 1363:1 4033:1 
19.056828785224912081730508361943 9:1 74:1 190:1 817:1 2514:1 2515:1 
19.056828785224912081730508361943 5:1 27:1 183:1 880:1 2441:1 3979:1 
-19.056828785224912081730508361943 9:1 13:1 27:1 141:1 1226:1 
-19.056828785224912081730508361943 5:1 42:1 906:1 1499:1 4979:1 6976:1 
-19.056828785224912081730508361943 5:1 9:1 147:1 297:1 2477:1 4114:1 
14.930071646787341776985158503521 17:1 18:1 62:1 825:1 861:1 9131:1 
5.8473653298250143350855978496838 13:1 28:1 39:1 141:1 
19.056828785224912081730508361943 62:1 96:1 917:1 993:1 8881:1 
-0.8026657560531641477652442517865 5:1 17:1 2407:1 4812:1 4826:1 
-19.056828785224912081730508361943 62:1 793:1 993:1 1101:1 1487:1 8240:1 
-14.353609388391223689040998579003 17:1 378:1 1915:1 2843:1 3720:1 5597:1 
19.056828785224912081730508361943 5:1 9:1 60:1 233:1 338:1 1710:1 
19.056828785224912081730508361943 5:1 13:1 48:1 73:1 1557:1 1941:1 
19.056828785224912081730508361943 5:1 9:1 13:1 359:1 707:1 1609:1 
-19.056828785224912081730508361943 5:1 9:1 11:1 13:1 1300:1 7096:1 
-4.8626648676829615780548010661732 17:1 312:1 927:1 1378:1 2831:1 6978:1 
-19.056828785224912081730508361943 5:1 13:1 583:1 
19.056828785224912081730508361943 59:1 141:1 228:1 369:1 401:1 453:1 
19.056828785224912081730508361943 1:1 147:1 507:1 787:1 788:1 789:1 
19.056828785224912081730508361943 1:1 141:1 1133:1 3038:1 8351:1 
-19.056828785224912081730508361943 1:1 9:1 141:1 147:1 401:1 6640:1 
-19.056828785224912081730508361943 141:1 371:1 770:1 3435:1 3552:1 8605:1 
-19.056828785224912081730508361943 1:1 18:1 1202:1 2501:1 4395:1 
19.056828785224912081730508361943 5:1 13:1 62:1 715:1 1217:1 1218:1 
19.056828785224912081730508361943 5:1 11:1 13:1 125:1 1429:1 5284:1 
19.056828785224912081730508361943 5:1 9:1 13:1 334:1 3387:1 
-19.056828785224912081730508361943 5:1 11:1 13:1 59:1 228:1 613:1 
-19.056828785224912081730508361943 5:1 59:1 101:1 187:1 423:1 3022:1 
-19.056828785224912081730508361943 5:1 13:1 125:1 802:1 
19.056828785224912081730508361943 1:1 18:1 141:1 1638:1 1915:1 6331:1 
19.056828785224912081730508361943 1:1 18:1 141:1 147:1 1393:1 1469:1 
19.056828785224912081730508361943 9:1 27:1 1399:1 1455:1 1602:1 6692:1 
-19.056828785224912081730508361943 1:1 18:1 27:1 1463:1 1546:1 4323:1 
-19.056828785224912081730508361943 8:1 18:1 27:1 593:1 953:1 1242:1 
-19.056828785224912081730508361943 1:1 18:1 48:1 682:1 1116:1 1137:1 
19.056828785224912081730508361943 5:1 17:1 243:1 273:1 656:1 3201:1 
11.404352729136217448058232548647 5:1 147:1 1093:1 8753:1 8774:1 8775:1 
19.056828785224912081730508361943 5:1 13:1 48:1 243:1 793:1 3460:1 
-19.056828785224912081730508361943 5:1 7:1 13:1 48:1 243:1 1985:1 
-19.056828785224912081730508361943 5:1 87:1 262:1 1469:1 2030:1 3794:1 
-19.056828785224912081730508361943 5:1 17:1 361:1 461:1 1552:1 
19.056828785224912081730508361943 18:1 51:1 91:1 99:1 580:1 880:1 
19.056828785224912081730508361943 18:1 36:1 88:1 275:1 516:1 717:1 
19.056828785224912081730508361943 1:1 18:1 316:1 996:1 1058:1 2754:1 
-19.056828785224912081730508361943 18:1 36:1 62:1 218:1 359:1 496:1 
-19.056828785224912081730508361943 18:1 36:1 247:1 273:1 784:1 1905:1 
-19.056828785224912081730508361943 9:1 18:1 51:1 270:1 359:1 522:1 
19.056828785224912081730508361943 5:1 17:1 27:1 149:1 682:1 
19.056828785224912081730508361943 17:1 87:1 149:1 262:1 
19.056828785224912081730508361943 5:1 27:1 28:1 180:1 1067:1 1552:1 
-19.056828785224912081730508361943 5:1 231:1 316:1 996:1 1058:1 1918:1 
-19.056828785224912081730508361943 5:1 259:1 296:1 316:1 996:1 1058:1 
-19.056828785224912081730508361943 5:1 17:1 27:1 147:1 231:1 2104:1 
19.056828785224912081730508361943 18:1 36:1 101:1 270:1 381:1 754:1 
-8.2646719948353712936750525841489 5:1 495:1 1352:1 
19.056828785224912081730508361943 1:1 9:1 13:1 62:1 603:1 2650:1 
-19.056828785224912081730508361943 9:1 13:1 180:1 271:1 369:1 1731:1 
0.24583251481004420035958446533186 141:1 215:1 1091:1 1200:1 1706:1 3119:1 
-19.056828785224912081730508361943 1:1 9:1 36:1 214:1 653:1 812:1 
19.056828785224912081730508361943 5:1 11:1 194:1 1190:1 2101:1 2104:1 
19.056828785224912081730508361943 5:1 11:1 613:1 1908:1 3040:1 5372:1 
19.056828785224912081730508361943 5:1 115:1 236:1 636:1 1499:1 1509:1 
-19.056828785224912081730508361943 5:1 11:1 270:1 521:1 1915:1 4386:1 
-19.056828785224912081730508361943 5:1 11:1 17:1 449:1 1788:1 3727:1 
-19.056828785224912081730508361943 5:1 11:1 235:1 1945:1 6448:1 
19.056828785224912081730508361943 13:1 55:1 259:1 312:1 966:1 970:1 
19.056828785224912081730508361943 13:1 17:1 179:1 180:1 231:1 3716:1 
8.0376325670172317217065938166343 7:1 231:1 285:1 303:1 1671:1 8388:1 
-19.056828785224912081730508361943 13:1 99:1 117:1 447:1 665:1 7274:1 
-19.056828785224912081730508361943 13:1 28:1 149:1 194:1 719:1 3126:1 
-19.056828785224912081730508361943 13:1 28:1 285:1 1164:1 3003:1 5238:1 
19.056828785224912081730508361943 1:1 5:1 11:1 1352:1 2520:1 8566:1 
19.056828785224912081730508361943 5:1 11:1 27:1 270:1 291:1 495:1 
19.056828785224912081730508361943 1:1 5:1 11:1 195:1 1135:1 4057:1 
-19.056828785224912081730508361943 1:1 11:1 27:1 368:1 1484:1 3669:1 
-19.056828785224912081730508361943 1:1 5:1 312:1 970:1 7233:1 7236:1 
1.578558283409543294695254189719 5:1 4972:1 8861:1 
19.056828785224912081730508361943 8:1 13:1 28:1 1594:1 
19.056828785224912081730508361943 6:1 13:1 28:1 141:1 1265:1 1266:1 
19.056828785224912081730508361943 13:1 28:1 61:1 393:1 953:1 8483:1 
-19.056828785224912081730508361943 28:1 141:1 602:1 656:1 861:1 1185:1 
-10.715687386278867521127722284291 28:1 141:1 185:1 852:1 1812:1 1813:1 
-19.056828785224912081730508361943 5:1 28:1 51:1 88:1 1135:1 1356:1 
19.056828785224912081730508361943 1:1 9:1 401:1 
19.056828785224912081730508361943 1:1 9:1 316:1 996:1 1058:1 2748:1 
19.056828785224912081730508361943 1:1 813:1 1562:1 
-19.056828785224912081730508361943 1:1 9:1 36:1 61:1 62:1 3768:1 
-19.056828785224912081730508361943 1:1 5:1 316:1 996:1 1058:1 8098:1 
-19.056828785224912081730508361943 6:1 173:1 316:1 996:1 1058:1 3817:1 
19.056828785224912081730508361943 11:1 13:1 28:1 51:1 602:1 2027:1 
19.056828785224912081730508361943 5:1 28:1 533:1 802:1 2937:1 3290:1 
0.99682639913349446736390291334828 28:1 51:1 204:1 361:1 8305:1 8316:1 
-1.4616621476906264120998457656242 9:1 13:1 51:1 195:1 4413:1 4613:1 
-2.3998399293567547196914802043466 17:1 51:1 60:1 195:1 789:1 1499:1 
-19.056828785224912081730508361943 13:1 224:1 813:1 880:1 1562:1 1972:1 
-19.056828785224912081730508361943 11:1 13:1 123:1 488:1 746:1 1279:1 
19.056828785224912081730508361943 62:1 167:1 237:1 996:1 1058:1 8385:1 
19.056828785224912081730508361943 5:1 180:1 271:1 863:1 1604:1 
19.056828785224912081730508361943 5:1 185:1 368:1 614:1 656:1 6412:1 
-19.056828785224912081730508361943 5:1 87:1 127:1 1594:1 1862:1 2145:1 
-19.056828785224912081730508361943 5:1 9:1 28:1 297:1 1135:1 
-19.056828785224912081730508361943 5:1 9:1 28:1 185:1 436:1 6561:1 
19.056828785224912081730508361943 13:1 51:1 59:1 224:1 1575:1 2034:1 
19.056828785224912081730508361943 13:1 17:1 593:1 2125:1 5130:1 5166:1 
10.758464868926358448675273393746 13:1 17:1 59:1 224:1 2211:1 9074:1 
-19.056828785224912081730508361943 13:1 17:1 51:1 191:1 236:1 470:1 
7.870652892053337623678999079857 6:1 141:1 157:1 475:1 1932:1 1958:1 
-19.056828785224912081730508361943 13:1 17:1 273:1 757:1 1491:1 
19.056828785224912081730508361943 5:1 9:1 220:1 811:1 2692:1 4088:1 
19.056828785224912081730508361943 5:1 9:1 151:1 220:1 247:1 456:1 
19.056828785224912081730508361943 5:1 9:1 198:1 234:1 270:1 296:1 
-19.056828785224912081730508361943 5:1 9:1 361:1 
-19.056828785224912081730508361943 5:1 9:1 234:1 1635:1 1784:1 7295:1 
-19.056828785224912081730508361943 5:1 9:1 591:1 1634:1 3450:1 4138:1 
19.056828785224912081730508361943 13:1 17:1 48:1 190:1 191:1 
19.056828785224912081730508361943 13:1 17:1 51:1 453:1 758:1 1788:1 
19.056828785224912081730508361943 13:1 17:1 51:1 60:1 6978:1 6979:1 
-19.056828785224912081730508361943 17:1 237:1 655:1 724:1 1259:1 8717:1 
-19.056828785224912081730508361943 13:1 62:1 180:1 212:1 270:1 7094:1 
-11.038192324433067526001650549006 13:1 17:1 18:1 62:1 190:1 636:1 
19.056828785224912081730508361943 5:1 9:1 27:1 591:1 1634:1 4138:1 
-10.309902990074416351262698299251 7:1 183:1 3126:1 
19.056828785224912081730508361943 5:1 9:1 27:1 297:1 1094:1 
-19.056828785224912081730508361943 5:1 9:1 27:1 1094:1 
-19.056828785224912081730508361943 5:1 9:1 18:1 27:1 646:1 1094:1 
-19.056828785224912081730508361943 27:1 83:1 198:1 259:1 1614:1 9458:1 
19.056828785224912081730508361943 28:1 62:1 116:1 
19.056828785224912081730508361943 62:1 194:1 746:1 
19.056828785224912081730508361943 62:1 323:1 385:1 1350:1 
-19.056828785224912081730508361943 60:1 62:1 64:1 603:1 701:1 
-19.056828785224912081730508361943 11:1 28:1 498:1 
-19.056828785224912081730508361943 7:1 13:1 21:1 62:1 644:1 8263:1 
8.939744681063467979242886940483 5:1 18:1 27:1 391:1 806:1 3280:1 
19.056828785224912081730508361943 5:1 369:1 1094:1 1181:1 1479:1 2080:1 
19.056828785224912081730508361943 5:1 9:1 18:1 27:1 149:1 7200:1 
-19.056828785224912081730508361943 5:1 48:1 67:1 149:1 219:1 1257:1 
-19.056828785224912081730508361943 5:1 51:1 204:1 361:1 865:1 3020:1 
-19.056828785224912081730508361943 5:1 18:1 40:1 220:1 7912:1 7913:1 
19.056828785224912081730508361943 7:1 17:1 62:1 180:1 861:1 1135:1 
19.056828785224912081730508361943 7:1 11:1 13:1 180:1 1913:1 2618:1 
16.295375304987523179534036898986 11:1 13:1 103:1 198:1 4386:1 7059:1 
-19.056828785224912081730508361943 11:1 17:1 679:1 766:1 787:1 1455:1 
-19.056828785224912081730508361943 11:1 13:1 369:1 1032:1 2528:1 6394:1 
-19.056828785224912081730508361943 11:1 13:1 59:1 198:1 835:1 1231:1 
19.056828785224912081730508361943 5:1 87:1 185:1 436:1 813:1 1263:1 
19.056828785224912081730508361943 64:1 436:1 466:1 762:1 1618:1 2067:1 
19.056828785224912081730508361943 5:1 17:1 127:1 141:1 1507:1 3727:1 
-19.056828785224912081730508361943 5:1 17:1 185:1 248:1 436:1 1057:1 
-19.056828785224912081730508361943 27:1 185:1 435:1 436:1 500:1 2230:1 
-19.056828785224912081730508361943 5:1 9:1 17:1 406:1 1507:1 3874:1 
19.056828785224912081730508361943 11:1 13:1 140:1 147:1 6465:1 9145:1 
19.056828785224912081730508361943 1:1 11:1 13:1 51:1 181:1 452:1 
19.056828785224912081730508361943 11:1 13:1 59:1 833:1 834:1 835:1 
-0.56362416233906997842240116369794 13:1 36:1 1133:1 4022:1 7264:1 7265:1 
-19.056828785224912081730508361943 11:1 13:1 132:1 190:1 453:1 8751:1 
-19.056828785224912081730508361943 11:1 13:1 27:1 51:1 71:1 2636:1 
