SVM-light Version V5.00
2 # kernel type
3 # kernel parameter -d 
0.005 # kernel parameter -g 
1 # kernel parameter -s 
1 # kernel parameter -r 
empty# kernel parameter -u 
11036 # highest feature index 
21600 # number of training documents 
9617 # number of support vectors plus 1 
-15.91848 # threshold b, each following line is a SV (starting with alpha*y)
-19.581015816757776804024615557864 147:1 2449:1 7433:1 
-19.581015816757776804024615557864 141:1 340:1 6538:1 
19.581015816757776804024615557864 1:1 191:1 3674:1 
-19.581015816757776804024615557864 5:1 17:1 289:1 986:1 1321:1 2525:1 
-12.693377010808283955611841520295 9:1 180:1 483:1 
19.581015816757776804024615557864 5:1 808:1 2525:1 
9.9286585234089201890128606464714 5:1 17:1 147:1 1275:1 2886:1 
12.189556406417047185186675051227 28:1 36:1 3047:1 9023:1 9024:1 
19.581015816757776804024615557864 5:1 13:1 104:1 432:1 4316:1 
18.466734975416756014965358190238 5:1 36:1 51:1 624:1 3008:1 7510:1 
-19.581015816757776804024615557864 17:1 407:1 8025:1 
-19.581015816757776804024615557864 5:1 13:1 36:1 96:1 3016:1 5388:1 
-19.581015816757776804024615557864 5:1 13:1 36:1 96:1 10154:1 10159:1 
19.581015816757776804024615557864 9:1 17:1 101:1 141:1 432:1 5849:1 
19.581015816757776804024615557864 1:1 9:1 17:1 141:1 1645:1 6465:1 
-5.5482280296312982414974612765945 11:1 18:1 751:1 8766:1 
-19.581015816757776804024615557864 1:1 51:1 220:1 614:1 686:1 1742:1 
-19.581015816757776804024615557864 1:1 51:1 60:1 101:1 113:1 297:1 
-19.581015816757776804024615557864 1:1 17:1 51:1 242:1 645:1 2756:1 
19.581015816757776804024615557864 5:1 83:1 1168:1 
-5.3166197455310797437277869903482 13:1 36:1 78:1 284:1 361:1 1207:1 
16.039928502444713132035758462735 5:1 9:1 13:1 340:1 2434:1 2647:1 
-19.581015816757776804024615557864 5:1 9:1 13:1 36:1 575:1 1904:1 
-19.581015816757776804024615557864 5:1 9:1 13:1 340:1 750:1 9166:1 
19.581015816757776804024615557864 51:1 60:1 242:1 337:1 1024:1 1376:1 
11.040144824294072734005567326676 242:1 534:1 765:1 1155:1 1566:1 5679:1 
19.581015816757776804024615557864 5:1 9:1 27:1 28:1 1052:1 4195:1 
-19.581015816757776804024615557864 28:1 38:1 39:1 47:1 242:1 246:1 
-19.581015816757776804024615557864 18:1 28:1 141:1 242:1 743:1 10134:1 
-19.581015816757776804024615557864 18:1 21:1 28:1 141:1 242:1 2532:1 
19.581015816757776804024615557864 9:1 300:1 528:1 686:1 720:1 750:1 
19.581015816757776804024615557864 9:1 96:1 296:1 686:1 787:1 2030:1 
19.581015816757776804024615557864 5:1 9:1 13:1 60:1 613:1 750:1 
-19.581015816757776804024615557864 5:1 9:1 13:1 340:1 750:1 9166:1 
-19.581015816757776804024615557864 9:1 60:1 143:1 337:1 1376:1 3399:1 
-19.581015816757776804024615557864 9:1 11:1 60:1 432:1 528:1 549:1 
19.581015816757776804024615557864 5:1 13:1 9352:1 
19.581015816757776804024615557864 17:1 28:1 242:1 743:1 5940:1 6763:1 
19.581015816757776804024615557864 28:1 141:1 242:1 845:1 4927:1 11035:1 
19.581015816757776804024615557864 13:1 62:1 1667:1 
-10.813448869495992710199061548337 28:1 51:1 242:1 392:1 4363:1 5197:1 
19.581015816757776804024615557864 555:1 776:1 1193:1 
-19.581015816757776804024615557864 17:1 28:1 242:1 1667:1 6541:1 
8.3176220040402704114512744126841 5:1 9:1 18:1 114:1 220:1 3125:1 
19.581015816757776804024615557864 5:1 9:1 11:1 18:1 120:1 5586:1 
19.581015816757776804024615557864 9:1 18:1 38:1 1289:1 2197:1 4267:1 
-19.581015816757776804024615557864 5:1 9:1 13:1 18:1 27:1 413:1 
-19.581015816757776804024615557864 5:1 9:1 13:1 18:1 1512:1 4411:1 
-19.581015816757776804024615557864 5:1 18:1 51:1 1123:1 1427:1 6466:1 
7.491542321843843943440788279986 36:1 62:1 145:1 2371:1 5473:1 5497:1 
19.581015816757776804024615557864 28:1 242:1 2737:1 
19.581015816757776804024615557864 28:1 242:1 1148:1 
-8.4234000014004379863763460889459 18:1 40:1 242:1 369:1 635:1 5028:1 
4.5801466617575199435918875678908 5:1 62:1 750:1 943:1 971:1 1017:1 
-19.581015816757776804024615557864 28:1 96:1 242:1 299:1 445:1 784:1 
19.581015816757776804024615557864 5:1 9:1 27:1 147:1 1004:1 1904:1 
19.581015816757776804024615557864 5:1 9:1 13:1 220:1 6625:1 
19.581015816757776804024615557864 5:1 9:1 18:1 27:1 805:1 1002:1 
-19.581015816757776804024615557864 5:1 9:1 13:1 27:1 1052:1 9465:1 
-19.581015816757776804024615557864 5:1 9:1 13:1 27:1 751:1 9255:1 
-19.581015816757776804024615557864 5:1 9:1 27:1 528:1 1138:1 2002:1 
19.581015816757776804024615557864 28:1 242:1 445:1 1333:1 
9.8734874489984658652019788860343 28:1 242:1 445:1 570:1 
19.581015816757776804024615557864 17:1 28:1 242:1 445:1 6908:1 6909:1 
-19.581015816757776804024615557864 11:1 28:1 181:1 242:1 445:1 5367:1 
-19.581015816757776804024615557864 9:1 17:1 28:1 36:1 140:1 445:1 
-14.450959475991041358611255418509 5:1 17:1 249:1 381:1 745:1 3771:1 
19.581015816757776804024615557864 5:1 9:1 13:1 27:1 1138:1 
19.581015816757776804024615557864 5:1 27:1 1576:1 
-19.581015816757776804024615557864 5:1 13:1 27:1 104:1 
-19.581015816757776804024615557864 5:1 13:1 27:1 402:1 733:1 1448:1 
-19.581015816757776804024615557864 5:1 13:1 27:1 646:1 735:1 9632:1 
14.239510234002118238549883244559 5:1 13:1 1184:1 2323:1 3196:1 
17.014234285216261355344613548368 11:1 17:1 51:1 60:1 554:1 4537:1 
19.581015816757776804024615557864 11:1 28:1 51:1 181:1 1207:1 
8.9112981927158987360826358781196 5:1 765:1 1138:1 3199:1 
8.7814055778755584213968177209608 5:1 13:1 36:1 481:1 5212:1 9005:1 
0.056000533372271441012735238018649 51:1 586:1 616:1 3653:1 3654:1 3655:1 
-19.581015816757776804024615557864 11:1 51:1 613:1 1838:1 3004:1 3023:1 
19.581015816757776804024615557864 5:1 9:1 13:1 27:1 1448:1 5369:1 
19.581015816757776804024615557864 9:1 13:1 27:1 36:1 436:1 1448:1 
19.581015816757776804024615557864 5:1 13:1 27:1 784:1 1847:1 3890:1 
-19.581015816757776804024615557864 9:1 27:1 1138:1 
19.581015816757776804024615557864 7:1 17:1 136:1 242:1 743:1 1030:1 
19.581015816757776804024615557864 9:1 17:1 60:1 180:1 1078:1 6744:1 
19.581015816757776804024615557864 11:1 17:1 123:1 125:1 2002:1 2494:1 
-19.581015816757776804024615557864 9:1 27:1 1138:1 
-19.581015816757776804024615557864 5:1 36:1 114:1 533:1 604:1 1004:1 
-19.581015816757776804024615557864 5:1 13:1 28:1 337:1 1847:1 3377:1 
17.317325927050958966901816893369 179:1 180:1 1371:1 2345:1 3189:1 
19.581015816757776804024615557864 9:1 11:1 249:1 392:1 523:1 
15.227597599584909104919461242389 11:1 18:1 38:1 149:1 2528:1 2532:1 
19.581015816757776804024615557864 9:1 11:1 249:1 523:1 613:1 1021:1 
-19.581015816757776804024615557864 11:1 13:1 249:1 523:1 1468:1 4954:1 
-5.2538242916466044718504235788714 9:1 11:1 17:1 523:1 809:1 9245:1 
-0.43573851061933460693254005491326 1:1 9:1 11:1 409:1 565:1 1663:1 
-7.6995905231700749737910882686265 5:1 13:1 36:1 3967:1 4042:1 
19.581015816757776804024615557864 9:1 13:1 27:1 680:1 1263:1 
19.581015816757776804024615557864 5:1 13:1 36:1 576:1 604:1 
-19.581015816757776804024615557864 5:1 13:1 18:1 22:1 36:1 1002:1 
-19.581015816757776804024615557864 5:1 13:1 36:1 1002:1 8130:1 
5.5933567953906244696327121346258 11:1 13:1 96:1 808:1 4537:1 
19.581015816757776804024615557864 7:1 9:1 17:1 140:1 7474:1 7475:1 
19.581015816757776804024615557864 7:1 9:1 17:1 77:1 1052:1 7211:1 
19.581015816757776804024615557864 9:1 17:1 27:1 1052:1 2078:1 9292:1 
-19.581015816757776804024615557864 9:1 27:1 1138:1 
-19.581015816757776804024615557864 7:1 17:1 27:1 149:1 3343:1 4122:1 
-5.4003916324466914034019282553345 7:1 17:1 2528:1 2540:1 8472:1 8473:1 
-19.581015816757776804024615557864 9:1 17:1 432:1 
-14.634660107814065455045238195453 17:1 18:1 350:1 768:1 804:1 8882:1 
19.581015816757776804024615557864 5:1 13:1 36:1 735:1 2299:1 
19.581015816757776804024615557864 36:1 337:1 7112:1 
-19.581015816757776804024615557864 5:1 13:1 36:1 787:1 788:1 789:1 
-19.581015816757776804024615557864 5:1 13:1 242:1 1448:1 2937:1 3780:1 
-19.581015816757776804024615557864 5:1 13:1 131:1 
19.581015816757776804024615557864 9:1 17:1 864:1 4357:1 7744:1 10471:1 
0.014776208561602678301372115754475 9:1 17:1 22:1 159:1 6954:1 7684:1 
19.581015816757776804024615557864 7:1 17:1 22:1 1667:1 2432:1 7334:1 
-19.581015816757776804024615557864 9:1 17:1 22:1 808:1 1052:1 9292:1 
19.581015816757776804024615557864 11:1 1346:1 2927:1 
-0.086211958964763218959959090170742 9:1 1004:1 2323:1 
19.581015816757776804024615557864 5:1 13:1 36:1 51:1 242:1 3837:1 
19.581015816757776804024615557864 28:1 62:1 116:1 
-0.38641392466489965507037140923785 7:1 62:1 170:1 
-19.581015816757776804024615557864 13:1 32:1 36:1 51:1 242:1 436:1 
-19.581015816757776804024615557864 5:1 13:1 36:1 51:1 735:1 4297:1 
6.919656499200089072587616101373 17:1 40:1 1572:1 3556:1 3557:1 3558:1 
19.581015816757776804024615557864 1:1 9:1 141:1 432:1 1138:1 3206:1 
19.581015816757776804024615557864 9:1 11:1 28:1 523:1 712:1 1317:1 
11.868762400268314749496312288102 9:1 28:1 34:1 141:1 432:1 1273:1 
-19.581015816757776804024615557864 9:1 11:1 28:1 77:1 98:1 5947:1 
-19.581015816757776804024615557864 1:1 9:1 34:1 141:1 1645:1 4275:1 
19.581015816757776804024615557864 22:1 36:1 141:1 167:1 725:1 4316:1 
19.581015816757776804024615557864 7:1 36:1 242:1 283:1 284:1 5572:1 
17.677556200559337185040931217372 36:1 48:1 336:1 498:1 1123:1 1517:1 
19.581015816757776804024615557864 36:1 51:1 336:1 363:1 828:1 904:1 
-0.80895218408937508147715789164067 7:1 36:1 336:1 554:1 6359:1 6366:1 
19.581015816757776804024615557864 13:1 84:1 892:1 2368:1 
-19.581015816757776804024615557864 7:1 170:1 796:1 
19.581015816757776804024615557864 9:1 11:1 98:1 249:1 7229:1 9021:1 
19.581015816757776804024615557864 9:1 11:1 98:1 128:1 613:1 1078:1 
19.581015816757776804024615557864 9:1 11:1 17:1 98:1 3355:1 7227:1 
19.581015816757776804024615557864 38:1 88:1 190:1 410:1 436:1 2358:1 
-0.01860392536696611753832542035525 1:1 9:1 11:1 17:1 98:1 2589:1 
19.581015816757776804024615557864 5:1 677:1 2052:1 
19.581015816757776804024615557864 7:1 13:1 36:1 170:1 1468:1 1593:1 
19.581015816757776804024615557864 7:1 13:1 36:1 84:1 283:1 298:1 
-19.581015816757776804024615557864 84:1 183:1 194:1 311:1 432:1 5594:1 
2.3692049857659043254898278973997 13:1 313:1 5997:1 6048:1 6051:1 
-19.581015816757776804024615557864 7:1 13:1 36:1 170:1 207:1 1892:1 
19.581015816757776804024615557864 11:1 104:1 685:1 4954:1 6876:1 
19.581015816757776804024615557864 11:1 98:1 196:1 350:1 1512:1 3399:1 
19.581015816757776804024615557864 1:1 9:1 11:1 869:1 1715:1 10381:1 
19.581015816757776804024615557864 7:1 13:1 36:1 84:1 283:1 298:1 
-19.581015816757776804024615557864 9:1 11:1 27:1 40:1 613:1 10621:1 
-19.581015816757776804024615557864 11:1 224:1 523:1 806:1 957:1 1317:1 
-19.581015816757776804024615557864 11:1 104:1 332:1 685:1 1275:1 9109:1 
19.581015816757776804024615557864 5:1 13:1 242:1 284:1 311:1 5216:1 
19.581015816757776804024615557864 5:1 13:1 36:1 808:1 1533:1 3706:1 
19.581015816757776804024615557864 5:1 13:1 36:1 436:1 1062:1 10529:1 
-19.581015816757776804024615557864 5:1 13:1 84:1 283:1 2264:1 5573:1 
-14.20377248741621301064697036054 5:1 13:1 84:1 261:1 283:1 734:1 
19.581015816757776804024615557864 11:1 898:1 2692:1 
19.581015816757776804024615557864 9:1 11:1 183:1 765:1 1085:1 1939:1 
19.581015816757776804024615557864 9:1 11:1 28:1 170:1 591:1 2560:1 
19.581015816757776804024615557864 11:1 220:1 533:1 800:1 1145:1 1350:1 
19.581015816757776804024615557864 43:1 386:1 1385:1 9541:1 
-17.069645824370400788438928429969 9:1 11:1 60:1 340:1 869:1 9096:1 
5.8757552011514366796518515911885 5:1 325:1 363:1 441:1 1684:1 2539:1 
19.581015816757776804024615557864 5:1 13:1 84:1 242:1 1667:1 2112:1 
19.581015816757776804024615557864 91:1 143:1 301:1 
-2.8843504166116202824809988669585 73:1 96:1 252:1 337:1 429:1 565:1 
17.347708449706704669779355754144 82:1 319:1 395:1 1351:1 5368:1 5921:1 
-19.581015816757776804024615557864 5:1 7:1 13:1 36:1 1332:1 5517:1 
-19.581015816757776804024615557864 5:1 7:1 13:1 36:1 750:1 9839:1 
19.581015816757776804024615557864 9:1 140:1 311:1 1287:1 6048:1 10685:1 
19.581015816757776804024615557864 9:1 28:1 51:1 140:1 686:1 1388:1 
19.581015816757776804024615557864 9:1 51:1 62:1 116:1 295:1 733:1 
-19.581015816757776804024615557864 13:1 51:1 180:1 350:1 439:1 904:1 
-17.06015463630004092010494787246 1:1 9:1 88:1 140:1 350:1 1388:1 
19.581015816757776804024615557864 13:1 51:1 614:1 1207:1 8737:1 9793:1 
19.581015816757776804024615557864 36:1 113:1 266:1 332:1 874:1 
19.581015816757776804024615557864 5:1 7:1 36:1 517:1 758:1 1169:1 
19.581015816757776804024615557864 5:1 7:1 36:1 39:1 298:1 2736:1 
-19.581015816757776804024615557864 5:1 36:1 145:1 298:1 1078:1 9251:1 
-19.581015816757776804024615557864 5:1 7:1 36:1 874:1 1496:1 3429:1 
-19.581015816757776804024615557864 5:1 36:1 40:1 326:1 436:1 6526:1 
19.581015816757776804024615557864 1:1 9:1 13:1 750:1 869:1 6006:1 
19.581015816757776804024615557864 9:1 13:1 17:1 84:1 249:1 7752:1 
19.581015816757776804024615557864 9:1 13:1 18:1 180:1 350:1 776:1 
-19.581015816757776804024615557864 9:1 13:1 17:1 733:1 885:1 1273:1 
-19.581015816757776804024615557864 9:1 13:1 39:1 463:1 2434:1 3797:1 
-19.581015816757776804024615557864 9:1 13:1 62:1 295:1 8811:1 
19.581015816757776804024615557864 5:1 36:1 51:1 439:1 735:1 8664:1 
19.581015816757776804024615557864 5:1 36:1 534:1 558:1 735:1 8664:1 
19.581015816757776804024615557864 1:1 515:1 565:1 
12.583777028026844391206395812333 17:1 301:1 397:1 3550:1 5756:1 7564:1 
19.581015816757776804024615557864 28:1 1148:1 2248:1 
-19.581015816757776804024615557864 341:1 2248:1 2256:1 
19.581015816757776804024615557864 9:1 13:1 17:1 1217:1 1955:1 10154:1 
19.581015816757776804024615557864 9:1 13:1 17:1 340:1 575:1 10213:1 
19.581015816757776804024615557864 9:1 13:1 27:1 88:1 1052:1 3454:1 
-1.5410997493436440208824933506548 9:1 64:1 73:1 393:1 908:1 5647:1 
19.581015816757776804024615557864 2411:1 3294:1 7761:1 7762:1 
19.581015816757776804024615557864 5:1 87:1 141:1 3311:1 3312:1 
19.581015816757776804024615557864 5:1 36:1 567:1 735:1 784:1 1157:1 
-16.446158068159768106397677911445 5:1 36:1 51:1 187:1 735:1 1238:1 
19.581015816757776804024615557864 5:1 36:1 51:1 96:1 655:1 672:1 
-19.581015816757776804024615557864 5:1 69:1 395:1 1148:1 9836:1 
-19.581015816757776804024615557864 5:1 36:1 191:1 1108:1 3706:1 3725:1 
-19.581015816757776804024615557864 5:1 36:1 40:1 50:1 395:1 6096:1 
19.581015816757776804024615557864 17:1 60:1 131:1 249:1 252:1 2000:1 
19.581015816757776804024615557864 9:1 17:1 249:1 345:1 9901:1 9911:1 
19.581015816757776804024615557864 9:1 17:1 249:1 1222:1 2434:1 7080:1 
-19.581015816757776804024615557864 9:1 17:1 27:1 28:1 194:1 7312:1 
-19.581015816757776804024615557864 9:1 17:1 48:1 131:1 582:1 9717:1 
-6.3315744912226277207878410990816 9:1 17:1 28:1 249:1 928:1 6354:1 
16.882063431037284573221768368967 5:1 6:1 18:1 36:1 69:1 750:1 
19.581015816757776804024615557864 5:1 13:1 36:1 395:1 5352:1 6902:1 
19.581015816757776804024615557864 7:1 36:1 284:1 543:1 1096:1 1236:1 
-19.581015816757776804024615557864 18:1 36:1 96:1 162:1 554:1 6355:1 
-19.581015816757776804024615557864 18:1 36:1 96:1 162:1 6363:1 6368:1 
-1.630863690632212481546048365999 7:1 36:1 750:1 765:1 1016:1 9940:1 
19.581015816757776804024615557864 9:1 17:1 28:1 565:1 680:1 
19.581015816757776804024615557864 9:1 17:1 28:1 355:1 1812:1 3935:1 
19.581015816757776804024615557864 9:1 17:1 28:1 2683:1 7647:1 7648:1 
-19.581015816757776804024615557864 11:1 13:1 28:1 758:1 784:1 2099:1 
19.581015816757776804024615557864 36:1 48:1 392:1 498:1 1123:1 1842:1 
-19.581015816757776804024615557864 9:1 17:1 432:1 565:1 5385:1 
15.481622064918724390736315399408 18:1 36:1 224:1 337:1 397:1 7112:1 
-6.0437105777822468510862563562114 442:1 1115:1 4906:1 10973:1 10974:1 
19.581015816757776804024615557864 7:1 18:1 22:1 162:1 2580:1 8205:1 
-19.581015816757776804024615557864 18:1 51:1 87:1 204:1 397:1 1983:1 
-19.581015816757776804024615557864 7:1 18:1 36:1 567:1 768:1 3114:1 
-19.581015816757776804024615557864 36:1 51:1 60:1 204:1 337:1 428:1 
19.581015816757776804024615557864 9:1 11:1 13:1 439:1 490:1 5978:1 
19.581015816757776804024615557864 9:1 11:1 13:1 17:1 281:1 679:1 
19.581015816757776804024615557864 9:1 11:1 13:1 84:1 392:1 1188:1 
7.4133512339230112075938450288959 2809:1 3469:1 10614:1 10615:1 10616:1 10617:1 
-19.581015816757776804024615557864 9:1 11:1 13:1 460:1 558:1 
-19.581015816757776804024615557864 9:1 11:1 13:1 392:1 5074:1 
19.581015816757776804024615557864 28:1 36:1 241:1 
19.581015816757776804024615557864 28:1 36:1 48:1 50:1 279:1 1780:1 
13.439101783759088704073292319663 18:1 36:1 51:1 223:1 3682:1 4149:1 
-19.581015816757776804024615557864 6:1 28:1 36:1 945:1 4783:1 9250:1 
-19.581015816757776804024615557864 1:1 18:1 28:1 36:1 279:1 8789:1 
-19.581015816757776804024615557864 28:1 36:1 62:1 279:1 436:1 2329:1 
1.5177229914498615581663898410625 13:1 147:1 407:1 753:1 1556:1 3279:1 
19.581015816757776804024615557864 5:1 9:1 11:1 13:1 692:1 5942:1 
19.581015816757776804024615557864 5:1 9:1 11:1 13:1 404:1 6590:1 
-19.581015816757776804024615557864 5:1 13:1 22:1 84:1 1188:1 1678:1 
-19.581015816757776804024615557864 5:1 11:1 13:1 540:1 3829:1 4954:1 
-19.581015816757776804024615557864 5:1 9:1 13:1 84:1 1533:1 1793:1 
19.581015816757776804024615557864 1:1 28:1 36:1 279:1 557:1 3472:1 
19.581015816757776804024615557864 1:1 51:1 704:1 735:1 765:1 945:1 
19.581015816757776804024615557864 18:1 36:1 62:1 436:1 1419:1 2777:1 
19.541741290478842785205415566452 711:1 796:1 2541:1 
-19.581015816757776804024615557864 1:1 18:1 36:1 891:1 1939:1 6177:1 
-19.581015816757776804024615557864 1:1 17:1 36:1 557:1 3307:1 8006:1 
19.581015816757776804024615557864 5:1 9:1 13:1 27:1 302:1 
19.581015816757776804024615557864 5:1 9:1 13:1 354:1 3722:1 
19.581015816757776804024615557864 5:1 9:1 13:1 32:1 55:1 
-19.581015816757776804024615557864 5:1 9:1 13:1 51:1 223:1 325:1 
-19.581015816757776804024615557864 5:1 9:1 13:1 575:1 8955:1 9186:1 
-19.581015816757776804024615557864 5:1 9:1 13:1 575:1 3466:1 4125:1 
19.581015816757776804024615557864 7:1 36:1 84:1 283:1 298:1 1188:1 
-0.11010700023130347291466790693448 11:1 17:1 36:1 281:1 4142:1 4256:1 
19.581015816757776804024615557864 17:1 36:1 64:1 84:1 298:1 1188:1 
-19.581015816757776804024615557864 51:1 242:1 474:1 805:1 900:1 1002:1 
-19.581015816757776804024615557864 7:1 36:1 298:1 512:1 516:1 776:1 
7.8091193176835629330412302806508 5:1 125:1 484:1 555:1 620:1 3107:1 
6.6287941842500153200035128975287 5:1 64:1 295:1 899:1 4495:1 
15.151274710757473229705283301882 1:1 2:1 5:1 9:1 13:1 4604:1 
-1.3264030178467245413287400879199 242:1 7299:1 8608:1 8623:1 8624:1 8625:1 
-19.581015816757776804024615557864 5:1 9:1 13:1 319:1 1188:1 1915:1 
-19.581015816757776804024615557864 5:1 13:1 82:1 84:1 1004:1 1188:1 
-19.581015816757776804024615557864 5:1 9:1 13:1 558:1 660:1 8121:1 
19.581015816757776804024615557864 7:1 17:1 36:1 1162:1 1667:1 
19.581015816757776804024615557864 7:1 17:1 36:1 741:1 1469:1 1667:1 
19.581015816757776804024615557864 7:1 17:1 36:1 279:1 8551:1 8569:1 
-19.581015816757776804024615557864 7:1 17:1 36:1 295:1 428:1 1217:1 
-19.581015816757776804024615557864 17:1 18:1 48:1 55:1 128:1 6093:1 
19.581015816757776804024615557864 5:1 185:1 275:1 447:1 1564:1 2943:1 
19.581015816757776804024615557864 5:1 9:1 13:1 295:1 512:1 5385:1 
19.581015816757776804024615557864 5:1 13:1 28:1 104:1 558:1 10503:1 
-19.581015816757776804024615557864 5:1 9:1 13:1 28:1 279:1 671:1 
-19.581015816757776804024615557864 5:1 13:1 84:1 242:1 1667:1 1904:1 
-19.581015816757776804024615557864 5:1 9:1 64:1 863:1 1904:1 
19.581015816757776804024615557864 36:1 60:1 428:1 534:1 1004:1 3869:1 
19.581015816757776804024615557864 17:1 147:1 325:1 552:1 891:1 1802:1 
19.581015816757776804024615557864 7:1 17:1 48:1 273:1 319:1 436:1 
19.581015816757776804024615557864 5:1 9:1 13:1 295:1 512:1 5385:1 
-19.581015816757776804024615557864 17:1 59:1 224:1 422:1 534:1 2090:1 
-19.581015816757776804024615557864 17:1 58:1 534:1 1944:1 5283:1 6032:1 
-19.581015816757776804024615557864 9:1 34:1 750:1 
19.581015816757776804024615557864 5:1 9:1 13:1 463:1 760:1 1175:1 
19.581015816757776804024615557864 5:1 9:1 13:1 381:1 832:1 7023:1 
19.581015816757776804024615557864 5:1 9:1 13:1 973:1 1496:1 3140:1 
-19.581015816757776804024615557864 5:1 9:1 13:1 60:1 2000:1 7185:1 
-19.581015816757776804024615557864 9:1 13:1 27:1 48:1 233:1 716:1 
19.581015816757776804024615557864 1:1 191:1 7823:1 
19.581015816757776804024615557864 7:1 17:1 242:1 275:1 336:1 516:1 
19.581015816757776804024615557864 11:1 17:1 59:1 3405:1 5543:1 5544:1 
19.581015816757776804024615557864 11:1 17:1 59:1 224:1 2929:1 
-19.581015816757776804024615557864 11:1 17:1 59:1 898:1 2929:1 5520:1 
-19.581015816757776804024615557864 11:1 17:1 59:1 128:1 1145:1 3465:1 
-19.581015816757776804024615557864 5:1 7:1 11:1 17:1 281:1 10685:1 
1.7667945353735112767878945305711 5:1 13:1 59:1 614:1 4604:1 6925:1 
19.581015816757776804024615557864 6:1 9:1 13:1 344:1 768:1 1435:1 
19.581015816757776804024615557864 9:1 13:1 36:1 60:1 928:1 3676:1 
-19.581015816757776804024615557864 9:1 13:1 36:1 185:1 760:1 1465:1 
-19.581015816757776804024615557864 9:1 13:1 36:1 679:1 1244:1 4732:1 
-19.581015816757776804024615557864 9:1 13:1 36:1 298:1 720:1 1069:1 
0.63562293186177365456046572944615 5:1 11:1 17:1 128:1 3252:1 10131:1 
19.581015816757776804024615557864 11:1 17:1 34:1 128:1 782:1 9455:1 
19.581015816757776804024615557864 5:1 11:1 326:1 898:1 1246:1 2694:1 
19.581015816757776804024615557864 6:1 17:1 34:1 456:1 697:1 3615:1 
-19.581015816757776804024615557864 5:1 11:1 392:1 570:1 2598:1 4526:1 
-19.581015816757776804024615557864 5:1 11:1 356:1 392:1 4662:1 5741:1 
19.581015816757776804024615557864 7:1 13:1 36:1 84:1 298:1 9386:1 
19.581015816757776804024615557864 36:1 64:1 82:1 671:1 863:1 
19.581015816757776804024615557864 5:1 9:1 13:1 225:1 8010:1 
-19.581015816757776804024615557864 7:1 13:1 84:1 147:1 493:1 1667:1 
-19.581015816757776804024615557864 13:1 17:1 147:1 231:1 1169:1 7028:1 
-3.4290407251530052867849462927552 17:1 165:1 598:1 805:1 2583:1 4208:1 
19.581015816757776804024615557864 5:1 9:1 11:1 392:1 621:1 1082:1 
19.581015816757776804024615557864 5:1 9:1 28:1 585:1 750:1 1040:1 
19.581015816757776804024615557864 7:1 13:1 36:1 84:1 298:1 9386:1 
-19.581015816757776804024615557864 9:1 598:1 750:1 765:1 784:1 1406:1 
-19.581015816757776804024615557864 5:1 9:1 11:1 28:1 741:1 8459:1 
-19.581015816757776804024615557864 5:1 9:1 11:1 533:1 1512:1 2730:1 
19.581015816757776804024615557864 7:1 17:1 39:1 96:1 231:1 298:1 
-3.3867565260149450345750210544793 7:1 62:1 170:1 
19.581015816757776804024615557864 7:1 13:1 17:1 36:1 170:1 2323:1 
16.181378660263273872033096267842 5:1 13:1 242:1 243:1 2522:1 2559:1 
19.581015816757776804024615557864 5:1 11:1 846:1 1353:1 2469:1 2470:1 
19.581015816757776804024615557864 11:1 13:1 454:1 1667:1 3831:1 
19.581015816757776804024615557864 9:1 11:1 185:1 598:1 714:1 3515:1 
19.581015816757776804024615557864 5:1 9:1 28:1 233:1 718:1 719:1 
19.581015816757776804024615557864 5:1 9:1 28:1 395:1 492:1 493:1 
-19.581015816757776804024615557864 5:1 9:1 13:1 28:1 140:1 9168:1 
-5.5444866888269972449165834404994 9:1 28:1 64:1 185:1 257:1 712:1 
-19.581015816757776804024615557864 9:1 28:1 585:1 1955:1 3769:1 
19.581015816757776804024615557864 18:1 36:1 284:1 356:1 437:1 750:1 
19.581015816757776804024615557864 7:1 17:1 296:1 2756:1 6223:1 6224:1 
19.581015816757776804024615557864 17:1 407:1 687:1 1207:1 7072:1 
-18.816047513126910928349388996139 7:1 336:1 862:1 863:1 
1.2296337613006440570018185098888 5:1 13:1 266:1 350:1 360:1 1267:1 
-19.581015816757776804024615557864 74:1 96:1 296:1 437:1 490:1 491:1 
19.581015816757776804024615557864 9:1 28:1 33:1 43:1 716:1 3214:1 
11.297618515541083539233113697264 5:1 28:1 73:1 1573:1 2120:1 8994:1 
19.581015816757776804024615557864 5:1 9:1 13:1 28:1 639:1 654:1 
-19.581015816757776804024615557864 5:1 9:1 13:1 1246:1 10342:1 
-19.581015816757776804024615557864 5:1 9:1 13:1 750:1 875:1 
-19.581015816757776804024615557864 5:1 9:1 13:1 750:1 10163:1 
19.581015816757776804024615557864 36:1 96:1 296:1 298:1 742:1 
-0.92541228910101513971397935165442 36:1 448:1 465:1 2212:1 5385:1 7168:1 
19.581015816757776804024615557864 5:1 9:1 147:1 295:1 1298:1 5518:1 
-19.581015816757776804024615557864 36:1 96:1 367:1 1048:1 2323:1 6130:1 
-17.587045890653008939352730521932 36:1 96:1 284:1 456:1 697:1 1287:1 
-8.439675634960957850694285298232 17:1 173:1 516:1 5661:1 9184:1 
19.581015816757776804024615557864 5:1 9:1 13:1 249:1 750:1 3465:1 
19.581015816757776804024615557864 5:1 9:1 13:1 539:1 540:1 1742:1 
19.581015816757776804024615557864 5:1 9:1 13:1 80:1 422:1 2535:1 
-19.581015816757776804024615557864 5:1 13:1 185:1 395:1 598:1 2004:1 
-19.581015816757776804024615557864 5:1 9:1 13:1 540:1 578:1 
-19.581015816757776804024615557864 5:1 9:1 13:1 444:1 3252:1 
19.581015816757776804024615557864 7:1 36:1 96:1 284:1 381:1 437:1 
19.581015816757776804024615557864 7:1 36:1 170:1 1406:1 3429:1 5077:1 
19.581015816757776804024615557864 7:1 96:1 284:1 339:1 340:1 341:1 
8.0811920466772466653537776437588 5:1 454:1 1521:1 2523:1 8980:1 8981:1 
19.581015816757776804024615557864 5:1 13:1 844:1 
-19.581015816757776804024615557864 7:1 27:1 36:1 170:1 591:1 4224:1 
19.581015816757776804024615557864 5:1 9:1 13:1 367:1 2017:1 3116:1 
6.9478943004226003665735333925113 17:1 1078:1 8693:1 
10.290141890624337150939027196728 5:1 13:1 17:1 1244:1 1552:1 2264:1 
-19.581015816757776804024615557864 5:1 9:1 13:1 17:1 945:1 5090:1 
-19.581015816757776804024615557864 5:1 9:1 13:1 540:1 1078:1 6444:1 
-19.581015816757776804024615557864 5:1 9:1 13:1 17:1 191:1 2228:1 
19.581015816757776804024615557864 27:1 36:1 98:1 428:1 2730:1 9442:1 
19.581015816757776804024615557864 127:1 242:1 800:1 1853:1 4143:1 9702:1 
19.581015816757776804024615557864 7:1 9:1 96:1 170:1 456:1 697:1 
19.581015816757776804024615557864 11:1 17:1 207:1 231:1 4362:1 7752:1 
4.6799208795286721951356412319001 6:1 17:1 141:1 4696:1 5667:1 5669:1 
-19.581015816757776804024615557864 7:1 11:1 96:1 116:1 1667:1 2006:1 
-16.196531812019710372396730235778 5:1 9:1 432:1 1558:1 1790:1 6533:1 
19.581015816757776804024615557864 5:1 9:1 13:1 51:1 540:1 10658:1 
19.581015816757776804024615557864 5:1 9:1 13:1 17:1 9891:1 9892:1 
-19.581015816757776804024615557864 9:1 13:1 17:1 51:1 2471:1 4857:1 
-19.581015816757776804024615557864 9:1 13:1 17:1 27:1 51:1 381:1 
-19.581015816757776804024615557864 9:1 13:1 17:1 27:1 51:1 10544:1 
19.581015816757776804024615557864 7:1 36:1 40:1 96:1 136:1 140:1 
19.581015816757776804024615557864 11:1 36:1 180:1 249:1 284:1 403:1 
4.4712664595418152302386260998901 11:1 36:1 96:1 598:1 650:1 1769:1 
-19.581015816757776804024615557864 5:1 36:1 96:1 295:1 674:1 7023:1 
-9.2726913446613465907830686774105 11:1 36:1 98:1 249:1 436:1 3383:1 
3.2878159189665967510052269062726 5:1 17:1 62:1 118:1 213:1 217:1 
19.581015816757776804024615557864 9:1 13:1 17:1 27:1 128:1 5901:1 
19.581015816757776804024615557864 9:1 13:1 17:1 42:1 367:1 554:1 
11.433596868681659586286514240783 9:1 13:1 17:1 27:1 358:1 1779:1 
-19.581015816757776804024615557864 9:1 13:1 17:1 539:1 5596:1 
-19.581015816757776804024615557864 9:1 13:1 17:1 27:1 538:1 3905:1 
-3.2034753044534811650123629078735 673:1 864:1 3482:1 9567:1 9568:1 
19.581015816757776804024615557864 5:1 36:1 96:1 242:1 796:1 6410:1 
19.581015816757776804024615557864 36:1 96:1 796:1 
19.581015816757776804024615557864 36:1 147:1 185:1 436:1 1160:1 1379:1 
-8.9805332565998909899462887551636 36:1 284:1 344:1 5008:1 5077:1 
-8.3894994044185562387383470195346 36:1 284:1 344:1 5008:1 5077:1 9238:1 
15.970887319203269427703162364196 36:1 179:1 180:1 745:1 3399:1 5343:1 
0.67725029995043428687750974859227 50:1 345:1 1447:1 4075:1 7277:1 7281:1 
9.9494385856529934386571767390706 13:1 17:1 51:1 191:1 1699:1 2503:1 
19.581015816757776804024615557864 17:1 27:1 51:1 1108:1 2707:1 4879:1 
-7.2215527536117214424393750960007 13:1 17:1 51:1 704:1 9184:1 9208:1 
-19.581015816757776804024615557864 13:1 17:1 42:1 128:1 141:1 898:1 
-19.581015816757776804024615557864 9:1 17:1 39:1 51:1 381:1 2434:1 
19.581015816757776804024615557864 36:1 215:1 249:1 284:1 534:1 624:1 
19.581015816757776804024615557864 7:1 36:1 283:1 284:1 411:1 
19.581015816757776804024615557864 9:1 36:1 249:1 1287:1 1298:1 1332:1 
-19.581015816757776804024615557864 147:1 220:1 1610:1 3908:1 3909:1 5063:1 
15.002625486043998037644087162334 11:1 36:1 616:1 5139:1 8662:1 8663:1 
-19.581015816757776804024615557864 36:1 249:1 277:1 947:1 1749:1 2030:1 
19.581015816757776804024615557864 13:1 17:1 51:1 1667:1 10240:1 
12.084221257207641286868238239549 13:1 62:1 381:1 738:1 3273:1 6920:1 
19.581015816757776804024615557864 17:1 51:1 141:1 1002:1 1791:1 2442:1 
-19.581015816757776804024615557864 5:1 13:1 17:1 51:1 73:1 2459:1 
-19.581015816757776804024615557864 13:1 51:1 147:1 477:1 1699:1 10143:1 
-19.581015816757776804024615557864 5:1 13:1 17:1 51:1 73:1 735:1 
13.820030693149741196634749940131 36:1 325:1 434:1 474:1 538:1 1188:1 
19.581015816757776804024615557864 36:1 284:1 329:1 1094:1 1232:1 8392:1 
19.581015816757776804024615557864 284:1 311:1 341:1 1004:1 3898:1 7228:1 
19.581015816757776804024615557864 13:1 242:1 1620:1 1944:1 2130:1 7056:1 
0.25297537403350461859830033972685 13:1 51:1 62:1 204:1 296:1 4828:1 
19.581015816757776804024615557864 5:1 9:1 13:1 51:1 128:1 477:1 
19.581015816757776804024615557864 9:1 13:1 51:1 73:1 1060:1 8684:1 
-19.581015816757776804024615557864 22:1 534:1 686:1 1115:1 1123:1 9474:1 
-19.581015816757776804024615557864 5:1 18:1 340:1 1002:1 1114:1 3336:1 
-0.071227651401031627509397026187798 9:1 765:1 6350:1 
-19.581015816757776804024615557864 9:1 1791:1 2826:1 
19.581015816757776804024615557864 9:1 13:1 17:1 96:1 598:1 
19.581015816757776804024615557864 11:1 13:1 36:1 180:1 284:1 403:1 
-19.581015816757776804024615557864 9:1 11:1 13:1 512:1 776:1 2707:1 
-19.581015816757776804024615557864 9:1 13:1 36:1 96:1 352:1 796:1 
-19.581015816757776804024615557864 11:1 13:1 17:1 96:1 249:1 1705:1 
-2.9166229238531733436445847473806 17:1 36:1 67:1 298:1 1047:1 3386:1 
19.581015816757776804024615557864 9:1 18:1 21:1 22:1 534:1 4297:1 
-19.581015816757776804024615557864 381:1 745:1 1675:1 
-19.581015816757776804024615557864 5:1 18:1 51:1 534:1 1207:1 1667:1 
-19.581015816757776804024615557864 96:1 180:1 196:1 534:1 1667:1 7723:1 
-19.581015816757776804024615557864 40:1 64:1 185:1 447:1 717:1 1667:1 
19.581015816757776804024615557864 9:1 11:1 249:1 525:1 776:1 1885:1 
19.581015816757776804024615557864 9:1 13:1 147:1 733:1 870:1 2518:1 
19.581015816757776804024615557864 9:1 11:1 141:1 392:1 776:1 1360:1 
15.142869093428782178989422391169 1:1 51:1 88:1 234:1 3551:1 4545:1 
-19.581015816757776804024615557864 9:1 11:1 34:1 67:1 325:1 4945:1 
-19.581015816757776804024615557864 9:1 141:1 516:1 776:1 1791:1 1808:1 
3.6516688451374328394649637630209 5:1 9:1 432:1 610:1 3727:1 9160:1 
19.581015816757776804024615557864 36:1 96:1 437:1 1667:1 6464:1 
6.5802973009529965864317091472913 1:1 36:1 534:1 903:1 1163:1 1667:1 
-19.581015816757776804024615557864 13:1 36:1 208:1 654:1 1085:1 8881:1 
-19.581015816757776804024615557864 5:1 13:1 36:1 680:1 899:1 1017:1 
-19.581015816757776804024615557864 5:1 13:1 36:1 252:1 4604:1 5533:1 
19.581015816757776804024615557864 14:1 191:1 344:1 
19.581015816757776804024615557864 9:1 11:1 18:1 578:1 2067:1 2351:1 
11.304000336997733100474761158694 11:1 13:1 28:1 51:1 281:1 499:1 
-19.581015816757776804024615557864 11:1 28:1 242:1 340:1 1388:1 1885:1 
-19.581015816757776804024615557864 11:1 242:1 281:1 302:1 492:1 10278:1 
-13.39030196945615536208151752362 11:1 18:1 242:1 281:1 576:1 833:1 
-1.2846451120307371684958752666716 17:1 141:1 242:1 243:1 245:1 246:1 
19.581015816757776804024615557864 5:1 40:1 187:1 484:1 620:1 
19.581015816757776804024615557864 13:1 36:1 1710:1 
-19.581015816757776804024615557864 5:1 13:1 36:1 295:1 2189:1 4210:1 
-19.581015816757776804024615557864 5:1 13:1 36:1 284:1 1188:1 6971:1 
-19.581015816757776804024615557864 5:1 13:1 295:1 624:1 
19.581015816757776804024615557864 11:1 208:1 242:1 898:1 1134:1 5753:1 
19.581015816757776804024615557864 11:1 40:1 242:1 516:1 1538:1 1870:1 
19.581015816757776804024615557864 242:1 249:1 340:1 395:1 4627:1 5988:1 
-19.581015816757776804024615557864 1:1 11:1 242:1 345:1 1548:1 9094:1 
-19.581015816757776804024615557864 9:1 11:1 395:1 558:1 765:1 
-19.581015816757776804024615557864 11:1 141:1 220:1 231:1 3682:1 4257:1 
4.8706779364584020797224184207153 5:1 73:1 369:1 565:1 1541:1 1542:1 
15.729158084349041502036925521679 5:1 13:1 1487:1 
19.581015816757776804024615557864 5:1 13:1 141:1 295:1 350:1 1317:1 
-19.581015816757776804024615557864 5:1 13:1 55:1 64:1 104:1 360:1 
-19.581015816757776804024615557864 5:1 13:1 64:1 80:1 332:1 2230:1 
-19.581015816757776804024615557864 5:1 13:1 84:1 1157:1 10767:1 10768:1 
11.590080474317547398754868481774 11:1 576:1 577:1 580:1 581:1 582:1 
6.848182227964525026209230418317 11:1 534:1 565:1 1721:1 1905:1 4954:1 
4.9176454480604716579250634822529 1:1 11:1 528:1 549:1 722:1 2680:1 
-19.581015816757776804024615557864 6:1 11:1 733:1 
-19.581015816757776804024615557864 1:1 141:1 147:1 750:1 1799:1 1802:1 
-19.581015816757776804024615557864 1:1 11:1 17:1 215:1 1070:1 2600:1 
-0.24308846252858801184615344936901 9:1 1296:1 1663:1 1664:1 1665:1 1666:1 
5.7448722787449915117008458764758 5:1 13:1 64:1 185:1 360:1 7561:1 
19.581015816757776804024615557864 5:1 64:1 185:1 367:1 447:1 2459:1 
-19.581015816757776804024615557864 5:1 13:1 64:1 185:1 1047:1 5007:1 
-19.581015816757776804024615557864 5:1 64:1 185:1 1002:1 1047:1 4022:1 
-18.151155394866229642047983361408 5:1 13:1 64:1 185:1 800:1 8511:1 
19.581015816757776804024615557864 1:1 6:1 17:1 191:1 444:1 1123:1 
-0.08153760912756448375748874468627 7:1 62:1 170:1 
18.532822423560087798932727309875 1:1 141:1 191:1 215:1 506:1 
-19.581015816757776804024615557864 1:1 9:1 17:1 1870:1 3935:1 4159:1 
-19.581015816757776804024615557864 51:1 295:1 490:1 506:1 704:1 10283:1 
-19.581015816757776804024615557864 1:1 6:1 17:1 892:1 1806:1 1807:1 
14.656367524780113953397631121334 5:1 13:1 64:1 185:1 750:1 1047:1 
19.581015816757776804024615557864 5:1 13:1 64:1 185:1 266:1 750:1 
8.8110069875842693676304406835698 5:1 60:1 211:1 326:1 890:1 8685:1 
-19.581015816757776804024615557864 40:1 64:1 185:1 598:1 1708:1 2518:1 
-19.581015816757776804024615557864 5:1 13:1 185:1 325:1 565:1 1444:1 
-19.581015816757776804024615557864 13:1 64:1 185:1 1669:1 1685:1 1686:1 
19.581015816757776804024615557864 9:1 295:1 352:1 1114:1 1369:1 3004:1 
19.581015816757776804024615557864 9:1 17:1 526:1 1002:1 1793:1 7713:1 
19.581015816757776804024615557864 9:1 17:1 34:1 73:1 1179:1 1892:1 
5.8708112508523271344529348425567 1066:1 2157:1 3942:1 6213:1 
19.581015816757776804024615557864 11:1 28:1 40:1 181:1 340:1 10844:1 
-19.581015816757776804024615557864 9:1 17:1 127:1 295:1 7740:1 7744:1 
19.581015816757776804024615557864 64:1 185:1 346:1 565:1 809:1 1905:1 
10.574567735730546758077252889052 28:1 62:1 170:1 9158:1 
5.3370554260136104929301836818922 5:1 13:1 2120:1 5981:1 5982:1 5989:1 
-19.581015816757776804024615557864 13:1 18:1 185:1 443:1 474:1 8878:1 
-19.581015816757776804024615557864 13:1 64:1 185:1 759:1 10770:1 10773:1 
-19.581015816757776804024615557864 13:1 62:1 64:1 185:1 2587:1 5827:1 
19.581015816757776804024615557864 17:1 51:1 104:1 231:1 1316:1 10665:1 
19.581015816757776804024615557864 9:1 17:1 27:1 231:1 1876:1 5054:1 
19.581015816757776804024615557864 5:1 9:1 17:1 295:1 4159:1 10685:1 
-19.581015816757776804024615557864 5:1 17:1 88:1 191:1 433:1 1667:1 
-19.581015816757776804024615557864 5:1 9:1 17:1 540:1 803:1 814:1 
-19.581015816757776804024615557864 5:1 17:1 191:1 624:1 5365:1 5366:1 
19.581015816757776804024615557864 13:1 62:1 64:1 185:1 1141:1 4377:1 
19.581015816757776804024615557864 13:1 64:1 185:1 608:1 1465:1 5352:1 
2.048523917275024697204344192869 17:1 62:1 295:1 863:1 2096:1 7378:1 
-19.581015816757776804024615557864 13:1 64:1 104:1 346:1 558:1 4075:1 
-19.581015816757776804024615557864 13:1 64:1 99:1 608:1 1281:1 3301:1 
-19.581015816757776804024615557864 27:1 62:1 64:1 185:1 360:1 1025:1 
19.581015816757776804024615557864 5:1 17:1 147:1 945:1 4526:1 6744:1 
19.581015816757776804024615557864 5:1 9:1 17:1 759:1 7064:1 7096:1 
19.581015816757776804024615557864 5:1 7:1 17:1 800:1 2490:1 3391:1 
19.581015816757776804024615557864 51:1 516:1 2109:1 
-19.581015816757776804024615557864 5:1 17:1 249:1 288:1 1462:1 7080:1 
-19.581015816757776804024615557864 5:1 17:1 60:1 128:1 249:1 1608:1 
19.581015816757776804024615557864 13:1 64:1 141:1 185:1 360:1 1667:1 
-19.581015816757776804024615557864 9:1 1004:1 1041:1 
19.581015816757776804024615557864 13:1 64:1 104:1 334:1 685:1 3275:1 
-19.581015816757776804024615557864 9:1 13:1 147:1 575:1 750:1 9435:1 
-19.581015816757776804024615557864 9:1 13:1 185:1 266:1 884:1 1667:1 
-19.581015816757776804024615557864 2:1 9:1 13:1 64:1 2361:1 
19.581015816757776804024615557864 5:1 7:1 17:1 267:1 814:1 2045:1 
19.581015816757776804024615557864 5:1 17:1 36:1 60:1 472:1 812:1 
19.581015816757776804024615557864 5:1 242:1 325:1 760:1 3570:1 3571:1 
-19.581015816757776804024615557864 5:1 141:1 295:1 367:1 10921:1 10929:1 
-19.581015816757776804024615557864 5:1 7:1 17:1 141:1 2218:1 6330:1 
-19.581015816757776804024615557864 5:1 7:1 141:1 267:1 787:1 9727:1 
19.581015816757776804024615557864 9:1 13:1 127:1 252:1 381:1 5922:1 
19.581015816757776804024615557864 9:1 13:1 185:1 257:1 1398:1 3581:1 
19.581015816757776804024615557864 9:1 13:1 84:1 242:1 249:1 1667:1 
19.581015816757776804024615557864 5:1 73:1 1895:1 
-19.581015816757776804024615557864 13:1 22:1 28:1 62:1 84:1 903:1 
-19.581015816757776804024615557864 9:1 13:1 39:1 242:1 381:1 2072:1 
19.522953672010348924459322006442 5:1 7:1 141:1 892:1 1524:1 7374:1 
19.581015816757776804024615557864 5:1 141:1 295:1 538:1 1017:1 
19.581015816757776804024615557864 5:1 141:1 295:1 1847:1 1872:1 7182:1 
-19.581015816757776804024615557864 5:1 141:1 295:1 419:1 808:1 1385:1 
-19.581015816757776804024615557864 5:1 11:1 295:1 2680:1 8726:1 8728:1 
-19.581015816757776804024615557864 5:1 51:1 295:1 491:1 808:1 9437:1 
19.581015816757776804024615557864 9:1 13:1 28:1 62:1 2486:1 5533:1 
19.581015816757776804024615557864 9:1 13:1 940:1 1983:1 2388:1 2389:1 
1.0730365088899536107902576986817 9:1 13:1 28:1 345:1 367:1 6193:1 
-19.581015816757776804024615557864 9:1 13:1 28:1 180:1 760:1 869:1 
-19.581015816757776804024615557864 9:1 13:1 350:1 499:1 512:1 4551:1 
-17.641854768502209793723523034714 9:1 13:1 367:1 685:1 4551:1 4944:1 
19.581015816757776804024615557864 5:1 11:1 51:1 491:1 808:1 
18.897901816564619537075486732647 5:1 11:1 17:1 147:1 295:1 1548:1 
2.0498159830134428105452570889611 5:1 11:1 295:1 2598:1 3243:1 9525:1 
-19.581015816757776804024615557864 5:1 11:1 64:1 650:1 1046:1 2127:1 
1.2319536448785912696735067584086 180:1 313:1 351:1 1502:1 4316:1 10041:1 
-19.581015816757776804024615557864 5:1 11:1 51:1 185:1 661:1 6692:1 
19.581015816757776804024615557864 1:1 9:1 180:1 195:1 443:1 4901:1 
7.9223115100356338302844960708171 36:1 136:1 242:1 2485:1 3262:1 3263:1 
19.581015816757776804024615557864 9:1 13:1 180:1 196:1 2707:1 9060:1 
-19.581015816757776804024615557864 1:1 9:1 180:1 295:1 812:1 5348:1 
-19.581015816757776804024615557864 9:1 28:1 180:1 812:1 1058:1 5901:1 
-19.581015816757776804024615557864 9:1 48:1 180:1 273:1 351:1 1662:1 
6.4576963530289965831343579338863 5:1 624:1 3982:1 
19.581015816757776804024615557864 5:1 11:1 64:1 932:1 1002:1 1048:1 
19.581015816757776804024615557864 5:1 185:1 354:1 547:1 1047:1 1608:1 
-19.581015816757776804024615557864 5:1 11:1 13:1 77:1 2942:1 2944:1 
-19.581015816757776804024615557864 5:1 11:1 13:1 1108:1 3140:1 7311:1 
-19.581015816757776804024615557864 5:1 13:1 64:1 275:1 6133:1 
19.581015816757776804024615557864 9:1 18:1 51:1 277:1 539:1 5206:1 
19.581015816757776804024615557864 9:1 51:1 141:1 433:1 765:1 1634:1 
19.581015816757776804024615557864 7:1 9:1 84:1 167:1 170:1 1904:1 
-19.581015816757776804024615557864 9:1 18:1 98:1 141:1 765:1 8822:1 
-2.5236035280805571012763266480761 9:1 17:1 1795:1 6285:1 
3.8918699933321061479318814235739 5:1 9:1 502:1 750:1 2376:1 7653:1 
2.7429670997625077433212936739437 13:1 17:1 1123:1 2604:1 2617:1 
19.581015816757776804024615557864 5:1 11:1 13:1 125:1 1680:1 5886:1 
19.581015816757776804024615557864 5:1 13:1 48:1 325:1 1066:1 2218:1 
-19.581015816757776804024615557864 5:1 11:1 13:1 125:1 6024:1 
-19.581015816757776804024615557864 5:1 11:1 13:1 125:1 523:1 
-19.581015816757776804024615557864 5:1 11:1 13:1 125:1 202:1 1771:1 
19.581015816757776804024615557864 9:1 17:1 18:1 98:1 190:1 2898:1 
19.581015816757776804024615557864 9:1 17:1 27:1 180:1 1295:1 1670:1 
19.581015816757776804024615557864 9:1 17:1 567:1 620:1 4275:1 7014:1 
-19.581015816757776804024615557864 13:1 864:1 1195:1 1274:1 5270:1 
-19.581015816757776804024615557864 11:1 104:1 534:1 685:1 1826:1 1905:1 
19.581015816757776804024615557864 28:1 309:1 434:1 
-19.581015816757776804024615557864 5:1 51:1 565:1 1227:1 1885:1 10755:1 
-19.581015816757776804024615557864 9:1 88:1 620:1 1955:1 2437:1 4236:1 
-19.581015816757776804024615557864 9:1 28:1 167:1 304:1 355:1 1389:1 
-19.581015816757776804024615557864 9:1 1295:1 1349:1 1538:1 1667:1 1788:1 
19.581015816757776804024615557864 13:1 200:1 242:1 534:1 570:1 3372:1 
19.581015816757776804024615557864 5:1 11:1 13:1 36:1 125:1 1710:1 
-8.4421890805350816577856676303782 6:1 51:1 180:1 196:1 1452:1 1454:1 
-19.581015816757776804024615557864 5:1 11:1 13:1 125:1 523:1 10315:1 
-19.581015816757776804024615557864 5:1 11:1 13:1 125:1 2285:1 8529:1 
-19.581015816757776804024615557864 5:1 11:1 13:1 125:1 1346:1 4673:1 
19.581015816757776804024615557864 9:1 64:1 185:1 242:1 275:1 451:1 
19.581015816757776804024615557864 1:1 9:1 156:1 157:1 534:1 4945:1 
19.581015816757776804024615557864 9:1 28:1 508:1 565:1 1038:1 1281:1 
-19.581015816757776804024615557864 9:1 28:1 36:1 508:1 1469:1 1470:1 
-11.395868026425546304380986839533 9:1 64:1 266:1 662:1 3087:1 3090:1 
-19.581015816757776804024615557864 36:1 51:1 64:1 1066:1 1710:1 
3.8824306127256513754275601968402 5:1 11:1 13:1 125:1 2092:1 
19.581015816757776804024615557864 5:1 11:1 13:1 125:1 4088:1 
15.383370780465025262628842028789 5:1 3682:1 9501:1 9502:1 
-19.581015816757776804024615557864 5:1 11:1 13:1 125:1 341:1 4133:1 
-19.581015816757776804024615557864 1:1 5:1 11:1 13:1 2848:1 9579:1 
-19.581015816757776804024615557864 5:1 11:1 13:1 73:1 795:1 3423:1 
19.581015816757776804024615557864 36:1 185:1 880:1 884:1 946:1 1058:1 
19.581015816757776804024615557864 28:1 36:1 39:1 298:1 2736:1 
19.581015816757776804024615557864 28:1 36:1 4732:1 
-5.8345913639258464300496598298196 36:1 180:1 242:1 298:1 318:1 340:1 
-19.581015816757776804024615557864 17:1 36:1 879:1 932:1 4142:1 4143:1 
19.581015816757776804024615557864 9:1 62:1 526:1 1241:1 1554:1 9751:1 
-19.581015816757776804024615557864 28:1 147:1 506:1 2459:1 2736:1 4219:1 
19.581015816757776804024615557864 5:1 11:1 13:1 125:1 341:1 612:1 
19.581015816757776804024615557864 5:1 9:1 13:1 140:1 284:1 4316:1 
19.581015816757776804024615557864 5:1 11:1 13:1 341:1 612:1 2372:1 
-19.581015816757776804024615557864 5:1 9:1 13:1 539:1 965:1 1002:1 
-18.355197005952504696324467658997 5:1 13:1 341:1 742:1 1129:1 10977:1 
-19.581015816757776804024615557864 5:1 9:1 13:1 809:1 8232:1 8233:1 
19.581015816757776804024615557864 64:1 141:1 147:1 486:1 661:1 10691:1 
19.581015816757776804024615557864 17:1 51:1 88:1 313:1 598:1 1207:1 
19.581015816757776804024615557864 17:1 64:1 516:1 3301:1 4571:1 
-19.581015816757776804024615557864 17:1 64:1 313:1 598:1 884:1 
-19.581015816757776804024615557864 17:1 128:1 185:1 407:1 598:1 10685:1 
-19.581015816757776804024615557864 17:1 64:1 128:1 185:1 437:1 473:1 
19.581015816757776804024615557864 5:1 9:1 13:1 787:1 1208:1 
19.581015816757776804024615557864 5:1 9:1 13:1 750:1 4219:1 8413:1 
19.581015816757776804024615557864 5:1 9:1 13:1 233:1 787:1 1510:1 
-19.581015816757776804024615557864 5:1 9:1 13:1 51:1 325:1 453:1 
-19.581015816757776804024615557864 5:1 9:1 13:1 325:1 533:1 
-19.581015816757776804024615557864 5:1 9:1 13:1 750:1 8234:1 8235:1 
19.581015816757776804024615557864 11:1 17:1 128:1 313:1 598:1 869:1 
19.581015816757776804024615557864 17:1 39:1 64:1 576:1 598:1 884:1 
19.581015816757776804024615557864 17:1 66:1 67:1 1129:1 2058:1 6299:1 
-19.581015816757776804024615557864 17:1 36:1 66:1 67:1 154:1 1406:1 
-19.581015816757776804024615557864 17:1 275:1 313:1 361:1 598:1 
-19.581015816757776804024615557864 17:1 36:1 62:1 66:1 67:1 3382:1 
19.581015816757776804024615557864 5:1 13:1 104:1 242:1 1931:1 7744:1 
19.581015816757776804024615557864 5:1 9:1 13:1 325:1 340:1 828:1 
19.581015816757776804024615557864 5:1 9:1 13:1 539:1 735:1 8558:1 
-19.581015816757776804024615557864 5:1 9:1 340:1 516:1 526:1 1796:1 
-19.581015816757776804024615557864 9:1 13:1 472:1 
19.581015816757776804024615557864 5:1 36:1 492:1 1047:1 6497:1 
11.027331713164233661927937646396 17:1 36:1 275:1 2211:1 10655:1 10662:1 
19.581015816757776804024615557864 51:1 191:1 266:1 275:1 1304:1 3504:1 
-19.581015816757776804024615557864 28:1 147:1 242:1 576:1 743:1 7374:1 
-19.581015816757776804024615557864 7:1 36:1 39:1 565:1 7717:1 
-19.581015816757776804024615557864 141:1 147:1 231:1 714:1 1589:1 4127:1 
19.581015816757776804024615557864 5:1 9:1 96:1 353:1 506:1 835:1 
19.581015816757776804024615557864 5:1 9:1 295:1 899:1 2053:1 4044:1 
19.581015816757776804024615557864 5:1 9:1 295:1 383:1 538:1 7185:1 
-19.581015816757776804024615557864 5:1 9:1 127:1 295:1 621:1 1793:1 
-19.581015816757776804024615557864 5:1 9:1 13:1 295:1 1889:1 1907:1 
-19.581015816757776804024615557864 5:1 9:1 13:1 295:1 4461:1 10326:1 
9.5597841252315554072538361651823 11:1 27:1 433:1 919:1 1426:1 1596:1 
19.581015816757776804024615557864 7:1 242:1 407:1 2218:1 2323:1 4388:1 
19.581015816757776804024615557864 34:1 51:1 704:1 1070:1 1231:1 4013:1 
-15.662039839633163040844010538422 51:1 242:1 372:1 567:1 880:1 1688:1 
-19.581015816757776804024615557864 9:1 22:1 221:1 586:1 2002:1 7795:1 
19.581015816757776804024615557864 17:1 60:1 128:1 1263:1 6757:1 
-19.581015816757776804024615557864 5:1 13:1 84:1 249:1 471:1 7841:1 
13.347592067718018427058268571272 5:1 18:1 141:1 1114:1 4488:1 4512:1 
19.581015816757776804024615557864 9:1 13:1 295:1 533:1 5582:1 10679:1 
-19.581015816757776804024615557864 5:1 13:1 295:1 
-19.581015816757776804024615557864 5:1 141:1 295:1 624:1 2756:1 
-19.581015816757776804024615557864 5:1 13:1 407:1 1208:1 
19.581015816757776804024615557864 18:1 51:1 242:1 381:1 743:1 8961:1 
19.581015816757776804024615557864 28:1 40:1 242:1 280:1 434:1 1650:1 
19.581015816757776804024615557864 7:1 17:1 242:1 395:1 518:1 541:1 
-19.581015816757776804024615557864 242:1 434:1 439:1 1275:1 1439:1 1450:1 
-0.23651367096601691453194860059739 1:1 9:1 17:1 140:1 1196:1 8068:1 
-16.48027662106079915815826097969 5:1 18:1 1114:1 1740:1 2655:1 8026:1 
9.8306954561628163702380334143527 17:1 40:1 686:1 1221:1 6214:1 10952:1 
10.473866264718610707973311946262 5:1 13:1 147:1 615:1 1056:1 9644:1 
19.581015816757776804024615557864 5:1 13:1 5009:1 
19.581015816757776804024615557864 27:1 36:1 48:1 60:1 608:1 7506:1 
-19.581015816757776804024615557864 5:1 13:1 141:1 624:1 776:1 3596:1 
-19.581015816757776804024615557864 5:1 13:1 28:1 741:1 800:1 
-19.581015816757776804024615557864 5:1 13:1 15:1 28:1 40:1 2458:1 
19.581015816757776804024615557864 7:1 231:1 242:1 254:1 445:1 9613:1 
19.581015816757776804024615557864 7:1 21:1 167:1 963:1 2147:1 2148:1 
19.581015816757776804024615557864 7:1 242:1 965:1 1355:1 5754:1 5763:1 
-12.512724249461081527101669053081 7:1 9:1 828:1 1217:1 1355:1 3459:1 
2.751452139320145207079804094974 62:1 652:1 1603:1 2146:1 3243:1 4801:1 
-12.375428430040031457792792934924 7:1 442:1 828:1 2217:1 2218:1 2219:1 
11.462636610830314154441111895721 13:1 36:1 51:1 453:1 648:1 1496:1 
4.9947242860038238987385739164893 5:1 13:1 242:1 1252:1 6773:1 8338:1 
0.53958748111426924065625598814222 141:1 295:1 442:1 627:1 1667:1 
-19.581015816757776804024615557864 5:1 11:1 13:1 18:1 10973:1 10975:1 
-0.36315333764069668287532977046794 13:1 51:1 231:1 613:1 995:1 1038:1 
-19.581015816757776804024615557864 5:1 13:1 172:1 416:1 971:1 8732:1 
19.581015816757776804024615557864 7:1 9:1 84:1 170:1 1904:1 3860:1 
19.581015816757776804024615557864 7:1 9:1 84:1 170:1 1904:1 2430:1 
19.581015816757776804024615557864 7:1 84:1 249:1 283:1 296:1 297:1 
19.581015816757776804024615557864 60:1 141:1 341:1 718:1 1654:1 2365:1 
1.4644134028836774952253563242266 5:1 13:1 1229:1 
-19.581015816757776804024615557864 11:1 433:1 3097:1 
19.581015816757776804024615557864 5:1 88:1 295:1 396:1 442:1 2718:1 
2.65823350610507747049382487603 11:1 40:1 208:1 1227:1 1596:1 4857:1 
7.6236294930649677326073287986219 5:1 608:1 620:1 2380:1 4975:1 10261:1 
-19.581015816757776804024615557864 5:1 84:1 296:1 517:1 2822:1 8681:1 
-19.581015816757776804024615557864 5:1 11:1 18:1 208:1 1596:1 4604:1 
-19.581015816757776804024615557864 5:1 48:1 120:1 190:1 7006:1 7022:1 
19.581015816757776804024615557864 7:1 9:1 13:1 36:1 575:1 3529:1 
19.581015816757776804024615557864 6:1 7:1 13:1 36:1 298:1 995:1 
19.581015816757776804024615557864 7:1 9:1 36:1 170:1 2677:1 2685:1 
8.8563606057671666604846905102022 5:1 17:1 455:1 547:1 1277:1 4939:1 
-0.0099442439336331622801168350633816 62:1 242:1 643:1 3878:1 8213:1 8214:1 
-19.581015816757776804024615557864 7:1 13:1 36:1 170:1 
18.178040877656822971175643033348 5:1 242:1 627:1 1146:1 10071:1 10072:1 
19.581015816757776804024615557864 5:1 17:1 275:1 313:1 2185:1 
19.581015816757776804024615557864 5:1 18:1 73:1 242:1 2039:1 2525:1 
-19.581015816757776804024615557864 5:1 9:1 17:1 726:1 1308:1 2053:1 
-19.581015816757776804024615557864 5:1 17:1 766:1 2310:1 2351:1 2492:1 
3.965365093453579348192761244718 131:1 218:1 506:1 1004:1 3861:1 3863:1 
19.581015816757776804024615557864 7:1 11:1 13:1 36:1 170:1 223:1 
19.581015816757776804024615557864 9:1 13:1 36:1 395:1 753:1 2313:1 
19.581015816757776804024615557864 7:1 9:1 170:1 
-19.581015816757776804024615557864 9:1 13:1 36:1 477:1 4874:1 
-19.581015816757776804024615557864 7:1 9:1 11:1 13:1 575:1 758:1 
-19.581015816757776804024615557864 9:1 13:1 88:1 170:1 472:1 2352:1 
19.581015816757776804024615557864 17:1 67:1 598:1 1066:1 1854:1 1855:1 
19.581015816757776804024615557864 40:1 344:1 1411:1 10407:1 
19.581015816757776804024615557864 34:1 242:1 983:1 2397:1 2406:1 
-19.581015816757776804024615557864 17:1 353:1 524:1 852:1 2325:1 3570:1 
-19.581015816757776804024615557864 5:1 17:1 284:1 502:1 1987:1 1988:1 
-19.581015816757776804024615557864 5:1 17:1 18:1 526:1 1559:1 2980:1 
19.581015816757776804024615557864 6:1 9:1 13:1 140:1 311:1 5352:1 
19.581015816757776804024615557864 6:1 9:1 13:1 28:1 51:1 140:1 
19.581015816757776804024615557864 1:1 9:1 13:1 36:1 174:1 812:1 
-19.581015816757776804024615557864 1:1 9:1 11:1 13:1 526:1 1289:1 
-19.581015816757776804024615557864 9:1 13:1 125:1 512:1 1702:1 2211:1 
-19.581015816757776804024615557864 1:1 9:1 13:1 557:1 2039:1 
9.9372303181244401315552750020288 17:1 1110:1 1780:1 2526:1 5241:1 5242:1 
-7.2568347460315374419792533444706 84:1 283:1 4655:1 
19.581015816757776804024615557864 5:1 17:1 325:1 338:1 361:1 1117:1 
-19.581015816757776804024615557864 5:1 17:1 36:1 147:1 2955:1 8035:1 
-19.581015816757776804024615557864 5:1 6:1 17:1 1824:1 1825:1 9311:1 
-19.581015816757776804024615557864 5:1 6:1 17:1 410:1 1895:1 1896:1 
19.581015816757776804024615557864 1:1 9:1 11:1 13:1 534:1 8250:1 
19.581015816757776804024615557864 9:1 13:1 18:1 21:1 22:1 534:1 
19.581015816757776804024615557864 28:1 40:1 1162:1 
-19.581015816757776804024615557864 9:1 13:1 233:1 534:1 2340:1 6170:1 
-19.581015816757776804024615557864 9:1 51:1 140:1 309:1 534:1 5352:1 
-19.581015816757776804024615557864 9:1 13:1 28:1 140:1 9197:1 
19.581015816757776804024615557864 5:1 7:1 17:1 40:1 1702:1 3353:1 
19.581015816757776804024615557864 5:1 17:1 66:1 67:1 10218:1 10219:1 
19.581015816757776804024615557864 5:1 17:1 147:1 800:1 1655:1 1656:1 
-19.581015816757776804024615557864 1:1 5:1 17:1 1791:1 9258:1 9259:1 
-19.581015816757776804024615557864 1:1 5:1 17:1 750:1 7610:1 7619:1 
-19.581015816757776804024615557864 5:1 13:1 17:1 127:1 295:1 4274:1 
19.581015816757776804024615557864 9:1 51:1 62:1 185:1 613:1 903:1 
19.581015816757776804024615557864 9:1 13:1 51:1 140:1 429:1 2492:1 
19.581015816757776804024615557864 9:1 13:1 51:1 616:1 828:1 9387:1 
-19.581015816757776804024615557864 9:1 27:1 64:1 185:1 473:1 1217:1 
-1.8830250851653074217750827301643 7:1 40:1 779:1 
10.938045965671046033662605623249 1:1 5:1 17:1 180:1 231:1 4829:1 
-19.581015816757776804024615557864 62:1 64:1 185:1 257:1 608:1 6962:1 
10.50807165322757441572321113199 5:1 17:1 242:1 364:1 760:1 1571:1 
-19.581015816757776804024615557864 1:1 5:1 13:1 51:1 67:1 392:1 
-19.581015816757776804024615557864 1:1 5:1 13:1 51:1 60:1 2769:1 
-19.581015816757776804024615557864 1:1 5:1 13:1 141:1 1622:1 1810:1 
19.581015816757776804024615557864 9:1 64:1 185:1 473:1 5039:1 8845:1 
19.581015816757776804024615557864 9:1 64:1 185:1 1465:1 2518:1 9599:1 
19.581015816757776804024615557864 9:1 185:1 473:1 598:1 4378:1 4399:1 
-19.581015816757776804024615557864 9:1 27:1 64:1 185:1 473:1 1217:1 
-15.088960512917125811327423434705 5:1 344:1 735:1 
-19.581015816757776804024615557864 9:1 64:1 185:1 523:1 1217:1 1465:1 
-19.581015816757776804024615557864 9:1 64:1 185:1 194:1 971:1 1141:1 
19.581015816757776804024615557864 1:1 5:1 13:1 51:1 743:1 2769:1 
19.581015816757776804024615557864 5:1 13:1 28:1 141:1 1002:1 4274:1 
-19.581015816757776804024615557864 141:1 733:1 750:1 
-19.581015816757776804024615557864 5:1 13:1 40:1 141:1 1125:1 2287:1 
-19.581015816757776804024615557864 5:1 13:1 231:1 598:1 4274:1 4753:1 
-19.581015816757776804024615557864 5:1 13:1 51:1 627:1 1680:1 3459:1 
19.581015816757776804024615557864 6:1 9:1 64:1 1278:1 3114:1 3157:1 
19.581015816757776804024615557864 64:1 180:1 185:1 523:1 586:1 2587:1 
19.581015816757776804024615557864 9:1 185:1 313:1 410:1 539:1 8113:1 
-19.581015816757776804024615557864 73:1 180:1 196:1 919:1 1316:1 2534:1 
19.581015816757776804024615557864 5:1 147:1 1275:1 8632:1 
19.581015816757776804024615557864 5:1 6:1 9:1 18:1 83:1 917:1 
19.581015816757776804024615557864 5:1 13:1 594:1 
19.581015816757776804024615557864 5:1 643:1 4887:1 
19.581015816757776804024615557864 5:1 9:1 13:1 28:1 267:1 3547:1 
-1.8306520596569615388915508447099 9:1 3652:1 7939:1 
-19.581015816757776804024615557864 5:1 13:1 17:1 325:1 407:1 565:1 
-19.581015816757776804024615557864 5:1 6:1 60:1 131:1 477:1 3209:1 
19.581015816757776804024615557864 9:1 27:1 179:1 180:1 202:1 1307:1 
19.581015816757776804024615557864 9:1 11:1 180:1 351:1 392:1 5744:1 
19.581015816757776804024615557864 9:1 36:1 806:1 971:1 1939:1 4190:1 
-19.581015816757776804024615557864 9:1 11:1 156:1 326:1 6149:1 7181:1 
-19.581015816757776804024615557864 9:1 429:1 816:1 1876:1 2777:1 3301:1 
19.581015816757776804024615557864 5:1 13:1 64:1 1066:1 1667:1 
19.581015816757776804024615557864 5:1 13:1 64:1 540:1 884:1 1790:1 
14.189638578722496120576579414774 5:1 13:1 42:1 64:1 2361:1 2362:1 
-19.581015816757776804024615557864 5:1 13:1 36:1 1002:1 5109:1 8131:1 
-19.581015816757776804024615557864 5:1 13:1 36:1 733:1 1002:1 1362:1 
-19.581015816757776804024615557864 5:1 13:1 64:1 104:1 313:1 4106:1 
19.581015816757776804024615557864 7:1 17:1 128:1 141:1 1217:1 1273:1 
19.581015816757776804024615557864 1:1 9:1 67:1 407:1 481:1 1012:1 
19.581015816757776804024615557864 7:1 11:1 304:1 758:1 
-19.581015816757776804024615557864 7:1 11:1 18:1 98:1 1931:1 3188:1 
-19.581015816757776804024615557864 7:1 62:1 298:1 541:1 1295:1 6657:1 
11.978328504939515397609284264036 9:1 13:1 384:1 7228:1 8189:1 8196:1 
19.581015816757776804024615557864 5:1 13:1 416:1 417:1 2822:1 
10.739494239416423226884944597259 5:1 13:1 36:1 4753:1 9528:1 9551:1 
19.581015816757776804024615557864 5:1 13:1 141:1 472:1 1002:1 2325:1 
-19.581015816757776804024615557864 5:1 36:1 141:1 179:1 518:1 3967:1 
-19.581015816757776804024615557864 5:1 13:1 36:1 141:1 604:1 1426:1 
-19.581015816757776804024615557864 5:1 13:1 36:1 141:1 792:1 1447:1 
19.581015816757776804024615557864 7:1 11:1 62:1 98:1 2675:1 2709:1 
19.581015816757776804024615557864 7:1 62:1 360:1 386:1 1030:1 2848:1 
-10.898393109405088097219049814157 21:1 242:1 3912:1 
-19.581015816757776804024615557864 62:1 242:1 481:1 1667:1 2134:1 5744:1 
-19.581015816757776804024615557864 1:1 61:1 62:1 295:1 
11.354188904866873599530663341284 5:1 141:1 945:1 1275:1 10917:1 10935:1 
19.581015816757776804024615557864 5:1 36:1 141:1 146:1 3735:1 10779:1 
19.581015816757776804024615557864 5:1 3090:1 8764:1 
19.581015816757776804024615557864 5:1 6:1 9:1 10:1 36:1 65:1 
-19.581015816757776804024615557864 5:1 13:1 386:1 1246:1 2017:1 6977:1 
-19.581015816757776804024615557864 5:1 13:1 36:1 67:1 1179:1 2253:1 
-19.581015816757776804024615557864 5:1 9:1 13:1 1393:1 1460:1 3735:1 
19.581015816757776804024615557864 28:1 61:1 62:1 
19.581015816757776804024615557864 62:1 180:1 212:1 295:1 735:1 
19.581015816757776804024615557864 60:1 61:1 62:1 63:1 64:1 
-19.581015816757776804024615557864 6:1 62:1 64:1 295:1 3032:1 4306:1 
-19.581015816757776804024615557864 9:1 27:1 62:1 185:1 279:1 447:1 
-19.581015816757776804024615557864 64:1 147:1 185:1 750:1 946:1 10930:1 
-0.23463665280109016753051776049688 5:1 864:1 1097:1 1842:1 
19.581015816757776804024615557864 5:1 11:1 13:1 125:1 126:1 127:1 
1.0266365890915576386532848118804 5:1 9:1 13:1 73:1 131:1 1895:1 
-19.581015816757776804024615557864 5:1 13:1 358:1 586:1 735:1 1317:1 
-19.581015816757776804024615557864 5:1 9:1 13:1 151:1 1510:1 2143:1 
-19.581015816757776804024615557864 5:1 13:1 598:1 2928:1 4604:1 5195:1 
19.581015816757776804024615557864 64:1 185:1 447:1 7416:1 
19.581015816757776804024615557864 62:1 64:1 185:1 650:1 745:1 2587:1 
19.581015816757776804024615557864 17:1 64:1 185:1 348:1 1444:1 
-19.581015816757776804024615557864 17:1 64:1 128:1 185:1 1444:1 3388:1 
-19.581015816757776804024615557864 17:1 64:1 185:1 447:1 1214:1 2221:1 
19.581015816757776804024615557864 5:1 36:1 51:1 624:1 3008:1 7510:1 
19.581015816757776804024615557864 5:1 9:1 13:1 18:1 439:1 4364:1 
19.581015816757776804024615557864 9:1 13:1 40:1 107:1 141:1 499:1 
19.581015816757776804024615557864 13:1 38:1 279:1 1409:1 
-19.581015816757776804024615557864 5:1 9:1 13:1 62:1 228:1 8945:1 
-19.581015816757776804024615557864 5:1 9:1 13:1 62:1 1463:1 7024:1 
-19.581015816757776804024615557864 5:1 9:1 13:1 73:1 87:1 578:1 
19.581015816757776804024615557864 17:1 64:1 185:1 231:1 393:1 598:1 
19.581015816757776804024615557864 17:1 64:1 309:1 310:1 1636:1 
19.581015816757776804024615557864 64:1 141:1 185:1 428:1 500:1 598:1 
-10.489092691246264976712154748384 64:1 84:1 283:1 296:1 304:1 598:1 
18.462643543113252064813423203304 27:1 96:1 395:1 2592:1 2974:1 
-19.581015816757776804024615557864 34:1 64:1 74:1 157:1 608:1 2959:1 
19.581015816757776804024615557864 5:1 9:1 13:1 795:1 952:1 3211:1 
19.581015816757776804024615557864 5:1 9:1 13:1 252:1 381:1 575:1 
19.581015816757776804024615557864 5:1 9:1 13:1 493:1 1385:1 2400:1 
-19.581015816757776804024615557864 5:1 9:1 11:1 13:1 892:1 2236:1 
-19.581015816757776804024615557864 5:1 9:1 13:1 472:1 2257:1 6106:1 
-19.581015816757776804024615557864 5:1 9:1 11:1 13:1 909:1 3421:1 
19.581015816757776804024615557864 62:1 64:1 87:1 342:1 343:1 344:1 
19.581015816757776804024615557864 36:1 64:1 407:1 1308:1 3792:1 9323:1 
-19.581015816757776804024615557864 64:1 141:1 167:1 393:1 6531:1 
-7.8996227292133358588444025372155 7:1 84:1 835:1 5523:1 5588:1 
19.581015816757776804024615557864 9:1 11:1 242:1 524:1 1373:1 10077:1 
19.581015816757776804024615557864 9:1 11:1 78:1 685:1 772:1 2534:1 
19.581015816757776804024615557864 9:1 13:1 74:1 149:1 490:1 608:1 
-19.581015816757776804024615557864 9:1 18:1 225:1 671:1 10014:1 10186:1 
-19.581015816757776804024615557864 9:1 88:1 1162:1 1273:1 6397:1 
-19.581015816757776804024615557864 17:1 60:1 385:1 772:1 1802:1 8816:1 
19.581015816757776804024615557864 5:1 7:1 208:1 1663:1 2769:1 2827:1 
19.581015816757776804024615557864 5:1 7:1 36:1 170:1 356:1 1103:1 
-19.581015816757776804024615557864 5:1 7:1 36:1 170:1 624:1 686:1 
-19.581015816757776804024615557864 5:1 7:1 131:1 2769:1 5002:1 6028:1 
6.1496008159573811724385450361297 386:1 676:1 1385:1 1541:1 2066:1 9528:1 
19.581015816757776804024615557864 9:1 88:1 512:1 750:1 2287:1 4959:1 
19.581015816757776804024615557864 9:1 17:1 27:1 143:1 147:1 1802:1 
19.581015816757776804024615557864 9:1 64:1 628:1 716:1 2745:1 3301:1 
19.581015816757776804024615557864 5:1 7:1 36:1 170:1 356:1 1103:1 
-19.581015816757776804024615557864 9:1 143:1 1078:1 1497:1 1653:1 4378:1 
-19.581015816757776804024615557864 9:1 11:1 13:1 174:1 433:1 459:1 
-19.581015816757776804024615557864 9:1 143:1 147:1 432:1 1078:1 7044:1 
19.581015816757776804024615557864 5:1 18:1 909:1 1097:1 1115:1 4824:1 
19.581015816757776804024615557864 5:1 36:1 266:1 598:1 1589:1 3072:1 
19.581015816757776804024615557864 5:1 36:1 296:1 1426:1 1512:1 9820:1 
-19.581015816757776804024615557864 36:1 141:1 356:1 1103:1 3952:1 5400:1 
-19.581015816757776804024615557864 5:1 51:1 82:1 180:1 351:1 1723:1 
-19.581015816757776804024615557864 5:1 280:1 300:1 393:1 451:1 
19.581015816757776804024615557864 9:1 13:1 67:1 275:1 1213:1 5933:1 
19.581015816757776804024615557864 9:1 13:1 40:1 147:1 1004:1 1078:1 
19.581015816757776804024615557864 7:1 9:1 36:1 298:1 432:1 6149:1 
-19.581015816757776804024615557864 9:1 13:1 40:1 62:1 575:1 1411:1 
-19.581015816757776804024615557864 9:1 13:1 40:1 2637:1 5054:1 10505:1 
19.581015816757776804024615557864 5:1 654:1 2329:1 
16.367861215075244274430588120595 5:1 141:1 945:1 1275:1 1824:1 10935:1 
13.342637020748302489892012090422 5:1 51:1 646:1 1397:1 2405:1 4874:1 
19.581015816757776804024615557864 17:1 141:1 167:1 267:1 1047:1 2459:1 
-19.581015816757776804024615557864 5:1 17:1 381:1 1275:1 2730:1 6138:1 
-19.581015816757776804024615557864 5:1 36:1 141:1 1290:1 3157:1 5519:1 
-19.581015816757776804024615557864 17:1 27:1 36:1 367:1 891:1 6151:1 
19.581015816757776804024615557864 6:1 13:1 28:1 40:1 84:1 1411:1 
19.581015816757776804024615557864 7:1 13:1 62:1 84:1 283:1 428:1 
19.581015816757776804024615557864 9:1 13:1 242:1 765:1 1411:1 6837:1 
4.6446531336591272420832865464035 5:1 11:1 268:1 1047:1 1426:1 6409:1 
-19.581015816757776804024615557864 13:1 84:1 283:1 344:1 2440:1 
-19.581015816757776804024615557864 7:1 13:1 62:1 223:1 267:1 1056:1 
19.581015816757776804024615557864 5:1 17:1 104:1 141:1 432:1 6588:1 
2.9192452395927142028142498020316 27:1 147:1 5616:1 8958:1 
19.581015816757776804024615557864 5:1 17:1 127:1 141:1 1460:1 6092:1 
-19.581015816757776804024615557864 5:1 9:1 17:1 750:1 765:1 8230:1 
-12.818044779157004242620132572483 5:1 9:1 17:1 141:1 3540:1 7235:1 
-19.581015816757776804024615557864 11:1 17:1 28:1 141:1 741:1 10630:1 
19.581015816757776804024615557864 7:1 13:1 84:1 249:1 283:1 7835:1 
5.0861442295923806611313011671882 13:1 82:1 99:1 1667:1 1826:1 10213:1 
-19.581015816757776804024615557864 13:1 38:1 410:1 534:1 828:1 995:1 
-19.581015816757776804024615557864 13:1 36:1 185:1 500:1 598:1 1118:1 
-19.581015816757776804024615557864 1:1 13:1 242:1 428:1 1870:1 
-19.581015816757776804024615557864 13:1 36:1 51:1 242:1 298:1 1426:1 
19.581015816757776804024615557864 5:1 9:1 147:1 750:1 1214:1 2282:1 
19.581015816757776804024615557864 5:1 9:1 17:1 141:1 2325:1 3252:1 
19.581015816757776804024615557864 5:1 9:1 302:1 367:1 1275:1 1751:1 
-19.581015816757776804024615557864 5:1 9:1 332:1 2718:1 3981:1 
4.7714572939069261892086615262087 64:1 598:1 868:1 1094:1 2987:1 
-19.581015816757776804024615557864 5:1 9:1 319:1 505:1 555:1 5948:1 
19.581015816757776804024615557864 1:1 36:1 51:1 891:1 1447:1 5248:1 
19.581015816757776804024615557864 13:1 36:1 242:1 3846:1 4692:1 
19.581015816757776804024615557864 13:1 36:1 183:1 899:1 1017:1 1736:1 
-19.581015816757776804024615557864 13:1 36:1 51:1 396:1 3617:1 6092:1 
-19.581015816757776804024615557864 13:1 36:1 815:1 1123:1 2319:1 2323:1 
-19.581015816757776804024615557864 13:1 36:1 436:1 1667:1 2027:1 10969:1 
19.581015816757776804024615557864 7:1 9:1 1096:1 1175:1 1289:1 1290:1 
19.581015816757776804024615557864 5:1 9:1 185:1 750:1 5448:1 7658:1 
19.581015816757776804024615557864 5:1 9:1 598:1 1573:1 5661:1 
-19.581015816757776804024615557864 5:1 9:1 18:1 295:1 439:1 598:1 
-19.581015816757776804024615557864 9:1 397:1 1512:1 2345:1 2685:1 5275:1 
-19.581015816757776804024615557864 9:1 266:1 638:1 650:1 722:1 2655:1 
19.581015816757776804024615557864 13:1 36:1 62:1 436:1 711:1 
19.581015816757776804024615557864 13:1 36:1 96:1 296:1 298:1 10821:1 
10.866039260979670544315922597889 11:1 13:1 28:1 208:1 822:1 9973:1 
-19.581015816757776804024615557864 7:1 50:1 141:1 1016:1 
-19.581015816757776804024615557864 36:1 96:1 149:1 249:1 1931:1 10545:1 
-19.581015816757776804024615557864 48:1 50:1 147:1 711:1 1047:1 1363:1 
19.581015816757776804024615557864 9:1 128:1 295:1 500:1 2257:1 3466:1 
19.581015816757776804024615557864 1:1 9:1 51:1 722:1 2072:1 2448:1 
19.581015816757776804024615557864 5:1 9:1 439:1 575:1 1169:1 1196:1 
-19.581015816757776804024615557864 1:1 9:1 13:1 51:1 296:1 2052:1 
-16.812220824100954530422313837335 1:1 5:1 9:1 11:1 869:1 6962:1 
-1.6216005256161216685484305344289 17:1 402:1 2027:1 6306:1 6316:1 6317:1 
19.581015816757776804024615557864 28:1 48:1 50:1 815:1 1521:1 2099:1 
19.581015816757776804024615557864 18:1 48:1 304:1 755:1 995:1 5602:1 
19.581015816757776804024615557864 36:1 336:1 1118:1 1172:1 1173:1 1174:1 
-19.581015816757776804024615557864 28:1 62:1 1169:1 
-19.581015816757776804024615557864 13:1 28:1 36:1 500:1 654:1 10626:1 
1.8645781174578455186008341115667 11:1 17:1 28:1 275:1 1047:1 1388:1 
19.581015816757776804024615557864 1:1 5:1 9:1 11:1 869:1 1564:1 
19.581015816757776804024615557864 5:1 9:1 11:1 51:1 1388:1 9355:1 
19.581015816757776804024615557864 5:1 9:1 11:1 249:1 523:1 10686:1 
-19.581015816757776804024615557864 5:1 9:1 51:1 1060:1 1236:1 8083:1 
-19.581015816757776804024615557864 5:1 9:1 11:1 628:1 685:1 7007:1 
-19.581015816757776804024615557864 5:1 11:1 31:1 48:1 51:1 367:1 
19.581015816757776804024615557864 13:1 17:1 28:1 36:1 742:1 9341:1 
19.581015816757776804024615557864 28:1 36:1 140:1 433:1 1681:1 
19.581015816757776804024615557864 13:1 28:1 39:1 64:1 742:1 3294:1 
-19.581015816757776804024615557864 13:1 17:1 437:1 742:1 3954:1 9310:1 
-19.581015816757776804024615557864 13:1 28:1 104:1 4537:1 8278:1 8283:1 
1.6855057947101805826406462074374 17:1 549:1 2124:1 2883:1 2884:1 
-10.16348253205716822833437618101 11:1 17:1 376:1 408:1 409:1 
19.581015816757776804024615557864 11:1 51:1 491:1 500:1 1362:1 1363:1 
0.95058104499527085184951147311949 5:1 17:1 275:1 313:1 1235:1 2972:1 
-15.348358016637508427493230556138 11:1 51:1 995:1 1419:1 3405:1 
-19.581015816757776804024615557864 11:1 39:1 51:1 1135:1 1207:1 9434:1 
-19.581015816757776804024615557864 11:1 51:1 63:1 834:1 4847:1 10975:1 
18.259497166762084674473953782581 13:1 17:1 38:1 62:1 344:1 1235:1 
19.581015816757776804024615557864 9:1 13:1 17:1 575:1 654:1 3294:1 
19.581015816757776804024615557864 9:1 13:1 17:1 62:1 5963:1 6665:1 
-19.581015816757776804024615557864 9:1 13:1 17:1 128:1 
-19.581015816757776804024615557864 13:1 62:1 462:1 608:1 1066:1 1406:1 
-19.581015816757776804024615557864 9:1 13:1 17:1 128:1 200:1 4014:1 
1.4981755362579980417336855680333 5:1 13:1 340:1 454:1 1667:1 
19.581015816757776804024615557864 7:1 11:1 958:1 3188:1 4847:1 
19.581015816757776804024615557864 1:1 11:1 51:1 439:1 1207:1 4537:1 
-19.581015816757776804024615557864 1:1 5:1 11:1 143:1 4128:1 
-19.581015816757776804024615557864 11:1 218:1 224:1 295:1 3297:1 6900:1 
19.581015816757776804024615557864 5:1 11:1 13:1 125:1 3626:1 7065:1 
19.581015816757776804024615557864 9:1 13:1 36:1 279:1 367:1 7362:1 
5.5095929607657607718351755465847 5:1 9:1 13:1 639:1 700:1 730:1 
19.581015816757776804024615557864 9:1 13:1 191:1 938:1 1559:1 6643:1 
19.581015816757776804024615557864 1:1 18:1 1871:1 
-19.581015816757776804024615557864 9:1 13:1 17:1 140:1 208:1 620:1 
-19.581015816757776804024615557864 9:1 13:1 17:1 538:1 620:1 765:1 
19.581015816757776804024615557864 628:1 2766:1 4677:1 
19.581015816757776804024615557864 11:1 104:1 141:1 295:1 685:1 898:1 
19.581015816757776804024615557864 11:1 337:1 403:1 911:1 4389:1 
-19.581015816757776804024615557864 36:1 88:1 191:1 249:1 344:1 7104:1 
-19.581015816757776804024615557864 11:1 141:1 228:1 295:1 3627:1 10281:1 
-19.581015816757776804024615557864 11:1 51:1 117:1 295:1 345:1 4952:1 
19.581015816757776804024615557864 9:1 17:1 395:1 407:1 741:1 1702:1 
19.581015816757776804024615557864 7:1 9:1 17:1 892:1 3374:1 7573:1 
19.581015816757776804024615557864 17:1 242:1 620:1 1931:1 2766:1 8832:1 
14.129001257855739126512162329163 17:1 295:1 750:1 8627:1 
-19.581015816757776804024615557864 1:1 17:1 1573:1 2680:1 6447:1 9472:1 
-19.581015816757776804024615557864 9:1 17:1 1046:1 1048:1 3860:1 
2.6754000446200576490696221299004 9:1 51:1 432:1 1397:1 5523:1 10013:1 
-9.4759197263160110935586999403313 13:1 428:1 531:1 2285:1 4099:1 4100:1 
19.581015816757776804024615557864 5:1 610:1 
-19.581015816757776804024615557864 7:1 11:1 13:1 534:1 742:1 758:1 
-19.581015816757776804024615557864 11:1 13:1 28:1 212:1 2007:1 2019:1 
-19.581015816757776804024615557864 13:1 51:1 397:1 508:1 523:1 614:1 
19.581015816757776804024615557864 5:1 9:1 17:1 128:1 228:1 249:1 
19.581015816757776804024615557864 5:1 9:1 765:1 989:1 1622:1 2655:1 
19.581015816757776804024615557864 9:1 17:1 234:1 578:1 1370:1 2087:1 
-19.581015816757776804024615557864 5:1 9:1 190:1 194:1 654:1 989:1 
-19.581015816757776804024615557864 147:1 484:1 8210:1 
-19.581015816757776804024615557864 5:1 9:1 141:1 1235:1 1910:1 
19.581015816757776804024615557864 1:1 13:1 51:1 143:1 534:1 2230:1 
19.581015816757776804024615557864 7:1 11:1 13:1 298:1 742:1 1705:1 
6.5530142237789474890519159089308 17:1 62:1 301:1 1060:1 1200:1 8344:1 
-19.581015816757776804024615557864 13:1 143:1 474:1 725:1 
-19.581015816757776804024615557864 13:1 17:1 84:1 4627:1 5352:1 5356:1 
-19.581015816757776804024615557864 11:1 13:1 51:1 832:1 855:1 857:1 
19.581015816757776804024615557864 5:1 9:1 141:1 224:1 1426:1 3244:1 
19.581015816757776804024615557864 5:1 9:1 88:1 141:1 249:1 4488:1 
19.581015816757776804024615557864 9:1 28:1 36:1 170:1 583:1 3617:1 
-19.581015816757776804024615557864 5:1 9:1 141:1 432:1 4347:1 
-6.6376809018448028609782340936363 1:1 5:1 9:1 141:1 785:1 8526:1 
-5.2513753659720059374649281380698 9:1 42:1 141:1 191:1 2192:1 5748:1 
19.581015816757776804024615557864 13:1 180:1 345:1 397:1 995:1 1794:1 
5.5915223774052611460660955344792 11:1 13:1 17:1 63:1 345:1 2218:1 
19.581015816757776804024615557864 13:1 218:1 1372:1 2485:1 2944:1 8587:1 
-4.2509498923557398342154556303285 13:1 36:1 436:1 1684:1 3294:1 9954:1 
-6.0430188389585151043092992040329 13:1 94:1 180:1 196:1 995:1 
-19.581015816757776804024615557864 13:1 36:1 776:1 1193:1 7726:1 8498:1 
19.581015816757776804024615557864 5:1 9:1 141:1 295:1 753:1 4952:1 
19.581015816757776804024615557864 5:1 13:1 275:1 
-9.9249988919447016399999483837746 395:1 1222:1 5652:1 10174:1 
-19.581015816757776804024615557864 9:1 11:1 156:1 326:1 6149:1 7181:1 
7.6122932233584119643410303979181 11:1 28:1 758:1 10011:1 
-19.581015816757776804024615557864 9:1 18:1 38:1 122:1 141:1 3968:1 
-17.036385229703903121389885200188 17:1 141:1 249:1 1038:1 1411:1 5661:1 
-19.581015816757776804024615557864 96:1 3955:1 8156:1 
15.76726204167919576093481737189 13:1 36:1 449:1 450:1 452:1 453:1 
16.556699462223363639168383087963 11:1 13:1 3137:1 8902:1 
-19.581015816757776804024615557864 36:1 96:1 149:1 249:1 1931:1 10545:1 
12.204143495283600984180338855367 5:1 9:1 195:1 319:1 1717:1 6853:1 
-19.581015816757776804024615557864 5:1 13:1 36:1 142:1 2035:1 2753:1 
-19.581015816757776804024615557864 5:1 13:1 36:1 514:1 8893:1 8894:1 
19.581015816757776804024615557864 17:1 60:1 365:1 598:1 4461:1 4462:1 
19.581015816757776804024615557864 9:1 156:1 242:1 725:1 808:1 811:1 
19.581015816757776804024615557864 17:1 18:1 94:1 141:1 2797:1 8752:1 
-6.8331099939324335679202704341151 17:1 64:1 242:1 361:1 1116:1 1117:1 
-16.358908838306565058928754297085 17:1 242:1 743:1 745:1 845:1 9846:1 
-19.581015816757776804024615557864 17:1 242:1 589:1 7098:1 8167:1 
19.581015816757776804024615557864 5:1 9:1 828:1 2483:1 2518:1 2703:1 
19.581015816757776804024615557864 5:1 7:1 194:1 278:1 325:1 483:1 
19.581015816757776804024615557864 5:1 13:1 36:1 608:1 652:1 5549:1 
-19.581015816757776804024615557864 5:1 13:1 28:1 1052:1 1426:1 
-19.581015816757776804024615557864 5:1 13:1 363:1 808:1 1002:1 1070:1 
-19.581015816757776804024615557864 5:1 27:1 28:1 665:1 755:1 6120:1 
19.581015816757776804024615557864 17:1 242:1 249:1 2005:1 10207:1 
19.581015816757776804024615557864 17:1 249:1 295:1 1670:1 1771:1 1788:1 
19.581015816757776804024615557864 7:1 17:1 249:1 1198:1 1670:1 7496:1 
-19.581015816757776804024615557864 17:1 249:1 1004:1 1670:1 2766:1 4843:1 
19.581015816757776804024615557864 1:1 5:1 9:1 180:1 295:1 3458:1 
19.581015816757776804024615557864 5:1 13:1 28:1 463:1 743:1 1046:1 
0.80913401278876495581471317564137 5:1 36:1 598:1 1955:1 6552:1 8595:1 
7.6971120411879292433354748936836 5:1 11:1 13:1 242:1 4982:1 7591:1 
-19.581015816757776804024615557864 5:1 13:1 147:1 252:1 295:1 5398:1 
-19.581015816757776804024615557864 5:1 62:1 220:1 295:1 416:1 417:1 
15.867254448209713757478311890736 11:1 17:1 462:1 717:1 1073:1 4939:1 
19.581015816757776804024615557864 18:1 84:1 284:1 1081:1 7845:1 
19.581015816757776804024615557864 9:1 17:1 267:1 1078:1 3464:1 10770:1 
-19.581015816757776804024615557864 9:1 18:1 50:1 51:1 753:1 5352:1 
-19.581015816757776804024615557864 6:1 17:1 18:1 40:1 296:1 2882:1 
-19.581015816757776804024615557864 9:1 18:1 204:1 2351:1 4316:1 6555:1 
19.581015816757776804024615557864 5:1 9:1 13:1 295:1 1179:1 
19.581015816757776804024615557864 5:1 62:1 650:1 1002:1 1046:1 
7.9497910263844246969711093697697 5:1 472:1 620:1 1002:1 3847:1 4623:1 
-19.581015816757776804024615557864 5:1 62:1 220:1 295:1 416:1 417:1 
-19.581015816757776804024615557864 5:1 13:1 62:1 608:1 2405:1 
-19.581015816757776804024615557864 5:1 28:1 62:1 910:1 1932:1 8137:1 
-19.581015816757776804024615557864 1:1 5:1 48:1 242:1 576:1 1175:1 
19.581015816757776804024615557864 9:1 18:1 40:1 599:1 601:1 3037:1 
19.581015816757776804024615557864 9:1 18:1 1070:1 1387:1 9371:1 9372:1 
19.581015816757776804024615557864 9:1 18:1 51:1 200:1 367:1 3367:1 
-19.581015816757776804024615557864 9:1 11:1 18:1 714:1 1169:1 7031:1 
4.3392903526141504144675309362356 352:1 1079:1 1955:1 2437:1 3201:1 
3.1702642862450693961307024437701 5:1 301:1 397:1 1146:1 3530:1 6238:1 
19.581015816757776804024615557864 5:1 28:1 62:1 242:1 3123:1 5851:1 
-19.581015816757776804024615557864 13:1 48:1 1897:1 1898:1 
19.581015816757776804024615557864 13:1 36:1 1667:1 
-19.581015816757776804024615557864 5:1 367:1 811:1 1078:1 1608:1 1847:1 
-19.581015816757776804024615557864 5:1 7:1 13:1 62:1 116:1 2459:1 
-19.581015816757776804024615557864 5:1 13:1 1179:1 3037:1 8802:1 
19.581015816757776804024615557864 9:1 48:1 50:1 141:1 432:1 4776:1 
19.581015816757776804024615557864 9:1 27:1 147:1 243:1 1038:1 1060:1 
19.581015816757776804024615557864 9:1 27:1 147:1 157:1 1376:1 2959:1 
-19.581015816757776804024615557864 9:1 27:1 28:1 141:1 506:1 559:1 
-19.581015816757776804024615557864 9:1 27:1 2299:1 
-19.581015816757776804024615557864 9:1 18:1 27:1 141:1 1550:1 4705:1 
19.581015816757776804024615557864 5:1 295:1 735:1 919:1 1169:1 5300:1 
19.581015816757776804024615557864 1:1 13:1 180:1 198:1 754:1 
10.692855048386720184794285160024 5:1 13:1 38:1 295:1 296:1 3008:1 
-19.581015816757776804024615557864 5:1 127:1 147:1 923:1 3390:1 3391:1 
3.3694114954581744214578975515906 36:1 671:1 1241:1 2388:1 2417:1 5339:1 
-19.581015816757776804024615557864 5:1 62:1 295:1 1373:1 2987:1 4271:1 
19.581015816757776804024615557864 9:1 27:1 141:1 428:1 613:1 2766:1 
19.581015816757776804024615557864 9:1 13:1 27:1 141:1 358:1 945:1 
19.581015816757776804024615557864 9:1 27:1 1485:1 2294:1 6152:1 
-19.581015816757776804024615557864 9:1 13:1 27:1 141:1 462:1 1129:1 
-19.581015816757776804024615557864 9:1 13:1 27:1 1037:1 1729:1 3821:1 
-19.581015816757776804024615557864 9:1 13:1 27:1 303:1 316:1 317:1 
19.581015816757776804024615557864 5:1 395:1 416:1 417:1 1002:1 
19.581015816757776804024615557864 5:1 11:1 589:1 1554:1 1847:1 1885:1 
1.5489221534260479984368430450559 5:1 194:1 10649:1 
-19.581015816757776804024615557864 11:1 51:1 358:1 987:1 1026:1 1060:1 
-19.581015816757776804024615557864 11:1 51:1 141:1 205:1 1522:1 1885:1 
-19.581015816757776804024615557864 5:1 11:1 401:1 402:1 403:1 404:1 
19.581015816757776804024615557864 1:1 9:1 13:1 62:1 1932:1 2987:1 
19.581015816757776804024615557864 9:1 13:1 27:1 147:1 828:1 1892:1 
19.581015816757776804024615557864 9:1 13:1 27:1 40:1 147:1 481:1 
-19.581015816757776804024615557864 9:1 13:1 147:1 200:1 1275:1 2325:1 
-8.9178808826933160247563137090765 9:1 13:1 147:1 1485:1 3593:1 6152:1 
-19.581015816757776804024615557864 9:1 13:1 60:1 454:1 1002:1 1012:1 
19.581015816757776804024615557864 7:1 11:1 17:1 62:1 403:1 1571:1 
19.581015816757776804024615557864 7:1 11:1 17:1 31:1 758:1 6772:1 
19.581015816757776804024615557864 11:1 51:1 515:1 995:1 1026:1 3626:1 
-19.581015816757776804024615557864 11:1 17:1 59:1 96:1 549:1 3771:1 
-19.581015816757776804024615557864 6:1 11:1 17:1 1080:1 1081:1 1085:1 
-19.581015816757776804024615557864 1:1 17:1 62:1 613:1 1468:1 6371:1 
19.581015816757776804024615557864 9:1 13:1 28:1 205:1 489:1 
19.581015816757776804024615557864 9:1 13:1 51:1 325:1 491:1 4014:1 
19.581015816757776804024615557864 5:1 9:1 13:1 249:1 1573:1 5661:1 
-7.2079251051539117156607971992344 9:1 13:1 28:1 51:1 463:1 1826:1 
-9.9705505970330694509584645857103 7:1 9:1 13:1 249:1 512:1 2204:1 
-19.581015816757776804024615557864 5:1 9:1 13:1 2448:1 3763:1 7013:1 
19.581015816757776804024615557864 6:1 17:1 60:1 1123:1 1129:1 1601:1 
11.548746044890762618706503417343 11:1 17:1 60:1 212:1 275:1 1047:1 
19.581015816757776804024615557864 17:1 18:1 50:1 454:1 1274:1 6980:1 
-19.581015816757776804024615557864 17:1 50:1 84:1 395:1 9276:1 
-19.581015816757776804024615557864 17:1 50:1 352:1 395:1 407:1 
-19.581015816757776804024615557864 17:1 98:1 325:1 656:1 2518:1 3945:1 
19.581015816757776804024615557864 9:1 13:1 59:1 141:1 654:1 3666:1 
19.581015816757776804024615557864 5:1 9:1 13:1 483:1 1179:1 
2.4914613674426902001357575500151 5:1 13:1 2437:1 
-19.581015816757776804024615557864 5:1 11:1 13:1 795:1 828:1 2282:1 
-19.581015816757776804024615557864 5:1 13:1 60:1 415:1 919:1 2561:1 
-19.581015816757776804024615557864 5:1 9:1 13:1 1061:1 1227:1 1702:1 
19.581015816757776804024615557864 22:1 96:1 8352:1 
12.014106774380872266760889033321 17:1 36:1 96:1 352:1 9489:1 10927:1 
19.581015816757776804024615557864 7:1 17:1 39:1 49:1 50:1 147:1 
-10.155653146506811168592321337201 7:1 17:1 39:1 4255:1 6320:1 6994:1 
-4.5081166847815783427222413592972 9:1 11:1 13:1 409:1 2543:1 7961:1 
-19.581015816757776804024615557864 17:1 141:1 205:1 565:1 898:1 3088:1 
-18.699551372370095236874476540834 11:1 17:1 403:1 1015:1 10685:1 10694:1 
2.1078767828217364055376492615324 9:1 13:1 17:1 195:1 570:1 4794:1 
6.1156289988875558449876734812278 5:1 11:1 13:1 28:1 869:1 5352:1 
-6.960861832812516247770417976426 5:1 13:1 84:1 508:1 1033:1 6558:1 
-17.878559159370084330475947353989 5:1 11:1 13:1 995:1 4028:1 4481:1 
-19.581015816757776804024615557864 5:1 11:1 13:1 28:1 800:1 2122:1 
19.581015816757776804024615557864 7:1 17:1 395:1 407:1 1702:1 1822:1 
19.581015816757776804024615557864 7:1 242:1 395:1 445:1 
19.581015816757776804024615557864 7:1 79:1 281:1 849:1 864:1 
-19.581015816757776804024615557864 7:1 9:1 131:1 750:1 899:1 1601:1 
-19.581015816757776804024615557864 7:1 96:1 297:1 432:1 516:1 781:1 
19.581015816757776804024615557864 9:1 300:1 526:1 741:1 1213:1 7426:1 
19.581015816757776804024615557864 1:1 5:1 11:1 13:1 549:1 2319:1 
19.581015816757776804024615557864 1:1 18:1 8665:1 
19.581015816757776804024615557864 5:1 11:1 13:1 2459:1 6958:1 
-19.581015816757776804024615557864 5:1 11:1 13:1 125:1 202:1 1771:1 
-19.581015816757776804024615557864 5:1 11:1 13:1 2450:1 2459:1 10317:1 
-19.581015816757776804024615557864 1:1 11:1 13:1 575:1 4360:1 4849:1 
19.581015816757776804024615557864 9:1 141:1 185:1 945:1 1275:1 9486:1 
19.581015816757776804024615557864 7:1 9:1 96:1 456:1 697:1 2197:1 
19.581015816757776804024615557864 9:1 120:1 141:1 297:1 570:1 805:1 
-19.581015816757776804024615557864 9:1 18:1 27:1 141:1 296:1 1198:1 
19.581015816757776804024615557864 223:1 1399:1 1438:1 
-4.5601676989162163167179642186966 9:1 141:1 483:1 2845:1 3392:1 3404:1 
14.194269685521202717382038827054 11:1 13:1 326:1 1572:1 1608:1 1609:1 
6.9814600707578335914149647578597 5:1 11:1 13:1 125:1 2450:1 4514:1 
1.0372292442845434390363834609161 27:1 141:1 434:1 598:1 1158:1 3321:1 
-0.053787050954185455786671354871942 5:1 3126:1 5197:1 
-19.581015816757776804024615557864 5:1 11:1 13:1 1303:1 8071:1 
-19.581015816757776804024615557864 5:1 11:1 13:1 51:1 375:1 8898:1 
19.581015816757776804024615557864 9:1 18:1 141:1 233:1 1656:1 2779:1 
19.581015816757776804024615557864 9:1 18:1 141:1 367:1 1791:1 2826:1 
19.581015816757776804024615557864 9:1 18:1 151:1 1004:1 1227:1 3856:1 
-5.646128824457992578800258343108 9:1 11:1 96:1 296:1 7066:1 7332:1 
-17.652738442879279290309568750672 9:1 28:1 2469:1 2685:1 10803:1 10812:1 
-19.581015816757776804024615557864 9:1 13:1 40:1 768:1 1047:1 1573:1 
-19.581015816757776804024615557864 18:1 62:1 286:1 452:1 765:1 1252:1 
-19.581015816757776804024615557864 9:1 18:1 242:1 539:1 540:1 620:1 
19.581015816757776804024615557864 5:1 27:1 386:1 604:1 2531:1 5258:1 
19.581015816757776804024615557864 5:1 127:1 296:1 604:1 1002:1 1169:1 
-2.8941716099249910065793756075436 9:1 40:1 162:1 6402:1 6805:1 
-19.581015816757776804024615557864 5:1 48:1 49:1 50:1 604:1 3414:1 
-19.581015816757776804024615557864 5:1 185:1 266:1 753:1 804:1 805:1 
-19.581015816757776804024615557864 5:1 43:1 378:1 
19.581015816757776804024615557864 7:1 9:1 38:1 1796:1 1906:1 2866:1 
19.581015816757776804024615557864 9:1 13:1 620:1 2124:1 5037:1 5038:1 
9.22688614331166689908059197478 1:1 9:1 295:1 526:1 878:1 4251:1 
9.0886426262640238604717524140142 5:1 13:1 386:1 2900:1 10472:1 
-19.581015816757776804024615557864 1:1 9:1 295:1 570:1 620:1 3411:1 
-19.581015816757776804024615557864 9:1 434:1 491:1 711:1 1123:1 8605:1 
-18.992750963249839912805327912793 9:1 61:1 279:1 1004:1 2001:1 6998:1 
19.581015816757776804024615557864 11:1 185:1 266:1 793:1 795:1 2299:1 
19.581015816757776804024615557864 48:1 384:1 665:1 3405:1 6545:1 10989:1 
19.581015816757776804024615557864 5:1 48:1 49:1 50:1 386:1 3967:1 
-19.581015816757776804024615557864 11:1 40:1 59:1 98:1 439:1 1169:1 
-19.581015816757776804024615557864 11:1 59:1 147:1 515:1 891:1 4914:1 
-19.581015816757776804024615557864 13:1 48:1 367:1 860:1 1586:1 2294:1 
19.581015816757776804024615557864 1:1 9:1 971:1 987:1 1389:1 8189:1 
19.581015816757776804024615557864 1:1 9:1 180:1 205:1 233:1 337:1 
19.581015816757776804024615557864 9:1 18:1 62:1 142:1 526:1 7349:1 
-19.581015816757776804024615557864 1:1 9:1 18:1 27:1 1663:1 1714:1 
-19.581015816757776804024615557864 1:1 9:1 18:1 526:1 557:1 2680:1 
-19.581015816757776804024615557864 1:1 9:1 27:1 62:1 116:1 1897:1 
19.581015816757776804024615557864 13:1 1590:1 10503:1 
19.581015816757776804024615557864 11:1 13:1 2004:1 
19.581015816757776804024615557864 5:1 11:1 13:1 59:1 565:1 1339:1 
-8.8585397177974911642195365857333 205:1 346:1 1290:1 5388:1 5390:1 5393:1 
-19.581015816757776804024615557864 5:1 13:1 187:1 384:1 392:1 3636:1 
-19.581015816757776804024615557864 7:1 13:1 49:1 50:1 445:1 1764:1 
9.3587167282532472967204739688896 5:1 9:1 18:1 295:1 597:1 
4.0109001964946706664250086760148 11:1 83:1 350:1 608:1 4975:1 10266:1 
19.581015816757776804024615557864 1:1 9:1 36:1 295:1 891:1 9494:1 
-15.669460740378729823873982240912 1:1 9:1 180:1 233:1 891:1 9996:1 
-19.581015816757776804024615557864 1:1 9:1 11:1 212:1 233:1 760:1 
-19.581015816757776804024615557864 1:1 9:1 36:1 383:1 750:1 891:1 
19.581015816757776804024615557864 7:1 325:1 434:1 454:1 768:1 2134:1 
19.581015816757776804024615557864 7:1 13:1 84:1 147:1 1188:1 5650:1 
19.581015816757776804024615557864 6:1 7:1 13:1 84:1 242:1 8903:1 
-17.328948660582309315714155673049 28:1 96:1 141:1 249:1 493:1 3601:1 
-19.581015816757776804024615557864 7:1 13:1 141:1 242:1 481:1 743:1 
-19.581015816757776804024615557864 6:1 7:1 36:1 1836:1 4389:1 7173:1 
19.581015816757776804024615557864 5:1 9:1 122:1 2576:1 4271:1 4675:1 
19.581015816757776804024615557864 9:1 11:1 18:1 403:1 956:1 1169:1 
19.581015816757776804024615557864 5:1 9:1 750:1 899:1 1836:1 3571:1 
-19.581015816757776804024615557864 5:1 18:1 945:1 1002:1 2655:1 5352:1 
-19.581015816757776804024615557864 5:1 9:1 18:1 1904:1 4725:1 
-19.581015816757776804024615557864 5:1 11:1 325:1 326:1 2866:1 
19.581015816757776804024615557864 7:1 13:1 141:1 246:1 863:1 892:1 
19.581015816757776804024615557864 7:1 36:1 141:1 1290:1 4389:1 5428:1 
19.581015816757776804024615557864 7:1 39:1 242:1 
-19.581015816757776804024615557864 7:1 13:1 141:1 742:1 873:1 1096:1 
-19.581015816757776804024615557864 7:1 141:1 395:1 565:1 10739:1 
-19.581015816757776804024615557864 7:1 141:1 395:1 565:1 10741:1 
19.581015816757776804024615557864 1:1 5:1 11:1 1235:1 2001:1 2680:1 
5.3928266326446205880529305431992 1796:1 2866:1 6476:1 6477:1 
19.581015816757776804024615557864 1:1 51:1 270:1 1791:1 3058:1 5590:1 
-19.581015816757776804024615557864 1:1 5:1 9:1 11:1 1794:1 9092:1 
-19.581015816757776804024615557864 1:1 9:1 27:1 534:1 892:1 1138:1 
-19.581015816757776804024615557864 1:1 5:1 1379:1 1791:1 2826:1 9297:1 
19.581015816757776804024615557864 7:1 13:1 62:1 141:1 741:1 1604:1 
19.581015816757776804024615557864 7:1 128:1 141:1 2918:1 
19.581015816757776804024615557864 7:1 8:1 13:1 141:1 533:1 8411:1 
-19.581015816757776804024615557864 7:1 13:1 246:1 295:1 341:1 1289:1 
-19.581015816757776804024615557864 13:1 300:1 319:1 1667:1 2576:1 
-19.581015816757776804024615557864 7:1 13:1 311:1 753:1 1046:1 3951:1 
19.581015816757776804024615557864 1:1 9:1 385:1 439:1 565:1 1344:1 
19.581015816757776804024615557864 9:1 249:1 383:1 528:1 565:1 2195:1 
19.581015816757776804024615557864 9:1 143:1 233:1 671:1 743:1 6906:1 
-15.769304805117617007681474206038 9:1 62:1 87:1 141:1 1609:1 4952:1 
-4.7191042367428366333115263842046 9:1 28:1 64:1 279:1 1241:1 
-19.581015816757776804024615557864 9:1 127:1 1275:1 1295:1 1376:1 1447:1 
19.581015816757776804024615557864 5:1 13:1 341:1 4604:1 7066:1 7097:1 
19.581015816757776804024615557864 13:1 18:1 94:1 341:1 2756:1 
19.581015816757776804024615557864 13:1 341:1 381:1 437:1 5083:1 7071:1 
-19.581015816757776804024615557864 5:1 13:1 88:1 147:1 1339:1 3770:1 
-19.581015816757776804024615557864 18:1 36:1 341:1 358:1 956:1 3762:1 
0.95976625455533104425143164917245 5:1 750:1 6636:1 
19.581015816757776804024615557864 62:1 727:1 2310:1 
19.581015816757776804024615557864 9:1 62:1 295:1 733:1 1797:1 7293:1 
-19.581015816757776804024615557864 5:1 62:1 565:1 952:1 1543:1 6071:1 
-19.581015816757776804024615557864 5:1 39:1 60:1 79:1 381:1 
-19.581015816757776804024615557864 5:1 27:1 39:1 128:1 6130:1 6132:1 
19.581015816757776804024615557864 7:1 36:1 1468:1 1485:1 1592:1 2641:1 
19.581015816757776804024615557864 301:1 397:1 514:1 891:1 
19.581015816757776804024615557864 7:1 199:1 1018:1 1138:1 2203:1 2365:1 
-19.581015816757776804024615557864 7:1 62:1 385:1 439:1 1344:1 2218:1 
-19.581015816757776804024615557864 7:1 11:1 385:1 439:1 1344:1 2218:1 
-19.581015816757776804024615557864 9:1 180:1 198:1 1485:1 1736:1 1788:1 
19.581015816757776804024615557864 5:1 395:1 800:1 919:1 1397:1 1653:1 
19.581015816757776804024615557864 5:1 13:1 472:1 
19.581015816757776804024615557864 5:1 11:1 375:1 2317:1 6056:1 
-19.581015816757776804024615557864 5:1 84:1 392:1 395:1 1004:1 9271:1 
0.72016050674410214682552577869501 5:1 55:1 608:1 750:1 3798:1 4843:1 
-19.581015816757776804024615557864 5:1 454:1 1207:1 3571:1 6551:1 6552:1 
19.581015816757776804024615557864 9:1 13:1 60:1 62:1 760:1 1923:1 
19.581015816757776804024615557864 6:1 9:1 62:1 116:1 1808:1 6071:1 
19.581015816757776804024615557864 60:1 62:1 98:1 439:1 828:1 7655:1 
-19.581015816757776804024615557864 62:1 116:1 295:1 1808:1 8720:1 8721:1 
-19.581015816757776804024615557864 62:1 295:1 1932:1 8725:1 
-19.581015816757776804024615557864 7:1 62:1 433:1 
16.079141940704310798082588007674 22:1 96:1 8352:1 
4.2726881430287413365931570297107 5:1 624:1 1663:1 2296:1 5286:1 7875:1 
2.9695100121440436424791187164374 36:1 337:1 433:1 898:1 1236:1 9678:1 
19.581015816757776804024615557864 9:1 62:1 295:1 733:1 1797:1 7293:1 
-19.581015816757776804024615557864 5:1 51:1 60:1 301:1 508:1 2769:1 
-19.581015816757776804024615557864 5:1 60:1 613:1 1316:1 6525:1 
-19.581015816757776804024615557864 5:1 13:1 42:1 316:1 1400:1 9103:1 
19.581015816757776804024615557864 9:1 17:1 295:1 392:1 1322:1 7726:1 
19.581015816757776804024615557864 17:1 180:1 196:1 384:1 995:1 1460:1 
19.581015816757776804024615557864 36:1 249:1 295:1 317:1 435:1 1207:1 
-19.581015816757776804024615557864 9:1 17:1 18:1 1192:1 1389:1 1715:1 
-19.581015816757776804024615557864 9:1 17:1 18:1 671:1 897:1 1389:1 
-19.581015816757776804024615557864 17:1 36:1 366:1 474:1 1397:1 8842:1 
19.581015816757776804024615557864 5:1 28:1 51:1 474:1 1518:1 2769:1 
8.7658830039782440479712022352032 5:1 13:1 51:1 60:1 116:1 8925:1 
19.581015816757776804024615557864 5:1 13:1 141:1 945:1 1400:1 3743:1 
-19.581015816757776804024615557864 13:1 27:1 51:1 397:1 1923:1 6495:1 
-19.581015816757776804024615557864 5:1 249:1 1165:1 1179:1 3743:1 3754:1 
-19.581015816757776804024615557864 6:1 13:1 51:1 196:1 882:1 995:1 
19.581015816757776804024615557864 9:1 17:1 18:1 36:1 1275:1 5241:1 
19.581015816757776804024615557864 9:1 17:1 74:1 198:1 3299:1 
19.581015816757776804024615557864 9:1 17:1 18:1 410:1 432:1 4316:1 
-19.581015816757776804024615557864 9:1 17:1 143:1 224:1 483:1 2071:1 
-1.3000533746813602853364955080906 9:1 17:1 18:1 435:1 467:1 
-19.581015816757776804024615557864 9:1 17:1 28:1 367:1 483:1 9847:1 
19.581015816757776804024615557864 39:1 51:1 147:1 397:1 402:1 613:1 
19.581015816757776804024615557864 11:1 13:1 8057:1 
19.581015816757776804024615557864 9:1 13:1 74:1 2139:1 2154:1 
-19.581015816757776804024615557864 5:1 13:1 36:1 1751:1 3967:1 
-19.581015816757776804024615557864 5:1 13:1 51:1 94:1 491:1 2228:1 
-19.581015816757776804024615557864 13:1 36:1 51:1 401:1 410:1 7167:1 
19.581015816757776804024615557864 9:1 17:1 1289:1 1764:1 1993:1 
19.581015816757776804024615557864 9:1 17:1 224:1 431:1 3882:1 10012:1 
19.581015816757776804024615557864 9:1 40:1 187:1 483:1 898:1 2932:1 
-2.6134230330992123114697278651875 9:1 295:1 454:1 828:1 1891:1 1892:1 
-19.581015816757776804024615557864 9:1 358:1 402:1 432:1 760:1 
-19.581015816757776804024615557864 9:1 174:1 191:1 358:1 528:1 1062:1 
-19.581015816757776804024615557864 66:1 67:1 9472:1 
19.581015816757776804024615557864 2:1 28:1 760:1 
19.581015816757776804024615557864 5:1 13:1 36:1 1389:1 3126:1 3290:1 
-19.581015816757776804024615557864 5:1 36:1 533:1 598:1 604:1 1290:1 
19.581015816757776804024615557864 11:1 123:1 
-19.581015816757776804024615557864 5:1 13:1 17:1 147:1 776:1 8210:1 
19.581015816757776804024615557864 9:1 671:1 1230:1 1959:1 4160:1 4161:1 
19.581015816757776804024615557864 9:1 51:1 167:1 491:1 512:1 901:1 
19.581015816757776804024615557864 127:1 367:1 1379:1 
-19.581015816757776804024615557864 9:1 40:1 141:1 345:1 741:1 2969:1 
-19.581015816757776804024615557864 9:1 123:1 167:1 233:1 602:1 3776:1 
-19.581015816757776804024615557864 9:1 151:1 384:1 490:1 8168:1 8169:1 
19.581015816757776804024615557864 5:1 13:1 17:1 638:1 2228:1 2939:1 
7.6450698180711560425493189541157 5:1 13:1 17:1 147:1 412:1 1061:1 
19.581015816757776804024615557864 11:1 13:1 242:1 367:1 549:1 676:1 
-19.581015816757776804024615557864 5:1 13:1 17:1 185:1 1465:1 10978:1 
-19.581015816757776804024615557864 5:1 13:1 17:1 60:1 1166:1 5287:1 
-19.581015816757776804024615557864 5:1 13:1 17:1 456:1 697:1 2459:1 
19.581015816757776804024615557864 9:1 776:1 1192:1 1193:1 
19.581015816757776804024615557864 1:1 9:1 385:1 439:1 1344:1 3107:1 
19.581015816757776804024615557864 1:1 9:1 43:1 462:1 608:1 1751:1 
19.581015816757776804024615557864 5:1 1267:1 6594:1 
-19.581015816757776804024615557864 1:1 9:1 11:1 869:1 2157:1 5030:1 
-19.581015816757776804024615557864 1:1 9:1 11:1 620:1 1646:1 2490:1 
12.889246028160153301200807618443 5:1 13:1 17:1 60:1 2576:1 3780:1 
10.965063229034111458304323605262 5:1 17:1 80:1 185:1 366:1 1300:1 
4.0156914848981024590557353803888 5:1 13:1 17:1 141:1 5352:1 8251:1 
-19.581015816757776804024615557864 13:1 17:1 51:1 608:1 768:1 898:1 
-19.581015816757776804024615557864 5:1 13:1 17:1 878:1 3004:1 10678:1 
-19.581015816757776804024615557864 5:1 13:1 17:1 1163:1 1268:1 1558:1 
19.581015816757776804024615557864 11:1 326:1 750:1 1596:1 2459:1 
19.581015816757776804024615557864 9:1 11:1 123:1 128:1 337:1 614:1 
19.581015816757776804024615557864 7:1 9:1 11:1 1434:1 1469:1 3892:1 
-19.581015816757776804024615557864 6:1 141:1 750:1 1070:1 1295:1 1797:1 
-19.581015816757776804024615557864 141:1 750:1 1070:1 1295:1 1797:1 1798:1 
-19.581015816757776804024615557864 9:1 11:1 512:1 776:1 1918:1 3244:1 
19.581015816757776804024615557864 13:1 17:1 36:1 51:1 200:1 2518:1 
8.43456662666536161054864351172 5:1 13:1 17:1 1246:1 8358:1 8598:1 
1.6948271914672332627560535911471 13:1 17:1 528:1 2439:1 10656:1 10663:1 
-19.581015816757776804024615557864 5:1 13:1 17:1 128:1 1246:1 3601:1 
-19.581015816757776804024615557864 5:1 13:1 36:1 50:1 1017:1 1959:1 
-19.581015816757776804024615557864 5:1 17:1 337:1 1993:1 1994:1 
19.581015816757776804024615557864 141:1 416:1 576:1 620:1 5513:1 
19.581015816757776804024615557864 141:1 416:1 417:1 531:1 4868:1 
19.581015816757776804024615557864 141:1 215:1 741:1 1684:1 3471:1 3486:1 
-19.581015816757776804024615557864 40:1 141:1 242:1 243:1 250:1 267:1 
-19.581015816757776804024615557864 40:1 141:1 242:1 243:1 247:1 267:1 
-19.581015816757776804024615557864 28:1 141:1 147:1 267:1 1061:1 9383:1 
19.581015816757776804024615557864 5:1 9:1 13:1 540:1 1004:1 6221:1 
19.581015816757776804024615557864 5:1 6:1 9:1 750:1 768:1 2629:1 
19.581015816757776804024615557864 5:1 9:1 87:1 760:1 892:1 6323:1 
-19.581015816757776804024615557864 5:1 9:1 13:1 945:1 1275:1 7704:1 
-19.581015816757776804024615557864 5:1 9:1 59:1 614:1 5586:1 5587:1 
-19.581015816757776804024615557864 5:1 9:1 13:1 919:1 5638:1 5639:1 
19.581015816757776804024615557864 28:1 36:1 170:1 242:1 845:1 8823:1 
19.581015816757776804024615557864 28:1 40:1 242:1 434:1 2505:1 4853:1 
19.581015816757776804024615557864 17:1 40:1 84:1 249:1 267:1 7953:1 
-19.581015816757776804024615557864 463:1 1175:1 2756:1 
-19.581015816757776804024615557864 17:1 28:1 39:1 40:1 147:1 5650:1 
-19.581015816757776804024615557864 249:1 301:1 397:1 534:1 709:1 2124:1 
-15.549425875485892944993793207686 28:1 36:1 249:1 704:1 1645:1 10624:1 
19.581015816757776804024615557864 5:1 9:1 13:1 1996:1 6113:1 6887:1 
19.581015816757776804024615557864 5:1 9:1 13:1 1061:1 1722:1 3518:1 
8.9848599163691016400434818933718 5:1 9:1 13:1 96:1 1751:1 6465:1 
1.2969403391052205520850293396506 11:1 13:1 242:1 603:1 3623:1 
-19.581015816757776804024615557864 5:1 9:1 13:1 302:1 367:1 7632:1 
-19.581015816757776804024615557864 5:1 9:1 13:1 38:1 741:1 4542:1 
19.581015816757776804024615557864 27:1 147:1 1017:1 3347:1 
16.214047145268111194127413909882 18:1 62:1 1138:1 1543:1 10731:1 
19.581015816757776804024615557864 17:1 341:1 1209:1 1445:1 1558:1 2799:1 
-19.581015816757776804024615557864 27:1 36:1 88:1 750:1 1018:1 4761:1 
-19.581015816757776804024615557864 127:1 147:1 231:1 901:1 2108:1 3661:1 
-19.581015816757776804024615557864 6:1 7:1 17:1 635:1 2197:1 2505:1 
19.581015816757776804024615557864 5:1 13:1 367:1 919:1 1543:1 1558:1 
19.581015816757776804024615557864 5:1 9:1 13:1 40:1 508:1 5732:1 
19.581015816757776804024615557864 9:1 13:1 59:1 358:1 586:1 1487:1 
-19.581015816757776804024615557864 5:1 13:1 341:1 610:1 1445:1 2586:1 
-19.581015816757776804024615557864 9:1 13:1 43:1 386:1 6175:1 6176:1 
-19.581015816757776804024615557864 1:1 5:1 9:1 13:1 357:1 7852:1 
19.581015816757776804024615557864 36:1 174:1 279:1 1070:1 1158:1 1376:1 
19.581015816757776804024615557864 17:1 36:1 300:1 534:1 5900:1 
19.581015816757776804024615557864 7:1 17:1 141:1 741:1 1198:1 1295:1 
-19.581015816757776804024615557864 17:1 36:1 84:1 903:1 2518:1 9661:1 
-19.581015816757776804024615557864 17:1 36:1 51:1 141:1 3932:1 5274:1 
-19.581015816757776804024615557864 36:1 242:1 474:1 1397:1 1426:1 1906:1 
-19.581015816757776804024615557864 17:1 381:1 7026:1 
19.581015816757776804024615557864 5:1 9:1 13:1 28:1 355:1 750:1 
19.581015816757776804024615557864 5:1 9:1 13:1 220:1 2295:1 3004:1 
-19.581015816757776804024615557864 5:1 9:1 13:1 17:1 279:1 2032:1 
-10.829875526577254163385077845305 5:1 11:1 88:1 392:1 1317:1 2598:1 
-19.581015816757776804024615557864 5:1 9:1 13:1 360:1 1010:1 
19.581015816757776804024615557864 36:1 436:1 454:1 557:1 1195:1 9115:1 
19.581015816757776804024615557864 6:1 36:1 51:1 242:1 5052:1 
19.581015816757776804024615557864 36:1 77:1 84:1 249:1 435:1 3601:1 
-15.080464779132356056834396440536 179:1 180:1 242:1 369:1 805:1 9924:1 
-19.581015816757776804024615557864 36:1 60:1 180:1 249:1 436:1 549:1 
-19.581015816757776804024615557864 36:1 180:1 249:1 351:1 436:1 3244:1 
-19.581015816757776804024615557864 28:1 36:1 51:1 279:1 436:1 
19.581015816757776804024615557864 5:1 9:1 13:1 17:1 267:1 558:1 
19.581015816757776804024615557864 1:1 9:1 13:1 17:1 233:1 3675:1 
19.581015816757776804024615557864 9:1 13:1 17:1 512:1 1748:1 5348:1 
-19.581015816757776804024615557864 9:1 13:1 17:1 22:1 167:1 1052:1 
-19.581015816757776804024615557864 9:1 167:1 1389:1 
-19.581015816757776804024615557864 9:1 13:1 17:1 199:1 3964:1 
19.581015816757776804024615557864 27:1 28:1 180:1 249:1 284:1 350:1 
19.581015816757776804024615557864 36:1 141:1 436:1 647:1 710:1 
19.581015816757776804024615557864 36:1 39:1 185:1 598:1 3611:1 5947:1 
-19.581015816757776804024615557864 5:1 27:1 36:1 96:1 1722:1 10638:1 
-19.581015816757776804024615557864 5:1 18:1 27:1 84:1 462:1 1722:1 
-19.581015816757776804024615557864 5:1 27:1 28:1 1722:1 10622:1 
19.581015816757776804024615557864 9:1 13:1 17:1 279:1 641:1 7576:1 
19.581015816757776804024615557864 9:1 13:1 17:1 360:1 575:1 3226:1 
19.581015816757776804024615557864 9:1 13:1 17:1 219:1 2157:1 5490:1 
-9.4209356141636391157589969225228 9:1 17:1 185:1 472:1 598:1 7612:1 
-5.9594159509405466579323729092721 9:1 17:1 416:1 417:1 8924:1 
-19.581015816757776804024615557864 9:1 13:1 17:1 506:1 512:1 842:1 
12.985042064634368941256070684176 5:1 27:1 88:1 147:1 4761:1 9295:1 
19.581015816757776804024615557864 5:1 73:1 96:1 656:1 1895:1 2380:1 
19.581015816757776804024615557864 5:1 88:1 249:1 295:1 396:1 2718:1 
-19.581015816757776804024615557864 5:1 27:1 638:1 909:1 6294:1 6295:1 
-19.581015816757776804024615557864 5:1 249:1 350:1 1485:1 8502:1 
-19.581015816757776804024615557864 5:1 27:1 28:1 198:1 461:1 6297:1 
19.581015816757776804024615557864 9:1 17:1 36:1 60:1 2685:1 10400:1 
19.581015816757776804024615557864 9:1 17:1 1489:1 2411:1 2848:1 7652:1 
19.581015816757776804024615557864 9:1 17:1 60:1 928:1 2851:1 8996:1 
-19.581015816757776804024615557864 9:1 13:1 295:1 784:1 1198:1 4753:1 
-19.581015816757776804024615557864 9:1 13:1 17:1 36:1 355:1 7954:1 
